196 40
-1.03024 -0.363901 -0.904762 -0.480347 -0.131816 0.871825 0.34467 0.343855 0.0581869 -0.540879 0.712183 -0.878219 0.160471 -0.169243 0.768975 -0.536195 -0.160186 1.04065 -0.0141344 0.364844 -0.649489 -0.420212 1.07331 -0.836482 -0.429701 -0.427684 0.24513 -0.285538 0.694999 0.880869 0.373589 0.646618 -0.00555106 0.329941 0.734227 1.12349 0.637466 -0.711992 -0.157954 0.940381 
-0.325591 1.06882 0.0161016 -0.710364 0.330432 0.00688411 0.0519654 0.713729 -0.508832 -0.0360374 0.556274 0.736987 -0.248239 -0.394235 -1.51455 -0.0434089 -0.457041 0.857931 0.802461 -0.0844164 -0.638588 0.000477639 -0.418095 0.667298 -0.23802 -0.229944 -0.185199 -0.0139146 0.223476 -0.263118 0.256468 0.573709 1.13936 -0.465756 -0.697867 0.216956 -0.368331 0.0232482 -1.02346 0.728031 
0.547816 -0.0946391 -1.10392 0.896854 -0.382611 1.09331 -0.0708813 0.378404 1.26165 -0.592782 -0.128221 -0.485295 -0.342733 0.120575 -0.0539118 0.700938 -1.08733 -0.727414 0.0460408 -0.350784 -0.142124 0.0608175 0.100614 0.439221 0.13601 1.60796 0.88006 -0.798719 0.635658 -0.513545 -0.23456 -0.411701 0.150235 -0.152782 -0.853233 0.65963 -0.638052 0.539743 -0.249949 -0.415732 
0.878767 0.53844 0.0241382 -0.335142 -0.65512 -0.113143 0.631479 0.580434 -0.576853 -0.926922 0.216527 0.17764 -0.0940526 0.581773 0.506948 0.60242 -0.161028 -0.55682 0.889359 0.36517 0.423216 -0.746128 1.12396 -0.737693 0.28099 0.337213 -0.716684 0.449598 -0.802378 -0.304246 -0.905017 -0.0962743 0.629576 -0.211325 -0.764497 0.120129 -0.345771 -0.466115 -0.435888 0.592048 
0.376554 -0.544622 0.585466 -0.367085 0.59556 -0.560549 0.56673 -0.945599 1.03029 -0.765067 -0.841377 -0.115669 0.310869 -0.017616 -0.582958 -0.795168 0.0963783 0.467548 0.412301 -0.544476 -0.695696 -0.281114 -0.756619 0.884524 -0.386872 1.18809 0.0417393 0.464035 -0.909569 -0.466438 0.362235 -0.242796 -0.369742 -0.744893 0.664417 -0.483886 -0.746379 -0.558681 -0.280675 0.526411 
-0.652516 0.564697 0.124111 0.536359 -0.36187 0.0197544 -0.624799 0.542312 0.267053 -1.03798 -1.04615 0.192314 0.768762 -0.453653 0.0807486 -0.109417 0.0893299 -0.160265 -0.26047 -0.738421 -0.467395 0.580404 0.258108 0.326317 0.538871 0.29783 0.472624 -0.527992 -0.471559 0.83452 -0.542503 0.0930287 0.502065 -0.398824 0.922276 0.286781 -0.35281 0.326255 -0.526783 -0.552564 
-0.885863 -0.877451 -0.382673 0.743656 0.915964 -1.07706 0.465805 -0.108087 0.644381 0.0201579 -1.10389 -0.148761 -0.655172 -1.1371 -0.573915 -0.183628 -0.583683 0.298882 -0.476329 -0.59987 0.784891 -0.873151 0.779677 0.293591 0.964788 1.00319 -0.89104 -0.407983 -1.01551 0.718265 0.322529 -0.678916 0.874762 -0.751148 0.243992 -0.0426393 -0.0435145 -0.772838 -0.0931174 0.0303805 
0.921209 -0.319459 0.831379 0.920211 0.231674 -0.757587 -0.327333 -0.367349 -0.337139 -0.950637 -0.145558 0.626133 -0.299934 0.502302 0.789733 0.0337678 -0.836806 -0.32177 0.397256 0.254901 0.928366 0.310225 -0.782604 -0.296612 0.572501 -0.379063 0.260739 -0.340426 0.459292 0.393147 -0.96802 -0.948675 0.759039 0.416947 -0.580047 -0.466412 -0.371486 0.708428 -0.504458 -0.18199 
-0.511201 0.493102 1.11065 0.136897 -0.718694 -0.0313903 0.0428437 -0.50185 -0.37131 -0.958732 -0.698295 -0.529529 -0.599975 0.524158 -1.02741 0.853588 0.245884 0.178501 0.48869 -0.546979 -0.616949 -0.658825 -0.0497513 -0.747689 0.261072 -0.207304 0.736596 0.124119 -0.600649 0.593311 -0.680932 0.650226 0.874293 0.506235 -0.293699 -0.508286 0.313188 -1.01609 -0.098721 -0.413263 
0.42445 -0.527752 0.278089 -0.339877 -0.803383 0.364843 -0.743161 -0.488897 0.466152 -0.844408 -0.840802 0.5088 -0.411166 -0.424584 -0.0947028 -0.509288 -0.458376 -0.776046 -0.995498 -0.835624 -0.133175 0.909014 0.825334 0.478496 -0.432559 0.506851 -0.415916 -0.332205 0.408433 0.651301 0.414774 1.1458 -0.274687 -1.12757 1.04498 -0.497967 0.571899 -0.840622 0.194069 -0.31887 
0.595453 -0.77408 0.915827 -0.0804218 0.258921 0.540519 0.198537 -0.444748 0.306138 0.706249 -0.349692 -0.903671 -0.655332 -0.305337 0.267173 1.04044 0.125455 0.86805 -0.0246094 -0.948529 -0.0990712 0.4267 0.456832 0.604229 -0.0263178 -0.215982 -0.369646 -0.685516 0.276889 0.171358 0.184807 1.44617 0.521273 -0.63349 -0.238121 0.644652 -0.522975 0.0812038 -1.05596 0.0262362 
0.507371 0.617448 0.147051 -0.122855 0.213324 -0.549574 -0.821192 0.586643 -0.230914 0.62306 -1.40902 -0.856741 -0.710503 0.70343 -0.491236 -0.588775 0.38687 -0.784822 -0.215106 -0.821472 0.716683 0.471024 0.109904 -0.491748 0.421207 0.131924 -0.318674 -0.623746 0.0664658 0.855231 0.16188 0.314889 -0.512841 -0.58102 0.844797 -0.0856378 -0.901123 -0.30628 -0.197497 -0.03831 
0.792902 0.0338082 0.680638 0.686765 0.485343 -0.513191 -0.46482 0.406906 0.734881 0.903807 0.0379199 -0.524215 -0.240682 0.139019 -0.776146 -0.568211 0.509211 0.0388011 -0.495509 -0.798679 0.184601 -0.745028 -0.683217 -0.890487 0.271501 -0.55488 -0.275745 -0.0561703 -0.580726 0.527336 0.313509 0.80909 0.900028 -0.100679 -0.54978 0.968057 -0.0310951 -0.35126 -0.56611 0.371147 
-0.124242 0.76924 -0.301109 1.01079 -0.781317 -0.312636 0.58852 0.111097 -1.04147 -0.859803 -0.835838 -0.364834 0.327083 -0.110347 -0.230039 -0.512324 -0.508557 -0.225428 1.09136 -0.194208 -0.711633 -0.579813 0.0622045 0.179087 0.395851 -0.682547 -0.090026 -0.440816 -0.136201 -0.692677 -0.713924 0.467517 -0.0567075 -0.963985 -0.179058 0.517855 1.00649 0.0542751 -0.471672 -0.237169 
0.253717 0.44055 0.528701 0.349875 -0.353403 0.234692 0.451178 -0.876112 -0.160885 -0.310555 0.632386 -0.842869 -0.831865 -0.964365 -0.860375 -0.237387 -0.490493 0.040073 -0.627238 0.848227 -0.844746 -0.0614247 0.801689 0.639137 0.047787 0.415749 0.259625 -0.245564 -0.489661 0.0193081 -0.52359 -0.574213 0.193589 0.381582 -1.16079 0.11957 -0.49469 -0.00961623 -0.916149 -0.69612 
0.730647 -0.172883 -0.560043 -0.913344 0.36758 1.22076 0.172728 0.899139 0.94239 1.08758 0.365558 1.09256 0.844771 0.0735939 -1.16027 0.145138 -0.893542 -0.121738 0.779921 -0.113134 0.792856 0.957909 -0.423663 0.338905 0.528118 0.639707 0.67614 -0.182603 -0.630743 -0.217406 0.560774 -0.339353 0.357459 0.210994 0.478172 -0.461778 -1.22397 -0.403299 0.415272 -0.270783 
-0.756518 -0.0798567 -1.06282 0.232983 -0.132671 -0.605773 -0.157298 -0.318256 0.464643 0.150948 -0.735091 -0.0289025 0.199061 0.449284 -1.4188 -0.0382169 -0.526733 0.353522 0.503341 -0.0808082 1.13136 0.0909554 0.706353 -0.00407233 0.123581 0.797044 -1.07703 0.484512 -0.709388 -0.190318 -0.177314 0.52917 0.405114 -1.06868 -0.677331 0.505623 0.149391 -0.545694 -0.0159493 1.22364 
0.479841 0.68396 0.359324 0.629015 -0.688996 0.735759 -0.878259 0.309619 1.33595 0.278038 -0.43484 -0.76203 -0.778895 -0.553435 -1.08109 1.32775 0.510942 1.00128 0.287789 0.81462 -0.199119 -0.622287 -0.70433 -1.13129 -0.533304 0.555868 0.369354 0.0175375 -0.773335 0.797634 -0.806172 -0.57494 0.325306 -0.489004 0.450485 -0.695602 -0.309224 -1.05047 0.215535 -0.38006 
-0.876082 0.62094 0.494874 0.0132199 0.304991 -0.100832 0.652965 0.33097 0.337082 0.156622 -0.393774 0.609595 -0.576478 0.225837 -0.130317 0.37249 0.17816 1.18745 -0.0492404 0.872554 0.0798878 0.041883 0.730133 -0.55165 0.863464 0.360059 0.553186 0.222776 -0.568872 0.926248 -1.08452 0.736985 0.0830844 -0.657874 0.119243 0.440577 -0.828689 0.575352 0.205856 -0.229807 
0.055532 -0.458279 0.309756 0.289936 -0.659419 0.848586 0.560566 0.165186 0.0290876 0.321264 -0.172393 0.0526635 -0.869639 0.337818 -1.145 0.528501 -0.0949514 -0.257935 -0.0665415 -0.317886 -0.300512 -0.573052 0.112099 -0.521904 0.92021 0.976399 -0.537547 -0.955116 0.118046 0.853672 0.662169 -0.318308 -0.612936 -0.577202 0.929669 -0.370501 0.410953 0.409834 -0.617151 0.454644 
-0.583613 -0.149861 -0.481926 -0.534632 0.0146578 0.0775072 0.412627 0.619693 0.795669 0.40736 0.0950962 0.488727 -0.604046 -0.515496 -0.288787 -0.103123 -0.0530338 0.300005 0.390042 0.0475519 -0.321185 -0.0366866 -0.390524 0.426561 -0.0197398 1.10063 0.736589 0.27993 -0.948893 1.18196 -1.02382 0.0753493 1.11 -0.0832923 -0.459553 -0.584116 -0.793994 -0.699154 -0.88871 -0.0541884 
-0.486636 0.760963 1.07249 -0.742222 -0.413699 -0.889256 -0.744947 0.152913 0.397838 1.03632 -1.44168 -0.235504 0.962889 -0.424447 -0.771338 0.297919 -0.443446 0.680462 -0.777438 0.802721 -0.060136 -1.01348 -0.463992 -0.726841 1.12847 1.23081 0.5189 0.520477 -0.0352342 -0.343522 0.344355 0.526082 -0.932173 0.0425578 -0.614468 0.0408432 -0.75685 -0.545432 -0.92907 -0.599376 
-0.995036 0.0343381 -0.01529 -0.696352 0.255436 -0.816966 -0.268602 0.13878 0.722451 0.454848 -1.61375 -0.727027 0.266531 0.160859 0.453595 0.663645 0.063617 0.39215 -0.0710622 0.57124 -0.244484 -0.0858595 -0.0194525 0.707503 0.145034 -0.236555 0.437707 -0.0248352 0.995922 0.573181 0.935756 -0.4668 0.139559 -0.629503 1.03551 0.549321 0.654282 0.451079 -0.766185 -0.385103 
-0.418881 0.196383 0.114489 0.585119 -0.17523 1.15594 -0.33489 -0.53408 0.627678 0.0256222 -0.933812 1.00329 0.943455 -0.384585 -0.0498973 0.201662 -0.472038 0.103323 -0.770944 -0.269563 1.0393 -0.750901 -0.171543 -0.822477 -0.048719 1.14656 -0.497943 0.246217 -0.629191 0.325833 -0.756784 1.30871 -0.699697 -0.433794 -0.42346 -0.644847 -0.770528 0.411964 0.502556 -0.153097 
-0.969091 0.63216 0.252682 0.835499 0.164126 0.00536291 0.674372 -0.856226 0.921524 0.255822 -1.34538 -0.97875 0.0393977 1.01668 0.165141 0.212994 -1.04473 0.13621 -0.0451445 0.228836 0.0263884 0.887373 0.800913 -0.0240002 0.529969 -0.0761806 -0.520434 -0.479084 -0.719577 -0.197533 0.895363 0.966502 -0.209048 -0.4332 0.395229 -0.486035 -0.280802 -1.17504 -1.38758 -0.409418 
-0.403363 0.50788 -0.269199 0.877486 0.548025 -0.205869 -0.367921 -0.348089 0.460192 1.08761 -0.725401 0.0792201 0.738317 1.13985 -0.0217264 0.577244 -0.853274 0.361287 0.0256858 -0.930707 0.200908 -0.595809 0.943896 0.659645 0.228651 0.974603 -0.0902279 1.03644 -0.49154 0.476233 0.0522181 -0.476455 0.395936 0.526856 0.837049 -0.660245 0.466161 0.0184171 -0.420785 -0.234171 
-0.838223 -0.166846 -0.862006 0.625761 -0.479547 0.465115 0.720336 -0.152368 0.107305 0.667068 -0.41435 -0.771466 0.607343 1.01841 0.164602 -1.11268 -0.495585 0.64773 0.177467 0.680338 -0.171158 0.0467129 0.352855 0.262156 -0.71325 -0.525239 0.753953 0.0791828 0.712572 -0.432351 -0.287406 0.308439 0.405693 -0.522171 -0.8569 -1.2246 0.208896 -0.617051 -0.315149 0.670446 
-0.309639 0.363079 -0.33917 -0.0151391 -0.581007 0.46213 0.241033 -0.558544 0.205939 0.201777 -0.686275 -0.600447 0.967252 0.100012 -0.299391 -0.960714 -0.734972 0.601488 -0.2967 -0.530153 0.151789 0.879113 0.690742 0.580791 -0.203613 -0.835559 -0.669199 0.0921281 -0.294441 -0.553115 -0.240857 0.0425502 0.424512 -0.457153 0.224602 0.395469 -0.0667461 -0.484928 -0.562569 0.359436 
-0.657441 0.243273 -0.370297 -0.116837 0.308015 0.733385 -0.515451 0.670595 0.140107 -0.509356 0.480857 -0.34472 0.340852 -0.689476 0.213561 -0.135238 -0.0522212 0.581815 0.43749 0.0531483 -0.682608 -0.500366 -0.255357 0.391617 -0.394821 1.33488 -0.765618 -0.12157 -0.10042 -0.0485588 0.59788 -0.584868 -0.41612 0.0617455 -0.817329 0.837786 -0.509323 -0.717125 0.592483 1.01299 
0.189294 -0.335525 0.249564 0.95031 -0.376422 -0.221359 -0.425337 0.975989 0.805805 -0.305101 0.539614 0.410275 0.174531 -0.901587 -0.508293 -0.306668 0.902882 0.979678 -0.602734 0.987453 -0.410793 -0.394322 0.288943 -0.351831 0.199172 0.366917 0.756757 -0.0337625 -0.610428 0.514765 0.594705 0.631622 -0.757285 0.176815 0.495201 -0.867665 -0.340882 -0.0107465 -0.117481 -0.73376 
0.562735 -0.729314 0.642425 0.573769 0.634428 0.131791 0.198376 1.04432 0.657701 -0.744588 -0.519204 0.60896 -0.447622 -0.72152 -0.33656 0.103238 -0.103739 0.809396 -0.800326 0.617388 0.777421 0.717448 -0.186272 0.194348 -0.030095 -0.203157 -0.67728 -0.203657 -0.0661425 -0.44932 -1.07609 0.636135 0.534862 0.635191 0.510084 -1.2055 0.413724 0.605451 -0.661219 0.0248663 
-0.564103 -0.127567 0.523806 0.518635 0.217587 0.989497 0.818181 1.03791 -0.258562 -0.361414 0.743672 0.135536 0.704813 -0.602845 0.11702 0.447447 -0.819161 0.405243 0.978799 -0.2111 -0.509932 -0.349042 0.230502 0.52065 0.771405 -0.167926 -0.575828 0.025842 0.384726 -0.179055 -0.863189 -0.755903 0.45024 -0.692623 -0.559618 -0.257589 -0.185367 0.740562 -1.12179 0.224536 
0.0581291 0.0383742 -0.853977 1.05914 0.198987 0.388261 -0.749125 -0.494269 1.00271 1.10988 0.134587 0.289804 0.565998 -0.480128 -0.171444 0.729118 -1.11398 1.3976 0.0158997 0.769767 0.70339 0.827994 -0.322217 0.474935 -0.153974 0.415029 0.359133 0.560662 0.439753 0.232559 -0.846532 -0.848735 -0.178319 0.0955034 -0.604692 -0.195543 0.198786 -0.906097 0.255911 -0.549792 
-0.0251057 0.552438 0.97344 -0.0799187 0.369855 -0.0803528 0.340496 0.678747 -0.0334736 0.454718 -0.4353 -0.393013 -0.333226 -0.894824 -0.159563 0.633305 0.446958 0.356384 -0.351463 0.509284 -0.024273 -0.218074 -0.642554 -0.906668 -0.561013 0.0955877 -0.637951 -0.577128 -0.996246 0.608743 -0.867347 -0.0810492 1.14237 0.29229 0.433842 -0.561491 0.564342 -0.548328 -0.0846469 0.93184 
0.550956 0.3765 -0.044553 -0.269327 -0.558054 0.675177 -0.927184 0.739504 -0.0562637 0.396982 -0.512454 -0.256041 -0.251715 0.571149 -0.0495247 -0.394325 -0.61493 0.0677262 -0.323202 -0.371757 -0.609214 -0.289984 0.0605976 -0.643902 0.856701 0.951079 -0.480913 -0.805501 0.638015 0.845187 0.798185 -0.737735 0.235368 -0.925318 -0.421951 0.544869 -0.924391 1.00023 -0.283562 0.706758 
0.622633 0.586121 1.08708 0.810434 0.843398 0.711007 0.154607 0.436419 0.358348 0.965849 -0.951507 0.20577 0.407354 0.297647 0.446352 0.12614 -0.069461 0.794311 0.364139 0.390793 -0.792757 -0.193689 -0.61268 -0.727944 1.2207 0.104611 0.66087 0.958427 -0.376349 0.0275887 0.831864 0.165341 0.590851 1.0282 0.141971 -0.00738977 0.206008 -0.355594 0.0279656 -0.516029 
0.248667 0.405197 -0.0589835 -0.722808 -0.90737 0.802475 0.518746 -0.634415 -0.852313 0.461915 0.12344 0.882431 0.731316 0.62723 -0.260804 -0.550738 0.0221976 -0.0460541 -0.0308853 0.211063 0.195199 0.538124 0.707264 0.076167 0.346971 0.712466 -0.95683 -0.462 0.852046 0.629409 0.864613 0.254336 0.732604 -0.359468 0.0355243 0.126819 -1.07405 -0.626396 -0.849886 0.518813 
0.00706377 0.0719022 -0.784163 -0.274922 0.401377 -0.505587 -0.374685 -0.337731 0.0937903 0.0543251 -0.834807 -0.818232 0.849805 -0.0121706 -0.0827537 -0.453304 -0.494828 0.0448302 0.529932 -0.30477 0.450675 0.945903 0.602154 -0.197861 0.232147 0.153969 -0.440532 -0.291674 0.666705 -0.554138 0.0455526 -0.551396 -0.616679 -0.369973 -0.103945 -0.387655 -0.661552 -0.602666 0.0124038 0.584169 
0.0527145 -0.160024 -0.921498 -0.264806 -0.239363 0.795568 0.721204 -0.814843 0.241563 0.282925 0.127568 1.02114 0.954084 -0.29579 0.410279 -0.342764 0.0672215 -0.0883613 -0.571481 0.839835 -1.10233 0.0127633 -0.278142 -0.274295 0.910537 0.0500347 0.391056 0.55465 0.224226 0.452779 -0.69092 0.034725 1.17362 0.294381 -0.98939 -0.470782 0.320694 0.8331 -0.324283 -0.203551 
0.69419 0.168659 -1.04139 -0.436851 0.441841 -0.19911 -0.474043 0.719613 0.583417 0.803734 0.356897 -0.0652747 -0.609357 0.187159 -0.0221198 0.393775 -0.239405 -0.192422 0.0463489 -0.688982 -0.765632 -0.444375 0.399853 0.212932 -0.751176 0.0404529 -0.00423167 -0.576602 -0.761254 -0.986438 0.139902 -0.0435811 -0.327683 -0.0990616 -0.571351 -0.209022 -0.0256293 -0.816332 -0.574409 0.89316 
-0.505554 -0.674481 0.829305 0.644153 -0.0788002 -0.485 0.183303 0.439007 -0.868586 0.338625 0.0891625 0.342124 -0.0331594 -0.221448 -0.470808 -0.352768 1.0523 0.528546 0.688543 -0.622534 -0.371816 -0.530068 -0.575327 -0.454457 0.432646 0.640885 -0.900067 0.814154 -0.699385 0.763565 -0.78736 -0.612741 0.560421 -0.683228 0.159302 -1.17409 0.647367 0.0983572 0.0269472 0.727226 
0.301599 -0.466603 0.0839349 -0.463783 0.233421 -0.480378 -0.871377 -1.18993 -0.310197 1.00837 0.278809 -0.852686 -1.0607 -0.234696 1.15443 -0.130344 -0.542218 0.450478 0.640479 0.678964 0.370937 -0.0349956 -0.768356 0.276423 0.0866012 -0.300059 0.319951 0.0704056 -0.841379 0.351863 -0.182306 -0.274058 0.780343 0.355475 -0.841035 -0.141158 0.0964666 -0.718842 -0.162303 -0.765468 
0.69142 -0.409886 0.850559 0.196037 -0.206947 -0.80077 0.299334 -0.645997 0.231364 -0.705554 -0.520884 -0.77482 -0.579559 0.248968 0.17544 -0.270177 1.02162 -0.695308 0.258166 -0.516841 -0.707752 -0.134233 -0.221378 -0.0250114 -0.512846 -0.855458 0.9169 0.445211 0.150576 0.418073 0.590759 0.474642 0.312217 -0.684116 -0.104792 -0.693612 0.084939 -0.733293 0.549484 -0.487883 
0.140922 0.482643 0.809875 -0.197114 -0.561592 0.611684 0.784303 -0.043824 0.723672 -0.881447 -0.267243 0.861292 0.271157 0.850148 0.989646 -0.660516 -0.585857 -0.457002 0.0304132 0.917986 -0.272459 0.162962 -0.661675 -0.218445 -0.804865 0.789019 0.237071 -0.630597 -0.675897 0.310752 0.250016 0.416674 -0.808618 0.292923 0.302236 -0.980453 -0.59724 0.535204 -0.697945 -0.635168 
0.202197 -1.04548 -0.458144 -0.182605 1.03235 -0.798743 0.386124 0.586027 -0.166042 -0.401597 0.791899 -0.00580007 0.545616 0.0995623 -0.366958 0.565098 -0.666982 0.658692 0.261338 0.319061 0.806615 0.133785 -0.0886096 -0.489736 -0.17396 -0.413407 -0.558141 -0.698038 0.481443 0.0950231 0.366254 0.70039 -0.28801 -0.902465 0.270284 -0.44436 0.659441 -1.11958 1.05754 0.766035 
-0.223906 -1.00712 0.870092 0.538917 -0.165923 0.362358 -0.600692 -0.166288 0.564672 0.973968 -0.0850075 -0.0376725 0.243835 -0.795772 -0.319421 -0.193469 0.615687 0.396446 0.857125 -0.186926 -0.517984 -0.401728 0.729327 -0.914778 -0.746621 0.708466 1.08835 -0.43818 0.650332 -0.112734 -0.6277 0.701457 -0.777764 -0.278868 0.667852 -0.508942 0.680388 0.669292 0.826245 -0.413491 
0.216065 0.768317 0.321332 1.10242 0.313575 1.28137 -0.163893 0.114144 -0.34713 -0.586977 0.283865 -1.24735 -0.0477862 0.401995 0.52531 -0.7556 -0.597321 0.31594 0.277242 0.094657 0.335614 0.0282367 0.439582 -0.313483 -0.0394437 -0.300959 -0.414239 0.0832986 -0.527131 0.443377 -0.791657 0.282106 -0.73451 -0.0623458 -1.01364 -1.21953 0.368251 -0.201036 0.0540762 -0.358099 
-1.07589 1.35891 -0.0882067 0.238921 -0.783517 0.928373 0.355971 0.653238 0.753212 0.565866 0.409481 -0.350098 -0.0571741 0.638438 0.181085 -0.492676 0.808905 -0.250609 0.237909 -0.190124 -0.614834 -0.357059 0.906572 -0.240657 -0.808822 -0.82694 1.36007 -0.382553 -0.737174 -0.520677 0.333306 0.628219 -0.421425 -0.72309 -0.304883 0.0770209 -0.657567 0.0286995 0.0769883 -0.899137 
-0.0729656 0.449765 0.743728 0.261521 -0.582254 0.815397 0.319739 -0.251237 0.580506 1.20916 -0.447922 -0.23088 0.0734116 0.757248 0.313379 -0.504605 -0.914186 0.982346 1.02327 -0.279736 -0.729802 -0.00764835 0.615208 -0.860703 0.851831 0.199457 0.344529 -1.14442 0.0239486 1.02615 0.973611 -0.411049 -0.245632 0.0282883 -0.571607 0.325437 0.225235 -0.255917 0.159651 -0.170291 
-0.392855 0.851675 -0.152062 0.172835 0.354406 -0.413326 0.236892 0.287434 0.0851874 -0.127705 -0.0490421 0.322815 -0.39505 -0.241466 0.801219 0.574416 0.397438 -0.448084 0.34042 0.371476 0.168795 -0.635384 0.782018 -0.464387 1.29469 0.610619 0.512831 0.515336 -0.206599 -0.450366 -0.181315 -0.241073 0.851743 0.0505603 -0.689721 -0.584505 -0.17158 -0.0847139 0.604014 0.714914 
0.613302 -0.0307261 0.478856 -0.722083 -1.35011 0.553414 -0.458526 -0.286494 -0.0568032 0.379316 -0.293186 -0.253009 -0.78169 -0.817129 0.975185 0.931187 -0.904168 0.840537 -0.464838 -0.427586 -0.386291 -0.135994 0.719905 0.72363 0.528622 -0.0256445 0.395531 -0.219675 0.550764 0.867715 -0.749875 -0.610304 -0.443648 0.526919 -0.343971 1.07797 -0.494777 -0.314358 0.985723 0.379866 
-0.553592 1.10075 -0.523265 0.151175 -0.461293 0.694476 -0.801511 0.280677 -0.831985 -0.786651 0.129973 -0.392559 -0.291566 -0.174476 -0.451311 -0.69514 -0.507996 -0.0764905 -0.494396 -0.736771 -0.600254 -0.950079 -0.196913 -0.193105 0.457219 -0.407784 -1.27202 -0.112607 -0.830899 0.710179 -0.204684 0.0168061 -0.448587 -0.445436 -0.383708 0.527392 0.281192 -0.637127 -0.241944 -0.230591 
-0.42664 -0.557045 0.240182 -0.821568 -0.954334 0.132413 -0.0969337 0.535113 -0.90534 0.587288 0.600766 0.29068 -0.0162397 0.236968 0.101868 -0.454794 0.711548 0.110586 -0.449688 -0.392232 0.475274 -0.843476 -0.147534 1.01306 0.610711 0.942317 -0.254849 0.204042 0.990817 0.737712 0.541287 0.501742 0.142465 -0.491694 -0.676028 -0.54758 1.11173 0.244049 0.0727907 -0.177588 
-0.696238 0.487057 -0.275272 -0.168867 -0.431355 0.244001 -0.282494 -0.952209 0.80709 -0.483939 -0.438933 0.276325 0.0174343 0.990509 0.202225 -0.308253 0.163378 0.487047 1.12739 0.469094 -0.879795 0.184321 -0.290109 0.75756 -0.112609 -0.0216212 -1.13878 -0.559615 -0.656406 -0.928233 -0.623601 0.683042 -0.624128 0.305154 -0.513429 -0.565377 0.414344 -0.378114 0.198993 0.816414 
-0.510731 0.541051 0.247254 0.145135 0.333262 0.562794 -1.0291 -0.321855 0.609511 -0.254636 0.661567 0.739719 -0.408066 0.630404 0.539985 0.853153 0.18197 1.15937 -0.22451 0.565349 0.198304 -0.971654 -0.410376 -0.0793138 0.557075 0.291241 0.314228 -0.515309 -0.723365 0.838138 0.261176 -0.871889 0.648335 -0.380594 0.459024 -1.1309 0.923293 -0.810338 0.463296 -0.384444 
0.298879 -0.0793748 0.0981541 -0.811743 -0.434275 0.298152 -0.812162 -0.876651 0.694001 0.0862411 -0.61999 0.423112 0.224653 0.139133 -0.417968 0.611082 -0.0862858 0.895167 -0.315864 -0.266053 0.389504 0.529252 -0.416124 0.349226 -0.498063 1.02169 -1.13129 -0.415546 -0.847272 0.812358 0.144314 -0.851089 -0.947468 0.403906 0.676538 0.809793 0.47746 -0.70166 -0.544969 0.707633 
-0.0224939 0.5367 -0.507077 0.384583 -0.785635 0.105468 0.18428 -0.285116 -0.899345 -0.00717612 -0.0536139 0.610883 0.470786 -0.935587 0.220593 0.743366 -0.655789 -0.0385478 -0.189683 -0.925913 -0.977302 -0.657901 0.493671 0.0643405 -0.618374 0.451723 -0.383684 0.24595 0.875487 -0.682404 -0.497807 0.216948 0.277292 0.419199 -0.846737 0.132047 -0.341797 0.0181725 0.782931 0.522833 
0.9983 -0.393955 0.708787 0.993779 0.502876 0.300193 -0.427118 0.406516 0.639987 0.899342 0.253335 0.268976 -0.101369 -0.412091 -0.179534 -0.849374 0.904573 -0.0968358 -0.196162 0.537312 -0.0769536 -0.778412 0.348701 0.71415 -0.231931 -0.163056 0.533996 -0.549936 -0.0943414 0.576037 0.697856 0.878126 0.365784 0.155432 1.12459 -1.31477 -0.296679 -0.373149 0.651653 -1.04876 
-0.902909 -0.230975 0.40925 -0.159432 -0.37731 0.374151 0.123998 0.0579408 0.89318 -0.497658 -0.335222 0.325815 0.962303 -0.220081 -0.434886 -0.936179 0.258632 0.469028 -0.478867 -0.398393 -0.19133 0.576144 -0.018883 0.452267 -0.631235 -1.14274 -0.0127807 -0.490454 -0.776603 0.0789608 -0.768186 0.478519 -0.746461 -0.111052 0.532574 -1.05502 0.152903 -0.479234 -0.540874 -0.276722 
0.588632 -0.0938339 1.07549 -0.10581 -0.396722 -0.236439 0.116902 -0.278666 0.681408 0.00545521 0.587803 0.28396 0.58991 0.463008 -1.14656 -0.837564 -0.763853 0.0237451 -0.104056 0.429852 -0.705853 0.943029 -0.524286 -0.237028 -1.09763 -0.581126 0.0501415 -1.04477 -0.856595 -0.824857 0.388973 -0.316462 -0.62575 0.478612 -0.225043 0.0576111 0.171425 -0.158561 -0.514775 -0.348803 
0.60445 -0.283364 0.107298 0.27387 1.12242 -0.498132 0.838673 -0.425959 0.530878 0.777305 0.278452 -0.723701 -0.0430374 0.80222 0.77479 0.116071 -0.84774 0.511336 -0.225683 -0.541328 -0.240213 -0.276723 -0.413662 -0.589463 -0.0953754 -0.53829 -0.122777 -0.664428 -0.853544 0.245341 0.524726 -0.913845 0.387918 -0.398813 -0.133418 0.213413 -0.0199223 0.140514 1.29974 0.360005 
0.186797 0.149765 -0.0600292 -0.20114 0.874633 0.0584971 0.537839 -0.164875 -0.952341 0.626778 1.00447 -0.692319 -0.260657 -0.549429 0.907704 0.792817 -0.378728 0.8064 -0.430669 0.631188 -0.497906 -0.722387 -0.63194 -0.253477 -0.539544 -0.886509 -0.277218 -0.916534 0.967803 -0.113097 0.78975 -0.980018 0.159289 0.596534 0.45784 -0.425313 -0.638022 0.0180692 0.284767 -0.233821 
0.606697 1.00716 0.787112 0.639196 0.658293 -1.46886 1.32983 1.00302 0.70445 -0.812306 0.323331 -0.257568 -1.12209 -0.467834 0.543135 -0.529358 -0.471483 0.705873 -0.496185 0.680113 0.161197 0.108497 -0.733277 -0.659784 -0.0319837 -0.225282 0.793859 -0.52225 -0.12413 0.342299 -0.687524 0.436937 -0.827121 -0.414073 -0.801822 0.729613 0.678288 -0.334535 0.614004 -0.834328 
-0.354513 -0.0581294 -0.710008 -0.383308 -0.130068 -0.254146 0.541256 0.837359 -0.449333 0.851344 1.06856 -0.366236 -0.408109 -0.102331 0.798782 0.130748 -0.362695 0.644555 -0.761632 -0.14047 -0.535099 0.329071 1.10328 1.14105 -0.384212 -0.117242 -0.700902 -0.140554 -0.701584 0.191351 1.0706 -0.377075 0.747474 -0.698426 -0.248741 0.245372 0.819727 0.0181249 1.1281 -0.421491 
0.589509 -0.992313 -0.181942 -0.0872217 -1.11319 -1.46511 -0.36803 1.39607 -0.281346 -0.498914 0.551881 0.304394 0.422481 -0.705926 0.121622 0.823745 -0.76202 0.848813 -0.518894 0.27234 -0.120828 0.562883 0.839403 0.82628 0.846558 -0.625528 -1.27858 0.305137 0.209898 -0.621996 -0.723904 -0.411551 0.624573 0.703637 0.0811914 -0.197243 0.582604 -0.306684 0.837342 0.510244 
-0.0460126 0.939637 0.653972 0.860147 -0.34459 0.474171 -1.0855 0.20293 -0.199367 -1.1814 0.359879 0.559681 0.930165 0.171384 0.187006 -0.688837 0.168164 0.0770452 -0.327429 0.606117 -0.263839 -0.864201 1.00625 0.505302 0.459396 0.520657 -0.150091 -0.31476 -0.916977 0.88504 -0.269544 -0.384057 0.62329 -0.468229 0.124951 0.486479 -0.0128132 0.685733 0.242789 -0.797887 
0.934837 -0.292895 0.262898 0.84295 -0.665695 -0.749134 -1.18404 -1.11475 0.0733459 -0.368385 -0.656642 -0.336442 -0.283126 0.0533085 0.729736 -0.137171 0.306416 0.17054 0.525914 -0.0607203 -0.993369 0.106601 0.663316 1.05434 1.16636 0.434218 -0.832564 0.236005 -0.332983 -0.289733 0.502644 -0.0899379 -0.409893 -0.96597 0.910572 -0.00793543 -0.106978 1.27425 -0.724133 -0.893327 
0.680933 -0.683758 -0.204376 0.498342 -0.474868 0.554527 -1.23163 -0.36022 -0.34826 -1.20341 -0.141548 -0.151106 -0.262673 -0.262313 -0.079304 -0.723861 -0.24247 0.220997 -0.577297 -0.41888 0.480275 -0.364209 0.438211 0.275109 0.952612 0.334109 -1.23154 -0.327444 -0.198772 -0.472837 0.705431 0.386941 -0.27159 0.444561 0.287215 -0.904761 -0.672039 0.950734 0.318489 -0.270688 
0.875069 0.528156 1.16929 -0.343662 -0.134337 -0.0367461 -1.26122 -1.04374 0.0577345 0.324907 -0.377789 0.367828 -0.383201 0.666571 0.367109 -0.753755 0.547637 -0.0568274 1.00951 -0.499692 -0.707777 0.739289 -0.147899 0.166155 1.11955 -0.580118 -0.571723 0.178144 -0.892756 0.567283 -1.11421 0.404223 -0.231425 0.0980332 -0.369618 -0.5731 0.265421 0.634514 0.106525 -0.49612 
-0.125737 0.303192 0.83776 -0.446951 0.070438 -0.350442 -0.599741 0.369371 -0.504553 0.672402 0.367742 0.299014 -0.312082 -0.17154 0.715897 -0.418207 0.226709 0.740177 0.843551 -0.678802 0.390793 -0.651569 -0.362414 1.43986 0.859554 0.186638 -1.18768 -0.0944423 -0.611655 -0.501376 -0.80477 0.125772 -0.474089 -0.688912 -0.696122 0.271392 0.0811325 -0.650753 1.20797 0.049121 
-0.439268 0.025772 -0.449152 -0.169143 0.77002 0.386377 -0.445061 0.490129 0.690847 -0.534608 -0.406176 0.268601 -0.866426 0.750573 -0.293456 0.0543385 0.466408 0.344132 0.588854 -0.529866 -0.987412 -0.702626 -0.939517 -0.486632 0.184195 0.0573388 -0.0594579 -0.89587 0.85184 0.542112 -0.067844 0.514717 -0.373417 0.0753866 0.813422 0.343994 -0.461546 -0.770441 0.180816 0.954948 
-0.374193 -1.19989 0.997673 0.986735 -0.350877 0.237867 -0.325164 -0.126872 0.733304 -0.502296 0.0451068 0.0418488 0.680442 0.825335 -0.390168 0.0464125 0.398836 -0.526328 -0.668665 -0.484384 -0.0751637 0.117866 -0.162618 -0.552235 -0.599392 0.356569 -0.486642 -1.28842 0.148747 0.147651 0.460239 -0.886186 -0.396246 0.718556 1.08896 -0.798234 0.777064 -1.11049 0.266564 0.199204 
0.752193 0.258053 0.0365258 0.10762 0.573938 -0.600061 -0.145642 0.358753 0.0997426 -0.55456 -0.427955 -0.591702 1.25386 1.4582 0.129792 -0.481693 -0.8035 0.731848 1.0637 -0.067947 -0.611008 -0.0538986 0.436848 -0.247316 -0.649727 0.235895 -0.159678 -1.02425 -0.764416 -1.23178 -0.773503 0.528836 0.526374 0.290438 1.27125 0.610683 0.372381 0.113818 0.513681 0.992441 
1.17657 0.441678 0.143113 -0.0429672 0.747857 0.253466 0.825837 -0.565597 0.260778 0.178705 0.117967 0.68117 -0.146316 1.16867 0.509053 0.00536553 0.299412 0.598377 -0.0747408 -0.945927 0.52441 -0.984053 -0.8121 -0.81325 0.130206 -0.352865 0.306378 -1.10732 0.219498 -0.500794 -0.434495 -0.794339 0.583393 -0.742419 1.1617 0.152634 0.227745 -0.633096 0.455664 -0.407563 
0.792915 0.660886 -0.347463 -0.287143 -0.284233 -0.754451 -0.510213 1.10919 -0.472573 -0.949611 1.10188 -0.0462769 -0.352556 0.557496 0.130635 0.242575 -0.230337 -0.187251 -0.182349 0.527434 -0.286092 -0.747296 -0.741911 -0.921668 -1.43901 -0.976201 -0.580027 -0.58401 -0.479968 -0.687423 -0.529024 -0.950074 0.291732 -0.375393 -0.404215 -0.678996 -0.140413 -0.979421 0.51803 -0.666853 
-0.0571417 -0.897349 -0.176205 -0.75408 -0.406873 -1.06841 1.22373 1.34739 0.630009 -0.590953 0.210218 0.0865217 0.547692 0.0247126 0.893351 -0.671322 0.456979 -0.17207 -0.83365 -1.02208 -0.978346 -0.862644 -0.845251 -0.316632 0.146511 -0.011013 -0.00965415 0.145174 -0.770609 -0.173148 0.0530618 0.01124 -0.548619 -1.26762 0.54114 0.0280378 0.953522 0.0876153 0.632048 -0.745759 
0.597092 -0.57206 0.0805891 0.707315 -0.580023 -0.288833 1.0515 0.540591 0.506428 -0.184203 -0.204652 -0.154072 -0.89836 0.702756 -0.175513 -0.477465 -0.894827 -0.137833 -0.379492 0.245299 -0.199764 -0.271909 -0.276842 0.223377 -0.769281 0.0783918 -0.335334 -0.0621979 0.886615 -0.818271 0.176456 0.762993 -0.00429904 0.298092 -0.347188 -0.434995 1.02289 -1.20487 0.262555 -0.448166 
-0.686568 0.513879 -0.0977006 0.618709 0.51824 -1.42046 -1.07532 0.846419 -0.660031 -0.467394 0.776652 0.231623 -0.247056 -0.304046 1.18048 -0.149428 0.347435 0.943351 0.733414 0.0286161 -0.691407 -0.783676 -1.2237 1.165 -0.159798 -0.921134 0.396071 0.314228 -0.0905471 -0.549961 -0.367134 -0.0500478 -0.30439 -0.898507 0.298864 0.465354 0.429487 -0.828911 0.412326 -0.172965 
-0.733181 0.595342 -0.329229 -0.52407 0.0698323 -0.968006 -0.677199 -0.294266 0.313033 -0.165602 -0.222347 0.915223 -0.574127 -0.305614 -0.61974 0.173392 -0.900321 0.518022 0.0500181 0.305878 0.625599 -0.9023 -0.0829576 0.353174 -0.479664 -0.961594 -0.34248 0.0547085 0.127323 -0.940881 0.785729 0.871235 0.775535 0.423954 -0.184735 0.473189 0.86358 0.682758 0.371297 0.271162 
-0.0901784 -0.861678 0.0904898 0.181291 -0.631114 -0.511446 -0.879051 -0.31651 0.849585 0.382386 0.97188 0.178345 0.294388 0.276874 0.619758 -0.415822 0.476625 -0.634647 0.147609 0.791026 -0.588523 0.192022 -0.704041 0.115549 0.54544 0.752533 0.264915 -0.363973 0.246376 0.477612 -0.319945 0.583151 0.805842 -0.481698 -0.383323 -0.0559975 0.989969 -0.661556 0.655982 0.631071 
0.55166 -0.829045 0.797443 0.182171 0.387468 -0.232057 -0.35638 0.801799 -0.12128 0.559241 -0.14588 -1.09671 -0.704603 -0.744268 0.666093 -0.364693 0.0556383 1.11099 -0.592384 -0.428526 0.465292 -0.535479 0.399231 0.407772 -0.610031 0.45043 -0.817679 0.659842 0.183211 0.403629 -0.339299 -0.676939 0.961022 -0.598026 -0.0094094 -0.199099 -0.0722203 -0.671678 0.276089 -0.738365 
0.973536 0.678867 0.256025 -0.375148 -0.356506 -0.827876 -0.49762 -0.637448 0.425978 -0.0073121 0.181764 -0.0818368 -0.52241 0.672916 -0.143226 -0.531362 1.0744 0.471456 -0.241408 -0.194682 -0.8428 -0.762905 -0.439292 0.360225 0.464468 -0.227232 -0.263499 -0.711935 -0.950116 -0.793988 0.643257 0.230551 0.165978 0.012823 0.431825 -0.361519 -0.043454 -0.193542 -0.462887 0.608921 
-0.572682 -0.330905 0.631249 -0.632908 -0.698641 -0.524849 -0.796044 -0.509561 -0.357877 -0.373817 0.537715 -1.13331 1.26917 0.0242977 0.476076 -0.0975586 -0.583146 0.848942 -0.535235 0.118481 -0.481265 -0.0145292 0.634452 0.173547 0.383302 0.345146 0.792082 -0.742245 -0.561379 0.273877 -0.352815 0.363067 0.377382 -1.03741 0.169039 0.419004 -0.504263 -0.0285537 -0.229061 0.863548 
-0.866424 -0.180094 0.126001 0.0422621 -1.45728 -0.888388 -1.28978 -0.0955217 0.171361 -0.0316854 -0.30599 0.356411 0.669405 0.104991 0.594925 -0.601649 1.22891 1.39663 -0.217089 -0.00287536 -0.648651 -1.0076 1.2456 0.608339 0.154317 -0.470068 -1.23381 -1.06886 0.578166 -0.627168 -0.993057 0.131932 0.262459 -0.0150941 -0.772854 0.760432 -0.80763 0.294935 0.197466 -1.03832 
0.299238 -1.10188 0.374375 0.359547 0.376595 -1.27975 1.18431 -0.823847 0.65134 0.527366 0.391086 0.0892613 0.262727 0.242588 -0.0745532 -0.688899 -0.231452 0.711952 0.208707 0.0596428 -0.0508555 0.0979375 0.939915 0.635902 -0.537434 -0.990496 -0.0717908 -0.461634 0.263363 0.637081 0.64176 -0.0670855 0.474555 -0.75567 -0.133184 -0.102463 0.417177 -0.0457157 0.742916 -0.191315 
0.181211 0.42044 0.563985 -0.0728228 -1.21808 -0.869165 0.877503 -0.617874 0.837554 0.518221 1.17432 -0.410032 0.349292 1.18911 0.420809 -0.751788 -0.756365 -0.970981 -0.504711 -0.281641 -0.960237 -0.891083 0.89545 -0.766587 0.0963573 0.467663 -0.635459 -0.413549 0.0622563 -0.275807 -0.543657 -0.39596 0.0848955 -0.0736703 0.518538 -0.228723 0.23361 0.539956 0.27644 0.0967308 
-0.267895 -0.212244 0.939409 0.794806 -0.291038 -1.41172 -0.212622 0.335704 -0.201719 -0.331395 0.370271 1.07534 0.599504 -0.0642687 -0.461481 0.103355 -0.162447 -0.863879 -0.5916 0.465397 -0.975524 0.227362 -0.632172 -0.763637 0.270266 -0.636303 -0.137695 -0.148976 -0.727435 -1.19951 0.626069 -0.428891 -0.332947 -0.661389 0.591553 -0.689082 -0.157657 -0.59671 -0.0489147 0.425203 
-0.707172 0.778443 -0.0674406 0.356361 -0.760873 -0.142277 0.05225 1.14103 0.70195 -0.496038 0.722959 0.548244 0.0419852 0.22587 0.796198 -0.622523 0.584742 0.264219 -0.281774 -0.184177 -0.768791 0.883719 -0.813403 -0.632889 -0.969245 -0.538848 -0.0776847 0.898298 0.0296836 0.263793 -0.593555 -0.340373 0.558664 -0.0332694 -0.132354 0.274189 0.48833 -0.106659 0.900141 -0.0287067 
-0.770817 -0.502909 0.732216 0.831927 -0.630151 -0.522361 1.12173 0.0954422 -0.183556 -0.557729 1.05917 -0.314056 1.0279 0.181079 -0.175688 -0.52115 0.212823 0.882336 -0.268834 0.092253 0.506344 -0.88627 0.781999 0.0905163 -0.49673 0.413643 -0.0251121 0.112304 -0.0292564 -0.481592 -0.413938 -0.975604 -0.334485 -0.751289 1.10365 0.0415821 1.25689 -0.324772 -0.386631 0.20252 
0.275584 0.075509 -1.09798 -0.488683 0.00667664 -1.0282 0.145572 -0.38233 0.474982 0.187598 0.954117 -0.112752 1.12378 -0.0302318 0.029027 0.530811 -0.469096 1.1106 0.32193 -0.820004 0.968208 -0.494594 -0.773049 0.16311 0.05934 -1.22456 0.31622 0.948116 0.496734 -0.654581 0.244925 0.322471 -0.884747 -0.693234 -0.320743 -0.423397 0.411603 -0.308767 0.62354 -0.874432 
-0.407977 0.0532893 -1.29456 0.376022 0.0333131 0.390766 -0.160288 1.28603 -0.747715 -0.578539 -0.242118 -0.397661 -0.32035 -0.00879662 0.68382 -0.902457 -0.410375 0.292989 0.146538 -0.670383 0.390379 0.0459731 -0.613132 1.06538 0.36769 0.772559 0.274866 0.577954 1.08719 0.412026 -0.272069 0.694797 -0.531111 0.421254 -0.488806 -0.495655 0.814106 -0.762241 -0.158541 0.363429 
0.856469 -1.19754 -0.495757 0.975011 0.520473 -0.400208 0.328107 0.0427315 0.789262 -0.24056 0.151419 -0.945064 0.493301 0.685649 -0.16737 -1.18037 0.231795 0.0902443 -1.1134 0.315613 0.0594863 -0.0216081 -0.777915 1.02894 -0.478162 -0.131977 -0.914397 0.0585171 -0.423218 -0.740885 -0.863917 -0.670808 0.570885 -1.32938 0.370265 0.719609 0.604714 0.00900462 0.354543 -1.1188 
0.249862 -1.09148 0.0665284 0.560844 -1.04698 -0.648769 -1.07236 1.09782 0.0521079 0.289704 0.413414 -0.560255 -0.280841 0.0961853 0.813206 -0.515753 0.0515264 0.46607 -0.611291 0.656916 -0.0872205 -0.979528 0.0447657 0.0901778 0.19186 0.814256 -0.742194 -0.681639 0.688565 0.758237 0.815902 0.800907 -0.22224 -1.14893 -0.597807 0.507637 -0.530251 -0.963217 -0.336884 0.0739549 
0.779618 0.424056 -0.11567 0.093136 0.471687 0.69735 0.353735 0.901772 -0.678709 -0.0715085 0.230728 0.697663 -0.731144 0.469848 -0.326772 0.142863 -0.355986 -0.829637 0.355637 0.721642 0.899402 -0.0419014 -0.572116 0.171414 0.50641 -0.785633 -0.685601 -0.766863 -0.672344 -0.0291462 0.488248 -0.512123 1.03869 0.501843 -0.354224 -0.46663 0.583028 0.969287 -0.393742 -0.541223 
0.356955 -0.351847 -0.780613 1.1588 -0.602853 -0.264535 0.0222206 -0.61774 0.637461 -1.23862 -0.36684 0.260334 0.40314 0.650636 -0.895092 -0.427515 -0.223326 -0.220148 0.0761994 0.259984 -0.0659001 -0.728097 0.52326 -0.0149516 -0.581319 -0.302433 -0.954077 0.0187055 -0.0145537 0.729357 -0.365446 0.24577 0.00308853 -1.30518 0.861663 0.99251 -0.592244 -0.733637 0.43965 0.312658 
-0.699968 0.251848 -0.017111 -0.0452673 -0.357203 -0.538449 -0.72205 0.298807 0.900553 0.718905 0.343095 -0.838822 0.861393 0.630918 0.114331 0.287294 -0.548418 -0.608805 -0.525573 -0.631262 -0.513841 -0.825893 -1.12447 -0.0926801 0.948407 -0.901734 -0.474309 0.960347 0.764326 0.178455 0.363147 -0.150335 -0.491856 -0.0942231 1.06845 -0.48344 -0.279771 0.648034 0.684579 -0.484213 
-0.114259 0.362225 -0.448054 -0.668775 -0.716428 -0.240045 0.198354 -0.918424 -0.688253 0.551667 0.7086 -0.636156 0.0547304 -0.585689 -0.283865 -0.766853 0.0864564 0.579702 0.300629 -0.785101 -0.591412 -0.533156 0.308633 0.420987 0.723764 0.795538 0.119582 -0.463342 -0.914744 -0.292247 -0.476938 0.0546719 0.429467 0.115205 -0.458288 -0.245547 -0.658672 -0.131765 -0.435136 0.0700674 
0.1107 0.88478 0.644819 0.391149 -0.0588841 -0.0998523 -0.179622 0.601044 0.697802 -0.508688 -0.49192 -0.85062 -0.395704 0.294603 -0.31684 -0.462816 1.06519 -0.512873 0.729688 -0.132859 -0.420027 0.762896 0.834058 -0.42761 -0.346138 0.249289 -0.937311 -0.577069 0.775251 0.257754 0.434079 -0.397572 -0.188925 0.872078 0.328346 0.404147 -0.166667 0.350853 0.876128 -0.915407 
-0.0126604 -0.141287 -0.0105457 -0.072959 -0.614026 0.160539 0.291576 0.608067 -0.931723 -1.00114 0.374261 0.188307 0.680137 0.371036 0.380739 -0.938982 -0.470922 0.372568 0.431788 -1.18674 -0.577539 -0.746876 0.925605 -1.0653 -1.04704 0.794365 -0.827487 0.0134566 0.519553 0.00845559 0.476259 0.47919 0.186045 -0.651823 0.54443 1.17637 -0.656441 -0.913499 -1.00744 0.374503 
1.03378 -0.929195 0.19758 0.198195 -0.0835714 -1.24477 0.0837965 -0.455153 0.0155604 -0.018932 -0.591995 -0.192837 0.831996 0.75564 0.760895 -0.110993 0.932954 -0.345104 0.703104 0.234714 -0.527234 0.271797 0.783224 0.656548 0.206801 -0.618481 -1.45609 0.430505 0.797345 0.759297 -0.311916 -0.748449 -1.33927 -0.414272 0.104395 0.692801 0.99686 -0.545201 0.546726 0.47283 
0.278918 0.0320334 -0.377744 0.308772 -0.380396 -0.0213969 -0.00710433 1.24787 -0.394293 0.0285197 -0.0737444 -0.0553737 -0.194483 0.0295582 -0.642176 0.598332 -0.033198 -0.0145985 -0.726293 -0.417278 0.729 -0.334123 -0.160103 -0.416584 -0.48823 -0.591517 0.259315 -0.634885 0.852644 -1.16128 -0.320787 -0.47521 -0.463884 0.0307651 -0.153862 0.107447 1.251 -1.16648 -0.692325 -0.0765031 
0.929961 0.0604133 0.641142 0.253867 -0.345124 -0.498331 0.682897 -0.38872 0.850577 0.172053 0.552478 -0.0465341 0.720387 0.09926 0.657201 0.168324 0.173392 -0.749545 0.514239 -0.640743 -0.173584 0.0414629 -0.603581 0.465344 0.744683 0.604782 -0.081849 -0.718347 -0.486218 -0.0848756 -0.502837 -0.599947 -0.343267 -0.396067 0.724898 -0.64692 0.575982 -0.449166 0.02989 0.402523 
0.165662 -0.408338 -0.355121 -1.06087 -0.110441 -0.0405886 -0.134493 0.409314 0.769979 -0.809259 0.393671 0.780129 -0.703423 0.429743 -0.166374 -1.04843 -0.0492026 -0.967951 -0.428928 1.14372 0.0444939 0.911552 -0.887169 0.613839 -1.33683 0.0071529 0.0117435 1.0886 1.02389 0.126815 -0.339234 -0.702452 0.410923 -0.415397 0.172979 -0.719773 0.735909 -0.100622 0.246189 -0.169485 
0.420005 0.749232 0.579648 -1.08931 -0.143485 -0.763892 0.356252 0.977107 -0.302486 -0.72844 -0.330801 0.225102 -0.406969 0.60179 -0.781618 -1.02412 0.530748 -0.597421 -0.548029 0.877105 0.327021 0.716254 -0.782375 1.38813 -0.761517 -0.516631 -0.363363 -0.851751 -0.209418 -0.583506 0.503357 0.641203 0.826263 0.0830172 -0.694805 0.498426 -0.916135 -0.494117 -0.208205 0.332113 
-0.61019 -0.991602 -0.787075 0.320505 -0.420431 -0.479387 0.0636689 1.05011 -0.852635 -0.3215 0.290789 -0.334038 0.0677201 0.34833 -0.00415537 0.263626 0.207233 -0.284651 -1.29799 0.683101 -0.655363 0.221029 -0.305222 0.630401 -0.372636 -0.12609 0.960637 0.333247 -0.409913 -0.305343 -0.370445 0.00886691 0.703143 0.0703246 -0.678677 -1.11778 -0.598669 0.787067 0.339867 -0.46848 
0.0980867 0.262482 -0.405374 -0.472103 -0.523084 0.965688 -0.908063 -0.296004 0.198049 -0.828037 0.731484 0.327683 -0.229309 -0.512078 0.642744 0.154099 0.0114853 -0.751099 -0.0783769 0.241637 -0.094789 -0.317042 -0.241566 -0.0993799 -0.747098 -0.525072 0.550511 -0.483454 -0.0946188 0.0826332 0.428379 0.875618 -0.111506 -0.861511 -0.34441 0.652105 -0.438215 -0.207491 -0.991675 -0.6944 
-0.213056 -0.860173 -1.15744 0.0405559 -0.22126 -0.751448 -0.915543 -0.0949756 -0.316132 0.52675 -0.436875 -1.13444 0.995524 -0.429192 -0.722716 -1.07511 0.273978 0.141906 0.854154 0.0332749 0.707502 0.663983 -0.385294 0.844122 0.0618875 -0.723087 0.261091 0.609441 -0.574132 -0.61662 0.409954 -0.463693 0.522402 -0.283779 -0.72412 0.48428 -0.609871 -0.55316 -0.198852 -0.69061 
0.792563 -0.10439 0.527629 0.0359579 -0.724696 -0.635696 -0.533241 -0.7781 0.00607664 -0.656961 0.506197 0.799987 -0.353796 0.62812 0.796721 0.121809 -0.108474 -0.0028874 0.156156 -0.733545 0.32047 -0.622427 -0.143158 0.213419 0.69269 -0.759336 -0.0415223 -0.181729 -0.281864 -0.426294 0.395177 -0.0293863 -0.405213 -0.642926 0.560905 0.661278 0.302311 0.221601 0.157644 0.454818 
0.934246 -0.428266 0.382552 0.94369 -0.675313 0.867562 -0.942562 -0.414836 0.892088 0.456017 -0.326275 0.053447 -0.714671 -0.434286 -0.126395 -0.170533 0.5495 0.529736 0.53058 0.698613 -0.732299 -0.807793 -0.556826 0.279311 -0.188393 -0.737846 -0.0404827 0.18191 -0.100242 -0.699809 0.265456 -0.0185124 0.125012 -0.930793 0.343875 0.515304 -0.0687898 -0.340529 -0.390426 0.0899837 
0.26268 0.0707189 -0.874241 -0.0893714 -0.371665 -0.433217 -0.895621 0.963791 0.989419 0.596426 -0.257854 -0.56879 0.803139 0.391441 0.450895 0.884569 0.235429 0.133016 0.0261646 -0.393355 -0.362436 -0.562505 -0.0275139 0.549139 -0.19913 0.708471 0.384372 -0.935382 -0.42252 0.350972 -0.473972 -0.140643 0.71145 -0.814752 -0.877873 -0.520197 0.0576078 0.805389 0.576698 -0.115138 
-0.569376 0.326186 0.130533 -0.660577 0.302126 -0.316897 0.230894 -0.058282 0.546993 -0.881087 1.16278 -0.0157678 0.47231 0.340309 0.400029 -0.736254 -0.730962 -0.2946 0.861882 0.0909144 -0.519371 0.349089 0.792173 0.100223 -0.485521 0.0201397 -0.818935 0.0606905 0.804838 -0.697769 -0.809227 0.679464 0.429869 0.249569 0.541879 0.649733 0.446024 0.213471 -0.708839 -0.544058 
-0.355154 -0.0459788 0.292772 0.490311 -1.25831 0.0511088 -0.756702 0.384574 -0.0445064 -0.0145249 -0.030191 0.533783 0.665567 0.63743 -1.12156 -0.659053 -0.348834 -0.522335 0.505347 -1.25512 -0.722845 -0.154474 0.0596719 -0.332599 0.643115 -0.940415 -0.121753 -0.136291 0.212926 0.13954 0.0340269 -0.654135 -0.175118 0.623573 0.0868428 -0.235295 -0.439456 -0.505894 0.141369 -0.305953 
-0.345086 0.260768 0.55994 -0.0394179 -1.29975 0.31676 -0.664603 -0.691023 0.540694 0.255473 0.321423 0.403548 -0.50278 0.0061551 1.02228 -0.340162 0.779415 -1.21871 0.0115364 0.26721 0.517229 0.323154 0.453831 -0.036788 -0.497296 0.276225 -0.129754 0.0521961 1.01209 0.0914155 -0.0383747 0.244509 0.268737 1.1955 -0.299348 -0.0959259 -0.405759 -0.699053 0.174176 0.371659 
0.927831 -0.737345 -0.185326 -0.254988 -0.689287 -0.948268 1.10222 -0.150775 0.205988 -0.909916 0.711032 0.527229 0.822827 -0.874102 -0.0896874 0.360703 0.669465 -0.580794 -0.953638 0.093009 0.26879 -0.875836 0.388951 -0.913258 0.202987 -0.0384459 -1.00216 0.309178 -0.66642 -0.340929 0.476511 0.806074 0.277615 -0.106903 -0.427124 0.367332 0.483347 -0.664493 0.74024 -0.191131 
-0.325554 -0.247268 -0.00789193 0.656829 -0.48206 -0.772971 0.453236 0.997596 0.305341 0.400559 -0.158654 -0.40523 -0.54571 0.344389 0.274406 0.801143 -0.50028 0.0940768 0.742086 1.06637 0.631683 0.121845 1.19639 0.254766 -0.646885 0.510211 -0.661385 -1.26194 -0.612256 0.816604 -0.0353808 0.508852 -1.17778 1.17595 0.0183874 -0.56241 0.418864 1.06249 0.038383 0.0184338 
0.507544 -0.710371 -0.0917907 -0.951301 -0.0903726 0.354341 -0.335771 -0.283894 -0.172367 -0.498518 0.121694 0.0319205 0.490118 0.139431 -0.312819 0.950484 -0.350551 -0.934058 0.341827 0.746438 0.746592 0.795335 1.07025 -0.374545 -0.158402 0.139727 1.02453 -0.771142 0.67671 -0.0202934 0.274776 -0.129384 -0.72495 -0.287429 1.15013 0.195314 0.120336 -0.0486682 -0.553023 -1.01878 
-0.591437 0.0737065 -0.024887 0.000128351 0.323695 0.800512 0.0392797 1.01971 -0.785205 0.270699 0.661576 0.455606 -0.796427 -0.276411 0.537985 -0.798797 -0.174587 -0.22843 0.182155 -0.0220221 -0.606653 0.244191 -0.407522 -0.0361708 -0.418404 -0.641218 -0.0118275 0.438543 -0.601722 0.256626 -0.769678 0.230402 -0.875915 0.518937 -0.401837 0.201381 0.576331 -0.120851 1.07679 -0.520242 
0.746418 -0.434082 0.458156 -0.0646729 0.212981 -0.54648 -0.448616 0.511441 0.71772 0.445844 0.538809 0.646983 -0.16554 -0.979594 0.747122 -0.532965 0.319475 0.660273 -0.51055 -0.160416 -0.317982 -0.000596639 0.502254 0.602888 0.353011 -0.369513 0.290813 -0.221384 -0.82488 -0.200932 -0.746551 -0.0834265 -0.137139 -0.154549 -0.343253 0.456085 0.306659 0.689008 -0.166445 0.0339359 
-0.447104 0.373882 -1.02184 0.389345 1.10954 0.987273 0.304868 -0.187689 0.428781 -0.153412 0.240189 -0.803485 -0.407534 -0.503144 0.443014 -0.938431 -0.821673 -0.253752 -1.07799 0.121261 0.675629 0.958217 -0.459226 0.0959017 -0.00222234 0.532874 -0.0712562 0.657751 0.470302 -0.45278 -0.994608 0.661076 0.241516 -0.638453 0.136826 -0.253101 0.256069 0.145294 -0.200652 -1.00097 
-0.416468 0.275053 0.217031 0.68261 -0.532752 0.240979 -0.78442 0.19641 0.296034 0.402079 0.04532 0.4913 0.068021 0.214319 -0.312524 -0.635371 0.0734888 0.102151 0.671198 0.108992 0.725744 -0.366347 -0.942181 -0.170407 -0.942254 -0.2444 0.366498 -0.213871 0.101611 -0.33366 -0.674428 0.0243392 0.101199 0.0652304 0.572991 0.377704 -1.13156 0.30704 0.432787 0.13735 
0.492328 0.586456 -0.599623 0.417184 0.303816 -0.261641 0.153493 0.561476 -0.575061 0.694559 0.800057 0.0202803 -0.0476158 -0.051918 0.780152 0.50894 -0.778654 0.176905 -0.719392 -0.960122 -0.112312 0.264977 0.107375 0.227347 -0.531512 0.309967 0.233864 0.490042 -0.718891 0.514925 -0.223508 1.09486 -0.0870897 -0.123018 -0.0258616 0.527458 -0.453017 0.840656 -0.450247 -0.666156 
-0.38776 0.85938 -0.973704 -0.640767 -0.237811 0.584972 -0.188067 0.37375 0.456194 0.56297 0.828079 -0.275089 -0.188849 0.391664 -0.573095 0.858426 0.580884 -0.316252 0.478577 -0.622478 0.432611 0.979349 -0.604946 0.338316 -0.524611 -0.244924 0.511649 0.300034 -0.567458 -0.453437 -0.771171 -0.693462 0.511098 0.0580635 -0.0254758 -0.684082 -0.0400947 0.516832 0.120699 -0.990382 
0.0852371 0.199412 0.210746 -0.711138 -0.39214 -0.422042 0.526339 -0.17049 -0.817563 -0.135874 0.35361 -0.0431642 0.339037 0.847672 0.809384 -0.29238 -0.470182 -0.979095 -0.383384 -0.80103 -0.947496 -0.119004 -0.345246 -0.00172312 0.245964 -0.00599036 0.367097 -1.11273 0.447184 0.779502 -1.02207 -0.165695 0.275156 0.363735 0.542741 -0.750423 0.253559 0.62369 0.0713105 0.55596 
-0.277272 -0.73493 0.0660386 -0.491583 -0.887443 0.363179 -0.668229 0.603145 0.923652 -0.730044 -0.224699 0.59683 -0.489302 -0.775123 0.548137 -0.0717191 0.342869 -0.439578 0.0230032 0.919488 -0.964675 -0.0701489 -0.507422 -0.628528 0.639748 0.0197824 -0.156361 -0.254071 -0.0661234 0.407765 0.174541 0.0493937 -0.439625 1.06824 0.732867 0.912377 0.427427 -0.691624 -0.428769 0.47994 
0.842752 0.289255 0.72526 -0.43867 -0.354643 1.09495 0.512875 -0.626859 -0.0867275 -0.797821 -0.670073 -0.255746 0.161124 0.665642 -0.566656 -0.919379 0.490931 0.143248 0.869773 -0.219953 0.681072 -0.100367 -0.611153 0.373274 0.508312 0.129227 -0.450692 0.460168 0.334362 0.282535 0.262313 -0.729171 0.699345 0.994965 0.739375 0.0610321 -0.438948 -0.652815 -0.293433 0.872894 
-0.572633 -0.895059 -0.873965 0.727327 -0.508108 -0.795246 0.99519 0.600873 0.320717 -0.61252 0.0335378 0.19187 -0.565518 0.897568 0.457488 0.952036 -0.165616 -0.251619 0.322601 -0.146359 0.429967 -0.284062 -0.479771 -0.986316 0.464528 -0.558671 -0.0479803 0.521963 -0.48116 0.183055 0.0839313 -0.816918 -0.0389913 0.643327 -0.641775 0.189277 0.353507 0.78642 0.399628 0.188975 
0.312295 0.539853 0.540223 -0.12638 -1.00415 -0.326971 0.802376 0.444791 -0.0785474 -0.589614 -0.0244796 0.679942 -0.0396497 -0.525261 0.720767 1.08844 0.380933 0.376906 0.533514 0.0776693 0.325158 -0.915053 -0.25727 0.189217 -0.213613 -0.76725 -0.853502 -0.883208 0.411225 -0.18831 -0.975966 -0.189675 -0.0713585 -0.325757 0.42974 0.205418 -0.672683 0.0158997 0.418726 0.535272 
0.753037 -0.647607 -0.335517 -1.13259 -0.115906 -0.683925 0.370914 -0.288287 0.37084 -0.0732802 0.344576 -0.706064 -1.03409 -1.19576 0.359388 0.0533106 1.23503 -0.0252807 0.657385 0.249513 -0.458905 0.85091 0.142185 0.467513 0.780294 -0.672544 -0.631526 -1.37633 0.727653 1.12886 -0.909966 0.737278 -0.748918 1.65965 -0.246592 0.49887 0.358734 0.249399 0.140115 0.470614 
0.222772 1.20006 0.921155 0.649704 0.193526 0.807829 -0.125873 0.159833 -0.711601 -0.595018 -0.92356 -0.314892 0.0330901 0.772555 0.0865753 1.11837 1.43181 -0.435015 0.448904 0.926889 -0.305649 -0.987128 1.11355 1.00049 0.0200091 -0.715793 -0.247033 -0.155879 0.229942 -0.43944 -0.929329 -1.13292 -1.51175 0.535748 0.991363 0.783102 0.317266 0.407717 0.759397 0.422677 
-0.429418 0.0526103 -0.102343 -0.243016 -0.062167 0.657722 -0.396857 0.865479 0.785013 -1.16618 -1.13405 -0.482865 0.794569 -0.222453 0.865593 0.117154 0.734967 -0.058898 -0.250901 0.838221 0.381004 0.168257 0.301839 -0.23409 0.436082 0.195666 0.101427 -1.39888 -0.66073 -0.19776 0.321052 0.265645 -1.79992 0.680494 -0.802041 0.885089 -0.493102 -0.606559 0.871635 -1.237 
0.578265 -0.427727 -0.267898 -0.193792 0.301306 -0.906439 -0.292457 -0.575064 0.687472 -0.693455 0.101674 0.48814 0.800732 -0.77036 -0.736683 -0.188863 -0.30837 0.791955 -0.0830286 0.401386 0.926596 0.084932 0.229558 0.714487 -0.483194 0.678322 1.23149 -0.521882 -0.773518 -0.946744 0.702018 -0.424892 -0.536456 -0.144811 0.864448 0.108769 -0.821986 0.0143276 0.904271 -0.597349 
0.766635 0.220615 0.31991 0.692901 0.95421 0.569252 -0.767604 0.019783 0.387826 0.838761 -0.812538 -0.509928 0.325515 0.603472 -0.952777 -1.07167 0.833955 0.00259652 -0.0351596 -0.596539 -0.172773 -0.869158 -0.241136 -0.0243068 -0.931685 -0.14475 0.0619854 -1.36754 0.767379 -0.604772 -0.0239563 -0.313204 -0.778976 -0.231539 -0.0721593 0.854724 -0.536152 0.0701725 0.649924 -0.331552 
-0.438497 0.305825 -0.761621 -0.153151 -0.372023 -0.211389 -0.64628 0.0241461 -0.267223 0.645797 1.17361 -0.843776 0.105519 -0.132103 -0.0474311 -0.686495 -0.0400436 -0.915651 0.609026 -0.18477 -0.0236949 -0.550566 -0.260732 1.40167 0.594026 -0.213513 1.39777 0.23067 0.974036 1.20248 -0.589819 -0.0508043 -0.153859 1.00575 0.598239 0.0847285 0.00526662 0.692359 0.87224 -0.142974 
-0.562827 0.77525 -0.239245 0.959972 0.471398 0.529364 0.560962 0.150119 -0.657632 -0.797884 0.469071 -0.797034 0.688061 -0.357999 0.522574 0.709299 -0.107464 0.13576 0.350152 -0.82786 0.199501 -0.971013 0.282059 1.09669 0.225077 -1.20698 0.4636 -1.15298 -0.146868 -0.343605 -0.789581 -0.584249 -0.414089 -0.568856 -0.548611 0.217102 0.381395 -0.715037 0.826511 -0.364067 
-0.656304 0.946519 -0.455969 0.631117 0.471164 0.209821 -0.484063 -0.818262 -0.797702 0.232558 0.190273 0.173695 -0.016473 -0.468728 -0.109598 0.502594 0.33293 0.0620853 1.19168 0.197994 0.177227 -0.86691 -0.850964 -0.317361 0.593855 -0.821518 -0.0129371 -0.609651 0.251709 0.930242 -0.968516 1.01071 -0.700019 1.23094 -0.110143 0.874413 -0.0955066 -0.230602 -0.217758 0.203297 
0.217168 0.516415 -0.833093 -0.534695 -0.693568 0.496345 -0.40263 0.175057 -0.459001 0.00914113 -0.292563 -1.02028 -0.17594 -0.16321 0.651037 -0.502838 0.785994 0.517862 0.667343 -0.966718 0.282102 0.806993 -0.764848 -0.337447 -0.309105 -0.869922 0.403308 -0.167229 -0.810686 0.164516 0.717786 0.513222 -0.153227 -0.246316 0.588247 -0.335261 0.349992 0.225679 -0.417466 -0.73348 
-0.445188 -1.03601 0.300619 0.00656141 0.596218 0.411607 0.0631931 -1.04777 1.03807 -0.148532 0.530898 -0.124931 -0.835408 0.231281 0.424466 -0.501073 0.0705637 -0.940686 0.953876 0.443219 -0.90544 -0.519735 -0.0429681 -0.221637 0.063396 -0.901914 -0.919593 0.873915 0.72606 0.564072 -0.148283 -0.260111 -0.208228 0.0350172 0.557917 -0.385288 -0.562435 -0.451035 0.806421 -0.572726 
0.238805 0.572225 -0.761902 0.523223 0.663006 0.00766357 0.964078 0.451591 0.695232 -0.806695 -0.486428 -0.0984544 0.326313 -0.150512 -0.824935 0.749453 -0.718023 -0.509279 -0.621071 -1.1686 -0.357169 -0.794447 -0.816411 0.0779061 -0.401486 0.163437 0.549739 -0.352039 -0.879287 0.111667 -0.648606 -0.368741 -0.413431 0.65455 0.606056 0.424992 0.424358 0.73694 0.715317 -0.349103 
-0.2767 -1.09297 -0.853165 -0.166543 -0.79043 -0.450177 -0.377957 0.38015 -0.492406 0.894352 0.0696442 -0.627827 0.169423 -0.0428078 1.14728 0.161238 -0.0638441 0.655187 0.507593 -0.837172 0.853085 0.158075 -0.126581 -0.914781 -0.115152 1.17947 0.224922 -0.0575968 0.0952181 -0.489085 -0.015284 0.866956 -0.155088 -0.384457 0.25575 -1.11273 1.00834 -0.0964969 -0.00827112 0.214193 
-0.991307 0.164859 -0.552747 -0.633351 -0.259035 -0.218347 0.885331 -0.229404 0.925512 -0.500753 0.501551 -0.539674 0.331013 0.738495 0.0502365 0.984701 -0.0658926 0.0329044 -0.125608 0.273296 0.0337554 0.272984 -0.790093 -0.193899 0.609628 0.830348 -0.443515 -0.00688712 0.228314 0.212772 -0.90521 0.634274 -0.846164 -0.489699 0.221499 0.747176 1.02424 0.475922 -0.138923 0.794091 
-0.227649 0.779695 -0.334755 -0.0868291 0.0763203 0.808413 0.136592 -0.337319 -0.936242 0.352951 -0.917096 -0.606667 -0.492229 0.521468 0.374171 -0.039699 0.769189 0.558616 0.849134 0.298626 0.613237 0.683163 0.357421 0.478049 -0.409337 0.0440594 0.0583472 -0.650371 -0.311001 -0.172991 1.00501 -1.02537 -0.683113 0.192088 -0.203184 0.453781 0.277505 -0.227082 -0.195989 -0.988049 
-0.984977 0.890206 0.898032 0.0591276 0.957527 -0.208276 0.501314 -0.722366 -0.585717 0.0294602 -0.0638986 -0.216899 -0.69377 0.183246 -0.388106 0.489528 0.116925 -1.23904 0.836897 0.214146 0.799171 -0.0727539 0.137248 0.199208 -1.01753 -0.22252 -0.465378 0.0211131 -0.0127934 -0.55459 0.223526 0.156647 -0.240061 1.01855 0.239227 -0.418907 -0.678505 -0.491257 1.20166 -0.800818 
-0.582169 0.287873 -0.301573 -0.637919 0.109128 -0.496549 -1.15934 -0.158418 -0.770548 -0.172576 -0.41119 -0.26652 -1.10106 -0.65393 -0.500359 1.27611 -0.0590415 -0.635871 -0.936777 0.633147 0.40462 -0.014833 -0.360863 0.491901 0.640431 -0.179479 -0.537134 -0.215038 -0.169068 -0.0371791 0.95348 -0.989458 -0.808119 1.55386 -0.571816 0.854698 -0.883669 -0.920777 -0.114426 0.0225305 
-0.883993 0.102783 -0.773488 -0.642539 -0.177327 -0.495722 -0.0215064 0.15648 -0.486091 0.295777 0.496948 -0.948683 -0.381749 -0.387664 -0.563939 0.0409593 0.945515 -0.640765 0.186584 -0.521052 -0.619222 0.808293 1.39932 1.03276 -0.171832 -0.187316 -0.0556677 -0.546967 -0.298623 0.136663 -0.546893 0.293158 -0.0568039 0.136031 -0.433651 1.05729 0.439232 0.27655 -0.312983 -0.618687 
0.0145289 0.895613 0.0145113 -0.374918 0.639587 0.106521 0.0725985 0.647952 0.0881534 -1.10877 0.870049 -0.547263 -0.777052 -0.0302677 -0.984326 0.65017 1.29944 -0.33502 -0.41309 0.456824 0.398337 0.982532 0.236818 1.08152 -0.882121 -0.0322286 0.5737 -1.10539 0.385567 -0.642095 -0.967488 -0.272307 0.0168353 1.18765 -0.212443 0.0155865 -0.00157769 -0.869892 0.818891 -0.342552 
-0.0501025 0.0317521 -0.769852 0.929933 0.791212 -0.16169 0.186581 0.216633 -0.162383 -0.283357 0.353751 -0.0544032 0.337569 0.483483 -0.281811 0.73435 1.48304 -0.478933 0.355182 -0.614156 -0.723191 0.410651 0.71038 1.31257 0.477023 -0.078758 0.31693 -1.28096 0.809627 0.659966 0.517924 0.272674 1.14467 0.711574 -0.472713 -0.0698776 -0.0150649 1.03401 0.789959 -0.019669 
0.647705 0.295838 -0.332477 -0.630857 1.13143 -0.262809 -0.43216 0.216894 0.512308 -0.807563 0.054424 -0.313184 0.769102 0.586894 0.115696 -0.221517 0.646808 0.233134 0.454693 -0.0167032 0.196205 0.0744793 0.792518 1.2124 -0.803791 -1.22713 0.716037 0.0369795 -0.263398 0.175711 -0.740462 0.255561 -0.154547 -0.165244 0.509234 0.914514 -0.0889536 1.11815 0.277173 -0.59891 
-0.183874 -0.220338 -0.842692 0.855929 0.081586 -0.534333 0.357935 0.343569 0.356932 -0.271181 0.545442 0.609981 -0.382763 0.302376 -1.06887 -0.671976 -0.497649 -1.09489 0.350933 -0.178476 -1.2329 -0.830126 0.735432 -0.342671 0.482794 0.0722893 0.0183199 -0.27769 0.836064 0.598229 0.725663 0.562263 0.944105 0.607235 0.639803 0.646582 0.264563 0.336046 0.975203 -0.521364 
-0.0647858 0.727481 0.557162 0.158746 1.10681 0.542291 -0.778558 0.593001 0.654004 -0.284014 0.21633 0.268632 -0.63131 0.231386 0.573259 -0.318948 -0.710417 -1.03782 -0.108509 0.171915 -0.589115 -0.395564 0.831742 0.254479 -0.582431 -0.164348 -0.474629 -0.471935 -0.522195 -0.0465189 0.488111 0.885563 0.721786 0.996173 0.829825 -0.285608 0.0910562 1.24991 -0.322006 0.200626 
0.156538 0.885763 0.123073 0.190929 0.736006 -0.733009 0.29828 -0.15921 -0.664811 -0.805116 0.740816 -0.904241 0.398461 0.800178 0.236395 -0.354941 0.689747 0.672478 0.0500028 0.239746 -0.207221 -0.43648 0.49189 0.140005 -0.329841 0.446536 -0.317588 -0.441138 -0.439721 0.605949 -0.657139 0.980622 -0.600414 0.487681 -1.25087 1.22009 -0.470586 0.197289 0.826806 -0.00856088 
-0.646578 -0.981458 -0.512159 0.728698 0.681705 0.372479 -0.747277 -0.0445392 -0.363789 -0.111284 1.10782 -0.575276 -1.08667 0.457807 0.717359 -0.412139 0.41437 -0.70342 -0.815376 -0.22569 -0.243834 0.435106 0.759755 -0.238787 0.200908 0.609363 -0.0493353 0.425723 0.570228 -0.0970832 -0.596605 0.613547 0.570276 1.15875 -1.01498 -0.106271 -0.333425 0.640674 0.488587 -0.760674 
-0.380023 -0.140517 -0.631094 -0.301552 -0.187029 -0.516853 -0.690042 0.349178 -0.149403 0.915599 0.606642 -0.745855 0.825817 0.247278 0.410926 0.118243 0.344417 0.296708 0.544849 0.315658 0.404288 0.809798 -0.0933304 0.720364 0.396586 -0.687913 0.732887 0.501743 -0.895795 -0.656137 -0.0996704 0.87169 0.253045 -0.507623 0.0440363 -0.27485 0.154798 0.632903 -0.484351 0.463179 
-0.823482 0.403287 -0.0726193 0.211719 0.874631 -0.487919 0.0278472 -0.877 0.637051 0.363394 0.188028 1.42326 0.341995 0.936651 -0.669254 0.75782 0.20703 -0.71377 -0.595283 0.172018 1.41107 0.870991 0.278927 -0.17464 -0.755178 -0.0842132 -0.450922 0.0663633 -0.734069 0.927021 -0.321628 0.244404 0.377521 0.855031 0.108987 0.589342 0.426528 0.301894 0.334344 0.932713 
0.360616 -0.852043 -0.650434 0.578878 -0.996941 0.387105 0.539099 -0.28123 0.832181 -0.582055 -0.91359 1.17479 0.426286 0.136521 0.712696 0.41364 -0.758463 -0.87446 0.451562 -0.195459 0.418883 -0.95928 -0.692186 0.609782 0.0962952 -0.471719 0.25538 0.240024 -0.15182 0.820978 0.716973 0.264345 -0.760235 0.924103 0.280811 0.359105 -0.442899 0.177878 -0.0709119 -0.332868 
0.273411 0.0959158 0.0906374 0.317792 0.599528 0.42956 -0.700087 -0.375831 0.630294 -0.49308 0.393288 0.734113 0.266436 -0.399679 0.241735 0.336972 0.440588 -0.280589 -0.4729 -0.371639 0.334023 0.27457 -0.719743 -0.965349 -0.810026 -0.278376 0.300228 0.350984 0.120356 -0.231192 -0.270511 0.483654 -0.333292 0.108339 0.0772879 -0.0943591 0.431452 0.308225 -0.681387 -0.0648029 
-0.407385 0.121198 -0.345223 -0.624655 1.27305 0.861941 -0.151738 0.413626 -0.850584 0.79479 0.501212 -0.756665 -0.309254 -0.735467 0.960351 0.567322 0.480106 0.0764014 -0.794998 -0.0862731 0.728516 0.995049 0.137025 -0.154529 -0.66854 -0.131767 0.474991 0.0890472 -0.460074 0.288534 0.146244 -0.28603 -0.972506 0.0705554 0.235865 0.0391766 -0.464823 -0.419415 0.947324 0.743049 
-1.09928 0.541871 0.581142 0.0140826 -0.272809 -0.552259 0.665336 0.87796 -0.217614 0.376719 0.461863 0.351407 -0.674354 -0.46574 0.0218784 -0.482233 0.401662 -0.580028 -0.345589 -0.218121 -0.120721 -0.730742 0.78155 -0.282889 -0.846428 -0.15652 0.770973 -0.945207 0.604883 -0.643851 0.376667 -0.50764 -0.724382 0.222559 0.239583 -0.115512 -0.185935 -0.759859 -0.74781 0.0764286 
-0.169184 0.320284 -0.577647 0.0482108 -0.637241 -0.216562 -0.420494 -0.464066 -0.748448 -0.990543 -1.02268 0.377125 0.72511 -0.575484 -0.862367 0.428363 0.284568 -0.151175 -0.638825 -0.952604 -0.304854 0.671001 0.0534502 0.0280786 0.771746 -0.306931 0.130268 -0.731578 0.873819 -0.715745 0.253861 0.190699 -0.659918 -0.563972 -0.839422 -0.768942 -0.154174 0.245106 0.692939 0.529429 
-0.452404 -0.445006 0.584788 -1.1575 -0.180607 0.402689 -0.602329 -0.552268 -0.333411 -0.384834 0.00817217 0.364588 -0.449271 -0.73021 0.322437 0.921319 -0.447293 -0.27699 -0.756828 -0.0670037 -0.368072 -0.299057 0.851836 -0.506435 -0.58694 -0.264404 -0.61385 0.388946 -0.593466 0.0745052 -0.956907 -0.62991 0.90096 0.752952 0.983297 0.0721633 0.127501 -0.385736 -0.808757 0.623068 
-0.664344 1.09189 0.62976 0.101702 0.831085 -0.424966 0.770551 0.448429 -0.970395 -0.185974 -0.71892 -0.567779 -0.347188 0.723299 0.217445 0.473348 0.177276 -0.602575 -0.184198 -0.388522 -1.05736 0.235961 0.732304 -0.384716 -0.00553655 0.0456295 0.147602 -0.27299 0.468532 -0.237456 -0.787415 -0.534615 0.593666 -0.51453 -0.172425 0.117662 -0.816824 0.396419 0.58488 -0.198298 
-0.0719753 0.229382 -0.534187 -0.541469 -0.393498 0.363335 -0.40122 0.767132 0.411499 0.213027 -0.830725 -0.284862 -0.0924536 -0.645108 0.766154 0.124337 0.985568 -0.489446 -0.712381 -0.252582 -1.0332 -0.774953 0.401651 -0.648077 0.363248 -0.0815285 0.988411 -0.175588 0.156852 0.298921 -0.695975 -0.0113054 0.70691 -0.0366203 -0.771702 -0.537129 0.203581 0.92423 0.770703 0.252024 
-0.760474 -0.207385 0.448593 -0.752926 0.762459 0.333485 0.705573 -0.650781 0.207784 0.325919 0.0662059 -0.254007 -0.0192741 0.819465 -0.149727 1.18957 0.80273 -0.427493 0.764494 -0.0331001 0.272477 -0.694753 0.366284 -0.0548501 0.370584 -0.52141 0.526445 0.287366 0.897276 0.73049 -0.397747 -0.700882 0.987672 0.69435 -0.497692 0.459433 -0.608439 -0.0103946 0.814948 0.856263 
0.194637 -0.600607 -1.26192 -0.611402 0.271958 -0.765872 0.0617163 -0.0365959 0.998966 0.511366 -0.644306 0.214776 -0.341131 -0.776504 0.681924 0.0552211 0.26907 -0.343866 -0.109783 -0.27299 0.351213 -0.86641 0.19276 -0.0161648 -0.670523 -0.425338 0.296627 0.270741 0.948712 0.65826 0.0688422 -0.586204 0.0601214 0.0776456 -0.140879 -0.155431 0.607267 -0.0443948 0.18428 -0.587102 
0.0497995 0.916112 0.165379 0.424917 0.393773 1.05093 0.985715 0.61315 -0.449973 -0.589004 0.545153 -1.11755 -0.461641 -0.327327 -0.773241 0.670233 0.346589 -0.592228 0.265834 -0.574978 -0.232812 -0.478017 -0.175743 0.667924 -0.742814 0.864574 0.990838 0.471865 0.757028 -0.195184 0.446267 -0.0242812 -0.230929 0.427379 0.0358357 -0.242608 -0.167152 0.0229374 -0.793392 1.16762 
-0.683878 0.518948 -0.596766 -0.252533 -0.393122 0.937907 -0.391597 -0.731567 1.03315 0.590775 -0.951202 0.650202 -0.58335 -0.143693 0.546238 0.0557738 -0.27228 0.100063 0.855409 -0.0872455 -0.717422 -0.350084 -0.205348 -0.124765 -0.770064 -0.632563 -0.0294308 0.384628 -0.768799 0.76617 0.576137 0.01162 0.565329 0.208739 0.251167 -0.180031 0.510577 0.131976 0.789699 -0.11066 
0.781567 -0.70774 -0.382999 0.826014 0.824584 -0.322248 -0.266034 -0.50888 1.05203 -0.475836 -0.809315 -0.74521 -0.510715 0.684366 0.275948 -0.358914 -0.0862146 -0.944172 -0.932988 -1.02552 0.4857 -0.346028 0.785537 -0.552211 0.352083 0.12282 -0.0570315 0.58897 -0.671705 0.571593 -0.508708 0.0532719 0.657066 0.820015 -0.67638 -0.0164251 -0.124771 0.444016 0.276893 0.124494 
-1.06844 -1.07952 -0.472877 0.218902 0.878274 0.676924 0.315258 0.77101 0.929971 0.622979 0.470537 0.999177 -0.833767 -0.698924 0.923425 -0.555695 0.329265 0.670883 0.26984 -1.05785 0.657899 -0.176952 0.301309 -0.678349 -0.0185386 -0.626393 0.20386 0.616393 0.142862 0.654975 0.449966 -0.260633 0.476123 0.369619 -0.380386 -0.222983 -0.126018 0.157207 -0.266951 0.374816 
0.220966 0.480458 -0.512011 -0.428357 -0.441919 0.303903 0.726813 -0.421546 -0.33917 -0.218339 0.365386 1.24852 -0.32163 0.0650378 0.807968 0.375687 -0.107019 0.0685393 -0.262588 0.0341986 1.09165 -0.956398 -0.0973109 -0.359287 0.114801 -0.76664 0.89013 0.837204 0.684289 -0.539252 -0.459184 0.823547 0.422332 0.397251 0.303562 -0.368411 -0.699518 -0.739681 -0.250849 1.15258 
0.0299981 0.493322 0.286141 -0.0604326 -0.902509 0.0663376 0.523559 -0.400871 -0.091354 -0.124901 -1.1925 -0.940439 -0.784535 -0.733385 0.729072 0.0625968 -0.10637 0.0811852 0.314539 0.482996 -0.209615 -0.568436 0.827975 -0.244618 -0.0935379 -0.435947 0.700863 0.442943 0.606329 0.59464 -0.308993 -0.836904 0.194157 -0.752676 -0.716394 -0.336305 -0.242187 0.0032177 -0.375006 0.0482538 
-0.0681053 0.687643 -0.678551 -0.960567 0.729367 -0.238121 0.146462 -0.0810456 -0.220263 1.46174 -0.891741 -0.823394 -0.888099 0.16995 -0.869775 -0.367659 -0.369792 -1.06558 -0.836233 0.961811 0.650103 -0.961652 -1.1186 0.0327238 0.183308 -0.285858 0.713063 0.409654 0.563803 -0.329904 -0.219115 -0.917206 -0.228534 1.05508 -0.333175 -0.502486 -1.22537 -0.306894 -0.726933 0.77459 
-0.457107 0.0965344 -0.560944 0.0328937 -0.401958 0.171575 -0.15266 0.101782 -0.179709 -0.0658883 -0.76516 -0.147511 0.154302 -0.373336 -0.0836037 0.187659 0.791099 -0.0934341 -0.466323 -0.0642517 -0.363067 -0.854317 -0.436597 -0.488602 0.0359531 -0.394069 -0.291522 0.784419 -0.338098 0.0456092 -0.446802 -0.423734 -0.204521 0.715609 0.142169 0.317173 -0.541512 0.699104 0.213128 0.403795 
-0.279662 -0.94265 0.137418 -0.244734 0.246009 0.719125 0.530357 -0.729567 -0.727219 -0.688064 -1.16123 0.184725 -0.0358707 -0.928323 -0.572823 0.29674 -0.699422 -0.301554 -0.988157 0.449061 0.0469589 0.677579 -0.680018 -0.059492 -0.338464 -0.308843 0.468149 0.790157 -0.203321 0.49555 0.844785 -0.553709 -0.563783 -0.508223 0.81028 0.35757 0.755385 0.934596 -0.316907 -0.00937161 
-0.0770193 0.136641 -0.65455 0.541537 -0.433691 0.129641 1.23148 0.774939 0.298207 0.847015 0.43211 0.582757 -0.488826 0.916554 -0.34788 0.78487 0.25736 0.376132 -0.530555 -0.0408748 0.139487 -0.892916 0.374283 -1.35994 -1.10005 0.509761 0.523451 0.997609 -0.712963 -0.548756 -0.608879 -0.14429 0.00372094 0.106042 -0.505206 0.319791 -0.257968 0.46383 -0.600352 0.618786 
0.784693 0.338219 0.668638 0.32799 0.340704 0.193853 0.232787 -0.330116 -0.116154 -0.0229745 -0.848601 1.00653 -0.704895 0.270691 0.224339 0.25173 0.108415 0.110324 -0.0961618 -0.276215 0.461548 -0.701503 0.67224 -0.236709 0.57006 -0.32668 0.466695 1.34605 -0.793541 0.4896 0.258655 0.174756 0.356155 -0.00252584 -0.406485 -0.287793 0.623453 0.0233856 0.423921 0.77102 
-0.416302 -0.572863 -0.0822493 -0.851045 -0.652377 -0.242307 -4.36398e-05 0.474241 -0.885629 -0.104907 0.511004 -0.411894 0.288722 -0.675505 -0.88484 -0.236012 0.629615 0.00845061 -0.321037 -0.118539 0.34675 0.0222422 -0.67884 0.527366 -0.178124 -0.741719 -0.604231 1.17175 -0.820499 0.546884 0.321302 -0.436014 -1.02579 -0.0170313 -0.33874 0.12252 -0.548453 -0.146501 -1.00326 -0.00143184 
-0.562802 0.598276 0.11778 0.014633 0.426925 0.792801 0.294038 0.117572 -0.448443 -1.29122 -1.18385 -0.286179 0.00454606 0.0985419 -0.918746 -0.356361 0.422355 0.0105745 -0.65001 -0.570116 0.629563 -0.166672 0.119457 -0.4825 0.380689 0.895256 0.911313 0.139548 0.854724 0.753943 0.617108 -0.105367 -0.236693 0.716606 -0.0965858 -0.373758 0.402829 0.687659 0.0461159 1.01755 
-0.848453 -0.31027 -0.240925 -0.691713 0.379403 -0.174179 -0.894961 -0.300294 -0.160117 0.768261 -0.175331 -0.520865 -0.229317 0.525539 0.643461 0.254312 -0.524417 0.847289 0.838918 -0.437026 0.957297 0.000468695 -0.36721 -0.626599 0.0201825 -0.659787 -0.471223 0.261817 0.644396 1.11659 -0.475678 -0.892952 1.30891 -0.274306 -1.1804 0.270277 0.360281 0.422017 0.739543 0.748082 
-0.603101 -0.356181 -0.412037 0.162808 0.366324 -0.516551 1.20933 -0.391165 -0.397756 -0.492322 -0.959372 -0.927306 -0.0250345 -0.948593 -0.211421 -0.495447 0.791765 -0.0679492 -0.50227 0.429933 0.516938 -0.0714123 0.457641 0.792185 0.590703 0.261367 0.436733 -0.182739 -0.536625 -0.617063 -0.486964 0.982236 0.0642545 0.0269632 0.354328 1.04009 -0.81085 0.704528 -0.124171 -0.022878 
-0.467153 0.998759 0.923 -0.49423 0.288299 -0.552823 0.37759 -0.84579 0.644972 -0.23335 -0.318263 -0.0526842 0.0350916 -0.182541 0.351936 1.3433 0.13653 0.374713 -1.01791 0.200229 -0.451893 0.20294 0.366343 0.501469 0.102104 0.543528 -0.186456 0.0973986 -0.18768 -0.284751 0.672634 0.548985 0.0901494 0.537763 -0.894669 0.229087 0.643494 0.711377 0.615678 0.561925 
0.607809 -0.490164 -0.602719 0.803947 -0.0102772 0.643897 -0.665551 -0.599814 -0.715541 -0.398793 0.812666 0.321585 0.553765 -1.17278 -0.676797 0.992732 -0.165561 0.80285 -0.819726 -0.937127 -0.323535 0.747455 -0.514514 0.871017 -0.756314 -0.580605 0.101032 -0.340151 -0.483903 -0.871458 -0.514893 -0.449122 -0.448091 0.541022 -0.996003 0.118117 0.60039 0.0610345 0.597885 0.228586 
-0.601124 0.200414 0.630564 0.502079 0.825044 -0.012491 0.399152 0.373013 0.653975 -1.09969 -0.331647 0.751036 0.162221 -0.798204 -0.431945 -0.577504 -0.407583 -0.967033 -0.90082 0.193984 0.0587583 0.308958 0.598015 0.745766 -0.429245 -0.143889 0.53556 0.38438 0.754434 -0.466868 -0.095431 0.471407 -0.13262 -0.0594809 0.385066 -0.558289 -0.952679 0.0177466 0.374996 -0.426569 
0.173829 -0.15131 -0.143652 0.195705 0.265726 0.396019 -0.892736 0.643163 0.474201 -0.84376 -0.705587 0.768567 -0.658187 0.569675 -0.0193964 0.960851 0.547361 0.881383 -1.30711 -0.897636 -0.267542 -0.0377737 0.189563 0.270556 -0.112957 -0.540054 0.362715 -0.305977 -0.870348 0.0852802 -0.544368 0.407504 -0.0568955 -0.723538 -0.768385 0.824087 0.0772927 0.159352 0.767209 0.920496 
0.550458 0.79246 -0.528184 0.335597 0.540475 0.405589 -0.692604 -0.185456 -0.337817 0.0113649 0.625986 -0.80391 0.177313 0.115137 -0.405781 -0.0505251 -0.29225 -0.0122569 0.32266 -0.710219 -0.769862 -0.429365 -0.40602 -0.657771 0.871687 -0.385754 0.171781 0.298008 0.199685 0.420434 -0.918673 0.651284 -0.117661 -0.0178046 -0.794188 0.0319591 0.0150723 -0.163517 -0.0944838 0.808065 
0.110321 0.0808775 0.820893 -0.672747 0.747961 0.178806 1.09125 0.0345475 0.562522 -0.253115 -0.834308 0.418348 0.269442 0.350449 -0.422568 0.0153977 0.00820367 0.274439 -0.759954 -0.704718 0.113643 0.578816 0.481373 0.181241 -0.377168 -0.681811 0.126379 0.449317 0.935903 0.82776 0.304868 0.409987 0.0545859 -0.287047 -0.520987 0.404778 -0.378271 -0.371693 0.217525 0.46891 
-0.980518 -0.745898 0.706028 -0.478718 -0.819523 -0.276242 0.312608 -0.91029 0.0286282 0.459216 -0.44202 -0.887623 -0.702206 -0.940057 -0.357958 1.31839 0.0458973 0.693004 -0.893554 0.184419 -0.381969 -0.16062 -0.135231 0.458478 0.304245 0.572024 -0.0035777 0.359696 -0.116438 -0.0768237 0.626294 0.444836 -0.426868 0.110328 0.118249 -0.294121 0.458414 -0.203986 0.143325 1.12691 
0.750258 0.298016 0.495809 0.561242 0.684783 0.0747468 1.12754 0.193962 -0.877834 -0.727166 -0.918523 0.22927 -0.692386 1.06934 0.682484 0.444375 0.382262 0.0760498 -1.06239 0.814635 -0.00433033 -0.191411 0.570207 -0.973206 0.400804 -0.00349379 -0.044848 0.89876 -0.842568 -0.507404 -0.53866 -0.345026 0.250564 -0.167813 -0.584742 0.481551 -0.501437 0.519128 -0.686754 1.21995 
0.622825 -0.211704 -0.193589 0.294657 0.388247 -0.194347 -0.383719 0.310242 -0.789833 0.46996 -0.204397 -1.12612 0.412735 -0.0740638 0.681537 -0.440441 -0.591734 0.354582 -0.730125 0.316484 0.906638 -0.183137 -0.758788 0.0135248 -0.243345 0.867181 -0.315691 0.387215 -0.312001 -0.00327313 0.706397 0.578416 -1.05542 -0.00692585 -1.05419 -0.356951 -0.317832 -0.515336 0.145613 0.921647 
-0.95658 -0.118577 -0.258441 -0.87873 0.836022 0.281387 1.07889 0.366558 -0.536854 0.153495 -0.650811 0.0693409 -0.0615752 -0.544255 -0.744841 0.0733188 0.664932 0.0166646 -0.0558276 -0.634018 0.853315 -0.77472 0.34303 -0.0577757 0.107214 0.220101 0.671009 0.0357278 0.669381 0.853719 0.704257 -0.479461 0.103297 0.684445 -1.37427 -0.455237 0.649043 -0.89948 0.630213 0.462883 
-1.01466 -1.15187 -0.100044 0.154728 -0.353828 -0.798042 0.54523 -0.687808 0.47074 0.27651 -0.362033 -0.187887 -0.357753 1.22029 1.0634 -0.27596 0.0870154 0.449722 -0.100885 0.75824 0.922957 0.441617 0.1925 0.0146447 -1.24256 0.911122 0.892053 0.0606905 -0.237467 0.971691 0.649772 -0.287575 -0.797343 -0.730175 0.372612 -0.0683114 -0.142213 0.545261 0.582178 1.42216 
-0.513883 -0.718627 -0.406019 0.65025 -0.22611 -0.261136 1.14729 -0.547479 -0.653246 0.0925036 -1.03105 0.498008 -0.658199 0.789592 -0.382194 -0.314347 0.448691 -1.16174 -0.530226 -0.0833949 0.401471 -0.319007 -0.861825 -0.132709 -0.34856 0.576996 0.355766 1.13584 1.02406 -0.119537 0.235097 -0.267266 0.0868811 0.0712952 -1.16825 -0.0910297 0.499391 0.0812986 -0.412405 -0.296153 
-1.12009 1.03239 -0.217291 0.30838 0.292265 0.208576 0.18655 1.00571 0.114845 0.315185 -0.19875 0.890512 -0.399635 0.395749 -0.970024 -0.61101 -0.357265 -0.334631 -1.05606 -0.110849 1.51429 0.418071 -0.283283 0.320214 0.17245 0.256901 0.364568 0.307698 0.119101 1.02683 -0.1478 0.839365 -0.479438 0.722568 0.315825 0.629648 0.320406 -0.515555 0.5358 0.526577 
0.632654 -0.59214 -0.765736 -0.352889 0.857596 -0.382793 -0.314111 0.203107 -0.243969 -0.0853941 0.0142529 0.802106 -0.820874 0.89914 0.42931 0.91646 0.801042 0.363642 -0.0850245 -0.0578599 1.45735 -0.60262 -0.0390975 -0.964688 -0.0566344 -0.740545 1.51308 0.486293 -0.0616556 0.216424 -0.0643074 0.553951 0.830574 -1.00708 0.181273 -0.151894 0.648825 0.298311 -0.0156331 0.949651 
-0.156923 -0.535221 -0.487451 -0.786229 1.56925 -0.796365 0.395602 0.82555 0.933491 0.597177 -0.696505 -0.231977 0.573537 -0.445579 0.00127859 -0.709394 0.0127876 -0.392391 0.166303 -0.111576 0.37926 0.225995 0.336615 -0.439788 0.695573 -0.91137 0.101169 0.675982 0.234301 0.807313 -0.874128 -0.271558 0.134863 -0.609082 -0.669713 0.977524 -0.614603 -0.639527 -0.239611 0.922232 
-0.647492 0.624333 0.617324 0.477828 0.241692 0.257422 0.471517 0.466338 0.910062 -0.690786 -0.855887 -0.34085 -0.444117 0.26513 0.726951 0.946694 0.869485 -0.721112 -0.0199279 -0.677868 0.0996596 -0.410932 0.695519 -0.810297 -0.0347134 0.0116065 1.34442 -0.193826 -0.671797 -0.477955 -0.706428 0.366412 0.967858 0.255201 -0.900974 -0.300545 -0.372112 -0.322408 -0.267925 0.317129 
-0.546429 0.291877 0.455348 -0.764066 0.305614 -0.582627 -0.570976 0.0996381 0.90835 0.288417 0.479581 -0.357671 -0.42165 0.335242 -0.754273 0.577554 -0.0875634 0.786511 0.039694 -0.832607 -0.328229 0.0270612 -0.569498 1.0766 -0.843868 -0.0238317 0.254457 0.0339653 -0.470489 -0.109418 -0.953682 -0.148269 0.985018 0.112679 -0.595578 0.641974 0.807681 0.743637 0.210617 -0.474838 
-0.104147 -0.159145 0.599762 -0.362596 -0.15476 0.173412 -0.359072 0.459507 -0.317294 -0.716801 -0.830585 0.45823 -0.960939 -1.18703 0.873183 0.103347 0.59814 -0.684676 -0.646617 -0.644138 0.339066 0.284903 1.33203 0.229241 -0.564519 -0.977826 0.210261 -0.206765 -0.752182 -0.872102 0.556033 0.945683 0.859631 0.140469 -0.600992 1.0456 0.71173 1.52944 -0.362121 -0.184609 
