196 40
-1.5793 -0.165212 -1.5091 -0.17177 -0.61851 0.117047 0.309896 0.41326 0.31705 -0.315744 1.08596 -1.31433 -0.567034 0.395312 1.11399 0.449675 -0.296917 1.11938 -0.496698 0.206865 -0.00447684 -0.843416 1.6162 -0.926702 0.175854 -1.24547 -1.21234 0.276569 0.965659 0.891041 0.344324 0.439602 -0.127049 -0.518584 0.226681 1.73294 0.719586 0.355298 -0.805842 0.663229 
-0.869704 0.496356 -0.013848 -1.17664 -1.42947 -0.892397 0.13351 0.33522 -0.0674872 -0.449438 0.613412 0.701729 -0.0490656 -0.78258 -2.65204 0.536994 -0.500528 1.36982 1.11444 -0.167735 -0.537207 -0.192963 -1.29901 0.156883 -0.336858 -0.566448 -1.26883 0.521333 0.260772 -0.456157 -0.0551644 0.403103 1.03328 -1.12177 -0.304196 0.112544 -1.94947 0.216391 -1.9761 0.750284 
-0.102183 -0.0924156 0.344333 0.0119021 -1.12275 -0.280755 -0.0326449 -0.196835 1.83158 -0.830403 0.243651 -0.413949 -0.288697 -1.47087 -0.971452 0.183136 -0.757201 0.362616 -0.177575 -0.176139 -0.0515957 0.38226 -0.941459 -0.623539 0.377343 2.50094 -0.294124 0.355383 0.82326 -0.499733 -0.308499 -0.237934 -0.296157 -0.264535 -0.163828 0.341413 -0.494186 0.308681 -0.839726 -0.0778749 
-0.216522 1.13827 0.773424 -0.607172 -0.213211 -1.3654 0.816542 0.91201 -0.0492051 -1.39841 -0.0968206 0.300723 -0.693249 0.080143 -0.603187 0.0807499 -0.722609 -0.437388 -0.109207 0.369155 0.832493 -0.821704 1.36123 -0.6938 -0.0391166 0.155421 -0.907694 0.533003 -0.62151 -0.601904 -1.12833 0.630166 0.318599 -0.49396 -0.128349 -0.0575907 0.903985 -0.399269 -1.30812 1.16894 
-0.511001 -0.366413 1.74918 -0.0378244 1.07135 -0.658426 0.436661 -0.228121 1.74656 -0.334979 -1.49297 0.0793989 -0.938759 -0.117484 -0.918667 0.347968 -0.890588 0.13762 -1.14838 -0.747395 -0.150375 -0.628255 -0.846229 0.819644 -0.893651 1.27346 -0.149652 -0.532046 -1.16625 -0.914499 0.253178 -0.69119 -0.273735 -1.452 0.779733 0.103095 0.239186 -0.0244098 -0.213128 0.661445 
-0.411623 0.292877 0.78035 0.418329 -0.167749 1.16212 -0.347721 1.16031 1.00184 -0.322676 -1.84814 0.186011 -0.300702 -0.657577 0.233951 1.27834 -1.03448 -0.19927 -0.781834 0.438584 -0.42239 -0.173081 -0.18261 -0.417128 -0.677052 0.45154 0.135963 -0.373004 -0.906033 1.10073 -0.711931 -1.08423 0.388946 -0.976936 0.956949 1.32405 -0.2794 0.957397 -0.533953 -0.401945 
-0.921025 -0.18471 0.139798 0.383987 0.184251 -0.886283 -0.0230185 0.542804 0.230334 0.218206 -1.38765 -0.139657 -0.292269 -1.31846 -0.818501 -0.287143 -1.23204 0.634032 -0.351362 0.123019 0.335592 -1.47351 1.11133 0.3072 0.297122 0.473501 -0.110877 -0.282218 0.0134195 0.564692 0.277597 -0.620501 -0.275149 -0.16279 1.24469 0.123742 0.799823 -1.41622 -0.0016275 0.347014 
0.955729 -0.121946 1.11035 0.766268 0.0973172 -0.375826 0.0487022 -0.354268 -0.299031 -1.35864 -0.19198 1.13453 -0.405452 0.664511 -0.117484 -0.073723 -0.885846 -0.520148 -0.116172 0.759918 0.711395 0.0972784 -0.0155587 -0.0584165 0.89593 0.056945 0.451206 -0.487525 1.37006 -0.562586 -0.900034 -1.47609 -0.0381782 0.0705261 -0.0430564 0.172452 0.485414 0.568944 -0.26904 -0.316885 
-0.655734 0.135201 -0.335403 0.723136 -0.389655 -0.718981 0.534869 -1.0299 0.0203677 -0.805817 -1.40403 0.898411 -1.08148 1.11361 -1.94168 0.998567 0.0139264 0.0963056 -0.0650079 0.730362 0.20758 -0.584745 -0.061818 -0.407258 0.803621 0.616272 -0.413315 0.729162 0.0771708 0.378724 -0.947795 0.0223807 0.247231 -0.605483 -0.466081 -0.488454 0.321013 -0.954585 1.53375 -0.320159 
-0.107506 -0.442057 -1.07652 -0.476313 -0.313848 -0.141853 0.0546193 -0.800102 0.719842 -0.872119 -1.11797 0.842676 -1.40476 -0.737912 -0.497758 -1.34919 -0.528105 -0.679288 -0.754002 -0.615434 -0.0289702 0.727852 -0.0028295 0.298767 0.32191 0.843311 -0.809097 -0.0442363 0.522267 -0.505493 -0.324824 -0.718663 -0.981981 -0.788353 0.521913 -0.182491 1.2879 -1.88443 1.04904 -0.892519 
-0.0718451 -0.209577 0.850159 -0.796399 0.471338 -0.559404 1.00558 0.238496 0.601072 -0.571362 -1.61267 -0.356636 -2.00229 -0.521116 0.0910668 0.280871 0.209118 1.21575 0.273664 -0.53562 -0.41368 0.0822036 -0.536433 0.0831146 -0.394998 0.414122 0.284428 0.165787 0.287821 -0.360129 -0.424613 0.796158 0.316194 -0.497206 0.806688 0.0353602 0.926241 -0.541678 -1.09388 -0.805384 
-0.635864 0.497888 -0.235186 -0.45128 0.152377 -1.4983 -0.577291 0.693309 -1.06479 -0.8598 -2.1838 -0.480724 -1.9924 -0.267661 -0.284849 -0.264131 0.41743 -0.109322 -1.15826 -0.191486 0.176602 0.376371 -0.240128 0.227831 -0.182149 1.10825 -0.994863 0.0265487 0.199013 -0.0169692 -0.205591 0.973395 -0.269729 -0.92703 1.23412 0.673165 -0.545996 0.109155 -0.597175 -0.200954 
0.527643 -0.147367 0.694605 0.401346 0.562966 -0.723812 -0.850559 0.41084 1.02575 0.863425 -0.0699416 -0.733764 -1.209 -1.14855 -1.45378 0.122812 0.926128 0.0375347 -0.151328 -0.837791 -0.0108136 -0.41366 -0.404989 0.417749 0.154937 -0.538581 -0.917098 -0.964032 -0.169431 0.607079 0.130195 1.60838 1.15358 1.006 0.628437 0.396128 -0.485805 0.297218 -0.795156 0.310008 
-0.366829 1.62684 -0.395797 1.62213 -0.409954 -1.10004 1.65795 -0.0588815 0.119913 -0.969994 -2.20409 -1.8792 -0.630428 1.08103 -0.945081 -1.70139 -1.6472 -0.168407 1.00897 -1.19659 0.262876 0.70753 1.43291 0.608826 -0.153812 -0.209333 -0.683857 0.317546 -0.0160319 0.60292 -0.486087 0.624971 0.328317 -1.63438 -0.170337 0.339831 0.922252 0.729442 -0.211028 -1.51247 
-0.599481 0.292331 0.187876 0.380477 -0.349547 -1.07082 0.578589 -0.61258 0.260691 0.518261 0.980118 -1.23504 -1.65942 -0.41396 -0.288003 0.388467 -0.510114 -0.0354946 -0.146488 0.148213 -0.368938 -0.134249 1.46063 -0.218394 0.432418 0.250747 -0.442352 -0.418594 0.0907774 0.194128 -0.743917 -0.560083 0.315177 -0.375575 -1.38809 0.97829 0.199479 0.812479 -0.909006 -1.11153 
-0.377267 -0.555259 -0.53404 -1.33073 0.635548 0.406971 0.306754 0.411735 1.73836 1.43908 0.416231 1.37733 1.71113 -0.233142 -1.74501 -0.792547 -0.537787 -0.0480299 1.28598 -0.587606 0.502334 1.03861 -1.45785 -0.758056 -0.0443153 0.846662 0.0132775 -0.860195 -0.527357 -0.0221203 -0.514206 -0.414134 0.42699 -0.0202672 1.2871 -1.05735 -2.24723 -0.471423 0.553915 0.0606225 
-1.37638 -0.654601 0.435549 -0.333026 0.794247 -0.884606 -0.360892 -1.08439 1.07191 -0.372543 0.0108856 -0.2764 -0.0256106 -0.130542 -0.384452 -0.4203 0.102367 1.06216 0.7969 0.213217 1.0993 0.536199 0.513424 -0.74843 -0.327716 0.968603 -1.75148 0.0789503 -0.844392 -0.235147 -0.710968 0.190461 0.5322 -0.707543 0.0293525 0.454133 -1.25719 -0.626872 0.329872 0.717704 
0.373634 0.439411 0.310085 0.331602 -0.532125 -2.03321 -0.600729 0.554973 1.70294 -0.599774 0.307792 -1.05602 -1.31204 0.437602 -0.916794 1.5076 0.0460756 1.81222 -0.550216 0.745911 -0.288358 -0.367778 -1.05763 -0.896417 -0.36106 0.179739 1.12795 0.949145 -1.06248 0.354042 -0.465345 -0.855285 0.290994 -0.133555 -0.650681 -0.566279 -0.832579 -0.921056 0.359828 -0.401706 
-1.05822 1.42578 0.849861 -0.0545758 -0.875685 -1.19735 0.690765 0.64155 0.865297 -0.422815 -0.00135731 0.789689 -0.660905 -0.46749 -1.65684 -0.0188906 -0.222081 1.14201 -0.483853 0.938436 -0.647665 -0.0895231 0.76601 -1.47562 0.952261 0.938549 0.507297 0.51368 -0.996686 0.615098 -1.2162 1.41146 0.174342 -0.462481 -0.33807 -0.244889 -1.3318 -0.130719 -0.527789 -0.00750742 
0.0827544 -0.0372901 1.29191 0.505722 -0.852772 0.149115 0.529775 0.212167 0.143999 -0.454504 -0.634819 0.63549 -1.7842 -0.330035 -1.87532 -0.259428 -0.594083 -0.145759 -0.519442 -0.0514469 -0.131271 -0.456748 -0.400474 -0.341314 0.66998 0.921465 -1.06731 -0.280188 -0.506357 0.582993 0.285655 -0.112257 -1.37962 -0.319928 1.28938 -0.759834 -0.777394 0.271448 -1.17055 0.439917 
-0.35361 0.683856 0.359433 0.656258 1.07897 -0.609316 0.861901 0.11563 0.565583 -1.33207 -0.942493 1.27935 -0.788327 0.688301 -0.904103 -0.692733 0.182588 0.803004 0.145419 -0.257863 -0.0688208 0.438971 0.063786 0.757339 -0.365794 0.986381 0.719469 0.066044 -0.448838 1.24391 -0.816252 -0.0283698 0.0446868 -0.094799 -0.0620885 -0.395055 -0.959794 -1.01432 -1.28929 0.0224059 
0.272382 0.551614 1.75935 -0.384043 0.607367 -1.12647 -0.856014 -0.271408 1.06966 -0.39083 -2.46232 0.446961 0.425299 -0.990283 -1.11847 0.0319851 -0.411267 0.592333 -0.862405 1.40642 0.138702 -0.324069 -1.49746 -1.42191 1.49442 1.94691 0.445006 -0.492541 0.347927 -0.309677 -0.261373 -0.0396618 -0.125578 0.192169 0.0078019 -0.381117 -0.522884 -1.12023 -0.227696 -0.599363 
-1.19251 -0.575032 -0.543178 -0.633112 0.82113 -0.775149 -0.222872 -0.259063 0.939093 0.684211 -2.3085 -0.284981 -0.595962 -0.665405 0.543935 -0.37256 -0.917504 0.695249 0.349545 0.424596 -0.417696 0.631095 -0.856134 0.515032 0.771059 0.227067 0.799822 -0.197989 1.68478 1.38259 0.49812 0.180384 0.745969 -0.393538 1.06556 0.224287 1.17113 -0.495593 0.411655 0.266961 
-1.19778 -0.060236 0.0234321 0.614808 -0.702622 0.153703 0.602154 -1.44983 0.544315 0.329009 -1.3096 1.02829 0.464321 -0.34122 -0.432323 -0.538767 -0.62528 -0.183267 0.187261 -0.361728 0.87959 -0.450864 -0.0106926 -0.186403 0.941174 0.594381 -0.420674 -0.391511 0.364889 0.244485 -0.228489 1.28281 -0.0413917 -0.0367778 -0.252584 -0.461888 -0.572373 -0.802273 0.130055 0.135134 
-1.37136 0.782273 0.7994 -0.119208 0.0598573 -0.411249 0.879411 -0.261893 1.27299 1.58932 -2.68159 -0.984351 -0.11842 0.177379 -0.2068 -0.524748 -0.348315 -0.333009 0.34382 0.53397 0.125953 0.959092 0.330467 -0.204311 0.167824 -0.956497 -0.183095 -0.835815 -0.812494 -0.475196 1.14396 0.990438 0.0978862 0.112679 0.778249 -1.13278 -1.04375 -1.05461 -2.54154 -0.824389 
-0.239716 -0.0309481 0.640712 0.453875 0.441154 0.855985 0.010607 0.046423 0.417328 1.24004 -1.76078 -0.381372 1.84008 0.421367 -0.358437 -0.413965 -0.504636 -0.292067 -0.838995 -0.0575699 0.103119 -0.593325 -0.232628 0.287141 0.369371 0.92565 -0.0564361 0.985522 -0.309781 0.0208265 -0.00814756 -1.32957 0.826814 -0.262596 0.886857 -0.675438 -1.27681 1.5861 -2.09631 0.387619 
-1.4179 -0.0103866 -1.02158 0.808005 -1.05186 0.961273 0.375234 0.339924 0.286652 1.15029 -0.562982 -0.778695 0.74199 0.837774 -0.36037 -1.73192 0.41178 -0.780177 0.599169 0.446845 -0.601466 -0.0100298 -0.198858 0.744381 -0.100819 -0.942547 0.586186 -0.749115 0.784593 0.33378 -0.497699 0.387026 0.064735 -1.04606 -0.750239 -2.09753 0.24333 0.580692 -1.03349 0.804405 
-0.273255 0.15549 0.451628 -0.525749 -0.293574 -0.0458512 0.928617 0.250573 0.808804 1.35064 -0.566175 -0.667966 0.0687892 0.965276 0.14121 -1.71024 -1.27537 -0.104824 -0.599034 -1.4258 0.348119 1.09415 -0.4939 0.316883 -0.455428 -0.587348 0.0712795 -0.0825086 -0.309608 1.70343 -0.982366 -0.72892 0.682563 -0.548709 -0.179884 0.690559 0.86957 -0.635164 -0.408409 -0.331609 
-1.75625 -0.180898 -1.07322 -0.403807 0.811624 0.320978 -0.212452 0.97578 0.634546 0.0567143 -1.18779 0.100579 0.724942 -0.592459 0.68251 0.685581 -0.509977 0.44016 1.01981 -0.661564 -0.168866 0.199092 0.211493 -0.385913 -0.00216663 0.506688 -0.126147 -0.151141 0.132661 0.154254 0.259272 -0.324424 -0.241178 -0.17355 -0.915331 1.31873 0.0702802 -1.35666 1.83641 -0.150668 
-0.465869 -0.286169 0.0527754 0.967121 -1.2553 0.255458 0.196231 0.248411 1.21756 -0.00317999 0.680074 0.0500918 0.870651 -0.310827 -0.0811498 0.0755244 0.52546 1.30906 0.668232 0.504222 0.317209 0.317618 -0.213161 -0.0225127 -0.545058 -0.24819 0.348844 -0.0900281 -0.753676 0.794709 0.488162 -0.119696 -0.763308 0.081262 0.946745 -1.16977 -1.02931 -0.374223 0.765023 -0.984927 
0.75988 -0.399109 -0.111595 0.788536 0.377226 0.915491 1.07641 0.215136 1.11791 -1.30968 0.0110625 -0.40147 -0.782734 -0.536446 0.340628 -0.00681864 -1.3816 0.911844 -0.270372 1.33836 1.25337 1.0245 -0.0027714 0.340251 -1.10967 0.0272171 -0.782154 -0.36909 -0.8562 -0.788821 -0.820929 1.48506 0.90636 0.845075 0.261781 -0.279496 0.0122568 0.0599669 -0.580962 -0.915514 
-0.346618 0.399779 -0.557823 -0.580933 -0.213355 0.1823 1.03577 0.869037 0.243138 -0.641761 0.539646 -0.157543 1.3198 0.233418 0.290671 0.917504 -1.61286 0.0370727 0.353025 -0.57521 -0.347303 -0.0253261 0.313866 0.52665 0.644847 0.442637 -0.604541 -0.140351 -0.724738 0.535945 -0.546415 -0.348263 0.286135 0.201847 -0.861273 0.0423417 -0.566657 0.90977 -0.855554 -0.668797 
-0.277171 0.677209 -1.23967 0.532342 -0.996051 1.05236 -0.0407641 -0.161461 1.09177 0.673137 0.248429 0.184632 1.20827 -0.367285 -0.0165162 0.256373 -0.953798 0.824358 0.0486826 0.131912 0.793055 1.23496 -0.252701 -0.381865 0.725777 0.72339 0.7527 0.372713 0.111576 0.272781 -0.71351 -0.0550629 -0.584103 -0.763888 -0.117028 -0.354453 0.52468 -0.918036 0.703404 -1.04071 
-0.0663797 0.694292 0.377412 -0.406007 -0.010819 -0.33523 0.231685 1.49259 0.0840632 -0.31636 0.385367 0.332329 -0.698273 -1.62496 -0.0277634 1.02358 0.656357 0.760142 -0.756351 0.62622 -0.0893958 0.645467 -0.494174 -0.0816981 -0.445267 0.601684 -0.847397 -0.552652 -1.55797 -0.373167 -0.886199 -0.0688914 0.723667 -0.20954 0.716344 -0.458788 1.58529 0.560564 -0.154863 -0.117832 
0.403068 0.46885 -0.752321 -0.237667 -0.10649 -0.115127 -0.901019 0.590036 0.0637621 0.536752 -0.670366 0.181359 0.0907085 0.765292 -1.48583 0.364785 -1.06623 -0.230916 -0.995894 -0.671588 0.236002 -0.289132 0.649362 -0.605103 -0.138105 2.09778 -0.805623 0.0014126 1.80188 0.923227 0.572496 -0.0795503 0.385458 -1.17649 -1.36292 0.299665 -0.966567 0.989517 -1.3182 0.571483 
-0.056995 0.977587 0.952473 1.06164 0.582125 0.579991 0.282958 0.0416062 0.0808683 0.95455 -1.01558 -0.157787 0.399926 0.168898 -0.733967 0.323915 0.18494 0.483416 0.0953428 0.125434 -0.0345773 0.00808908 0.686105 -1.53636 0.802365 0.849007 -0.235251 0.450834 0.650896 -0.217138 0.139857 0.71577 0.268879 0.806096 0.00635779 -0.232826 0.274986 -0.800191 -0.593495 -0.627791 
-0.167582 1.11679 -0.356759 -0.192867 -0.450594 1.40726 0.319899 -2.2073 -0.851096 1.00171 0.573243 0.67901 1.05025 0.684 0.0362403 0.0324962 -0.213837 -0.499102 -0.412137 -0.21317 0.28241 0.530005 1.28525 -0.244487 0.727173 0.880756 -0.927165 -0.82161 1.62608 -0.0656903 0.884285 0.778361 0.637867 -0.331092 -0.520361 0.0307644 -1.34791 -1.20357 -0.663241 -0.314478 
0.645961 0.0900678 -0.610344 -0.0900515 0.571153 -0.829612 0.423409 -0.974766 -0.674248 0.763662 -1.22936 -0.334725 0.944504 0.663843 0.121695 0.00992548 -0.210437 -0.0116891 0.0212067 0.565942 0.171492 0.601424 0.215493 0.9385 -0.362734 0.559971 0.276267 -0.0335835 0.163353 -1.4227 1.39899 -0.200431 -0.309045 -0.217594 -0.619979 0.190879 -0.998731 -0.337298 -0.485267 -0.195135 
0.312151 -0.0265259 -0.444607 -0.93642 -1.26637 0.206425 0.16467 -0.460661 -0.530011 0.985412 -0.50673 1.60877 1.13518 0.277267 -0.0306942 -0.545031 1.18894 0.00169584 -0.00853101 1.30797 -0.558542 0.233528 0.306852 0.3019 0.00141115 0.0698153 0.109731 0.797954 -1.04596 0.0800103 0.685557 0.155841 0.25401 0.79412 -0.649827 -0.799426 -0.567195 0.84654 -1.63837 -0.446917 
2.50366 1.02702 -0.0145719 -0.305492 -0.8484 -0.612585 -0.388549 0.77453 -0.406629 0.747244 0.648386 0.651419 0.1356 0.323445 0.560542 -0.534038 -0.840913 0.311244 -0.928328 -0.748751 0.428145 0.274519 0.728735 1.03407 -0.433919 -0.527441 0.228964 -0.659342 -0.434515 -1.07542 0.835615 -0.417078 -0.243767 -0.814402 -0.858748 0.768049 0.0370115 -0.32041 -1.45891 0.476413 
-1.04677 0.857755 0.402815 0.577761 -0.610127 -0.372185 0.110514 -0.246906 -0.699043 -0.882006 0.272134 1.13261 0.118378 -0.0463729 0.119956 -0.419943 0.80405 0.444205 -0.118565 -1.10846 -0.25746 -0.103845 -0.347352 -0.179727 0.365864 0.62054 -0.731404 0.00203132 -0.540052 0.682805 0.0424434 0.327633 -0.233293 -0.24509 -0.960947 -0.743432 1.03799 0.975399 -0.23827 -0.164775 
0.589675 -0.901905 0.568122 -0.714674 -0.738632 -0.371562 -0.828757 -1.92892 -0.291777 0.546444 0.679441 -0.52643 -1.23829 0.278539 1.33984 -1.44438 -0.00624981 1.70211 0.666468 0.380718 0.571259 -0.214966 -0.582672 0.573483 1.45819 -0.315517 0.697769 -0.561571 -1.73125 0.612674 0.328476 -0.56143 0.584144 -0.733637 -1.88817 0.599668 1.36899 -0.205692 -1.12484 -1.26591 
0.0389542 0.200047 -0.249744 0.0168893 0.859844 -0.0400323 1.01722 -0.293173 0.813038 -0.719689 -1.55475 -0.583277 0.413468 0.0654895 -0.00576391 0.048178 -0.0212226 0.788704 0.158016 0.0892446 0.0754698 0.655386 0.523968 -0.290664 0.868327 -0.516919 1.9645 -0.422556 -0.174853 0.676714 -0.115686 1.35592 0.80497 -1.81591 0.0101018 -0.376069 -1.14739 -0.544935 0.822576 -0.762274 
0.121903 0.560213 -0.450784 -0.564543 -0.191585 1.22067 0.615762 0.800022 1.27266 -0.546012 0.917408 1.57416 1.03978 -0.152939 1.12376 -0.0486964 -0.720529 0.675731 -0.0100772 0.971486 0.465212 0.97284 -0.64053 0.990205 -0.19927 0.125201 -0.164069 -0.41644 -0.62703 0.140196 0.0317613 1.49004 -0.265718 0.385131 -0.17767 -0.990893 -1.20508 -0.170993 -1.13657 -0.367567 
0.6812 -1.2702 -0.968218 -0.372086 1.64359 -1.24505 -0.779314 1.06913 -0.229842 -0.107062 0.954249 0.254053 -0.099639 -0.459028 0.30239 -0.472968 -0.129886 0.798604 -0.724807 0.689729 0.357343 0.403039 -0.853492 -0.554619 0.120167 -0.957241 -1.79673 -0.561894 0.131466 -0.115368 -0.179042 2.21154 0.45844 0.0246775 0.678909 0.627778 0.649209 -1.25536 0.737663 -0.545163 
-0.723323 -1.51261 0.913584 -0.100003 -0.074557 1.24147 -0.730752 -0.595463 -0.122331 1.47701 1.00322 0.00149786 -0.16404 -0.241367 -0.127142 -0.67963 0.791608 0.31769 0.666905 0.486327 -0.0238633 -0.302855 0.217359 -0.756881 -0.822453 0.500005 0.481988 -0.0540633 0.687276 0.0262942 -0.196467 2.47872 -0.0207789 -0.814763 1.18034 -0.88528 0.3583 0.946754 0.256675 -0.213861 
0.0101551 0.578297 0.11447 0.546438 0.543655 1.63941 0.503988 0.961701 -1.38777 0.793851 1.0655 -1.22012 0.02501 0.428734 0.666932 -1.31761 -0.00273554 -0.183036 -0.173302 0.281302 0.532401 0.226227 -0.888566 -0.335512 -0.521131 0.185285 -0.23023 0.772947 -0.216253 0.450393 -0.160438 2.02281 -0.84891 -0.524542 -0.73048 -1.2518 0.279251 -0.610026 0.266588 -0.148548 
-0.786908 1.08195 0.69457 -0.217822 -1.75087 2.08119 0.206731 0.953043 0.841384 2.35704 1.7188 -0.529577 -0.371845 1.09892 -0.273378 0.510077 1.35518 0.575636 -0.340314 0.859518 -0.364551 -0.946224 0.739486 -0.298159 -0.601417 -0.433561 1.07005 -0.156117 -0.812681 -0.581479 0.0455408 1.45111 -0.313181 -0.949494 0.0908015 0.429727 -0.553 0.184704 -0.157485 -1.7736 
1.02276 -0.507485 1.92195 0.255802 0.531031 1.93627 -0.330628 -0.413382 0.6076 2.45724 0.890828 -0.613055 -0.0784199 0.546661 0.216877 0.605154 -1.1858 1.04578 0.578982 1.22595 -0.115447 -1.01972 0.190057 -1.93127 2.57612 0.209654 0.182825 -0.467709 0.306565 0.922204 -0.325029 -0.180184 -0.928848 -0.144276 0.488714 -0.325209 -0.205698 0.549417 0.385254 -1.21054 
-0.053446 0.745832 0.0502835 0.961244 1.06709 -0.615643 -0.417104 -0.0594348 -0.721332 0.47553 2.12567 0.106211 0.112926 -0.313024 1.33132 0.945679 0.45728 0.380288 -0.622901 0.972679 1.43506 -1.33563 0.521762 -1.45754 2.0517 -0.235541 0.919013 0.25405 -0.583653 -0.576007 -0.970403 -1.74866 0.404802 -0.228215 0.563209 -0.822459 -0.419748 -0.170753 0.887074 -0.197367 
0.444426 1.05835 0.0300119 0.0932551 -0.431133 0.12146 0.0327054 -0.595466 -0.914879 0.892853 1.19662 0.396703 0.486105 0.137614 1.53099 1.47229 -0.530879 2.06671 -1.09181 -0.820795 0.229337 -0.58758 1.07021 1.43945 0.117243 1.0814 0.478441 -0.161182 0.603311 0.878585 -0.406946 0.590527 -0.605743 -0.11208 0.654898 0.703348 -1.1141 -0.226035 1.05628 -0.0137396 
-0.604675 1.3096 -0.284981 1.20178 -1.19324 0.298902 0.413813 -0.55385 -1.50457 -1.37897 1.16607 0.18039 0.176366 -0.409295 0.981383 1.00541 -0.38648 1.69833 -0.446045 -0.326081 -0.157085 -0.758346 0.489269 0.530575 -0.296117 -0.00991596 -0.225484 -0.144487 -1.75758 0.644589 0.0716646 1.4238 0.339537 0.238607 0.105062 0.794665 0.0285642 -0.304681 -0.231884 0.0636621 
0.400562 0.331344 0.0719834 -0.257008 -1.48864 -0.0862861 1.14009 0.523407 -0.181703 0.342142 1.96093 0.362206 0.206309 0.319982 0.72732 1.42948 0.922387 0.494206 -0.0944814 -0.012769 1.24836 -0.903459 0.717381 0.547261 0.449601 1.72993 0.345142 0.611946 0.0593249 1.0132 0.600461 0.766493 0.897796 -0.571102 -0.355455 -1.91606 1.26876 -0.204024 -0.361674 -0.431326 
0.086732 1.49448 -0.209079 -0.641436 -1.77588 0.167777 0.358971 -1.05062 0.389087 -0.267396 -1.10194 0.753988 -0.110902 0.774596 1.22094 -1.15004 -0.283222 1.36699 0.45001 -0.33813 0.296607 0.113727 0.110665 0.26914 -0.424772 0.640931 0.0600619 -0.30996 -0.682212 -0.361268 -1.05926 -0.821538 -0.07127 -0.703493 -0.319576 -0.763031 1.20939 -1.06128 0.292452 0.281165 
-0.561712 0.253463 0.274983 0.327826 -0.182863 0.357629 0.683783 -0.780033 -0.0238205 -0.632726 1.04814 0.949102 -0.181253 -0.0265915 0.897623 -1.73556 0.0524482 0.866996 -0.520749 -0.0842329 0.285004 -0.76732 -0.814247 0.517171 0.370547 0.91317 1.63821 0.7891 0.034565 1.58356 0.478052 -0.363361 1.58763 0.216885 0.565243 -0.941043 0.179412 0.533382 -0.909363 -0.642824 
1.30602 -0.520705 0.656081 -1.17849 -0.476035 0.0292911 -0.589556 -1.63697 -0.123617 0.945173 -0.599908 0.942911 -0.352638 0.0508207 0.58092 -1.81271 -0.707501 1.35721 0.0160119 -1.30005 0.270924 0.424192 -0.75015 1.51564 -0.529994 0.399159 0.293395 0.12358 -1.61052 0.832436 0.0393419 0.056782 -1.08825 -0.848412 0.536814 0.470046 1.01245 0.182819 0.593048 0.422969 
-0.16892 0.967275 0.334897 0.476504 -0.109483 0.035445 0.150531 0.757686 -0.582816 -0.516243 0.390525 0.116508 0.497803 -0.480733 0.741286 0.761683 -1.71233 1.09002 -0.474623 0.246993 -0.633748 -0.552357 0.910938 -0.486828 -0.637061 0.480281 -0.0876652 0.102038 0.945367 -0.200576 -0.967918 1.19661 0.479771 -0.44172 -0.739669 0.682065 -0.509542 0.124859 1.04378 0.29558 
1.13233 0.223404 1.42171 0.68593 0.993604 1.84581 -0.788995 0.626101 0.994727 0.406012 0.396154 0.309618 0.99588 -0.362278 0.186436 -0.792814 1.33056 -0.34614 -0.0240853 0.561219 -0.726681 -0.808845 0.640648 0.98408 -0.589668 -0.604355 -0.0563544 -0.0166681 0.0288574 -0.158303 0.615579 2.09791 -0.282145 -0.0374528 0.576675 -0.911853 0.436644 0.479214 -0.327447 -0.0307344 
-0.292612 0.840027 0.527926 0.198991 -0.654187 1.70337 -0.09788 0.416686 0.90953 -0.603943 -0.500563 0.0903203 1.12386 0.188626 0.132545 -0.301675 0.153652 0.690197 -0.441151 0.67904 -0.876568 0.14157 -0.48899 0.174862 -0.594501 -1.38657 -0.885553 0.256961 -0.235877 -0.206152 -1.30318 0.199012 0.00296192 -0.719216 0.549269 -0.843145 1.04479 1.11228 -0.951373 -0.74825 
-0.434126 0.0820184 1.16246 0.124174 -0.686034 1.38293 0.12114 -0.389344 0.209378 -0.342523 1.47172 0.129397 -0.316418 1.49031 -0.548542 -0.0863334 -0.515852 0.194646 -0.00684142 1.50597 0.235548 0.172391 -0.573284 -0.51218 -1.17825 -1.93972 -0.721676 -1.21329 -0.174596 -1.15979 -0.149163 -0.0346494 0.425556 -0.365459 -0.125393 -0.482048 0.369004 -0.146101 -0.453416 0.0647581 
0.302775 -0.750243 1.07645 0.0326876 0.566892 0.138636 1.14088 -0.685695 0.150958 0.433888 0.132979 -1.18086 -0.0377795 1.13464 -0.570711 0.37351 -0.473456 1.08701 0.574813 0.0934442 -0.213079 -1.16635 0.208554 -1.11291 -1.62288 -1.36673 -0.440059 -0.900713 -1.11953 0.279886 0.496967 -0.0559602 0.00997938 -0.966178 0.778051 0.89417 -0.503215 0.188447 0.854527 0.702999 
-0.68854 -0.715052 2.21305 0.0570143 -0.169763 0.518447 0.99792 -0.656305 -0.612944 0.456404 0.445999 -0.76051 -1.5177 0.0421278 0.784692 0.733595 -1.1495 0.723421 -0.501634 0.820972 -0.477796 -1.33133 0.00983321 -1.16711 -1.6564 -2.69762 -0.513486 -1.01691 0.237954 0.745533 1.53258 -2.01155 0.316753 0.376562 1.36659 -0.399067 -0.627397 0.134329 1.20858 -0.162575 
0.399301 -0.298399 1.39073 1.19047 1.22407 -0.466526 1.91264 0.876055 0.252448 -1.13302 -0.339026 -0.0139534 -0.490045 1.49009 1.95603 0.398026 -1.46658 0.195956 -0.251393 1.30687 0.121714 -0.580851 -1.46506 -2.27061 2.61943 -2.12438 0.801167 0.0346986 0.271358 0.75447 -0.850159 -0.689873 -1.30189 0.044084 -0.0471864 0.126465 0.146113 -0.286687 1.17018 -0.939196 
-0.474207 -0.825118 -1.32648 -0.00185694 -0.275496 0.282585 0.39134 2.12896 0.210879 0.0321364 0.63655 -0.903657 1.0458 0.889408 1.8499 0.420965 -0.806344 1.27355 -1.09297 0.671304 -0.267745 0.0101135 -0.0764912 0.785927 2.10187 -0.840612 0.855734 -1.12732 -0.977038 -0.0375461 0.561014 -0.150392 0.205665 -1.23068 0.789604 -0.129492 0.594534 -0.637363 1.97929 -0.520649 
0.78682 -1.65389 -0.775093 0.412166 -0.863554 -0.484833 0.794211 2.94169 0.163403 -1.44928 1.39802 0.227155 1.97558 0.06727 -0.835242 1.28958 -0.692978 0.844588 -0.244036 -0.0650815 -0.279539 0.53037 0.411275 1.92955 1.64212 0.351497 -0.219835 -0.207628 -0.283222 -0.367089 -1.09921 0.191937 -0.49261 0.0305993 0.333295 -0.193253 0.375873 0.0426688 1.39841 1.11497 
-0.418763 0.970618 0.976535 1.93317 -0.139865 0.757857 -0.841604 -0.642887 0.986363 -2.12858 0.522303 -0.0487943 1.22091 0.647182 0.28384 -0.162834 0.317978 0.797107 -0.482715 0.876467 -0.738087 -1.10377 0.647059 1.98934 -0.00776043 0.374398 0.370171 -0.461773 -1.39704 0.699443 -0.649755 -0.941881 0.403392 0.436522 0.190527 0.648967 -0.129352 0.166909 2.12591 0.0340125 
0.593027 0.289931 0.541092 1.66989 0.492666 -0.358367 -2.2437 -1.53447 0.879257 0.445444 -0.958908 -2.02953 -1.07735 0.0241545 0.301904 -0.737147 0.319107 -0.277172 0.894703 0.131861 -1.77227 -0.167449 0.846387 0.929774 1.15301 1.24124 0.76452 1.0733 -0.582547 -0.152993 -0.0702835 -0.441065 -0.927729 -0.29508 0.645181 -0.159601 -0.677198 0.321387 0.0145263 -0.514046 
0.665457 -0.767323 -0.810742 1.00721 -0.323933 -0.558539 -2.50878 -0.128212 -0.388465 -0.954843 -0.0346117 -0.698843 -0.945656 -0.968808 0.559064 -2.12021 -0.429047 -0.344993 -0.142702 -0.765238 0.100817 -0.940583 0.475536 0.217865 -0.322732 1.12488 -0.566007 -0.912046 -0.229677 0.220912 -0.1144 -0.34766 -0.998112 -0.0359653 0.44512 -1.32066 -0.509591 0.263448 0.74791 -0.886755 
0.715377 0.583617 0.856131 0.0487429 -0.488414 0.0172824 -1.41132 -0.87068 0.596365 -0.333037 -1.22077 -0.316577 0.283028 0.660469 -0.266979 -3.28546 0.549594 -1.40385 0.97818 -0.513977 -0.650418 0.255121 0.208529 -0.040042 0.523846 -0.87206 0.691096 0.532497 -0.528147 1.82544 -0.855035 1.03688 0.648066 0.683821 -0.049447 -0.873923 -0.20067 0.849901 -0.682202 -0.545754 
0.372321 1.12687 0.449601 -1.27452 -0.561236 0.361591 -1.77069 0.496718 0.30073 1.938 0.439734 0.446466 -0.0887571 1.09345 0.727055 -2.05172 -0.76764 0.940397 0.00401479 -2.08582 0.218841 -0.849539 0.36722 1.69586 0.00595059 0.109689 -0.0241685 0.408842 -0.856151 0.611876 -0.736838 0.117416 -0.502926 -1.15774 -1.30005 0.316142 0.348108 0.393002 0.429155 0.278592 
-0.306326 0.676209 1.27885 0.0165407 0.376813 1.33224 -1.12972 0.69219 0.330948 -0.479246 -0.450715 0.513788 -1.73003 2.14499 -0.572408 -0.559167 -0.0849127 0.218773 0.508262 0.35382 -1.27139 -1.0402 -0.113401 -1.0967 0.390914 -0.687498 -0.912916 -1.37424 0.559232 0.519325 -0.448265 0.594484 -0.513765 -0.240497 1.6181 0.740885 0.136562 -0.122272 0.311739 0.974806 
-0.241854 0.040923 2.05924 1.46459 -0.426663 1.54371 -0.571163 -0.375714 0.849592 -0.911754 0.0154217 0.881758 1.19477 2.29495 0.350415 -0.576768 0.885193 -2.1406 -0.614744 0.300155 -0.153683 -0.790906 0.623021 -0.105606 -1.95239 -0.0740053 -0.38944 -0.126034 -0.0690895 -0.325993 0.175529 -0.914964 -0.922048 0.342462 1.09967 -1.51369 1.0651 -0.285307 0.204991 0.956541 
1.06693 1.18089 0.948037 1.12356 0.549954 -0.311495 0.0186373 -0.12864 0.977879 -0.676319 -0.552803 -0.155376 2.21205 2.44161 0.189275 -0.364945 -1.38005 1.22093 0.741136 0.0796275 -0.690472 -1.33778 -0.167002 -1.19521 -0.830414 -0.148265 0.89662 0.120845 -0.460772 -1.01585 -1.5537 0.118847 0.891729 -0.733907 1.26971 0.806011 0.844157 -0.168202 1.60209 1.00583 
1.03095 0.196075 1.3591 -0.0741949 0.694615 -0.257787 0.331293 -1.3073 0.915766 0.0181598 0.512804 0.0946998 -0.155433 2.45469 0.692166 0.10175 -0.262541 1.41977 -0.0639162 -0.812001 0.159085 -1.88089 -0.612779 -1.01424 -0.500361 -0.470984 0.0102463 -0.683056 0.68448 -0.936438 -1.0899 -2.16114 0.499263 -1.06036 0.793206 0.462807 0.875087 -1.3049 0.926732 0.734539 
1.40439 0.887707 0.771873 -0.153322 0.0344365 -1.25173 -0.417147 0.558628 -1.12406 -1.09199 0.560611 0.162428 -0.909186 1.26157 -0.263711 0.413383 -0.4694 -0.0233023 -0.571129 0.751329 -0.562174 -1.26675 0.138459 -0.266318 -2.41672 -0.632216 -0.409223 0.272482 -0.645088 -1.0574 0.073074 -1.33985 1.38459 0.461481 -0.872682 -0.104346 -0.896366 -0.730616 -0.717301 0.300639 
-0.15234 -0.073791 -0.666502 -0.225035 0.397451 -1.40501 1.7529 1.30262 0.21682 -1.4086 -0.0477327 0.0242672 -0.565571 0.897124 -0.073262 0.000754937 0.235595 0.863034 -0.705011 -0.883636 -1.03594 -0.614756 -0.479311 -0.173718 -2.21016 -0.399777 -0.310965 0.523087 -0.736795 0.044904 0.540422 -0.526235 -0.64296 -1.11498 0.116241 0.542189 1.12718 1.15067 0.981978 -0.181874 
0.530678 -0.895487 -0.793133 0.761053 0.231777 -0.600105 1.14783 1.06602 -0.0130742 -0.14481 0.314609 0.477214 0.404484 1.96982 -1.3037 1.64643 -0.843 -0.100851 0.646255 1.26407 -0.00342936 0.648887 0.161908 -1.00717 0.295153 0.103972 -1.28951 -0.00485924 1.57083 0.0788857 -0.563927 -0.159805 0.0954032 0.395038 0.45975 -0.674917 0.828853 -1.31475 0.685777 -0.478927 
-0.436748 0.25257 -1.10057 -0.233465 -0.764429 -1.11397 -1.87162 1.7268 -0.651888 -0.432925 0.815806 -0.294304 0.0966296 0.243158 0.946435 0.899866 0.441661 0.672689 0.919897 0.806471 0.235958 0.0435073 -1.46037 1.22335 1.83882 -1.7137 -0.801776 -0.0885595 0.198428 -0.1255 -0.692935 0.0536785 0.523558 -1.41386 0.111007 1.0701 0.464326 -0.630808 0.0787462 -0.439072 
0.190971 0.00919108 0.0968575 -1.01976 -0.166573 -1.48704 -0.533142 -0.0743074 -0.509467 -0.0755971 -0.755617 0.516221 -0.437327 0.603956 -0.471068 0.12699 -1.262 -0.434979 -0.499155 -0.592951 1.42143 -0.512283 -0.726272 1.59278 0.760809 -1.05087 -2.14434 0.173414 0.106607 -0.239089 1.47078 1.08421 0.705073 -0.0451758 -0.526697 1.2511 0.646326 0.367738 0.136338 -0.118875 
-0.519391 -1.35467 -0.739483 0.53932 -1.39442 -1.55704 0.154643 -1.35668 0.735658 -0.264361 0.414047 -0.839722 -0.0502904 0.623283 0.194263 -0.77348 -0.0100222 0.309207 -0.174039 0.31555 -0.590744 0.295458 -1.01484 1.13483 0.433606 0.290669 -0.341435 -0.331381 0.673962 0.4543 0.366826 0.194603 0.407767 -0.851177 0.0486444 1.64792 1.64748 -0.468257 1.19994 0.90223 
-0.255097 -0.260861 1.50264 1.03313 0.34232 -0.601061 -0.917446 1.19563 -0.509252 0.514311 0.300323 -1.27836 -1.34091 -0.350549 -0.445449 -1.23749 0.0630265 1.78736 -0.264051 -0.118568 -0.206934 -0.688902 1.50739 0.694802 0.448189 0.754171 -1.6698 0.319311 0.712155 -0.480647 -0.304151 -0.205744 0.0820677 -0.438381 0.347805 0.562096 0.284371 0.224964 0.436789 -0.462809 
0.564273 -0.0703152 0.146318 0.296723 0.525627 -0.157866 -0.956156 -0.204402 1.15191 -0.556982 0.670699 0.325955 -0.900482 0.309391 -0.234354 -1.47974 0.352582 -0.257018 0.149732 0.192453 -1.67725 -0.757935 -1.17069 0.801933 -0.577132 0.353506 -2.55125 -1.46625 -0.953079 -1.17627 0.391777 0.160968 1.35204 0.266562 -0.420311 0.404421 0.149848 0.0322348 -0.410951 0.826791 
-1.68945 0.00733943 0.449535 -0.856224 -0.761065 0.633077 -0.0794486 -0.707467 0.551741 -1.14983 -0.301924 -1.22848 1.67591 -1.23157 0.225446 -0.708038 -0.516202 0.0680746 -0.750055 0.387048 -1.02367 -0.308407 -0.823069 -0.397008 0.0702576 0.120653 -0.839195 -0.580507 -0.392692 1.36586 0.0630009 -0.370796 -0.198035 -0.660987 0.00767671 -0.333569 -0.61778 -1.29565 0.0178731 2.12076 
-1.35445 1.28817 0.383013 -1.00695 -2.83772 -0.517301 -3.07263 0.924758 1.08215 0.614301 0.431996 0.777175 1.17679 1.22064 0.934391 -0.158107 -0.158644 2.0027 -0.85345 -0.515902 -0.477486 -1.03 0.769686 0.747822 0.225823 -0.786157 -2.39443 -0.928318 0.547398 -0.186074 -0.0906447 0.0834543 -0.0245663 -1.5381 -0.755955 0.360274 -0.560188 -0.637693 0.819217 -0.233697 
0.44167 -1.64907 1.11189 0.621694 -0.111417 -0.512073 0.761462 -0.0277542 0.0896807 0.785218 0.696243 -0.447418 -0.729442 2.84831 -0.429893 -0.540388 -0.972973 -0.342494 -0.608193 0.327617 -0.0415485 -0.421529 1.50886 -0.0325084 -0.664717 -1.89975 -1.44908 0.016574 -0.146148 0.010709 -0.117573 -1.02714 0.229791 -0.900364 0.27557 0.182704 0.694554 0.97464 0.765327 0.440895 
-0.122043 0.62244 0.619513 0.00427636 -1.07467 0.0482687 1.15166 -0.107364 0.949209 1.09745 0.501533 -0.103578 -0.292831 3.31602 0.629328 -0.0237579 0.113458 -2.24724 0.29044 0.384469 -0.482606 -1.59599 1.60745 -0.633882 -0.598327 0.799434 -0.344675 0.0913589 -0.350248 -0.658375 -0.874307 -1.52782 -0.0502681 -0.397861 0.147581 -0.757931 -0.132861 0.647502 0.379033 -0.4731 
-0.59401 0.684975 1.11259 0.381309 0.14734 -0.420753 0.973305 -0.535791 -0.38442 -0.468742 0.808457 1.00459 0.199439 0.489059 -1.29661 -0.467037 0.0253272 -1.75812 -0.0195531 0.369196 -0.967466 0.33577 -0.622939 -0.623574 0.822124 0.159291 -0.054255 0.0439096 -1.09122 -0.925904 0.326072 -1.16065 0.480886 -0.215484 -0.152281 0.391743 0.490814 -0.557424 0.297266 0.606425 
-0.686024 1.15369 0.550517 -0.398682 -0.342132 -0.12447 0.43698 0.88807 -0.0520176 -0.882837 -0.0428682 -0.330229 0.652219 -0.142237 0.15549 -0.597476 -0.751803 -0.040446 -0.372571 -0.0731351 -1.43329 1.20842 -1.52385 -0.07006 -1.15264 -0.418912 -0.974653 0.0598347 -0.30817 0.187812 -1.10915 -0.84233 -0.3072 -0.0554857 -0.463232 0.00904249 0.819775 0.98282 1.47733 -0.00680306 
-0.374888 -0.0713001 0.894623 0.444831 0.018582 -1.07876 0.95228 0.236238 -1.20909 -0.756772 1.06154 -0.241389 1.3906 0.370212 1.67718 -0.0197127 -0.0926085 0.266525 -0.554018 -0.209115 0.873272 -0.14995 0.106383 -0.23118 -0.900247 1.01525 -0.230617 -0.378005 -0.369707 -0.120878 -0.650307 -0.723649 0.511267 0.351104 0.583162 0.0464516 0.631662 -0.054583 -0.486073 0.097007 
0.0974446 1.0904 -2.01009 -0.338775 0.46242 -1.01323 -0.361933 0.123648 -0.152208 0.547349 1.29177 -0.362117 0.535647 -0.2824 1.51614 1.25088 0.634756 1.29206 -0.206959 -0.866866 0.374049 -0.105692 -1.69364 -1.23059 -1.55353 -0.742216 -0.91032 0.577956 0.982301 -0.667735 -0.107247 0.784577 -0.7301 0.23342 -0.146101 0.465667 1.25198 -0.636663 1.13174 -1.5543 
-0.726243 0.348154 -1.58132 0.259031 0.176375 -0.601001 -0.84272 1.86347 -1.24305 0.379512 -0.660744 -0.663929 -0.648089 -1.20202 1.02271 0.338462 -0.824413 0.182436 -0.17006 -0.382378 -0.0387588 0.631223 -0.585768 0.29538 0.124625 0.708124 -1.27757 -0.0856088 1.30801 0.0866864 0.19727 0.947094 -0.142716 -0.426044 -0.285894 -0.266418 1.4098 -1.38551 -0.260052 -0.2005 
0.743849 -1.16621 -0.44329 0.041154 -0.0501264 -0.915409 -0.352373 0.180563 0.477719 0.456492 0.267499 -2.24402 -0.145662 -0.156919 0.268513 -0.844556 -0.468864 -0.428186 -1.16178 0.244328 0.904594 0.385784 -1.18841 1.04706 -0.28589 -0.255632 -1.6782 -0.532462 -0.447985 -1.42605 -0.0339065 -0.587877 0.20304 -1.48761 0.0242037 1.60734 0.256949 0.975951 -0.635358 -0.5517 
0.436361 -1.12976 1.29495 -0.194639 -0.87019 0.0612495 -1.73448 0.547375 -0.520023 -0.118669 0.784147 -1.17813 -1.73936 -0.488462 0.844897 -0.094582 -0.510785 0.0161588 -0.853254 1.20293 1.11434 -0.419436 0.0626272 0.318439 0.94245 1.03511 -0.820962 0.00939394 -0.234583 0.800516 1.45423 0.410753 -0.300882 -0.716395 0.504309 -0.0588836 -0.663646 -0.927087 -0.761126 0.102504 
-0.477217 -0.0596628 1.45805 1.58294 -0.120421 0.469973 -0.123187 1.60047 -0.372663 0.69903 0.292681 0.136231 -0.342085 0.311777 -0.719762 -0.00328369 -0.795226 -0.888678 0.175566 1.41337 0.63635 -0.158829 -1.54452 0.60569 0.807806 -1.2774 -1.12641 -0.510506 -0.260625 -0.0336494 1.37366 -0.989131 0.418971 0.449933 1.14734 -0.300902 1.32596 1.02686 0.509248 0.166568 
0.701457 -0.177849 0.148038 1.89591 -1.45649 -0.118427 -0.625639 0.193549 1.60827 -1.17924 0.245592 1.30944 0.935525 0.83908 -0.493752 -1.12084 -0.304522 0.835998 -0.353184 0.181727 -0.322858 -0.810379 0.971499 0.259994 0.31852 0.0521125 -1.66358 0.542068 0.466018 0.221471 0.491625 0.540296 0.433646 -1.27142 1.15526 0.482766 -1.00285 -0.198781 0.934965 0.828907 
-0.677014 -0.118057 0.136188 -0.691308 -1.19424 0.411155 -1.02929 0.616602 1.00214 -0.210528 0.27953 -0.0376785 0.320403 0.410063 -0.031406 -0.615731 -1.16326 0.461129 -0.0401869 -2.12713 -0.627516 0.0616723 0.0106185 1.16785 -0.201265 -0.16592 -2.1152 0.680819 0.928159 0.0214738 0.697604 -0.505738 -0.0777424 0.923466 0.649917 -0.344006 -0.326543 0.599457 0.711494 -0.57648 
0.134753 -0.154237 0.033355 -0.631476 -0.43172 -0.363085 0.836517 -0.791651 -0.0757772 -0.396683 0.94161 -0.39317 -0.442332 -1.1686 -0.34311 -0.936699 0.0342184 -0.447418 1.0383 -1.68128 -0.385553 -0.291623 -1.38649 0.259323 -0.136321 1.27751 -0.525226 0.148189 -0.182689 -0.213925 -0.437106 -0.702695 -0.303143 -0.762312 -0.382731 -0.722761 -1.68827 -0.724191 0.797292 -0.195893 
-0.553589 0.901982 1.1046 -0.122434 0.441154 -0.127659 -0.692144 1.3995 1.80466 0.0388042 -0.799131 -1.645 -0.383955 0.230861 -0.999588 0.277301 0.991991 -0.130009 1.25309 -1.00237 -0.165759 0.740821 1.38896 -0.192354 0.0664362 -0.307312 -2.15352 -1.11474 1.40735 1.26254 1.08541 0.200526 -0.532073 0.615891 0.798929 1.3577 -0.138422 0.31979 1.32304 -0.683757 
0.932168 -0.81902 0.538618 -0.150686 -0.444793 -1.18454 0.223058 0.996645 -0.945264 -0.357094 -0.13436 -0.809935 -0.304776 1.28397 -0.212693 -0.332866 -0.695108 -0.05424 0.854194 -1.2119 0.354071 -0.35292 1.79979 -1.80841 -0.7903 0.133088 -2.44911 0.723586 0.825949 -0.558276 0.0233885 -0.444695 0.0541823 -0.852261 0.434795 0.790642 -0.705885 0.330205 -1.1572 0.455113 
0.48402 -1.13691 1.18464 0.269825 0.622077 -2.7603 0.942644 -0.876235 0.597816 0.699998 -0.680916 -0.525161 0.557412 0.193095 -0.0389174 0.535975 1.05201 -1.22573 1.27858 1.20658 0.300416 0.304734 1.9722 -0.205095 0.511131 -0.694923 -0.774143 0.895849 0.925948 1.15881 -1.1615 -2.0054 -1.2811 -0.577864 0.202849 -0.605063 0.0353917 -0.328698 -0.493536 0.567378 
0.0816001 0.883528 -0.301908 0.175606 0.304515 -1.86629 0.755548 0.969522 -0.210015 -0.886721 0.939285 0.069539 -0.00731647 -1.08425 -0.995895 -0.228426 -1.18473 -0.677072 -0.657483 -0.358961 0.476516 0.0637466 -0.87049 -0.0968701 -1.29181 -0.715923 -0.136331 -0.259283 0.349662 -0.732417 -1.32722 -0.941124 -0.950588 -0.0806291 0.0286285 -0.188224 2.31633 -1.3037 -0.394829 0.56573 
0.447088 0.810605 -0.130699 -0.61279 0.94027 -2.38068 1.75698 0.0253468 -0.149658 -1.10806 0.10681 -0.508496 0.591799 -0.702535 0.649616 0.541153 -0.63186 -2.08391 0.382099 -1.25284 -0.358121 0.852815 0.0832075 0.178334 0.522284 0.49573 -1.56524 0.0509172 -1.60577 -0.110842 -1.66675 -0.219565 -1.34684 -0.472684 0.201778 -0.101832 1.65453 -1.10602 0.15774 0.197005 
0.0375834 0.50633 -1.18084 -0.433659 0.199528 -1.49789 -1.3454 1.29808 0.77369 -0.545366 -0.547649 0.914354 -0.0270436 -0.59264 0.0225551 -0.0638313 -0.172713 -1.68226 0.105823 0.720918 0.14124 1.0693 -0.613845 -0.0866926 -1.71121 0.317268 -1.34577 0.67902 0.288221 0.000550856 -1.16144 -0.152232 0.349106 -0.699318 -0.522982 -0.408392 0.243997 -0.894898 0.0197308 -0.658861 
-0.0148325 1.12043 -0.769345 -0.427502 0.191219 0.444527 -0.236284 1.436 0.10217 -0.741051 0.331169 0.105525 -0.448696 -1.04326 -0.368798 -0.180097 0.318914 -0.994577 0.531521 0.620693 0.0207799 0.651322 -0.509194 0.650663 -1.27471 0.550972 -1.1138 -1.08164 -0.283753 -0.336241 -0.0802342 1.14062 -0.248112 0.264247 -0.354068 0.845332 -0.480631 -0.431287 -0.801534 -0.247537 
-0.13788 -0.702723 -1.08322 0.67693 -0.618438 -0.762026 -0.160862 2.53626 -0.608931 -0.361348 -0.0691853 -0.267577 0.53968 0.100189 1.18177 0.294068 -1.1202 -0.605121 -1.21882 0.3699 -0.911559 0.010902 -0.187349 0.422605 0.263411 -0.542074 0.571308 0.564933 -0.371829 -0.626774 -0.276347 0.0484525 -0.00456706 0.0715888 0.45505 -1.44646 -0.23571 0.711483 0.0336043 -0.812484 
-0.0311612 0.212747 -0.673006 -1.14758 -0.35093 1.032 -0.484519 0.449002 0.500689 -1.27592 0.876148 -0.521812 -0.320018 -0.925247 1.1217 -0.0298541 -0.808834 -0.20933 -0.382358 -0.225988 0.359466 -0.164536 -0.222576 0.242674 -0.167846 -1.10562 0.197614 -0.585761 -1.05064 -0.408849 0.0439075 1.16487 -0.40801 0.0822631 -0.164648 0.503515 -0.826896 0.480423 -0.831443 -0.47132 
-0.283224 -1.27085 -1.04277 -0.222942 0.765132 -1.19541 -0.849875 0.369763 -1.20872 0.287805 -0.31052 -1.29525 -0.302828 -1.08909 -1.47028 -0.6934 -0.027175 -0.422645 0.592055 1.59146 2.47857 0.933043 -0.583562 1.14495 0.180106 -0.473794 -0.325984 0.518205 -1.24555 -0.853037 0.841628 -0.911742 1.15669 -0.477734 -0.0579242 -0.262128 -0.191096 -1.43092 0.732867 -0.994484 
0.744513 0.0364357 0.532613 1.82146 -0.749924 -0.187287 -1.07311 -0.500235 -0.387276 0.26413 1.46045 0.106034 0.409768 0.322353 0.583367 -0.253626 -0.765471 -0.642608 -0.546409 0.466122 0.842819 -0.668961 -0.285322 0.328233 0.740953 -1.30232 -0.403567 -0.83767 0.544682 -0.583023 1.53325 -0.387793 -0.463023 -0.603207 0.498119 0.734197 0.761037 0.412576 0.2378 0.954496 
1.2177 -0.052655 -0.257391 2.26229 -0.313728 0.101029 -0.711482 -0.936081 1.15185 0.196186 -0.768745 0.385504 -0.221563 -0.974419 0.356908 -1.09239 0.26389 0.754396 -0.189993 0.0938412 -0.887324 -0.17523 0.765438 0.183933 0.948775 -1.25388 -0.552996 0.119224 0.181868 -0.321506 1.75035 0.203346 -0.565415 -1.50457 1.433 0.586673 -0.503933 -0.416543 -0.734071 -0.0909787 
-0.259693 -0.812844 -0.805932 -0.322096 -0.040435 -0.0337421 -0.64237 0.304833 -0.699688 0.827938 -0.173745 -1.03928 0.893777 -0.534278 -0.300037 0.022806 0.305246 0.577041 0.970478 -1.63132 -0.238719 0.459441 0.637122 0.789597 -0.0542955 -0.106016 0.769035 -1.48676 -0.611264 0.814423 -0.289857 -0.129932 0.28736 0.108921 0.0785568 -0.481501 0.44139 0.00302043 0.641605 -0.348291 
0.0454962 0.143584 -0.067357 -0.36495 1.39698 -0.248776 -0.0958665 0.464549 -0.160362 0.101485 1.37583 -0.418888 -0.208458 0.164481 0.685941 -0.71284 -1.07138 -0.388529 1.48159 -0.848712 0.0733226 0.342263 0.0951534 -0.101547 0.542095 0.575433 -0.239422 -0.228088 0.265782 -0.442842 -1.08196 0.290289 -0.0529489 -0.744854 -0.34544 0.637841 0.380178 -0.174444 -0.444313 -0.524311 
-0.689301 -0.191396 0.0941862 -0.195156 -1.54756 0.441 -1.52821 -0.110849 1.13543 -0.0621087 -0.401767 -0.0590966 -0.420131 -0.785282 -0.596539 0.229786 -0.187795 0.0373153 0.764203 -1.54273 0.264912 -0.0946607 1.28626 0.299845 1.46936 -0.748524 -1.27854 -0.0670713 0.127426 0.43931 0.583551 1.15804 0.396442 0.676153 0.606478 0.873772 -0.162401 0.599567 -0.0887776 0.204754 
0.843294 0.247752 0.517508 -0.0422376 -0.666568 -2.00999 -1.17018 -0.00666179 0.629695 0.884037 -0.840846 0.073424 -0.96801 -0.437928 0.596405 -0.626858 1.21308 0.186433 -0.317755 -0.494473 1.03969 1.41561 0.918085 -0.206316 0.977068 0.485447 -0.050641 0.0962861 1.23885 -0.804879 -0.485469 -0.205441 -0.215029 1.23019 -0.105392 0.272706 -1.30835 -0.629653 -0.722327 -0.135159 
1.27058 -0.542226 -0.278158 0.496739 0.0963568 -2.94495 1.30722 -0.513523 1.04953 -0.6444 0.127198 0.305593 1.81946 -1.99602 -0.0456513 0.824042 1.58975 -1.4864 -0.119609 -1.01112 0.989259 0.21478 1.17136 -1.00463 0.412442 -0.199081 0.574503 -1.56815 -0.459992 -0.812508 -0.258979 0.937742 -0.0380288 -0.0340123 -0.141345 0.101613 -1.0247 -0.715591 -0.280396 -0.167245 
0.00774982 0.0525578 -0.812258 0.254054 -0.637757 -1.43886 0.640797 0.390778 0.585723 -0.20469 -0.085223 0.0604984 0.736832 -0.610878 0.886571 0.570993 -0.337244 -0.629345 0.933457 -0.302111 0.819726 0.31574 1.9597 0.220661 -1.19378 0.0153958 -0.236354 -1.45116 -0.482611 0.890856 -0.847255 0.876977 -0.990027 1.64279 -0.191391 -0.937422 0.412453 -0.438942 0.161604 1.20951 
1.06757 0.0953117 -0.452754 -1.39571 -0.586606 -0.43138 -0.206294 -0.0988002 -0.1204 -0.837564 0.253523 0.352125 -0.0113602 -0.868032 -0.0651045 0.963671 -0.46026 -0.704964 0.608847 0.31351 1.29385 0.559366 1.90331 -0.208565 -0.234507 0.614048 1.52056 -0.404005 0.0362403 0.517916 -0.649661 0.249547 -0.884318 -0.654611 0.335005 -0.350285 0.887843 -2.52379 -0.681182 -0.153617 
-0.149953 0.966331 -0.390246 0.380571 -1.26453 0.837055 -1.06778 1.78971 -0.450625 0.205965 1.39787 1.0611 -0.926017 -0.450691 -0.526127 -0.606433 -0.453284 -0.449921 0.16605 0.032223 -0.957096 0.090203 -0.510109 -0.195842 -1.35111 -0.744934 -0.208637 -0.00754556 -0.202273 -0.438121 -1.3968 0.269723 0.319419 0.318174 -1.42762 -0.253722 0.887034 -0.278588 1.13214 0.359237 
0.565107 0.16317 1.12183 -0.143884 -0.867193 0.723292 -0.733955 -0.012337 -0.123807 0.830516 0.832994 0.817135 0.485944 0.326789 1.33824 -0.75617 -0.282741 -1.08708 -0.484113 -0.0128437 -0.693227 -0.356801 0.261309 0.303608 0.073015 -0.579599 0.247235 -0.491218 -1.16058 -0.954773 -1.32335 -0.120233 -0.483344 0.470351 -0.368471 0.342945 -0.710168 0.635849 1.27369 1.26167 
-0.644269 0.94001 -1.52978 -0.596695 0.96671 1.37046 -0.0648896 -0.368261 0.793644 -0.59126 -0.347307 -0.759217 -0.434892 0.266858 1.92076 -0.602236 -1.45974 -1.79978 -1.90654 0.678698 0.512755 0.713806 -0.482593 -0.0505049 0.963415 0.493125 -0.00655412 0.708577 0.547791 -0.526761 -0.907708 0.1632 1.24201 -0.327973 1.00631 -0.318985 -0.656789 0.294158 0.899308 0.139589 
-1.47828 0.713721 -1.12153 -0.477054 -0.56612 -0.260984 -1.91053 -0.130533 0.594713 -0.414671 -0.56605 -0.355687 -0.263401 0.0891955 0.538204 -0.125622 0.0570089 0.409148 -0.00972617 0.921253 1.0876 -0.0219367 -0.945948 -0.0543952 0.303116 -1.12446 -0.449275 -0.299007 -0.00254546 -0.453136 -0.115251 0.925872 0.386162 -0.0932918 0.972752 1.47413 -1.77964 0.870304 0.718542 0.805442 
-0.0496259 -0.321257 -0.557097 1.60762 -0.673888 -0.407965 -0.531561 0.0883461 -0.035688 0.0881904 0.669257 -0.62832 -0.982887 -0.0576604 1.0809 -0.0526927 -0.534691 -0.414271 -0.237712 -0.265024 1.4986 0.0474997 -0.111376 0.491794 -0.0547574 0.65939 -0.754191 0.433511 0.0798549 0.141243 0.772185 0.683655 0.533654 -0.961331 0.459817 0.139959 -0.330093 -0.242134 0.0543311 -0.607125 
-0.725448 0.577524 -0.44673 1.1625 -0.656322 0.859097 0.222937 0.315226 0.569222 -0.0665129 0.521939 0.150984 0.195648 -0.699373 -1.27036 -0.268978 0.353597 -0.0541557 1.24594 -0.56171 1.30816 -0.416355 -1.10685 0.70075 -1.00253 -0.413276 0.333586 -0.587336 0.238767 -0.326636 -0.330015 -0.449522 0.665733 0.143889 0.0631865 -0.563593 0.288624 0.171329 -0.84138 -1.21038 
0.662194 -0.0951195 0.297747 0.228283 0.24046 -0.252246 0.599209 -0.49282 -0.659062 -0.654985 -0.311279 0.776945 -0.245929 0.382993 0.299299 0.0148006 -0.255881 -0.320356 -0.0387383 -1.23221 -1.0636 -0.62052 -0.327807 -0.483188 0.984651 -0.246114 0.823609 -0.910139 0.442477 0.216151 -1.07231 -0.467237 0.321899 0.496263 0.94549 -0.309528 0.149478 1.1119 -0.361647 0.560732 
-0.733968 -1.16939 0.0424594 -0.757979 0.00435088 -0.516052 -0.73518 0.332922 0.00614814 -0.484068 0.379891 -0.0747742 -0.902905 -0.423917 0.155833 0.69028 0.635673 -0.394113 0.534098 -0.216981 -1.67609 -0.0454524 0.0344497 -1.08819 0.495988 0.137654 -0.710019 -0.506964 0.0728732 0.274369 0.299802 -0.498025 -0.426469 1.01874 0.634793 1.44071 1.38209 -0.842142 -0.198028 0.61265 
1.00963 0.110142 0.801627 0.46492 -0.489619 0.900448 0.233704 -0.791835 -0.918958 0.0094197 0.506133 -0.624325 0.781915 0.253485 -0.332058 -0.71074 0.373532 -0.230784 1.51854 -1.16523 0.300635 0.0898105 -2.11308 0.0889581 0.91082 1.03935 -0.366028 -0.597171 -0.326017 -0.325529 0.201219 -1.20626 1.09201 1.13714 -0.152613 0.204499 -0.290123 -0.69729 -0.753951 1.27173 
-0.496901 -1.61592 -1.05157 0.430687 -0.644053 -1.29192 0.516151 0.142086 1.08323 -0.582749 -0.265702 0.187187 0.101758 0.551298 1.12746 0.97204 0.852272 -0.73499 0.579351 -0.322856 0.240124 0.285302 -0.497914 -1.5801 0.345991 -0.0925806 -0.373354 0.203544 -1.11983 0.309191 -0.169064 -0.169259 0.837414 2.48493 -0.734633 1.21097 0.706993 0.745498 0.20459 0.548384 
1.74938 0.847727 0.463812 -0.137981 -0.416402 -1.30933 0.559787 0.738367 -0.0153478 -0.693582 0.766831 0.62605 -0.623642 -1.08784 1.93338 0.157546 0.271592 1.34585 -0.0781869 0.108228 0.282209 -0.475449 -0.211875 -0.46481 0.631639 0.0155177 -1.56128 -2.39318 0.244135 -1.26418 -0.891228 -0.430846 -0.482273 -0.373618 1.11627 1.23602 -1.15997 0.199358 0.232549 -0.0951274 
1.38334 -1.05146 -1.1163 -0.190464 0.910211 -0.498754 0.886331 -0.510355 0.700044 -0.715044 1.13336 0.128043 -0.521653 -0.632561 3.57536 -0.530912 1.76695 -0.0882645 0.335326 -1.2448 -0.390913 0.958928 -0.105142 0.984891 0.400183 0.000427395 -0.60271 -3.47244 0.706503 0.542958 0.110085 0.888095 -0.666302 1.88759 -0.0161299 0.526134 -0.863446 -1.67342 -0.293496 -0.0319403 
1.36398 0.465249 -0.146058 0.952117 2.13292 1.21538 0.296666 0.16651 -0.577039 -0.342495 -0.571547 -0.0353968 -0.278975 0.508875 1.60584 0.113725 1.6228 -0.268454 -0.0156717 -0.426374 -0.45186 -0.962333 1.77666 1.13648 0.0413203 -0.0683328 -0.254817 -1.52199 0.457123 -0.934685 -0.638328 -1.10668 -0.250354 -0.0883405 0.66382 0.762684 1.17707 -2.28365 0.668961 0.235664 
0.30776 -0.695981 -0.832669 0.103311 1.35688 0.507656 -0.114359 0.996941 0.184904 -0.835102 -0.255722 -0.363767 0.505985 -0.491824 -0.375755 -0.140012 1.08611 -0.223778 -0.140817 0.572322 0.712687 0.906207 0.53589 -0.0501098 0.521047 0.777214 0.0343661 -2.25387 -0.52643 -0.421219 -0.0532424 -0.398206 -1.65822 1.13725 -0.563265 1.04033 0.142155 -2.24577 0.339479 -1.4175 
0.683563 -0.153541 -0.911311 -0.186071 -0.598421 -0.551528 -1.68038 -0.293595 0.760272 -0.704472 0.820079 1.00769 0.287841 -0.275726 -0.725802 0.419767 -1.84916 0.182889 -1.31201 -0.069969 0.927032 1.10459 1.16791 0.332609 -1.29336 -0.0680046 1.08177 -2.16004 -1.02514 -1.33971 0.138853 -0.538924 -0.81915 0.166299 -0.0820727 -0.0474415 -1.41803 1.01874 0.538731 -0.791216 
0.616832 0.763275 0.335194 -0.605276 -0.484731 1.82803 -0.561106 0.223416 0.155462 1.95947 -0.487793 -0.439241 0.510542 0.627842 -0.463654 -0.784642 -0.823267 -0.000328164 -1.85415 -0.362159 0.109924 -0.198382 0.893199 0.0800955 -0.821836 0.043854 0.251964 -1.50504 0.0652962 -0.80095 -1.12333 0.541217 -0.0182504 -0.385181 0.122026 0.489884 -0.513227 0.323035 0.766449 -0.366059 
-0.00484252 0.503239 -0.919755 -0.459763 -1.15369 -0.579994 -0.234307 1.0983 0.233407 0.0960365 1.45324 -0.432132 0.448984 -0.0300464 0.504359 0.0766985 -1.41775 -2.23705 -0.369616 0.0862858 -0.146989 0.313798 -0.317038 2.09576 0.177808 -0.0480578 1.11438 -0.505695 0.735158 0.974781 -1.05935 0.300862 1.91355 0.44862 0.753731 0.170659 0.484962 2.18705 1.75069 -0.305295 
-0.986052 1.1732 -0.6442 1.70457 -0.0592576 0.612311 -0.332923 0.54018 -0.553287 -1.03417 0.832999 -1.06226 0.373443 0.43333 1.25257 0.177469 -0.839418 0.247001 0.778492 0.182546 0.802847 -0.387567 0.225292 1.26683 -0.175384 -1.10203 1.0121 -1.39951 0.262011 -0.0743209 -0.15489 0.0202298 0.284001 -0.735865 -1.15522 0.732766 -0.071818 -0.310387 0.0438189 0.161976 
-1.1728 1.28983 -0.270105 1.71883 0.233154 0.392133 -1.24923 -0.925331 0.144077 0.0991388 0.453665 -0.319345 -0.00962813 0.250003 0.724359 -0.648662 0.10763 -0.0372775 2.48969 1.63 0.948705 -0.404299 -0.748701 0.338186 1.42852 -0.915551 0.0623925 -1.51762 1.08584 0.497407 -0.779484 0.950689 -0.429435 1.65216 0.504693 0.899369 0.725598 -0.59655 -0.147889 0.543631 
0.276969 0.782701 -0.581857 0.810856 -0.951982 0.348814 0.147497 0.532089 -0.237587 -0.991689 -1.15378 -1.16249 -0.173342 -0.706879 0.829592 -0.710675 0.996251 -0.235893 1.63682 -1.29892 0.4933 0.11999 -0.748323 1.28444 0.450337 -1.8928 0.581542 -1.83635 -0.457691 0.133508 0.407249 0.670681 -0.285208 -0.492685 1.42012 0.319912 -0.288154 0.194035 -0.912666 -0.38106 
0.919118 -0.880462 -0.330715 -0.311645 -0.471042 0.649613 0.030993 -0.8288 1.39048 -0.0917881 0.551062 -0.242713 -0.591989 1.1929 0.421592 -0.37434 0.0498462 0.05507 1.57753 0.410308 -0.981958 -0.731484 -0.160484 0.00275237 0.0548499 -1.46584 -0.130235 0.750291 0.566003 0.411504 1.01144 -0.829562 -0.218757 0.427302 0.510685 -0.791275 -0.671838 -0.447829 0.21189 -0.369695 
0.520417 0.043576 -0.876419 -0.229091 -0.0142149 -0.696432 0.581252 0.471104 0.461752 -1.16368 -0.151119 0.0552446 0.226529 0.539813 -0.276012 0.0891068 -1.03857 -0.502733 -0.40574 -1.1815 -0.613642 -0.238 -0.352456 -0.496211 -0.050535 -0.0298809 0.124505 0.644838 -0.66586 1.04052 0.298277 -0.95801 -0.103266 1.00799 -0.00796261 0.179728 -0.104838 0.0484735 -0.194528 -0.245994 
0.267295 -2.06367 -1.31661 0.00127263 -1.41214 0.0542841 -1.48902 -0.341009 -0.587041 0.53975 -0.211609 -0.926348 0.12515 -0.440576 1.75887 -0.386737 -0.384299 0.113853 0.436484 -0.889543 0.255109 0.416584 -0.00917527 -0.428766 -0.554426 0.597345 0.311964 -0.00240079 -0.551158 -0.307025 0.0376836 1.36489 -0.083091 -0.110573 -0.850503 -1.71245 0.43322 -0.0739867 -1.33936 0.392757 
-1.32164 -0.949857 -0.538198 -0.748599 0.932591 -0.717517 1.35411 -0.157642 1.05948 -0.349744 -0.705524 -0.483997 1.0484 0.971269 -0.0642173 0.544308 0.0991514 -0.0659917 0.0578937 -0.0128617 -0.809083 1.19385 -0.269225 -0.275692 -0.701662 1.0406 -0.537126 0.297229 -0.12822 -0.621516 -0.678833 0.060813 -0.857663 0.463486 -0.708864 2.11944 2.08927 -0.467331 0.156411 1.07449 
0.0980826 0.79621 0.434186 0.112908 0.989054 1.33106 0.683085 -0.599866 -0.932941 0.789684 -0.324842 -0.183332 -0.668117 0.0628701 1.06311 -0.657615 0.459927 0.106705 1.089 0.453716 0.469721 0.199902 -0.451897 0.187 0.18059 -0.129001 0.227042 -1.01997 -0.570694 -0.456102 1.3959 -0.588319 -0.759634 0.860316 0.444021 1.48062 -0.394485 -0.746512 0.0257859 -1.17961 
-0.706707 0.391351 0.646316 0.245183 1.52702 0.0905107 0.917925 -0.658556 0.933355 -0.751965 0.175417 0.323307 0.174888 0.157766 0.880911 0.601605 1.05915 -1.30963 1.1213 -0.520955 0.497025 -1.00826 0.122536 -0.343546 -1.19711 -0.0442986 0.122176 -0.219899 -0.180301 -0.0806016 1.39478 0.935619 -0.609277 1.82114 0.648098 -0.931665 -1.97061 -2.54103 0.818297 -1.41559 
-0.0837628 -0.520345 -0.804582 -0.256114 1.75163 0.744984 -0.373966 -0.216281 0.0133469 -0.465511 -0.63981 -0.223667 -0.534861 -0.180619 -0.0899274 0.230119 1.37651 -0.175699 -0.890053 0.635455 -0.14273 -0.415986 -0.054676 -0.622893 2.06527 0.183077 0.10236 -0.320743 0.00221743 -0.697459 1.01373 0.229351 -1.36725 0.800362 -0.622423 1.04173 -0.205632 -2.03014 -0.715071 -0.648511 
-0.544289 -1.15534 -0.987136 -0.492322 2.70655 -0.485118 -0.196072 0.159941 -0.870532 -0.00460899 0.35747 -1.2702 -0.154176 0.630698 -1.35579 -0.751628 2.63755 -0.860465 0.370146 -0.222266 -1.54775 0.530108 0.277002 1.09646 -0.731618 -0.448923 -0.240103 -1.03929 -0.328345 -0.0503043 -0.537823 -0.208634 -2.36195 -0.0317088 0.159326 0.874133 -0.217875 0.754313 -0.922806 -1.49229 
0.14204 -0.0238322 0.234206 -0.479871 2.47427 0.143961 -1.60539 0.668146 0.0706111 -1.18543 -0.250629 -1.00581 -1.63371 0.130546 -1.62997 0.48401 1.60678 0.188255 -1.24382 1.08298 -0.0541387 0.984938 1.23358 0.630905 -1.56723 -0.0283653 0.737866 -2.37736 0.0451891 -0.904279 -1.2316 -0.862172 -0.145832 0.374139 0.340565 -0.497635 -0.337346 0.180832 0.58494 -1.70987 
-0.335164 -0.76791 -0.158499 0.940068 2.03513 -0.907336 -0.608225 -0.327636 0.422922 -0.017823 -0.418471 -0.460393 0.825817 -0.992944 -0.819719 1.03541 1.46684 0.914558 -0.0357051 0.0985359 0.0175764 0.461256 1.58741 0.154569 -0.430954 0.163796 -0.231688 -1.83843 -0.158553 0.228634 -0.0173473 0.0962128 2.58554 -0.0352711 0.186957 0.37396 -0.419959 1.50439 -0.0343942 -1.02753 
0.286019 -0.169864 0.0622695 0.521329 1.57905 -0.536061 -0.83324 0.310711 0.529372 -1.12261 0.253274 0.60708 1.46033 -0.306576 -0.498822 0.57541 0.490749 -0.880398 1.78074 0.112818 1.25217 0.40209 1.50609 0.767756 -0.6749 -1.04558 0.0207093 -0.469824 -0.465483 -0.236118 -1.10964 0.180292 -0.630154 -0.0877332 0.433863 1.3071 0.308223 1.93998 0.471602 -1.01182 
-0.431009 0.0762581 -0.735151 1.44842 0.623321 0.0369706 -0.797965 0.00209615 -0.109511 0.568403 1.19361 0.398677 -0.457826 -0.245489 -1.12765 -0.658895 -0.590155 -0.672066 1.47184 0.00896342 0.735789 -0.938922 1.83655 -0.98302 1.43213 0.703091 0.59612 -0.655969 0.760621 1.01762 0.509888 0.152013 -0.267299 1.09022 0.805966 -0.392301 0.0137925 0.673514 0.339325 -0.994223 
-0.774938 1.78158 0.165996 0.50306 2.78272 0.140379 -0.224212 0.698945 0.24294 0.219284 0.282819 -0.52715 -1.16195 0.207741 1.21424 -0.631238 -1.06821 -1.36724 -0.228309 0.965737 0.933931 -0.221536 1.80919 -0.616693 0.592269 0.486023 0.0179962 0.0950805 -1.01147 0.0273948 0.359492 0.631989 0.419125 2.57279 1.0036 -1.70875 0.680354 1.12319 0.443634 0.205968 
-0.913004 1.59276 -0.37757 -0.157109 0.820236 -0.797494 0.392304 -0.0923326 -0.740968 -0.573518 0.674747 -1.0959 0.278984 0.77623 1.20183 0.204169 0.52527 0.0630048 0.467954 -0.292935 0.0147275 -0.308935 0.991271 -0.188617 0.663218 0.545504 -1.47131 0.435543 -1.21187 1.35369 -0.119036 0.945068 -0.0343477 1.27874 -0.852609 0.112024 -1.36021 -0.257047 0.766503 0.528084 
-0.48455 0.27696 -0.943093 -0.177019 1.40537 0.0903008 -0.437164 0.261152 -0.619651 0.623505 1.19033 -1.10426 -0.228699 0.870849 1.00082 0.380887 0.990795 -0.846324 -1.02477 -1.04775 -0.346234 0.742943 0.882007 -0.723994 -0.24831 0.824899 0.146509 -0.236266 1.16683 0.0611034 0.23552 1.00834 0.462397 1.00846 -1.29945 -1.48114 -1.40763 0.255699 0.257721 -0.291761 
-1.02981 0.698161 -0.267566 -0.152836 0.0122567 -0.503717 -0.603099 0.703216 -0.41823 0.397046 0.729767 -0.846454 0.628091 0.22856 1.01007 -0.0807882 0.87253 -0.200894 0.650097 -1.02116 0.200498 1.53689 -0.13491 0.536667 0.350787 -1.22796 1.2294 0.42723 -0.158514 0.385833 0.762542 1.41234 0.280651 0.585248 -0.706267 -0.906337 -1.26877 0.361449 -1.06519 -0.187812 
-0.116334 0.00871984 0.136044 0.171699 0.940019 -0.459174 0.0401093 -0.85562 0.169463 -0.281029 0.127153 1.89521 0.000807797 0.86917 -0.644774 0.0744293 0.572968 -1.52817 -0.568915 0.18528 0.88539 0.685549 -0.600613 0.457148 -0.768586 -1.10801 -0.453877 -0.257355 -0.505102 1.45535 -0.14619 -0.239728 1.23798 1.14683 -1.10176 -0.844112 -0.491607 1.19507 0.0321238 0.525183 
0.231621 -1.6052 -1.29837 0.217956 0.853955 0.777484 0.371121 -0.410337 0.748676 -1.50309 -0.597176 1.14972 0.219615 0.604066 0.419954 -0.0400023 -1.2743 -0.684484 0.530218 -0.24909 -0.406655 -0.575567 -0.385498 0.873645 -0.245244 -0.4508 -0.425001 -0.45367 0.0795568 0.0779845 1.56555 -1.44387 0.326608 1.62586 -2.30107 0.314271 0.482642 0.978858 0.314446 0.651927 
-1.03713 -0.156495 0.36168 0.0246632 0.69072 -0.20857 0.161975 -0.491045 0.503958 0.0389917 0.539434 1.268 0.472105 -0.18918 -0.100231 -0.709002 1.17047 -0.00251562 -0.20787 0.385052 -0.548701 -0.69368 -0.149167 -1.3916 -0.942796 -0.961611 0.422185 0.906805 1.00432 -0.183557 -0.297977 0.29739 -0.188013 -0.266211 -1.4114 0.242603 1.45239 -0.74988 -0.421664 -0.428938 
-0.864756 0.292269 -1.7532 0.148296 1.81434 0.654694 -0.553647 -0.399058 -0.0775359 0.248237 0.660388 -0.130974 0.402631 -1.16591 0.315323 1.1971 1.32031 -0.0796113 -0.237719 -0.541582 -0.303226 -0.156378 -1.10555 0.0699142 -0.577203 0.23359 0.886336 -0.428383 -0.851833 0.655419 0.596516 -0.0250933 -1.11656 0.0663921 -1.24307 -0.832197 -1.18157 -1.07265 0.923691 0.463602 
-1.09443 0.725321 -0.0776098 0.252477 0.321807 -1.04312 -0.263372 0.415128 0.442449 -0.0369962 0.883664 0.868693 -0.121244 -0.0751734 0.181204 -0.340414 0.780244 0.462981 -0.153376 0.30951 -0.591372 -1.03766 -0.0503429 -0.121772 0.424192 -0.27372 0.577424 -1.08371 0.692167 -1.37107 -0.258212 -1.25041 -1.52636 -0.360809 -2.27984 -0.198823 -0.598613 0.641334 -0.47786 0.83079 
-0.0631955 -0.410467 -0.645874 -0.854113 -0.28509 -0.237916 0.175415 0.23911 -0.842464 -0.764152 -0.866264 0.612113 0.564785 0.0653665 -0.619955 0.0748406 0.630384 0.212884 -0.297835 0.330993 -0.515884 -0.812841 -0.714332 0.842144 1.43509 -1.1136 0.56697 -1.03377 1.3446 -0.702546 -0.191023 -0.498923 -1.55263 -0.440736 -2.19334 -1.15033 -0.306943 0.377795 0.482981 0.862753 
-0.0913494 -1.76919 0.913812 -1.0173 0.396277 0.452127 -0.575342 -0.0469823 -0.859418 0.484622 0.715441 0.279275 -0.793056 0.0901843 -0.300958 0.240556 0.990469 0.299652 -0.487445 -0.0181111 0.294075 -1.73447 0.646985 -0.57913 -0.7842 -0.746235 1.03773 0.267956 -0.72808 0.293135 -0.832685 -1.16145 2.35969 1.31491 -0.0672794 -0.25985 0.299752 -0.685922 -0.778104 0.17065 
0.359824 0.187486 0.958348 0.884633 1.86085 -1.44967 -0.751359 0.0411281 -0.544677 0.139779 -0.921584 -0.559571 0.100489 0.0869915 -1.10338 -0.182455 1.70786 0.464093 -0.266674 -0.428951 0.0621214 -0.565852 0.260872 -0.921266 -0.30201 0.226507 0.669975 0.352819 -0.403522 -0.160456 -1.00288 -0.403247 1.88287 0.180775 -1.45272 0.565649 -0.922534 0.141082 0.418255 -0.720327 
0.233562 -0.124291 -0.574418 0.908392 -0.61445 0.197839 -0.0452939 0.408541 0.356303 -0.196706 -0.183592 0.662745 0.0175486 0.653793 0.894872 -0.751806 0.867418 -0.335762 -0.20816 -0.513988 0.107758 -0.663004 -0.404966 -1.15533 0.0439965 -0.108544 1.03937 0.389349 0.791835 1.23443 -1.59374 -0.395148 1.2521 1.26095 -0.656682 -0.0494999 0.805989 0.842706 0.656699 -0.063683 
-0.441415 -0.306335 -0.0218295 -0.220995 -0.186039 1.23007 0.844274 -1.08541 -0.322268 0.201539 0.451037 0.515239 -0.384381 1.55994 0.277943 1.14527 0.589228 0.534732 0.444518 -0.55697 1.00387 -0.854014 -0.143813 -0.197028 -0.314413 -0.99112 0.608356 0.798183 1.14218 1.02631 -1.73434 -0.856798 1.85079 1.22249 -0.70998 0.147287 -0.0955974 0.452095 1.23023 0.538409 
1.14946 -0.271084 -1.80804 -0.373673 0.409082 -0.878932 -0.297652 -1.6578 0.879985 0.0730654 0.138693 0.108756 -0.210406 -0.514449 -0.000252434 0.417832 0.407694 -0.313293 0.122127 -0.88009 -0.099999 -0.473615 0.398892 0.0235888 -1.43441 -0.284291 1.25012 2.08009 0.399546 0.79648 0.233547 -0.70546 0.773646 0.430486 -1.16382 -0.471661 1.59103 1.08752 0.966136 -0.54498 
0.130952 0.861465 -0.0655841 0.761598 -0.419781 1.15626 0.0213629 -0.342237 -0.185435 0.503362 1.61653 -0.926397 -0.598229 0.0730065 -0.165335 0.968363 1.09176 -0.462655 0.383116 -1.48492 -0.592266 -0.319501 -0.293234 0.0983648 -0.978432 0.705192 0.393975 1.74534 0.753622 0.32119 0.324386 0.206463 0.140837 0.311712 -0.835313 -1.10833 0.697486 0.958724 -0.27408 1.53394 
-0.571969 0.978546 -1.16279 0.208471 0.635015 1.20416 0.267981 -0.541636 0.657184 0.695698 -0.881348 0.363799 -0.917945 -0.249377 0.396095 0.426426 -0.396407 -0.491222 0.176174 0.0132958 -0.930859 -0.611701 -0.438121 -0.260238 -0.0637263 0.518945 -0.141594 1.01397 -0.0378032 0.621163 0.342482 0.679913 0.987867 -0.9584 -0.49512 -0.198445 0.352962 0.232083 1.00708 0.297844 
0.930624 0.00175795 -0.318268 1.03973 1.50559 -0.717272 -0.814283 -0.2635 0.508786 -1.01308 -1.03986 -1.03216 0.0632919 0.129577 0.890198 -0.94679 -0.698346 -0.926667 0.309016 -0.497025 -0.915141 -0.221389 0.52342 -0.812334 0.00363307 0.98916 0.0729377 -0.0768112 -0.0533423 0.200767 -0.921042 0.471082 1.3118 -0.014295 -1.47583 0.0940618 0.149468 -0.937966 1.53732 -0.79194 
-0.51696 -0.87457 0.00816723 -0.300371 1.02152 0.659147 0.378856 0.296276 1.13166 0.387605 0.874025 1.8477 0.157889 -0.228977 0.477236 -0.288453 0.2979 0.395392 0.652214 -0.968632 -0.00119993 0.321134 0.852813 -0.673477 -0.667767 -0.260858 0.441563 -0.0915433 0.0694733 0.929908 0.359215 -0.241935 0.712924 -0.586202 -0.762879 -1.40022 0.60826 -0.12761 0.853409 -0.231431 
-0.90079 0.125159 -0.232046 -0.236917 0.197714 0.457622 0.0752394 -0.517804 -0.223081 -0.473359 1.18188 1.43318 -0.0654689 -0.107097 0.50464 0.282008 0.0436538 0.116267 -0.971654 -0.398301 0.505595 -0.507349 0.0881158 0.000323906 0.166913 -0.3501 0.761151 1.45394 0.6482 0.371101 -0.326607 0.654281 0.705764 0.779165 -0.739852 -0.599126 0.650227 -1.02851 -0.306666 2.0627 
-0.905538 0.0781173 -0.406047 -0.31763 -1.37259 -0.404008 0.405347 -0.515308 -0.0910001 1.06683 -1.77982 -0.692089 -0.914182 -1.22217 0.335027 -0.879557 0.236684 0.00422189 -0.218148 0.466183 0.382937 -0.906693 1.05484 0.616542 0.343215 -0.12736 -0.33404 0.297432 0.917462 1.00425 -0.47595 -0.564499 -0.130829 -1.13903 -1.91343 -0.781105 0.344171 -0.851415 0.359197 0.31885 
-0.28601 1.13674 -0.724944 -0.487748 0.572825 -0.19713 0.124731 -0.332295 -0.490937 2.40435 -0.757534 -0.980377 1.01665 0.235305 -0.673348 -0.886301 0.516067 -0.683778 -1.34473 0.705093 -0.997268 -1.11855 -1.93772 0.406564 -0.125555 0.157713 -0.102964 0.180084 -0.220231 -0.479709 -0.836307 -0.0858042 -0.864256 0.744778 -0.736317 0.0613148 -2.63236 -1.40078 -0.781162 1.5888 
-1.09212 0.440062 0.782547 0.568621 -1.64921 -0.149123 -0.51927 0.0718489 -0.491312 -0.354345 -0.990732 -0.299311 0.55443 0.023011 -0.205945 0.147888 0.625545 0.517961 -1.06517 -0.482515 -1.82082 -0.824473 -0.376893 0.183451 -0.310435 -0.317 -0.689872 0.538612 -0.32825 -0.308783 -1.39041 0.272004 0.257369 -0.308035 -0.786924 1.27362 -0.37338 0.824802 0.0373393 1.4621 
-0.926973 -0.491804 0.727244 -0.579895 0.636985 0.959419 1.99144 -1.5727 -0.680209 -0.451524 -0.917729 0.424712 -0.521969 -0.844102 -0.99612 -0.101041 -0.126944 0.389595 -1.16768 0.375501 -0.302835 -0.152791 -1.17663 0.145876 -0.21539 -0.692169 1.20142 1.04439 0.113274 0.743492 0.77817 -0.341488 -0.665308 0.119004 0.224311 0.332145 0.837656 0.169754 -0.886871 0.1733 
-0.232724 0.593237 0.229606 0.399918 -1.08775 0.44738 1.87128 0.211777 0.599765 1.04182 0.455152 -0.108202 -0.615138 0.802304 0.0728231 0.0490811 0.9179 0.0559196 -0.626412 -0.581337 0.849482 -1.69442 0.224371 -0.612607 -1.40813 -0.143462 0.699061 1.15143 -0.983177 -0.0522876 0.0105553 -0.290264 -0.643257 1.20014 -0.854487 0.646581 -0.197733 -0.397166 -0.247684 0.697255 
1.17674 0.804344 0.441759 0.556968 0.902286 0.933894 0.00445453 -0.591148 0.536681 0.382637 -1.53309 0.88847 0.490805 -0.964873 -0.400564 -1.02343 0.0398334 0.36987 0.397944 0.0864884 1.03465 -1.51644 0.358191 0.105919 0.907077 0.0579978 -0.784162 1.08425 -1.57948 0.310853 0.40893 0.760535 0.35659 0.404481 -0.681356 0.5429 0.438696 -0.306998 0.426632 1.7622 
-1.24154 0.145173 -0.613458 -0.276765 -0.0780568 -0.178594 -0.41307 0.790746 -0.0636021 0.143579 0.629999 -0.549505 0.71954 -1.33994 -0.326248 -1.07447 0.884733 1.23648 0.0443254 0.840016 0.921443 -0.304559 -0.951076 1.12339 -0.511835 -1.54899 -1.41596 1.15291 -0.536719 0.309187 -0.224366 0.087148 0.506707 0.741321 -0.403589 1.00768 -0.840973 0.220578 -0.333803 -0.373778 
-0.971325 0.426679 -0.255031 -0.107226 0.347985 0.595615 0.310724 0.968966 -0.436958 -0.739991 -0.997835 -0.0677018 0.626498 -0.229368 -0.395706 0.0887618 0.19473 1.23495 -0.637592 0.489204 0.626048 -0.26921 -0.0796952 -0.608764 -0.585217 -0.340603 0.377805 0.126686 1.56756 0.0613005 -0.00071842 0.236733 0.925621 0.604144 -0.766946 0.897406 0.473911 1.1376 0.507146 0.70191 
0.223962 -1.19496 -0.704987 -1.14793 0.178974 -0.920036 -1.28859 -0.865309 0.364904 1.14461 -0.646855 -0.0945867 0.316775 0.5018 -0.277584 0.646495 -0.70779 1.22958 1.23395 -0.247039 -0.275172 0.805378 -0.0693769 -0.558757 0.899073 -0.953239 0.209105 -0.377596 0.705488 0.896785 -0.516508 -1.00839 1.50716 -0.455593 -1.42009 1.20651 0.594776 0.222668 -0.167792 0.75127 
0.515335 -1.11534 0.027814 -0.440537 0.283573 -1.37683 1.08974 -0.289068 -0.286747 0.17288 -1.05833 0.0215699 0.0625159 -0.419736 -1.19084 -1.2128 1.01538 -0.987668 -0.204685 -0.559108 -0.691426 0.405204 0.160607 0.78036 1.36182 -0.47887 1.40289 -0.827375 -0.346366 -0.145394 -0.874938 0.471082 -1.16825 -4.70179e-06 -0.102565 0.951781 -0.87755 0.83055 0.388252 0.318432 
0.324545 0.791217 0.910191 -1.13004 -0.75235 -0.228678 1.42409 -0.773565 0.180385 -0.230315 -0.182577 -0.0202275 -0.542787 0.116474 -1.15983 0.933232 0.657203 0.712649 -0.818175 -0.235597 -0.421626 0.115858 0.451266 0.128742 0.938688 0.395287 0.669127 0.36908 0.0132282 0.0514668 0.859127 -0.583848 0.455175 1.00448 -1.65605 -0.00664304 -0.00752714 1.32735 0.85565 0.99883 
0.617546 -0.198782 -1.96548 0.147477 -1.23595 0.325476 -1.0853 -0.65359 -0.65385 0.570615 0.429728 -0.298114 0.0281706 -0.580257 -0.621136 1.26074 0.497438 1.23842 0.343213 -0.810307 0.0026951 1.05264 -0.00566906 0.592929 -0.287893 -0.482227 0.82839 0.272277 -0.560709 -1.50012 0.400338 -0.0974618 -0.558116 0.789373 -2.01706 0.393573 0.484763 0.795811 0.695275 0.122451 
0.0968844 1.1523 0.0930005 0.260628 -0.0939121 -0.516449 0.22995 -0.34342 0.725636 -0.780171 -0.0848889 0.211819 0.0733851 0.15958 0.0550501 -0.518757 0.354853 -1.70436 -0.615689 -0.41481 -0.342066 1.039 1.68774 0.403594 0.368685 0.259713 0.739115 0.980532 1.09904 0.197612 0.472888 0.476567 -0.206471 0.040352 0.128164 -0.733931 -0.819383 -0.00446401 -0.181616 -0.976021 
0.227286 0.317145 -0.4202 0.931105 0.16458 0.678658 -1.1483 0.32436 -0.203429 -1.45831 -0.352705 1.40362 -0.463219 0.98395 1.56621 1.32825 1.32217 0.508809 -1.13082 -0.872426 -1.13735 0.489925 0.525827 0.177719 0.0943558 -0.667254 1.02939 -0.831477 -0.658286 1.99334 -0.43261 0.223567 -1.08289 -1.0426 -1.33185 0.104306 0.32941 0.247513 -0.150782 1.15394 
0.14463 1.2223 -0.599969 0.549592 0.118366 1.35504 -0.411301 -0.260626 0.101155 -0.29229 -1.52243 -1.12875 -1.6579 0.474786 1.3159 -0.564905 -1.09659 1.07223 -0.584338 -1.41472 -0.0374866 0.24445 0.839381 -0.125217 1.58384 0.0986161 0.873877 -0.571374 0.749012 -0.18992 -1.58839 1.18288 -0.394296 -0.548462 -0.495421 0.0180492 1.36337 0.520383 0.701554 1.66493 
0.54032 1.03187 -0.116911 0.231418 0.918113 0.946222 1.59484 0.428782 1.06635 -0.707046 -0.521182 -1.01698 0.520895 0.552615 1.40159 -0.76086 1.29704 0.915231 -2.03884 -0.940816 0.59692 1.43875 0.566184 0.407235 -0.200889 0.233604 0.602285 0.72659 0.273449 0.975295 0.147762 -0.0107256 -1.39188 0.0859872 1.35114 0.30152 -0.969178 -0.763786 1.06322 1.93775 
-1.49953 -0.656978 0.603952 0.419698 -0.167944 0.126501 0.615434 0.181508 -0.00930479 -0.168236 -0.496533 -2.34506 0.169533 -0.239592 0.540976 1.59157 -0.130887 0.101751 -1.69199 0.754593 0.588601 -0.0627309 1.03008 0.426607 -0.124364 0.654781 0.136111 1.41479 -0.649805 1.42431 0.863579 0.675219 -0.403599 0.205171 -0.0214634 -0.420786 1.10423 -0.631254 0.451396 2.11778 
0.904365 0.791574 -0.832544 -0.22296 0.985038 -0.642855 0.899189 0.382148 -0.66205 -0.182973 -0.268282 -0.311062 -0.73435 1.25491 0.130626 0.576628 0.113173 0.298708 -1.09668 1.18782 0.785796 0.246974 0.98563 -0.922992 0.0110422 -0.202458 -0.00800778 2.00844 -0.946907 0.421636 -0.461476 -0.463962 0.0657829 -0.104139 -0.416446 -0.337086 -0.00413714 -0.168444 -0.71501 0.952177 
1.12187 0.293246 -0.385514 -0.437472 0.14095 -1.45335 -0.888578 -0.232654 -0.74241 0.315585 -1.1553 -2.46588 -0.22969 -0.0351421 0.861725 0.352095 -0.0414128 -0.18274 -1.08565 -0.0327044 2.62894 0.0110352 -0.594532 0.0214517 -0.372375 0.0898987 0.725435 1.18591 -0.678441 0.21408 0.596895 1.37166 -1.38721 -0.187358 -1.90618 -0.387972 0.0283099 -0.9372 -0.0217231 0.676448 
-0.336251 0.192303 -0.568406 -1.21602 0.853263 0.137256 0.608291 0.427767 -0.743013 -0.713688 -1.12805 -0.646522 0.685607 0.382168 -1.15954 -0.153116 -0.0776336 -0.710512 -0.375333 -1.01226 2.05732 -0.87725 -0.196073 -0.58711 0.464232 0.221524 1.11822 0.974761 -0.0810259 0.212317 0.470217 0.526828 -0.0634356 0.354288 -2.36353 -0.675915 0.648437 -0.356852 -0.228666 1.84865 
-2.13676 -1.19466 -0.28267 -0.129273 1.84875 -0.960439 -0.172332 0.248556 0.680665 0.736368 -0.870441 -0.445645 0.341137 1.66597 0.666834 -0.345555 0.635315 -0.129232 -0.739338 0.646885 1.40029 -0.182627 0.078945 -0.381869 -0.878812 0.8377 0.400185 0.917575 -1.06211 0.96049 0.0908578 0.379749 -0.680686 -0.589292 -0.261578 -1.00307 -0.230989 0.906035 0.70638 1.74513 
-1.11318 -1.43013 0.0970314 0.210082 0.172766 0.4803 0.751632 0.070013 -0.691628 -0.0892342 -1.19478 1.01895 -0.650765 -0.0742334 -0.678788 -0.3986 0.695034 -1.50216 -0.675801 -0.951292 0.287624 -0.593167 0.259245 -0.54635 -0.0418331 0.630132 0.0168521 1.68753 0.476191 -0.943416 -0.392648 0.0451288 0.646513 -0.586111 -1.59566 -0.287147 0.807456 -0.232353 -0.443799 0.459065 
-0.320159 -0.760719 -0.174387 0.124591 -0.0140396 0.764918 -0.372935 0.845191 0.607888 -0.486373 -0.247834 0.800254 -0.861424 -0.280818 0.468007 -0.481667 -0.417024 0.0816839 -0.710307 -0.0338876 0.126602 0.574672 0.140467 0.743371 0.373417 0.787001 -1.16819 0.383369 0.203301 0.218829 -0.126094 -0.188929 -0.470589 0.0087757 -0.585532 0.0688057 0.894021 -0.944968 0.142224 1.1568 
0.763893 -1.82845 -0.219829 -0.545912 2.43411 0.753982 0.321122 0.151684 -0.78209 -0.0183398 -1.84295 1.5442 -0.2194 1.24964 1.23474 -0.0544268 0.5544 0.361205 0.659922 -0.671532 0.439634 -0.446974 -0.52952 -0.782621 -0.00233728 -1.11302 1.45166 1.29631 0.0430442 0.462646 0.311024 0.799934 1.38662 -0.535564 -1.32811 -0.369115 0.410858 1.14709 0.529148 1.21969 
-0.439656 -0.514964 -0.243676 -1.16574 2.33645 0.376558 0.601179 -0.0710926 0.647186 0.796743 -1.00102 0.105065 1.3443 -0.663269 -0.469726 -1.42578 -0.522445 -0.082831 0.747456 0.00926691 -0.0939193 -0.1041 0.170237 -0.138145 -0.455798 -1.13327 -0.459715 1.17655 1.34969 0.872777 -0.729051 0.430148 0.835834 -0.957089 -1.11148 0.894895 -0.619679 0.27869 0.113483 0.289111 
-0.797193 0.49887 -0.126005 1.03257 1.79664 0.613937 0.276756 0.127834 1.071 -0.202731 -1.9032 0.761853 -0.224862 0.68156 0.311908 0.260213 0.367436 -0.693753 0.380003 -0.860452 0.207956 -0.525806 -0.0243201 -0.0743956 -0.968646 -0.0120423 0.412442 1.12078 0.43919 -0.440514 0.585894 1.25433 1.14046 -0.346779 -1.57896 0.647454 0.151373 0.304981 0.470759 0.637188 
0.555413 0.757496 -0.219759 -0.6426 2.55465 -0.435438 -1.09308 -0.262278 0.875648 -0.258549 -0.69826 0.699981 -0.248009 -0.240104 -2.06786 -1.21853 0.413194 0.783609 0.116567 -1.48958 -0.320829 0.0696204 -0.508505 0.860195 -0.125699 -0.0890274 0.563543 0.848465 -0.284622 1.1344 -0.50023 -0.026917 0.754538 0.425027 -1.6026 -0.105083 -0.651242 1.80498 0.756973 -0.503858 
0.486242 1.37699 1.29418 -0.175181 0.761518 -0.458417 -1.57608 -0.564365 -0.585467 -1.51915 -1.79642 0.948905 -2.03249 -1.59592 1.21976 0.0728323 1.4682 -0.13095 -0.0489901 -1.33244 -0.93979 -0.0904985 1.95974 0.342199 0.78125 -3.14166 1.49062 -0.245798 -1.02678 0.163746 0.523537 0.571232 0.678774 0.0303392 -1.5697 1.27126 0.479459 2.9244 1.07348 -0.779794 
