196 40
-1.00123 -0.400296 -0.801185 -0.543509 0.00152325 0.853611 0.348002 0.334818 0.0328196 -0.552773 0.700802 -0.879715 0.227475 -0.218432 0.828106 -0.524223 -0.106126 1.02331 -0.0693743 0.395053 -0.651973 -0.413085 1.03833 -0.841394 -0.519882 -0.469305 0.368215 -0.305605 0.703401 0.89691 0.400848 0.697373 -0.0791242 0.444233 0.781662 0.991663 0.627811 -0.704571 -0.102272 0.902094 
-0.331369 1.07359 0.126676 -0.795758 0.459791 -0.0458201 -0.00867824 0.686481 -0.573359 -0.0738112 0.586905 0.664895 -0.32529 -0.403686 -1.28562 -0.117073 -0.391082 0.877705 0.743979 -0.136022 -0.699018 0.0156017 -0.533823 0.753716 -0.357082 -0.461122 -0.0203711 -0.0643108 0.242909 -0.281626 0.327801 0.700431 1.07775 -0.394821 -0.739938 0.235359 -0.154661 0.120874 -0.894595 0.625295 
0.572945 -0.0775175 -1.07704 0.792956 -0.357424 1.16127 -0.20768 0.344224 1.1778 -0.623505 -0.0309608 -0.528212 -0.3844 0.121027 0.203797 0.595689 -1.02007 -0.712785 0.0580817 -0.396102 -0.175104 0.0796031 -0.0457932 0.561326 0.0765349 1.42209 0.955673 -0.715486 0.646669 -0.534938 -0.133317 -0.340668 0.121106 -0.0865823 -0.910343 0.654419 -0.44965 0.59946 -0.160971 -0.434022 
0.923271 0.552412 0.015323 -0.493017 -0.672773 0.0240351 0.452381 0.536405 -0.679758 -0.918846 0.318757 0.192098 -0.100753 0.537002 0.705398 0.514114 -0.066833 -0.556305 0.973091 0.338703 0.462142 -0.734485 0.998518 -0.671633 0.280631 0.299874 -0.766019 0.701099 -0.79981 -0.352995 -0.770985 -0.0878523 0.660407 -0.129301 -0.822149 0.0413106 -0.301156 -0.439028 -0.428286 0.695168 
0.382674 -0.489704 0.556192 -0.547348 0.549375 -0.383417 0.407356 -0.989587 0.908736 -0.687791 -0.811185 -0.0953259 0.336382 -0.103635 -0.517087 -0.872478 0.200174 0.462061 0.503076 -0.552408 -0.640107 -0.278462 -0.815627 0.929159 -0.356924 1.21796 -0.0799079 0.753881 -0.89383 -0.49185 0.522048 -0.16128 -0.287517 -0.652117 0.581068 -0.631988 -0.825541 -0.496776 -0.309339 0.60674 
-0.689401 0.644672 0.0358672 0.398787 -0.409074 0.225257 -0.72255 0.522685 0.0997519 -0.830614 -0.993939 0.157864 0.821117 -0.487094 0.0372247 -0.194905 0.125469 -0.230323 -0.153521 -0.741163 -0.385442 0.578103 0.289941 0.420092 0.564631 0.34689 0.392985 -0.374871 -0.445668 0.809288 -0.390821 0.197791 0.61013 -0.314176 0.846304 0.163475 -0.548578 0.380549 -0.527563 -0.554605 
-0.929791 -0.854002 -0.494036 0.646224 0.931234 -0.932481 0.493792 -0.118128 0.441153 0.357062 -1.06266 -0.186634 -0.672181 -1.07172 -0.580166 -0.264151 -0.641633 0.189963 -0.387721 -0.635089 0.934693 -0.876909 0.75692 0.377945 0.936672 1.03554 -0.849314 -0.369168 -0.997853 0.710312 0.438 -0.611054 0.915203 -0.704075 0.105541 -0.227493 -0.317772 -0.767968 -0.0531652 0.0129581 
0.877687 -0.378024 0.854327 0.850268 0.277144 -0.706374 -0.317528 -0.38754 -0.537025 -0.734946 -0.224998 0.593592 -0.330001 0.577142 0.869536 -0.0140837 -0.87905 -0.518467 0.452141 0.15882 1.04495 0.302442 -0.818159 -0.272809 0.453014 -0.414549 0.315786 -0.417975 0.436797 0.516933 -0.911058 -0.927758 0.796015 0.580268 -0.719904 -0.53344 -0.658601 0.690474 -0.389566 -0.288613 
-0.49519 0.333919 1.30291 0.0815461 -0.688627 0.0510384 0.0431881 -0.5334 -0.527708 -0.824676 -0.833722 -0.573711 -0.549032 0.563288 -0.905942 0.744034 0.202939 -0.0568006 0.534576 -0.746901 -0.622517 -0.672255 -0.0770505 -0.854298 0.000489967 -0.22495 0.807047 0.0397807 -0.668196 0.776528 -0.672829 0.69794 0.855505 0.743591 -0.320477 -0.638779 0.169921 -1.04822 0.0463934 -0.609736 
0.469255 -0.666334 0.521704 -0.375511 -0.793458 0.514232 -0.81193 -0.516859 0.353068 -0.835585 -1.04039 0.550555 -0.289959 -0.441786 0.105249 -0.663642 -0.570817 -0.905892 -0.98879 -1.02442 -0.22096 0.886664 0.726155 0.430061 -0.718297 0.526841 -0.414707 -0.442278 0.343184 0.870297 0.376772 1.14352 -0.367592 -1.00157 1.0672 -0.64848 0.472067 -0.877858 0.406679 -0.565268 
0.679903 -0.852179 1.03924 -0.163178 0.294408 0.810661 0.122844 -0.493361 0.197072 0.727949 -0.332366 -0.889527 -0.530641 -0.350925 0.471565 0.908481 -0.00945351 0.843742 0.0018672 -1.00433 -0.143044 0.406229 0.34703 0.561319 -0.221368 -0.126769 -0.376705 -0.734666 0.240677 0.344919 0.118063 1.30478 0.445879 -0.67433 -0.297944 0.35447 -0.670074 0.0642976 -0.868814 -0.0341872 
0.605919 0.631188 0.0974851 -0.206685 0.292797 -0.53883 -0.761854 0.636938 -0.364696 0.671326 -1.17288 -0.874563 -0.51712 0.77235 -0.382765 -0.760774 0.272813 -0.753362 -0.22593 -0.695574 0.655056 0.455867 -0.0270056 -0.610674 0.225643 0.137172 -0.190859 -0.748873 0.0627005 0.975978 0.0717576 0.153228 -0.614747 -0.682944 0.813946 -0.486986 -0.905692 -0.311269 0.0211063 0.0617683 
0.827347 0.0186513 0.551836 0.626761 0.488436 -0.610392 -0.218825 0.514268 0.561196 0.92388 0.282405 -0.550219 -0.114559 0.212954 -0.851288 -0.621568 0.502528 0.0622402 -0.578436 -0.681033 0.104862 -0.758427 -0.80425 -0.986527 0.146448 -0.599095 -0.0845069 -0.13074 -0.573142 0.54873 0.220145 0.750641 0.882555 -0.141276 -0.624354 0.824422 0.00870948 -0.25357 -0.463715 0.565565 
-0.12196 0.738049 -0.384118 0.842382 -0.78514 -0.166242 0.762753 0.144621 -1.10576 -0.739615 -0.663765 -0.374735 0.432131 -0.214034 -0.47554 -0.31632 -0.286776 -0.24181 1.03166 -0.167341 -0.707792 -0.589868 0.00592893 0.205548 0.448726 -0.552236 0.0421853 -0.364216 -0.147475 -0.751358 -0.828874 0.45402 -0.0619619 -0.754835 -0.259601 0.361556 0.848915 0.225527 -0.538762 -0.0222384 
0.285835 0.454561 0.671175 0.268811 -0.217771 0.241495 0.419491 -0.913425 -0.176913 -0.31 0.612419 -0.917602 -0.703203 -1.02408 -0.920959 -0.323302 -0.477349 0.0309819 -0.616274 0.841878 -0.915722 -0.0569146 0.78707 0.683858 -0.0675657 0.300482 0.412628 -0.453697 -0.485303 0.0174158 -0.48312 -0.522842 0.119563 0.512042 -1.09774 -0.042246 -0.441622 0.00563653 -0.914071 -0.776967 
0.746328 -0.136772 -0.473387 -1.02225 0.416488 1.21095 0.0268749 0.82 0.879088 1.05028 0.353064 0.932025 0.80039 0.0848583 -1.0543 -0.0714775 -0.842127 -0.0945104 0.846816 -0.248593 0.681744 0.970225 -0.483077 0.534837 0.409273 0.288047 0.846776 -0.420415 -0.607448 -0.243581 0.668271 -0.246745 0.303214 0.286337 0.396213 -0.36987 -0.912319 -0.257168 0.475347 -0.367819 
-0.724279 -0.0120449 -1.08742 0.0987822 -0.102015 -0.557259 -0.38085 -0.423138 0.363014 0.125011 -0.74603 -0.142703 0.152667 0.493164 -1.28389 -0.270373 -0.423319 0.348256 0.620024 -0.17463 1.10937 0.110273 0.64457 0.156644 0.0577059 0.484456 -0.979523 0.439246 -0.679114 -0.173822 -0.0233181 0.516447 0.403979 -1.02466 -0.775524 0.490262 0.414749 -0.409193 0.0230385 1.2013 
0.515121 0.727841 0.393434 0.444302 -0.610385 0.811526 -1.08316 0.212349 1.19166 0.319912 -0.403765 -0.79256 -0.771935 -0.544824 -1.00824 1.16596 0.649463 0.946354 0.411827 0.857789 -0.192206 -0.610509 -0.794197 -1.08031 -0.591073 0.373566 0.437125 0.0796253 -0.733082 0.833267 -0.624684 -0.575413 0.37756 -0.507735 0.413321 -0.894754 -0.22337 -0.957326 0.221725 -0.464224 
-0.87711 0.617766 0.53953 -0.192222 0.431241 -0.05809 0.552577 0.243182 0.166793 0.31131 -0.265454 0.639149 -0.632429 0.233894 -0.0603334 0.331201 0.355626 1.03954 -0.013064 0.92301 0.0705249 0.0465689 0.633047 -0.474665 0.821447 0.175463 0.644169 0.34164 -0.509531 0.958893 -0.920814 0.824355 0.0972031 -0.624172 0.0241751 0.252912 -0.852278 0.677743 0.2895 -0.337378 
0.0563893 -0.496244 0.268175 0.0723295 -0.560778 0.967963 0.510388 0.121587 -0.147898 0.559573 0.130149 0.0607509 -0.949837 0.349598 -1.07056 0.549564 0.0603229 -0.441012 -0.0576987 -0.319714 -0.392029 -0.574329 0.0699926 -0.399206 0.859249 0.77702 -0.510835 -0.882769 0.182973 0.820597 0.7725 -0.219752 -0.574786 -0.508329 0.817385 -0.411051 0.294602 0.435354 -0.546105 0.337558 
-0.538838 -0.218631 -0.581856 -0.72979 0.121709 0.205083 0.391153 0.646808 0.638986 0.754842 0.390906 0.496793 -0.721162 -0.482201 -0.140128 -0.0632583 -0.006534 0.184012 0.399245 0.0285105 -0.441672 -0.0398547 -0.476539 0.516813 -0.135796 0.94385 0.790314 0.385421 -0.942523 1.09635 -0.983179 0.138878 1.1833 -0.0993299 -0.597949 -0.653951 -0.980132 -0.738717 -0.829787 -0.136472 
-0.445672 0.724703 0.973957 -0.873771 -0.380728 -0.821702 -0.717837 0.177884 0.211061 1.21697 -1.28295 -0.189079 0.88905 -0.393073 -0.618439 0.332834 -0.424597 0.575528 -0.795787 0.806976 -0.197803 -1.01948 -0.503847 -0.722376 0.96128 1.11402 0.582414 0.68794 -0.0985603 -0.354074 0.355097 0.518047 -0.836729 0.0759793 -0.76223 0.0584842 -0.948441 -0.60044 -0.844572 -0.648619 
-0.930236 0.0108408 -0.0994855 -0.790522 0.215396 -0.841318 -0.164914 0.131711 0.582407 0.343241 -1.46167 -0.683644 0.257208 0.121734 0.701167 0.63759 0.106283 0.269446 -0.0985887 0.570198 -0.406257 -0.0957351 0.0673701 0.679635 -0.0534681 -0.315344 0.448926 0.051541 0.877275 0.685073 0.90277 -0.553892 0.193192 -0.577715 0.966354 0.58533 0.611457 0.462374 -0.645004 -0.473246 
-0.380185 0.229868 0.0688043 0.53783 -0.165831 1.09018 -0.16511 -0.549898 0.574033 -0.199332 -0.782105 1.05864 0.939561 -0.499135 0.208788 0.173096 -0.480833 0.0675094 -0.832652 -0.241904 0.973801 -0.77367 -0.0972785 -0.864428 -0.231871 1.16569 -0.500958 0.219906 -0.742099 0.505226 -0.846097 1.18794 -0.704535 -0.465607 -0.481111 -0.631674 -0.833902 0.50013 0.715252 -0.256348 
-0.934117 0.690093 0.225098 0.828786 0.176136 -0.0526754 0.919355 -0.876929 0.90387 0.102 -1.08357 -1.00993 0.00525098 0.91139 0.355041 0.211932 -1.16481 0.17001 -0.0529535 0.265056 -0.0073742 0.866529 0.837209 -0.0673104 0.457816 0.0223922 -0.596154 -0.556288 -0.797236 -0.0750709 0.769154 0.860256 -0.173752 -0.542131 0.360158 -0.535881 -0.37966 -1.08119 -1.16966 -0.537826 
-0.377463 0.56639 -0.323448 0.848764 0.501926 -0.42723 -0.0833277 -0.266739 0.422635 1.00345 -0.526477 0.00314883 0.757175 1.15778 0.0313903 0.529283 -1.01331 0.462772 -0.0246257 -0.881948 0.177083 -0.613566 0.862433 0.661694 0.18296 1.0241 -0.103177 0.908516 -0.548109 0.537269 -0.101943 -0.518735 0.419877 0.453985 0.8766 -0.848231 0.453045 0.0330384 -0.178227 -0.258974 
-0.869979 -0.155083 -0.96657 0.615577 -0.624804 0.354372 1.07873 -0.00968091 0.0451079 0.539312 -0.354378 -0.848365 0.598027 1.01546 0.00873998 -1.13834 -0.625686 0.773433 0.0659254 0.74504 -0.18038 0.0308146 0.249764 0.305798 -0.732522 -0.505738 0.873392 -0.0162541 0.688082 -0.496477 -0.437781 0.32944 0.457676 -0.588453 -0.839315 -1.21422 0.167569 -0.565543 -0.196911 0.828087 
-0.339893 0.419771 -0.521406 -0.0403076 -0.811772 0.670042 0.445497 -0.518297 0.227291 -0.0579151 -0.673189 -0.667633 0.968911 -0.0398032 -0.645063 -0.828405 -0.586433 0.566628 -0.352597 -0.515913 0.18735 0.868966 0.710808 0.671584 -0.166478 -0.775204 -0.606709 0.0187547 -0.311116 -0.717864 -0.388535 0.0611782 0.49472 -0.246907 0.22632 0.451427 -0.220946 -0.293741 -0.732612 0.510664 
-0.615654 0.254473 -0.368006 -0.146257 0.30217 0.708403 -0.545876 0.629003 0.137118 -0.481741 0.547033 -0.429663 0.468092 -0.663136 0.169425 -0.248626 -0.0595148 0.545379 0.529304 -0.00331935 -0.73619 -0.497642 -0.309436 0.438623 -0.478264 1.18295 -0.663919 -0.368258 -0.0918729 -0.0470669 0.643074 -0.643238 -0.51862 0.168285 -0.762266 0.731038 -0.452739 -0.764144 0.537477 1.0046 
0.190087 -0.328106 0.282065 0.874516 -0.407339 -0.246602 -0.50079 0.938805 0.761961 -0.278799 0.470324 0.274085 0.128008 -0.874401 -0.486986 -0.5195 0.956719 0.944314 -0.560427 0.852417 -0.505952 -0.384458 0.271141 -0.284177 0.137316 0.056512 0.923264 -0.318074 -0.592563 0.573149 0.684345 0.541047 -0.818935 0.262325 0.443891 -0.683181 -0.190542 0.114129 -0.186428 -0.756788 
0.554349 -0.666342 0.665425 0.472324 0.714256 0.213402 0.0904321 0.964493 0.56356 -0.7308 -0.600586 0.55311 -0.442534 -0.712479 -0.351195 -0.0429586 -0.0529897 0.729598 -0.770117 0.610244 0.707716 0.737849 -0.134371 0.215502 -0.0256957 -0.414385 -0.577954 -0.319976 -0.0365969 -0.311844 -0.984075 0.473645 0.543243 0.630564 0.449601 -1.15991 0.46934 0.74479 -0.763565 0.012737 
-0.545494 -0.0384286 0.549525 0.400963 0.356684 1.06534 0.711146 0.981902 -0.37072 -0.36718 0.806585 0.18877 0.785018 -0.619134 0.066152 0.460336 -0.726835 0.233089 1.0198 -0.123954 -0.660278 -0.332621 0.299462 0.507729 0.839707 -0.257957 -0.497277 -0.000715916 0.437174 -0.105087 -0.790801 -0.847816 0.477308 -0.754518 -0.544962 -0.310342 -0.26889 0.788709 -1.19443 0.114086 
0.102489 0.105134 -0.891541 0.897944 0.37522 0.332004 -0.836153 -0.495882 0.923705 1.12164 0.328562 0.397899 0.636299 -0.478804 -0.187659 0.854703 -0.995451 1.14428 0.00731107 0.791406 0.538355 0.838555 -0.317185 0.531579 -0.127606 0.311577 0.423319 0.541723 0.491536 0.200328 -0.822197 -0.837993 -0.220014 0.131714 -0.574804 -0.33839 0.0669802 -0.935744 0.299698 -0.629675 
0.0169807 0.564892 0.928422 -0.226942 0.492435 -0.195878 0.331025 0.787886 -0.0903231 0.518195 -0.390067 -0.322251 -0.256481 -0.845424 -0.130654 0.755607 0.50458 0.14114 -0.402629 0.463209 -0.26797 -0.209049 -0.704164 -0.823922 -0.557037 -0.019352 -0.683894 -0.655527 -0.969544 0.511863 -0.880128 0.0215039 1.21345 0.318176 0.517616 -0.638795 0.449527 -0.658853 -0.050546 0.882737 
0.60791 0.397609 -0.0867752 -0.387902 -0.415077 0.620031 -0.946992 0.86424 -0.0691297 0.554668 -0.480902 -0.213004 -0.24249 0.602758 -0.0158551 -0.309264 -0.666102 -0.0219394 -0.344497 -0.343785 -0.82756 -0.285992 -0.0694169 -0.521515 0.811191 0.892873 -0.500282 -0.839895 0.599486 0.741108 0.781424 -0.620799 0.405781 -1.00956 -0.323289 0.377585 -0.932397 0.932766 -0.33746 0.699893 
0.680786 0.634374 1.03195 0.747536 0.992722 0.686441 0.0903032 0.444085 0.37181 1.00683 -0.773939 0.273923 0.437048 0.280132 0.377342 0.194549 -0.102294 0.82131 0.393852 0.531475 -0.941546 -0.197455 -0.671074 -0.748798 1.14569 0.145471 0.627882 1.013 -0.496168 -0.00187883 0.841942 0.241579 0.791602 0.984247 0.306236 -0.275114 0.297657 -0.407748 -0.10889 -0.451413 
0.279311 0.469931 -0.0720245 -0.720939 -0.715593 0.731111 0.433279 -0.712982 -0.766429 0.398433 0.264041 0.94248 0.721372 0.544024 -0.327203 -0.52022 0.0477486 0.0706162 -0.0207694 0.329934 0.151482 0.524482 0.746674 -0.023084 0.306832 0.808115 -0.951709 -0.557739 0.680082 0.72449 0.830536 0.297347 0.85008 -0.41902 0.226964 -0.120428 -0.957856 -0.579909 -0.962159 0.543618 
-0.0469343 0.114977 -0.736054 -0.245536 0.608239 -0.682036 -0.422638 -0.405709 0.270023 0.00450834 -0.871217 -0.817425 0.782399 -0.156284 -0.137035 -0.396108 -0.425155 0.131335 0.424268 -0.250356 0.558069 0.91735 0.652878 -0.314477 0.248122 0.259784 -0.338167 -0.426181 0.513728 -0.378151 -0.0508446 -0.495423 -0.661773 -0.411335 0.0127011 -0.475981 -0.741793 -0.524789 -0.0065266 0.580007 
0.0428329 -0.168505 -0.929284 -0.255882 -0.0659625 0.613628 0.84164 -0.82787 0.441655 0.317437 0.229952 0.91789 0.843542 -0.497362 0.361698 -0.200152 0.192173 -0.0882058 -0.699487 0.877197 -1.02715 -0.00706391 -0.164165 -0.371093 0.957863 0.126785 0.551956 0.533471 0.134403 0.502768 -0.792948 0.0835064 1.13262 0.301686 -0.931688 -0.430858 0.176544 0.947069 -0.33341 -0.274831 
0.70639 0.175744 -1.02086 -0.548569 0.474057 -0.352071 -0.317319 0.86464 0.761031 0.874487 0.438749 -0.208217 -0.679442 -0.0104582 -0.129227 0.57714 -0.127875 -0.155319 -0.0498626 -0.732967 -0.761952 -0.457006 0.560776 0.203231 -0.71655 0.0722787 0.0478555 -0.67045 -0.807758 -1.02218 0.0639624 -0.0500747 -0.367548 0.0124086 -0.525461 -0.271609 -0.173042 -0.744996 -0.610707 0.874296 
-0.496815 -0.690414 0.846151 0.568631 -0.157059 -0.659182 0.250738 0.682441 -0.736658 0.333322 0.0581677 0.260018 -0.0340597 -0.388547 -0.603431 -0.265005 0.990406 0.604959 0.610787 -0.628161 -0.332928 -0.539682 -0.614297 -0.381868 0.422802 0.608969 -0.90005 0.63039 -0.718193 0.705885 -0.842978 -0.618135 0.572276 -0.67242 0.273569 -1.25021 0.50294 0.0566012 0.0568617 0.740217 
0.328437 -0.503972 -0.0586003 -0.478757 0.166839 -0.519949 -0.94588 -1.07137 -0.184919 0.861056 0.24904 -0.862859 -1.01921 -0.351776 0.998888 -0.0644644 -0.635424 0.313057 0.651548 0.783802 0.598841 -0.0395771 -0.925685 0.397387 0.0275931 -0.301849 0.403857 -0.103784 -0.844156 0.288756 -0.244669 -0.261998 0.815617 0.443077 -0.693573 -0.323424 -0.111262 -0.756948 -0.216441 -0.767003 
0.735771 -0.436598 0.696443 0.2016 -0.326709 -0.843278 0.368762 -0.659044 0.218179 -0.688337 -0.334274 -0.815384 -0.437828 0.360595 0.184247 -0.360885 1.00789 -0.812459 0.353256 -0.561462 -0.676999 -0.128318 -0.323545 -0.112579 -0.601562 -0.98657 0.950505 0.417665 0.151306 0.419986 0.615718 0.315115 0.21853 -0.545881 -0.0775951 -0.729265 0.0756777 -0.872349 0.443318 -0.408732 
0.114027 0.546111 0.749151 -0.225151 -0.608757 0.657397 0.895595 -0.0204536 0.676881 -0.821937 -0.274198 0.795193 0.285746 0.912326 0.952808 -0.7887 -0.689806 -0.54919 0.0904907 0.981207 -0.322937 0.177244 -0.720834 -0.300909 -0.835132 0.673648 0.305447 -0.810257 -0.68041 0.449696 0.303353 0.209159 -0.855209 0.329398 0.241956 -0.778666 -0.649419 0.55878 -0.887152 -0.582182 
0.206899 -0.917849 -0.569464 -0.237015 1.06284 -0.776193 0.430763 0.619147 -0.249602 -0.375445 0.819032 -0.0134722 0.567178 0.11622 -0.491468 0.515548 -0.763325 0.505241 0.33161 0.457829 0.761054 0.159928 -0.0757833 -0.551552 -0.159527 -0.410552 -0.523225 -0.845076 0.497838 0.259111 0.427155 0.563656 -0.359216 -0.958824 0.200138 -0.267528 0.615355 -1.09057 0.88547 0.881986 
-0.168893 -0.920328 0.681242 0.459802 -0.237998 0.321248 -0.706149 -0.119704 0.490034 0.912053 -0.0934159 0.0552603 0.262431 -0.845171 -0.435251 -0.135877 0.581291 0.184273 0.883901 -0.192003 -0.687275 -0.380352 0.7991 -0.990944 -0.697441 0.79335 0.976908 -0.427604 0.670062 -0.104036 -0.5629 0.643266 -0.819314 -0.278525 0.652419 -0.219737 0.661852 0.64924 0.70372 -0.405403 
0.272911 0.744802 0.031132 1.05031 0.312195 1.24018 -0.21698 0.206209 -0.376719 -0.769761 0.213059 -1.15032 -0.00936935 0.390136 0.476103 -0.663235 -0.604443 0.093851 0.252629 0.0105456 0.266003 0.0450469 0.370398 -0.209907 -0.0292575 -0.270434 -0.488967 0.232427 -0.519103 0.316555 -0.722059 0.31692 -0.695303 -0.0565907 -0.979619 -1.111 0.35696 -0.273609 -0.0820663 -0.296817 
-1.07998 1.23828 -0.31363 0.265084 -0.717036 0.747541 0.445848 0.747244 0.746448 0.33905 0.205061 -0.381849 0.0216995 0.702052 0.0865012 -0.492386 0.846735 -0.478052 0.214886 -0.187867 -0.529209 -0.342338 0.741837 -0.029854 -0.915 -0.866695 1.3455 -0.22708 -0.74323 -0.642199 0.400775 0.763676 -0.350466 -0.748994 -0.125442 0.132497 -0.588297 -0.0794616 -0.141353 -0.737718 
-0.0968535 0.333311 0.663877 0.356515 -0.541291 0.589913 0.183691 -0.338022 0.635409 1.01268 -0.554122 -0.323285 0.115954 0.832722 0.121616 -0.563037 -0.915625 0.814986 1.02789 -0.181707 -0.544697 -0.00802804 0.474505 -0.697046 0.600108 0.246558 0.260621 -0.965814 -0.0359991 1.00104 0.995354 -0.222743 -0.11586 0.0321869 -0.307549 0.23358 0.463194 -0.316956 -0.172303 0.0316177 
-0.414554 0.686392 -0.0717299 0.308717 0.423559 -0.598835 -0.161702 0.0304666 0.251091 -0.348983 -0.0875843 0.291876 -0.347926 -0.250437 0.514997 0.60181 0.448951 -0.578505 0.278361 0.431077 0.391655 -0.652342 0.64575 -0.536994 0.981192 0.695753 0.442291 0.582388 -0.349262 -0.384395 -0.24554 -0.0258644 0.906076 0.194226 -0.376612 -0.779551 0.0545507 -0.118257 0.31887 0.879929 
0.590519 -0.197053 0.632642 -0.60146 -1.18349 0.380766 -0.821224 -0.558596 0.150218 0.277459 -0.448894 -0.261213 -0.842851 -0.797053 0.795545 0.95993 -0.810468 0.896566 -0.633299 -0.55286 -0.191261 -0.162045 0.495609 0.482064 0.215364 -0.0888704 0.447411 -0.27577 0.376604 0.924739 -0.859268 -0.42766 -0.4872 0.649001 -0.0759653 0.961108 -0.450346 -0.324783 0.808795 0.41616 
-0.61848 1.00352 -0.422649 0.286261 -0.388903 0.551349 -0.875341 0.169588 -0.730231 -0.802255 -0.166395 -0.450279 -0.316285 -0.0868578 -0.606361 -0.754893 -0.429784 0.0067916 -0.678724 -0.905331 -0.441476 -0.974049 -0.392942 -0.372209 0.19955 -0.562517 -1.07934 -0.109187 -0.914845 0.73668 -0.247188 0.17432 -0.52044 -0.440996 -0.243053 0.653111 0.156284 -0.698769 -0.424052 -0.276514 
-0.427962 -0.718738 0.266395 -0.771036 -0.972121 -0.0623732 -0.0928328 0.619502 -0.850016 0.685626 0.543014 0.238117 -0.0245487 0.209785 0.105122 -0.441546 0.872754 0.16718 -0.613313 -0.485086 0.631493 -0.856839 -0.229616 1.07412 0.454431 0.820287 -0.102485 0.405074 0.989298 0.653507 0.594702 0.562812 0.0347973 -0.511105 -0.628358 -0.336339 0.912719 0.227847 -0.147574 -0.33454 
-0.659293 0.472834 -0.2935 -0.251184 -0.473981 0.142246 -0.446038 -0.729911 0.927304 -0.445196 -0.411964 0.273638 -0.0195799 0.809857 0.163086 -0.19282 0.309293 0.525298 1.0869 0.467292 -0.763832 0.177897 -0.230552 1.00654 -0.157053 -0.122801 -1.12288 -0.632196 -0.647817 -1.04796 -0.558307 0.636512 -0.745907 0.358758 -0.573908 -0.48734 0.157759 -0.319914 0.0103421 0.526204 
-0.456788 0.574865 0.254039 0.0928414 0.323468 0.299548 -1.25644 -0.0979051 0.73681 -0.336777 0.609496 0.805014 -0.432419 0.466165 0.529048 0.913556 0.156119 1.12998 -0.202241 0.576322 0.313462 -0.974175 -0.425066 0.109323 0.454208 0.13166 0.253604 -0.802158 -0.731021 0.791913 0.281754 -0.94557 0.628519 -0.358674 0.439425 -1.10876 0.787484 -0.862055 0.523755 -0.679292 
0.326376 -0.128387 -0.0479705 -0.840764 -0.316766 0.233231 -0.847701 -0.815372 0.769793 -0.0403576 -0.70008 0.51319 0.255108 0.0532575 -0.542496 0.622224 -0.303247 0.622787 -0.196669 -0.140625 0.595768 0.530749 -0.511393 0.397629 -0.733988 0.983895 -1.05108 -0.496288 -0.823285 0.781507 0.142831 -0.844053 -0.98395 0.383286 0.774484 0.676074 0.312964 -0.77099 -0.575231 0.646869 
-0.00321155 0.565414 -0.716811 0.376554 -0.867291 0.185731 0.333621 -0.284783 -0.903675 0.0647961 0.107237 0.582491 0.577051 -0.889083 0.215637 0.725248 -0.728682 -0.122221 -0.0912905 -0.896146 -0.927242 -0.652693 0.464008 -0.100862 -0.606313 0.474544 -0.40537 0.407624 0.867207 -0.670215 -0.500935 0.0967308 0.277687 0.582469 -0.84765 0.113604 -0.427017 -0.0680328 0.631812 0.645898 
0.955036 -0.282643 0.539149 0.968823 0.550941 0.221615 -0.284422 0.504036 0.609045 0.990312 0.254593 0.233563 -0.135236 -0.40855 -0.152525 -0.893673 0.770688 -0.126804 -0.195876 0.728797 -0.0304631 -0.761148 0.204093 0.704367 -0.18782 -0.130604 0.572325 -0.501666 -0.115969 0.711119 0.730395 0.782005 0.414853 0.202878 1.02375 -1.14915 -0.426988 -0.416168 0.564007 -0.991964 
-0.914857 -0.0897375 0.228006 -0.224195 -0.317462 0.0686186 0.074462 0.198341 0.85967 -0.39525 -0.496705 0.321723 0.944298 -0.227977 -0.474933 -0.981103 0.193513 0.360189 -0.498751 -0.222721 -0.146426 0.602871 -0.136184 0.638926 -0.575952 -1.0277 -0.0147801 -0.493296 -0.798474 0.22776 -0.691802 0.488987 -0.840595 -0.0556306 0.438138 -0.967753 0.0931468 -0.610605 -0.572727 -0.222749 
0.610271 -0.0589749 0.797651 -0.187131 -0.510386 -0.461823 0.0277724 -0.194093 0.644943 0.00275144 0.378598 0.336198 0.481563 0.408501 -1.13493 -0.827449 -0.765308 -0.153274 -0.0972669 0.438364 -0.775016 0.966196 -0.557104 -0.168285 -1.03091 -0.45142 -0.0965946 -0.923694 -0.874371 -0.832148 0.528123 -0.330993 -0.662823 0.59088 -0.352115 0.300712 0.200738 -0.29635 -0.67295 -0.318305 
0.595004 -0.306757 -0.188473 0.270521 1.06496 -0.473752 0.761674 -0.375038 0.522995 0.634447 0.0362951 -0.718694 -0.130949 0.804992 0.70202 0.157207 -0.77851 0.345231 -0.213636 -0.515798 -0.134916 -0.262197 -0.579054 -0.414427 -0.0155316 -0.375148 -0.310872 -0.523848 -0.862577 0.184182 0.67879 -0.932118 0.414052 -0.322283 -0.222753 0.280953 0.00758369 0.0583009 1.00767 0.542162 
0.162509 0.13541 -0.166364 -0.0668227 0.833312 0.198276 0.381542 -0.228561 -0.932339 0.432681 0.794057 -0.819812 -0.160263 -0.472392 0.590198 0.75264 -0.28799 0.622993 -0.373381 0.784046 -0.300016 -0.716271 -0.784641 -0.16709 -0.569375 -0.675612 -0.452949 -0.904227 0.951294 -0.116426 0.855833 -0.964053 0.140504 0.711334 0.601464 -0.403733 -0.590814 0.0145471 -0.128142 0.00986144 
0.57631 0.988952 0.835296 0.841783 0.47398 -1.27909 0.892724 0.653583 0.789357 -0.988163 0.137444 -0.388883 -1.01143 -0.41172 0.172109 -0.570091 -0.41583 0.553042 -0.484436 0.751604 0.353245 0.0966334 -0.76329 -0.76376 -0.13353 0.00693074 0.544944 -0.458308 -0.204851 0.381821 -0.786658 0.508702 -0.766906 -0.237489 -0.642081 0.777361 0.779712 -0.250227 0.219348 -0.620568 
-0.367049 -0.115335 -0.55984 -0.221721 -0.335275 -0.0581832 0.19154 0.342694 -0.382626 0.780023 0.900416 -0.356888 -0.26481 -0.0540151 0.492464 0.166291 -0.369336 0.491611 -0.794659 -0.276222 -0.446309 0.307107 1.11418 0.797181 -0.58469 -0.0745637 -0.919308 0.00389636 -0.826424 0.227826 0.903211 -0.283363 0.820997 -0.426501 -0.078144 0.283081 0.825398 0.158705 0.906098 -0.301284 
0.570277 -1.03018 -0.114774 -0.00807125 -1.18632 -1.22451 -0.425161 1.03235 -0.279406 -0.45329 0.433832 0.350069 0.444505 -0.605967 0.00296141 0.835867 -0.856236 0.899996 -0.573808 0.0495279 -0.106265 0.542861 0.810787 0.438709 0.590214 -0.790945 -1.27459 0.517363 0.11127 -0.708118 -0.831337 -0.335328 0.783003 0.798648 0.125716 -0.0667707 0.416151 -0.21928 0.731678 0.52114 
-0.122271 0.947454 0.656341 0.91706 -0.424459 0.697039 -0.922365 0.154469 -0.301115 -1.1522 0.247045 0.587904 0.918182 0.324104 0.192186 -0.77851 0.0272159 0.17495 -0.353761 0.524052 -0.229706 -0.875457 1.00256 0.276067 0.239078 0.352937 -0.0185169 -0.101145 -0.913525 0.771939 -0.252444 -0.38888 0.808419 -0.580574 0.0729999 0.788656 -0.218146 0.66423 0.0989167 -0.90758 
0.96408 -0.43572 0.245687 0.861535 -0.774529 -0.773715 -1.06763 -0.912871 -0.037363 -0.21972 -0.630225 -0.242931 -0.28443 0.104587 0.973095 -0.215127 0.207986 0.206129 0.480173 -0.0684993 -0.83757 0.100383 0.488538 1.01686 1.01693 0.402976 -0.821088 0.53232 -0.290174 -0.364409 0.634455 -0.161241 -0.301592 -1.03403 0.854255 0.146738 -0.368221 1.19995 -0.898685 -1.12333 
0.731815 -0.655366 -0.215923 0.457566 -0.571683 0.607286 -1.20359 -0.172668 -0.378426 -1.08789 -0.27929 -0.0622982 -0.345745 -0.394249 -0.0908513 -0.756139 -0.36661 0.176133 -0.550828 -0.469131 0.621021 -0.367884 0.370193 0.214479 0.865234 0.278121 -1.25729 -0.238913 -0.176704 -0.507105 0.815963 0.369945 -0.286206 0.53761 0.11534 -0.931036 -0.893929 0.974237 0.142357 -0.519209 
0.893028 0.589497 1.1902 -0.400985 -0.220631 -0.156964 -1.15736 -0.932302 0.0461486 0.276116 -0.604943 0.479857 -0.484903 0.52994 0.288332 -0.849417 0.380573 -0.135617 1.07521 -0.60092 -0.685033 0.734883 -0.0883538 0.00850062 0.964286 -0.674156 -0.616923 0.107591 -0.888451 0.554797 -1.07049 0.422244 -0.214849 0.143109 -0.510592 -0.528948 0.270451 0.65748 0.112843 -0.709302 
-0.117347 0.191854 0.756808 -0.504273 0.185151 -0.332829 -0.265619 0.395099 -0.53652 0.593554 0.26123 0.410469 -0.351096 -0.281386 0.578254 -0.481355 -0.0947883 0.492049 0.9557 -0.65958 0.471156 -0.651041 -0.303468 1.19837 0.578752 0.235983 -1.07671 0.0494802 -0.581886 -0.526592 -0.774319 0.187047 -0.458983 -0.773848 -0.690122 0.205594 0.0268033 -0.630967 1.09915 0.0543197 
-0.448145 0.0551683 -0.500341 -0.209516 0.784793 0.487621 -0.346102 0.491691 0.701326 -0.399991 -0.433003 0.270615 -0.780633 0.713937 -0.253768 0.0351449 0.330126 0.33976 0.616218 -0.451657 -0.965342 -0.69758 -1.01488 -0.600183 0.283348 0.176866 -0.0888063 -0.67482 0.834952 0.611003 -0.0677308 0.574854 -0.317555 0.228305 0.878552 0.260808 -0.536915 -0.801631 0.0693844 0.954774 
-0.438649 -1.12438 0.850659 0.914936 -0.207547 0.115178 -0.32649 -0.0169371 0.736817 -0.32677 -0.0912811 -0.0193345 0.623678 0.714646 -0.339637 -0.0060237 0.384062 -0.43396 -0.797963 -0.279412 -0.0449491 0.138631 -0.329042 -0.469875 -0.53193 0.399759 -0.416684 -1.05209 0.109914 0.28382 0.507336 -0.760513 -0.260765 0.85313 1.10603 -0.736119 0.684871 -1.05779 0.289517 0.16457 
0.694336 0.341885 -0.254668 0.0252483 0.720165 -0.861423 -0.255904 0.500402 0.105128 -0.388857 -0.573998 -0.698584 1.17233 1.35962 0.23939 -0.576535 -0.706927 0.728456 0.955872 0.0980171 -0.585435 -0.0291937 0.319333 0.0160479 -0.66702 0.172058 0.012691 -0.866026 -0.80275 -1.12559 -0.662419 0.673366 0.487403 0.437179 1.28481 0.546901 0.358032 0.0924132 0.598222 1.01463 
1.14019 0.472473 -0.195939 -0.112351 0.850412 0.162894 0.734029 -0.503514 0.265654 0.234045 0.0160172 0.598172 -0.333295 1.09962 0.643809 -0.063072 0.456244 0.500284 -0.142946 -0.817829 0.550011 -0.967674 -0.883165 -0.632423 0.103105 -0.435497 0.421769 -1.12779 0.187912 -0.516366 -0.267414 -0.719536 0.529161 -0.619077 1.10321 0.0774841 0.259987 -0.708752 0.396839 -0.423389 
0.777481 0.728411 -0.447535 -0.268276 -0.19229 -0.569431 -0.649335 1.11018 -0.442077 -0.888834 0.854961 -0.129037 -0.432869 0.577357 0.0497023 0.193362 -0.184941 -0.209363 -0.229429 0.722318 -0.226387 -0.745499 -0.836434 -0.8059 -1.35997 -0.90879 -0.589094 -0.895845 -0.508576 -0.659166 -0.405976 -0.935942 0.191771 -0.271681 -0.36076 -0.983135 -0.15338 -1.02346 0.37326 -0.669474 
-0.0371885 -0.809583 0.0416842 -0.656734 -0.398297 -0.758722 1.0074 1.19115 0.714647 -0.4971 -0.153843 -0.0104832 0.663371 0.0746579 0.661325 -0.653491 0.440867 -0.260808 -0.821757 -0.945013 -0.961447 -0.875154 -0.852396 -0.396741 0.303688 0.247952 -0.109352 -0.205674 -0.828354 -0.0350375 0.0301154 0.0975491 -0.666733 -1.03409 0.712749 -0.249085 0.892637 0.158353 0.4955 -0.68655 
0.599627 -0.510171 0.326431 0.82175 -0.683687 0.00641443 0.810293 0.140881 0.544339 -0.160115 -0.523884 -0.20659 -0.84449 0.715209 -0.292559 -0.343614 -0.930044 -0.247667 -0.377437 0.100081 -0.247965 -0.293064 -0.140571 0.0139597 -0.649561 0.278603 -0.519326 -0.116609 0.801731 -0.757689 0.0376921 0.888322 0.0589137 0.502478 -0.24945 -0.452161 1.00533 -1.00471 0.277216 -0.339272 
-0.692823 0.594619 0.107169 0.668895 0.485556 -1.18662 -1.0762 0.425161 -0.702226 -0.461406 0.64445 0.331692 -0.177486 -0.295423 1.1741 0.0211782 0.349516 0.859949 0.726582 -0.198516 -0.800888 -0.804115 -0.961413 0.937508 -0.171682 -0.932184 0.291634 0.332842 -0.179398 -0.586936 -0.501343 0.0441991 -0.221922 -0.681187 0.386606 0.541746 0.400561 -0.548305 0.625533 -0.115129 
-0.810112 0.715794 -0.272041 -0.565782 0.154012 -0.702565 -0.545287 -0.487401 0.239939 -0.0994843 -0.147275 1.08204 -0.612535 -0.267621 -0.521852 0.309181 -0.950648 0.63377 0.0599017 0.194025 0.545386 -0.913263 0.154365 0.253826 -0.512226 -1.06093 -0.290655 0.0884273 0.0651414 -1.05193 0.722582 0.878598 0.882764 0.454221 -0.277462 0.592672 0.756691 0.861036 0.580836 0.209021 
-0.174595 -0.798399 -0.00120539 0.118114 -0.556931 -0.311686 -0.731325 -0.261021 0.756725 0.386337 1.05271 0.344195 0.196897 0.342511 0.801817 -0.34676 0.446674 -0.555014 0.144517 0.845907 -0.50341 0.187652 -0.667 0.13911 0.568908 0.803108 0.361748 -0.274981 0.23639 0.430548 -0.296239 0.421719 0.910763 -0.462155 -0.604758 -0.0056038 0.822382 -0.683715 0.728764 0.484878 
0.592289 -0.889123 0.782651 0.112281 0.411334 -0.140865 -0.23887 0.944531 -0.235618 0.674785 -0.243879 -0.933314 -0.781782 -0.765126 0.86926 -0.318281 0.0792513 1.05217 -0.616595 -0.398248 0.702199 -0.540096 0.285777 0.457365 -0.580343 0.583568 -0.868938 0.799323 0.181101 0.441702 -0.244706 -0.805934 1.00037 -0.412976 -0.194273 -0.300214 -0.342632 -0.764117 0.248651 -0.875532 
0.998561 0.761681 0.337827 -0.400695 -0.510647 -0.765427 -0.421272 -0.592465 0.33669 0.0176471 -0.112852 0.0350332 -0.68975 0.543768 -0.111516 -0.494827 1.09854 0.366001 -0.223298 -0.343867 -0.73756 -0.76896 -0.477157 0.235331 0.526741 -0.180001 -0.40326 -0.784838 -0.957225 -0.772973 0.696247 0.239854 0.107363 0.247366 0.19715 -0.522129 -0.171737 -0.0890102 -0.490221 0.536974 
-0.587665 -0.294728 0.707104 -0.659335 -0.893889 -0.598407 -0.678997 -0.546414 -0.443624 -0.558469 0.353228 -1.03019 1.08245 -0.0545085 0.515612 -0.108018 -0.631623 0.745165 -0.500603 -0.0824174 -0.501231 -0.0206667 0.733921 -0.0917044 0.358699 0.364205 0.607282 -0.80516 -0.555538 0.255303 -0.373302 0.397866 0.387329 -0.90187 -0.0475424 0.470351 -0.392601 0.16572 -0.220489 0.808187 
-0.877954 -0.430654 0.102338 0.00747445 -1.29735 -0.776474 -1.01755 -0.0891769 0.119386 -0.136428 -0.313393 0.529958 0.514647 0.0486515 0.666942 -0.598792 1.05186 1.2555 -0.213216 -0.0556039 -0.54451 -1.00969 1.24925 0.276149 -0.0224963 -0.311731 -1.15614 -0.80385 0.607476 -0.631489 -0.980881 0.180009 0.312191 -0.0256202 -0.879892 0.650239 -0.771161 0.343238 0.0424985 -0.982145 
0.309984 -1.09362 0.457811 0.293809 0.524086 -1.13983 1.15904 -0.813433 0.665053 0.706437 0.22544 0.120346 0.399527 0.134121 -0.0790247 -0.723592 -0.418736 0.774928 0.20957 0.183184 -0.0716416 0.102825 0.806246 0.647254 -0.460524 -0.85612 -0.016127 -0.330528 0.242192 0.740405 0.649616 0.146936 0.527439 -0.722318 0.0106081 -0.270519 0.349294 -0.0267749 0.69696 -0.334166 
0.130706 0.520952 0.473236 -0.160683 -1.04851 -0.679556 0.754909 -0.604898 0.849337 0.66276 1.1125 -0.487023 0.3652 1.02382 0.384298 -0.831926 -0.792375 -0.749878 -0.526711 -0.0792412 -1.02159 -0.870006 0.845303 -0.806358 0.101301 0.499727 -0.59752 -0.250943 0.035891 -0.167151 -0.480421 -0.182308 0.326623 -0.0231 0.571616 -0.144547 0.16489 0.75458 0.244292 0.0258319 
-0.335754 -0.182542 0.708595 0.72926 -0.0946149 -1.23099 -0.399215 0.350542 -0.165003 -0.162833 0.471771 0.93901 0.502638 -0.182367 -0.384466 0.0138252 0.0353506 -0.710598 -0.67612 0.626907 -0.991734 0.250926 -0.719665 -0.735695 0.151855 -0.830807 0.0484225 -0.101863 -0.739412 -1.13848 0.73426 -0.298809 -0.318142 -0.615862 0.539218 -0.771771 -0.226687 -0.380827 -0.0473091 0.514302 
-0.721766 0.74396 -0.27388 0.359932 -0.670323 0.259193 -0.099202 1.06073 0.786664 -0.331825 0.956181 0.39853 -0.124608 0.169867 0.834218 -0.655471 0.739055 0.364919 -0.349712 -0.0586167 -0.739902 0.89615 -0.779827 -0.574435 -1.05625 -0.716366 0.0919791 0.732541 0.00756775 0.220731 -0.497237 -0.390114 0.518985 -0.0303453 -0.217119 0.130003 0.427786 0.0380042 0.797419 0.0590681 
-0.730329 -0.512085 0.71715 0.908049 -0.648127 -0.068081 1.01431 -0.0749814 -0.0875502 -0.411325 1.08117 -0.378344 0.988311 0.196343 -0.316053 -0.503782 0.122114 1.02234 -0.325386 0.179461 0.548321 -0.89308 0.826012 0.141506 -0.392858 0.409199 0.0172171 -0.135363 -0.0649369 -0.458915 -0.384969 -1.05131 -0.412082 -0.780772 1.07884 -0.25439 1.18755 -0.26041 -0.539461 0.290747 
0.369854 0.0713245 -0.950431 -0.383628 -0.0709662 -0.849507 0.045854 -0.647183 0.564598 0.270933 0.791654 -0.0702258 1.14288 0.0155451 -0.0477339 0.679899 -0.603178 1.12854 0.346356 -0.918714 1.00215 -0.513207 -0.745312 0.133393 0.269457 -1.12951 0.210523 0.820922 0.427313 -0.555907 0.181557 0.329661 -0.939989 -0.612285 -0.275772 -0.612284 0.327989 -0.205391 0.644544 -0.729127 
-0.392905 0.0509655 -1.09506 0.483919 -0.000963318 0.374474 -0.177907 0.995897 -0.704752 -0.585674 -0.414861 -0.300605 -0.387409 0.0444686 0.784024 -0.706067 -0.520467 0.269817 0.193595 -0.829596 0.387536 0.0265734 -0.539276 0.974867 0.461869 0.793145 0.123608 0.660319 1.00814 0.471052 -0.337982 0.745109 -0.542912 0.473317 -0.419437 -0.536895 0.837822 -0.603576 0.075535 0.553701 
0.803443 -1.16765 -0.275179 1.03517 0.612948 -0.452566 0.397828 -0.14874 0.81093 -0.271962 0.0737278 -0.770134 0.523767 0.746614 -0.0360281 -1.02231 0.238382 0.0710084 -1.08124 0.271111 0.0108735 -0.033367 -0.596136 0.978827 -0.467183 -0.186162 -0.954961 0.0259249 -0.49159 -0.728724 -0.923685 -0.683164 0.406335 -1.27665 0.466791 0.692538 0.703784 0.179224 0.668353 -1.11711 
0.14809 -1.0315 0.151681 0.553215 -0.913524 -0.584262 -0.992679 1.05119 0.0362111 0.350069 0.433506 -0.411229 -0.268739 0.13398 0.888796 -0.438307 0.0613641 0.580379 -0.606702 0.70165 -0.0528385 -0.980736 0.252718 0.0200062 0.214606 0.760756 -0.657592 -0.720081 0.649343 0.738695 0.788873 0.689763 -0.375591 -1.1577 -0.593304 0.526246 -0.482622 -0.891609 -0.177124 -0.0585089 
0.768441 0.490988 -0.211271 0.063948 0.618945 0.854111 0.56874 0.898823 -0.730003 -0.0730444 0.388713 0.783792 -0.702856 0.495278 -0.352028 0.167377 -0.360915 -0.786298 0.442948 0.814774 0.991825 -0.0430822 -0.42456 0.0874889 0.478496 -0.83604 -0.512071 -0.69594 -0.657304 -0.0527989 0.514489 -0.687326 1.02127 0.606145 -0.294431 -0.582113 0.565228 0.973479 -0.369647 -0.647874 
0.416758 -0.325599 -0.807535 1.16124 -0.600872 -0.179493 0.256943 -0.645104 0.552708 -1.1612 -0.334483 0.309974 0.464707 0.627648 -0.933336 -0.431799 -0.152875 -0.316001 0.161128 0.268956 0.00590448 -0.732578 0.575486 -0.0262215 -0.65177 -0.375276 -0.801369 0.0805894 0.00768404 0.706668 -0.30676 0.221885 0.023885 -1.10499 1.01638 0.845735 -0.70979 -0.738108 0.490945 0.326469 
-0.699511 0.343971 0.027003 -0.0293593 -0.451759 -0.516551 -0.524817 0.242156 0.826233 0.725518 0.278645 -0.84878 0.835507 0.557308 0.0878205 0.306918 -0.445305 -0.758305 -0.518008 -0.738039 -0.535646 -0.830403 -1.08574 -0.134292 0.910944 -1.01199 -0.334148 0.849738 0.806059 0.181411 0.374913 -0.0400192 -0.448632 0.0747292 1.06403 -0.654867 -0.374722 0.900167 0.788258 -0.387209 
-0.166228 0.446801 -0.385118 -0.709212 -0.73963 -0.188937 0.383199 -0.976298 -0.780193 0.412106 0.713622 -0.639415 -0.0119087 -0.635093 -0.319782 -0.768924 0.141382 0.479594 0.282254 -0.87488 -0.63084 -0.536407 0.496958 0.237264 0.752048 0.748517 0.158077 -0.660621 -0.866503 -0.273279 -0.517893 0.0621491 0.509094 0.282434 -0.600756 -0.314863 -0.653709 0.153086 -0.487356 0.0876484 
0.104937 0.658254 0.692465 0.360072 0.163152 -0.0255187 -0.102554 0.701201 0.675248 -0.502983 -0.331468 -0.678217 -0.436491 0.288046 -0.137261 -0.410782 1.04461 -0.583038 0.598908 -0.125728 -0.258675 0.759915 0.619528 -0.611385 -0.409923 0.362714 -0.809851 -0.450821 0.813446 0.27704 0.42961 -0.460588 -0.235515 0.960699 0.238979 0.143329 -0.204184 0.246506 0.775273 -0.987363 
0.0238787 -0.128624 -0.007321 -0.151207 -0.369199 0.368438 0.169244 0.627689 -0.912488 -0.908506 0.41303 0.209001 0.827895 0.255149 0.309968 -0.960477 -0.538551 0.485225 0.490448 -1.03875 -0.570802 -0.741405 0.810134 -0.993906 -1.04138 0.882582 -0.700252 0.0462054 0.493162 0.0481791 0.503301 0.60879 0.224744 -0.722485 0.64738 1.03668 -0.730312 -0.860932 -0.992774 0.308413 
0.998379 -0.881339 0.106052 0.147796 0.12581 -0.962852 -0.119194 -0.490978 0.0168429 -0.0536781 -0.551556 -0.251425 0.856661 0.662909 0.701837 -0.157388 0.996139 -0.0251823 0.774537 0.365373 -0.543169 0.283773 0.760659 0.605566 0.187642 -0.651534 -1.4405 0.372389 0.777888 0.801718 -0.250061 -0.593627 -1.09697 -0.524944 0.0772759 0.915429 0.936511 -0.337995 0.617889 0.383317 
0.204627 -0.0106525 -0.467329 0.334815 -0.269666 0.231864 -0.189326 1.17398 -0.373623 0.123692 0.0443155 -0.191009 -0.269107 0.0618715 -0.601385 0.572431 0.159937 0.285014 -0.711377 -0.392058 0.713954 -0.321862 -0.216226 -0.621684 -0.522444 -0.709794 0.306549 -0.773597 0.841111 -1.09565 -0.239793 -0.441984 -0.372471 -0.0251922 -0.334329 0.196145 1.18002 -0.960701 -0.675313 -0.0421764 
0.923267 -0.0485382 0.617162 0.396469 -0.362644 -0.2148 0.53908 -0.523817 0.909519 0.392014 0.831404 -0.175895 0.653803 0.191237 0.659441 0.178394 0.208544 -0.561783 0.581572 -0.597206 -0.149103 0.0446211 -0.627174 0.289885 0.737937 0.544762 -0.00954652 -0.903115 -0.508102 -0.028843 -0.423394 -0.744135 -0.278214 -0.48634 0.562776 -0.719652 0.482163 -0.3259 -0.104117 0.494568 
0.170898 -0.479069 -0.343661 -0.82124 -0.254385 0.111739 -0.160775 0.271484 0.826616 -0.711193 0.567533 0.738277 -0.729161 0.539638 -0.24552 -0.976751 -0.171296 -0.861184 -0.377625 1.11675 0.105658 0.897553 -0.885358 0.508534 -1.26829 -0.0544342 -0.0316583 0.92536 0.983191 0.236075 -0.288068 -0.798321 0.448321 -0.554724 0.0357275 -0.730772 0.704241 -0.0552702 0.143519 0.0250646 
0.391587 0.742275 0.735944 -0.840491 -0.426456 -0.980052 0.40342 0.904588 -0.25538 -0.756048 -0.394803 0.304954 -0.494127 0.742925 -0.78015 -0.897155 0.415236 -0.580789 -0.489119 0.751877 0.392935 0.693077 -0.817519 1.2643 -0.632671 -0.592075 -0.55738 -0.919112 -0.276644 -0.483099 0.515162 0.643031 0.792614 -0.000963091 -0.740339 0.708615 -0.841037 -0.470676 -0.174392 0.53384 
-0.758402 -0.949214 -0.586824 0.550791 -0.615871 -0.800589 0.190014 1.05455 -0.829865 -0.367047 0.104069 -0.209459 -0.0349201 0.491588 0.0473955 0.345563 0.139468 -0.221277 -1.20899 0.674938 -0.600449 0.200789 -0.314756 0.439463 -0.281568 -0.197134 0.783043 0.375576 -0.460007 -0.263349 -0.337332 0.00564506 0.533014 -0.0609278 -0.663449 -0.977177 -0.464328 0.782829 0.460444 -0.345855 
-0.103664 0.325189 -0.191988 -0.319302 -0.556755 0.74742 -0.869997 -0.26932 0.187635 -0.822492 0.547035 0.498049 -0.189596 -0.416989 0.696062 0.175195 -0.00521644 -0.690929 0.0590189 0.360853 -0.0826729 -0.324057 -0.130547 -0.282335 -0.648584 -0.579422 0.470721 -0.500067 -0.132856 0.0738159 0.439906 0.759956 -0.44682 -0.91589 -0.264891 0.744298 -0.254541 -0.24347 -0.936322 -0.829665 
-0.347501 -0.841085 -1.0719 0.115551 -0.215264 -0.870517 -0.907919 -0.100857 -0.382821 0.61313 -0.536149 -1.03484 1.00631 -0.438378 -0.697725 -1.07696 0.194912 0.280175 0.951982 0.0615559 0.777341 0.663927 -0.234703 0.743484 0.141696 -0.78881 0.274296 0.820726 -0.602647 -0.691966 0.398054 -0.670212 0.303691 -0.297672 -0.61335 0.656547 -0.495411 -0.63903 -0.212228 -0.866006 
0.777122 -0.141421 0.515286 0.106277 -0.738264 -0.731529 -0.454188 -0.844602 -0.0692728 -0.639675 0.576801 0.856283 -0.364961 0.608058 0.846375 0.152408 -0.188601 0.0812439 0.289831 -0.806132 0.368654 -0.622951 -0.0965202 0.218523 0.702381 -0.806214 0.05346 0.177806 -0.278745 -0.518161 0.399271 -0.174962 -0.38593 -0.669508 0.803205 0.700529 0.370278 0.157591 0.182572 0.415504 
0.970973 -0.505327 0.369841 0.999658 -0.808973 0.828022 -0.901339 -0.483742 0.843918 0.518037 -0.314318 0.0946111 -0.756794 -0.445162 -0.0311214 -0.0913274 0.559922 0.538131 0.588604 0.604681 -0.675274 -0.812068 -0.610412 0.309209 -0.239829 -0.744137 0.042217 0.519453 -0.0828528 -0.773543 0.257187 -0.0417206 0.228939 -0.983931 0.577263 0.49298 -0.163219 -0.358448 -0.375102 0.229224 
0.255247 0.0642057 -0.894845 -0.124319 -0.460855 -0.440245 -0.85043 0.951536 0.966981 0.618477 -0.333056 -0.562834 0.726833 0.336978 0.526305 0.95046 0.233486 0.0775652 -0.0585872 -0.461813 -0.305447 -0.567761 -0.0150619 0.659023 -0.242029 0.65352 0.546065 -0.803348 -0.373696 0.378827 -0.522466 -0.0724119 0.883855 -0.872906 -0.854815 -0.580847 -0.113353 0.925669 0.547551 0.000365638 
-0.599121 0.431274 0.136872 -0.741441 0.289324 -0.380391 0.317451 0.0181497 0.497704 -0.915049 1.20916 -0.0117521 0.501445 0.292801 0.324257 -0.754036 -0.724207 -0.31588 0.785908 0.121924 -0.514712 0.347638 0.861686 0.175901 -0.447193 -0.0865984 -0.787523 -0.040107 0.862653 -0.656912 -0.865193 0.641368 0.546759 0.311807 0.457514 0.581204 0.329652 0.292741 -0.825627 -0.623968 
-0.383035 -0.120697 0.354871 0.444582 -0.988722 0.00729096 -0.726334 0.556181 -0.0584469 0.146813 0.0891506 0.628083 0.811852 0.646893 -1.09121 -0.640456 -0.411462 -0.461486 0.322014 -1.11737 -0.591124 -0.157155 -0.235065 -0.3632 0.665128 -0.900639 0.0649231 -0.173297 0.247257 0.169532 0.0295601 -0.717464 -0.274886 0.670882 0.0416176 -0.609214 -0.613654 -0.722134 0.0541549 -0.49876 
-0.321924 0.248383 0.555911 -0.0820374 -1.08752 0.402534 -0.722279 -0.646726 0.548469 0.311031 0.440222 0.415396 -0.355407 -0.00934683 0.936246 -0.379815 0.731475 -1.05429 0.0839817 0.350204 0.611955 0.330647 0.306116 0.00519208 -0.549987 0.320184 0.0216339 0.0553061 0.983394 0.065619 -0.0115957 0.295271 0.266789 1.05468 -0.237978 -0.293519 -0.399423 -0.730314 0.17645 0.454088 
0.903837 -0.77851 -0.258859 -0.232155 -0.66071 -1.00008 1.03992 -0.131757 0.146716 -0.99196 0.825089 0.50283 0.859341 -0.770603 -0.0555794 0.267238 0.720607 -0.120668 -0.910499 0.0167385 0.327761 -0.866523 0.316371 -1.04771 0.217234 -0.123805 -1.12205 0.386312 -0.704119 -0.438662 0.525097 0.807269 0.514223 -0.31597 -0.540188 0.496529 0.619625 -0.664369 0.767915 -0.168927 
-0.372206 -0.321583 -0.0610358 0.733416 -0.473025 -0.924279 0.378715 0.97462 0.261577 0.485704 -0.125874 -0.490613 -0.548165 0.553978 0.425049 0.743096 -0.406593 0.399242 0.775988 0.909992 0.697504 0.123391 1.08163 0.0616956 -0.602524 0.395186 -0.784483 -1.11803 -0.649129 0.833396 0.0335213 0.497977 -1.06511 1.13044 -0.15924 -0.596572 0.484988 1.10916 0.0385902 -0.0266083 
0.477306 -0.717122 -0.0587409 -0.807406 0.00873137 0.300807 -0.449739 -0.344398 -0.196382 -0.34414 0.210734 -0.0900158 0.537341 0.302395 -0.241191 1.00548 -0.364699 -0.951354 0.464343 0.651683 0.820328 0.784648 0.987307 -0.583312 -0.127307 0.0327173 1.0462 -0.771815 0.640379 0.0954901 0.350644 -0.0922738 -0.553754 -0.309531 1.12441 0.156245 0.00314247 0.0793065 -0.575138 -1.11438 
-0.649653 0.178695 0.126125 0.204728 0.319093 0.742302 -0.0435935 0.966984 -0.73949 0.26313 0.691203 0.38062 -0.781281 -0.191534 0.555161 -0.62129 -0.157405 -0.309628 0.342372 -0.142711 -0.594017 0.22668 -0.469635 -0.284152 -0.343655 -0.756255 -0.189547 0.244147 -0.657425 0.395201 -0.717914 0.33898 -0.707883 0.469595 -0.373707 0.240856 0.486955 0.0172027 1.10026 -0.619389 
0.60379 -0.222399 0.658267 0.122264 0.130202 -0.738677 -0.4266 0.52933 0.802599 0.28679 0.484804 0.611789 -0.221991 -0.919348 0.729557 -0.355106 0.400106 0.649629 -0.320946 -0.1787 -0.321916 -0.0164764 0.481265 0.297655 0.470922 -0.482298 0.01977 -0.501856 -0.872132 -0.162493 -0.70094 0.00615441 -0.193727 -0.223348 -0.256047 0.660575 0.356005 0.805807 -0.157303 -0.104201 
-0.680644 0.577379 -0.903314 0.531078 1.11363 0.873545 0.43012 -0.121486 0.442736 -0.220718 0.0765983 -0.83347 -0.41165 -0.489556 0.356293 -0.883143 -0.78752 -0.130278 -0.91912 0.301222 0.723855 0.949662 -0.395173 -0.189914 0.103631 0.523106 -0.249899 0.67495 0.44901 -0.500391 -0.920838 0.624566 -0.0523638 -0.749644 0.194594 -0.177079 0.387468 0.134148 -0.192807 -1.12639 
-0.607674 0.371522 0.325674 0.797263 -0.423259 0.160741 -0.673915 0.288225 0.251405 0.493494 -0.103607 0.592267 0.154385 0.119053 -0.443874 -0.622271 0.0722943 0.236113 0.766011 0.317692 0.833237 -0.367985 -0.787505 -0.399689 -0.866402 -0.24037 0.364548 -0.21562 0.0611234 -0.400388 -0.616031 -0.149189 -0.330372 0.100348 0.661303 0.378382 -0.957711 0.259263 0.484917 -0.0373341 
0.403773 0.602958 -0.604829 0.529883 0.436524 -0.334268 0.201758 0.623847 -0.652533 0.824699 0.835931 0.0980193 -0.0899878 -0.243014 0.660352 0.545653 -0.761733 0.378908 -0.725572 -0.887769 0.057051 0.2624 0.26422 0.09331 -0.537728 0.235354 0.354141 0.642066 -0.773178 0.330576 -0.197614 0.950522 -0.416455 -0.129326 0.0732017 0.679385 -0.277868 0.817804 -0.387598 -0.735277 
-0.400141 0.788065 -0.955243 -0.568655 -0.148333 0.560623 -0.13111 0.378346 0.380518 0.647088 0.966834 -0.260521 -0.273217 0.323845 -0.59355 0.882451 0.597181 -0.244912 0.462981 -0.598466 0.520908 0.978971 -0.607937 0.231264 -0.610975 -0.248088 0.683044 0.494931 -0.588986 -0.627132 -0.749543 -0.793624 0.415935 -0.138009 0.187615 -0.642469 0.0526718 0.439088 0.135129 -0.875839 
0.0571254 0.0844489 0.325755 -0.730846 -0.435178 -0.446128 0.611656 -0.158461 -0.858194 -0.0958413 0.281734 -0.032277 0.243365 0.856724 0.859495 -0.259632 -0.492197 -1.04636 -0.482464 -0.786083 -0.874032 -0.114906 -0.425936 -0.0914291 0.161968 0.073694 0.412648 -0.955518 0.449624 0.697673 -1.04302 -0.224825 0.212383 0.125144 0.713696 -0.687308 0.16394 0.484604 0.0289023 0.707312 
-0.29118 -0.718342 0.0394028 -0.600646 -1.03873 0.32983 -0.632116 0.703733 0.935024 -0.745532 -0.377587 0.624945 -0.585005 -0.815398 0.64184 -0.00592052 0.305402 -0.554304 -0.10342 0.909052 -0.888349 -0.0678797 -0.544476 -0.547264 0.626213 0.0485138 -0.226986 -0.101893 -0.0614059 0.41727 0.0933873 -0.0219776 -0.474485 0.931571 0.725639 0.965627 0.280744 -0.829775 -0.546424 0.532903 
0.84995 0.413205 0.703408 -0.530999 -0.538309 0.967927 0.51486 -0.445723 -0.0956959 -0.809325 -0.720934 -0.243914 0.115913 0.586347 -0.547769 -0.86361 0.489457 0.176408 0.764655 -0.215819 0.689626 -0.102754 -0.670942 0.604207 0.623042 0.10551 -0.640155 0.495882 0.340388 0.311658 0.184496 -0.85245 0.713922 0.947403 0.616899 0.0483527 -0.602576 -0.748142 -0.403052 0.765224 
-0.58621 -0.886905 -0.804043 0.640651 -0.332789 -0.90137 0.937022 0.778995 0.306672 -0.426029 0.027921 0.198724 -0.494765 0.824556 0.517294 1.06392 -0.205386 -0.0199747 0.100736 -0.0344147 0.481201 -0.290491 -0.732801 -0.806445 0.595932 -0.453222 0.122599 0.527352 -0.468567 0.216388 0.0789035 -0.851499 -0.0857436 0.547174 -0.780107 -0.167687 0.0513519 0.598231 0.344057 -0.035736 
0.363193 0.503285 0.610605 -0.115963 -0.850519 -0.467344 0.821322 0.566489 -0.0866538 -0.520163 0.0113871 0.687524 0.130983 -0.440474 0.682689 1.053 0.287696 0.560837 0.572415 0.035432 0.4581 -0.906181 -0.386734 0.175638 -0.245817 -0.722313 -0.777209 -0.900978 0.382731 -0.250709 -0.974895 -0.16097 -0.155336 -0.4792 0.458779 0.0359383 -0.576736 -0.136578 0.372458 0.641118 
0.784918 -0.682088 -0.326176 -1.10272 -0.231622 -0.925758 0.46807 -0.169193 0.25563 -0.102336 0.440567 -0.724622 -0.939208 -1.07443 0.381869 -0.0522549 1.11369 0.492494 0.658148 -0.0213707 -0.427103 0.85935 0.17795 0.378861 0.837429 -0.775728 -0.77723 -1.15803 0.67419 0.985857 -0.902527 0.700047 -0.626701 1.46181 -0.39894 0.584755 0.559245 0.149207 0.0378451 0.622993 
0.266074 1.18008 0.879958 0.641395 0.196155 0.709213 -0.0527348 0.17232 -0.818122 -0.463408 -0.823454 -0.373246 0.077523 0.830905 0.162431 1.11363 1.30466 -0.23374 0.408848 0.688067 -0.204438 -0.992793 1.05554 1.05318 0.0545313 -0.863967 -0.260644 0.26785 0.17732 -0.416188 -0.896783 -1.13714 -1.4442 0.507461 0.77969 0.675056 0.302809 0.452475 0.714803 0.569364 
-0.389343 0.0755322 -0.0420884 -0.241091 0.0986294 0.664516 -0.454109 0.783868 0.782645 -1.02892 -1.05281 -0.529038 0.797262 -0.219023 0.962803 0.261959 0.622331 -0.227764 -0.271966 0.70557 0.489732 0.149119 0.0945564 -0.186223 0.523772 0.103067 0.14285 -1.11588 -0.718683 -0.064354 0.343267 0.385133 -1.58479 0.636644 -0.882283 0.775142 -0.692568 -0.448483 0.90555 -1.26891 
0.605876 -0.387419 -0.175087 -0.151389 0.394223 -0.98295 -0.297801 -0.685454 0.778087 -0.682195 0.149171 0.445901 0.791042 -0.759685 -0.641485 0.00782817 -0.296952 0.587229 -0.0589453 0.331064 0.987258 0.0711926 -0.0645849 0.606522 -0.386749 0.685222 1.17199 -0.361932 -0.819828 -0.873426 0.719412 -0.301036 -0.395058 -0.195841 0.875377 -0.0828902 -0.956434 0.131647 0.9215 -0.668657 
0.71086 0.303475 0.353362 0.704145 1.02859 0.520296 -0.641478 -0.0530016 0.435634 0.683644 -0.800416 -0.596571 0.28868 0.619252 -0.910375 -0.900578 0.945751 -0.0933651 0.0710781 -0.489011 -0.171 -0.871035 -0.360548 -0.249836 -0.811097 -0.0652354 -0.0716223 -1.26436 0.759418 -0.639541 0.0056856 -0.318743 -0.889098 -0.221987 -0.0448204 0.77159 -0.50543 0.179159 0.606322 -0.357612 
-0.561129 0.335047 -0.839972 -0.140768 -0.502 -0.105877 -0.400668 0.00657041 -0.304518 0.498423 1.07525 -0.922388 0.0531727 -0.22479 -0.0759723 -0.59638 -0.0190774 -0.76363 0.67367 -0.0375881 -0.0290982 -0.547127 -0.167444 1.2508 0.782055 -0.104045 1.16315 0.54486 0.954457 1.1085 -0.53656 -0.149648 -0.353835 1.02803 0.599379 0.00115472 0.169135 0.717559 0.783246 -0.159867 
-0.63034 0.677231 -0.284801 1.07015 0.27629 0.557577 0.653593 0.19041 -0.717851 -0.896589 0.386883 -0.697459 0.696883 -0.559601 0.45141 0.842407 -0.0130075 0.307742 0.311572 -0.736856 0.330172 -0.967685 0.413841 1.05049 0.411501 -1.17888 0.275918 -1.05628 -0.206786 -0.459118 -0.744464 -0.699879 -0.607252 -0.47142 -0.51634 0.254495 0.577934 -0.754041 0.853398 -0.483098 
-0.63946 0.860446 -0.536531 0.786372 0.403615 0.376997 -0.593544 -0.814805 -0.843475 0.139479 0.176444 0.284841 -0.119823 -0.721645 -0.291208 0.636701 0.49474 0.28652 1.08377 0.211896 0.414043 -0.868214 -0.785806 -0.41061 0.707344 -0.842879 -0.0992235 -0.580961 0.182242 0.752414 -0.951491 0.974792 -0.75593 1.15868 -0.134806 1.05572 0.0151917 -0.255551 -0.269046 0.189881 
0.257483 0.446768 -0.812298 -0.48177 -0.628706 0.666798 -0.468885 0.194316 -0.54382 -0.0397333 -0.234273 -1.00476 -0.209809 -0.235849 0.490338 -0.572886 0.846926 0.643505 0.548661 -0.847898 0.458779 0.803402 -0.849103 -0.503367 -0.405377 -0.902155 0.461878 -0.156882 -0.820267 -0.0138068 0.738367 0.466476 -0.159293 -0.532315 0.677883 -0.326695 0.371795 0.0978846 -0.494094 -0.641355 
-0.466448 -1.01953 0.414798 -0.0342762 0.684839 0.473665 0.109709 -0.987351 0.94829 -0.266924 0.477223 -0.132967 -0.859634 0.228852 0.26487 -0.626374 0.0791713 -1.04503 0.824417 0.617028 -0.788703 -0.517296 -0.0701878 -0.38412 -0.091831 -0.912647 -0.826978 0.846214 0.743296 0.455266 -0.190022 -0.318094 -0.322595 -0.232927 0.641841 -0.246627 -0.608536 -0.61213 0.827477 -0.504505 
0.24629 0.734641 -0.800254 0.470961 0.618378 -0.109465 1.04407 0.634987 0.655967 -0.865973 -0.585181 -0.146793 0.356657 -0.132117 -0.939098 0.692592 -0.675423 -0.693475 -0.728642 -1.02432 -0.309913 -0.791975 -0.861875 0.0886912 -0.570386 0.096413 0.565871 -0.562221 -0.87171 0.0612314 -0.734975 -0.526144 -0.699869 0.547822 0.69587 0.499833 0.453003 0.59384 0.720511 -0.2823 
-0.24359 -0.914906 -0.918078 -0.207846 -1.01971 -0.612695 -0.365581 0.589585 -0.534095 0.885199 0.0534867 -0.773495 0.21296 -0.0674112 1.10568 0.190119 -0.0333597 0.6198 0.466437 -0.799703 0.787554 0.156513 -0.185375 -0.777909 -0.125333 1.11634 0.0261287 -0.274121 0.0887031 -0.506562 -0.0783795 0.693126 -0.356809 -0.502311 0.276639 -1.0423 0.998192 -0.211489 -0.0230638 0.160499 
-0.945918 0.250007 -0.520126 -0.710566 -0.25271 -0.232736 0.84299 -0.127083 0.88348 -0.360377 0.429962 -0.718934 0.415489 0.611364 0.0509353 1.11098 -0.029442 0.143536 -0.191794 0.309942 -0.0292937 0.26792 -0.885186 0.003887 0.727544 0.967581 -0.39636 -0.0929383 0.225613 0.2236 -0.926259 0.645954 -0.864991 -0.626047 0.155105 0.574175 0.718156 0.320631 -0.203027 0.584409 
-0.139976 0.742113 -0.231002 0.00969582 0.244357 0.556127 0.0694385 -0.167013 -0.956462 0.330851 -0.962994 -0.606357 -0.330902 0.634637 0.367104 -0.0162507 0.682097 0.624252 0.892428 0.166698 0.720032 0.687264 0.26672 0.50658 -0.455652 0.082669 0.134004 -0.631051 -0.34825 -0.243304 0.969397 -1.00345 -0.798015 0.121545 -0.174539 0.397208 0.402434 -0.404164 -0.284859 -0.938423 
-0.868681 0.884422 0.925793 0.0938546 0.806493 -0.295403 0.543559 -0.579036 -0.760537 -0.0486079 0.00415938 -0.231633 -0.547711 0.223669 -0.433672 0.482448 -0.0553031 -0.859233 0.857371 -0.137683 0.720245 -0.0739008 0.38483 0.247426 -1.00591 -0.286594 -0.576063 0.356212 -0.0809204 -0.6732 0.16514 0.127429 -0.106484 0.922945 0.151971 -0.219436 -0.487402 -0.532741 1.07155 -0.678098 
-0.453897 0.306761 -0.300376 -0.681033 -0.0263152 -0.431719 -1.09076 -0.15136 -0.913651 0.0187779 -0.291243 -0.298454 -1.01152 -0.751963 -0.525296 1.27468 -0.292667 -0.485696 -0.975237 0.386272 0.429293 -0.0280601 -0.276321 0.680061 0.667958 -0.201041 -0.530103 0.159493 -0.252165 0.0864633 0.923054 -0.976542 -0.689155 1.57989 -0.767043 0.827355 -0.891876 -0.819107 -0.145412 0.20628 
-0.801988 0.127561 -0.69597 -0.656919 -0.27284 -0.398328 0.0650016 0.0674562 -0.531928 0.379555 0.542409 -1.00271 -0.421444 -0.489257 -0.542728 0.0462484 0.662632 -0.806341 0.161901 -0.703024 -0.654536 0.791411 1.28351 1.13854 -0.0713437 -0.211097 -0.0613551 -0.352445 -0.361951 0.295078 -0.569269 0.466854 0.170844 0.12467 -0.581278 1.08856 0.445244 0.4723 -0.307944 -0.547804 
0.0806729 0.809568 -0.00022165 -0.340539 0.636726 0.167593 0.284939 0.562852 0.105678 -1.11701 0.906102 -0.632797 -0.851228 0.03973 -0.865046 0.646991 1.10114 -0.611868 -0.426768 0.435372 0.394536 0.975148 -0.0491213 1.03677 -0.819262 0.0163165 0.626274 -0.921295 0.390863 -0.597315 -0.95871 -0.0954909 0.102987 1.15412 -0.251958 -0.0892661 0.0819011 -0.773331 0.7426 -0.183304 
-0.103034 -0.0426673 -0.828199 0.939547 0.732313 -0.0914761 0.455064 0.160335 -0.188515 -0.378453 0.239643 -0.162187 0.196838 0.562473 -0.105896 0.744108 1.30486 -0.591349 0.317614 -0.527861 -0.761585 0.414052 0.564887 1.20872 0.610819 0.0707441 0.325472 -1.01923 0.837424 0.607259 0.529364 0.412328 1.04057 0.657773 -0.511937 -0.136366 0.111185 1.11545 0.729896 0.15428 
0.544617 0.127033 -0.406106 -0.625912 0.781971 -0.218741 -0.209097 0.199982 0.486787 -0.935327 -0.181476 -0.335934 0.672381 0.493798 0.244379 -0.176193 0.49064 0.359239 0.322334 -0.03683 0.2035 0.078788 0.725839 1.18073 -0.590888 -1.10049 0.556944 0.45297 -0.290307 0.0406521 -0.735447 0.378164 -0.221077 -0.191429 0.518337 0.864595 0.0292894 1.10526 0.223164 -0.584457 
-0.224939 -0.459628 -0.840332 0.976669 -0.235318 -0.50908 0.374518 0.378262 0.347247 -0.367589 0.370904 0.793194 -0.328513 0.114638 -1.09312 -0.583727 -0.530344 -0.995692 0.212414 -0.184713 -1.09085 -0.829483 0.607598 -0.30543 0.667419 0.175481 -0.171272 -0.174203 0.780966 0.453933 0.742514 0.641732 0.941303 0.604444 0.728799 0.714027 0.341283 0.232802 0.912981 -0.610131 
-0.0176122 0.602252 0.634049 0.286828 0.97472 0.641253 -0.936149 0.608104 0.607081 -0.408811 0.171769 0.490594 -0.540708 0.0851217 0.431772 -0.338954 -0.705382 -0.94745 -0.226715 0.142265 -0.435592 -0.400698 0.647295 0.269505 -0.53465 -0.102462 -0.661575 -0.600655 -0.55665 -0.192566 0.499232 0.932769 0.807937 0.896689 0.903674 -0.121037 0.15096 1.10477 -0.488157 0.162849 
0.222706 0.833062 0.24272 0.213306 0.798995 -0.645198 0.203765 -0.12919 -0.777277 -0.926029 0.79859 -0.790059 0.546904 0.805371 0.0816847 -0.562598 0.596155 0.751248 -0.0137209 0.342868 -0.168209 -0.442728 0.321976 0.112043 -0.474414 0.441852 -0.33696 -0.573404 -0.420021 0.480011 -0.652317 0.972766 -0.536435 0.326956 -1.13175 1.22921 -0.387129 -0.047578 0.693678 -0.0331883 
-0.625267 -0.975018 -0.425578 0.683458 0.702291 0.469083 -0.828431 -0.0459347 -0.473894 -0.295981 1.02247 -0.503698 -1.03544 0.499078 0.593528 -0.582948 0.333476 -0.652134 -0.874361 -0.0239463 -0.276239 0.429297 0.762078 -0.299727 0.0921249 0.668629 -0.0584651 0.465683 0.591378 -0.146031 -0.640543 0.550287 0.616403 1.05972 -0.992868 -0.00955192 -0.3071 0.471091 0.475213 -0.725565 
-0.329213 -0.03092 -0.736183 -0.334385 -0.234318 -0.541593 -0.712865 0.456627 -0.223022 0.788717 0.492802 -0.810294 0.872743 0.319338 0.281621 0.0643903 0.407369 0.367528 0.445278 0.536144 0.422989 0.805318 -0.0300151 0.734981 0.268698 -0.700494 0.829024 0.399469 -0.89229 -0.712532 -0.17035 0.690241 0.0728807 -0.588967 0.0464631 -0.227099 0.197063 0.606345 -0.437445 0.643451 
-0.777184 0.570386 -0.1593 0.187149 0.796064 -0.532683 0.0663055 -0.759407 0.553721 0.309961 0.137725 1.17057 0.397507 0.923188 -0.766053 0.814516 0.320123 -0.683918 -0.628296 0.267228 1.32351 0.864575 0.39665 -0.127248 -0.853375 -0.162 -0.390567 -0.124587 -0.736459 0.864325 -0.367763 0.11538 0.140685 0.732325 0.10472 0.821851 0.400946 0.339829 0.389616 1.03165 
0.4572 -0.715463 -0.64808 0.525014 -0.99999 0.399301 0.61334 -0.198791 0.757099 -0.453411 -0.992561 0.903381 0.564111 -0.00730607 0.622424 0.456389 -0.748449 -0.877092 0.545219 -0.179449 0.238083 -0.963301 -0.650864 0.712475 0.0795281 -0.443892 0.301788 0.101569 -0.143534 0.788715 0.710604 0.356987 -0.725162 0.779265 0.331828 0.422777 -0.680917 0.0551436 -0.127153 -0.551473 
0.389798 0.063952 0.176385 0.368931 0.790593 0.312398 -0.921894 -0.284665 0.650035 -0.593563 0.440836 0.71984 0.362814 -0.347715 0.230213 0.474193 0.425153 -0.428635 -0.397032 -0.512489 0.369871 0.27024 -0.704265 -0.897446 -0.8652 -0.269632 0.368843 0.570538 0.0825915 -0.298104 -0.35102 0.540904 -0.394014 0.160419 0.173636 -0.00985252 0.472726 0.185729 -0.818357 -0.0763402 
-0.255706 0.119956 -0.29197 -0.622637 1.20865 0.860413 -0.19684 0.581021 -0.987673 0.657949 0.604058 -0.756438 -0.185712 -0.777118 0.878938 0.56921 0.405575 0.123772 -0.743651 -0.343378 0.534813 0.982765 0.482074 -0.0915649 -0.749857 -0.179231 0.429804 0.486552 -0.524291 0.283888 0.0815867 -0.238526 -0.836781 0.133881 0.2538 0.304207 -0.320189 -0.409714 0.860135 0.73908 
-0.952139 0.563607 0.67127 0.034976 -0.33396 -0.687802 0.638539 0.98215 -0.327905 0.482852 0.541212 0.379901 -0.535891 -0.530601 -0.0152422 -0.580609 0.343816 -0.629699 -0.302461 -0.316031 -0.215158 -0.744166 0.91908 -0.183091 -0.942462 -0.17782 0.880786 -0.909557 0.531159 -0.432811 0.343444 -0.498887 -0.818106 0.316794 0.152932 -0.199435 -0.0721821 -0.635669 -0.662311 -0.00483843 
-0.0953345 0.401867 -0.514059 0.141108 -0.696241 -0.240854 -0.511814 -0.472671 -0.795427 -1.00572 -0.990765 0.326596 0.67479 -0.582771 -0.837673 0.322862 0.238958 -0.333064 -0.570394 -0.975085 -0.343248 0.663875 0.0693055 0.183313 0.813327 -0.307085 0.14638 -0.967455 0.839924 -0.584789 0.224625 0.249465 -0.689389 -0.533872 -0.955641 -0.709971 -0.0327402 0.431614 0.721128 0.447446 
-0.439556 -0.453936 0.609553 -1.09607 -0.217626 0.521789 -0.643994 -0.559325 -0.305585 -0.415508 0.0312926 0.260185 -0.617171 -0.660894 0.5275 0.814612 -0.52661 -0.476186 -0.785268 -0.0471661 -0.319864 -0.303317 0.845348 -0.367857 -0.458497 -0.174579 -0.655082 0.283583 -0.583586 0.0810431 -0.971431 -0.474678 0.867729 0.686636 0.933379 0.184432 0.247645 -0.332732 -0.896826 0.594104 
-0.773365 1.10206 0.705099 0.145439 0.740501 -0.411952 0.845992 0.512076 -0.951402 -0.189537 -0.807065 -0.677404 -0.522377 0.72187 0.478429 0.367016 0.0401341 -0.715346 -0.277721 -0.421794 -1.03447 0.242772 0.797434 -0.249763 0.17091 0.0840279 0.141679 -0.34405 0.471747 -0.347586 -0.795599 -0.309169 0.508383 -0.719338 -0.154461 0.226272 -0.745538 0.370191 0.6405 -0.307938 
-0.177006 0.201767 -0.49307 -0.559407 -0.462819 0.379317 -0.355458 0.854409 0.474908 0.245843 -0.921754 -0.312642 -0.128564 -0.836004 0.767568 0.0892639 0.955613 -0.554614 -0.821983 -0.289228 -0.96975 -0.769335 0.429544 -0.551506 0.475497 -0.0251976 1.03098 -0.288237 0.128111 0.156828 -0.687523 0.15431 0.593283 -0.187014 -0.69997 -0.520129 0.19807 0.889698 0.796981 0.127698 
-0.791247 -0.279786 0.555188 -0.757033 0.893839 0.403488 0.708066 -0.560032 0.236037 0.453687 0.016591 -0.112196 0.128015 0.643454 -0.369304 1.13343 0.850757 -0.596335 0.710483 0.0144517 0.365993 -0.694503 0.27115 -0.00257373 0.317094 -0.422952 0.607178 -0.0103771 0.872149 0.620159 -0.367364 -0.62207 0.790885 0.661052 -0.362431 0.430426 -0.605127 -0.0962217 0.725518 0.804925 
0.253618 -0.658043 -1.08729 -0.614224 0.377664 -0.756061 0.0948135 0.0311655 0.917107 0.535011 -0.570301 0.408102 -0.089395 -0.802323 0.555828 -0.132916 0.17645 -0.445526 -0.128266 -0.272478 0.35737 -0.87225 -0.0183726 -0.0436232 -0.796341 -0.372231 0.23702 0.0128946 0.947285 0.546942 0.09072 -0.561932 -0.0543688 0.114925 0.0661897 -0.147333 0.754076 -0.270691 0.00715849 -0.650204 
0.10312 0.832824 0.260274 0.328838 0.440772 1.16303 0.943713 0.582705 -0.537996 -0.721647 0.609197 -1.00419 -0.246238 -0.251864 -0.789108 0.496211 0.172786 -0.547304 0.307019 -0.51056 -0.319458 -0.488255 -0.383207 0.670733 -0.771088 0.9944 0.910919 0.490468 0.755544 -0.275447 0.416745 -0.0374334 -0.198248 0.4853 0.187712 -0.307847 -0.0258487 -0.196351 -0.973626 1.11418 
-0.624738 0.398381 -0.55501 -0.346516 -0.473588 1.0145 -0.522669 -0.789177 0.947339 0.392842 -1.08686 0.701646 -0.465323 -0.015194 0.611124 -0.0366602 -0.353495 0.281577 0.833844 0.053604 -0.856354 -0.362223 -0.236043 -0.16746 -0.675524 -0.457634 -0.116551 0.552571 -0.783428 0.764848 0.524943 -0.0510723 0.63423 0.260267 0.255573 -0.265244 0.55872 -0.0462052 0.809465 -0.127232 
0.887694 -0.810041 -0.514647 0.792757 0.852361 -0.212666 -0.329062 -0.52262 0.96179 -0.667176 -0.967163 -0.814641 -0.543469 0.736502 0.262323 -0.287447 0.0583551 -0.745002 -1.0424 -0.881999 0.455585 -0.352854 0.935757 -0.583341 0.37872 0.154733 0.0899811 0.724846 -0.682605 0.558003 -0.555608 -0.060455 0.579701 0.802661 -0.800527 0.0363299 -0.199017 0.425159 0.386692 0.309202 
-0.976843 -1.08454 -0.60159 0.227481 0.944773 0.775731 0.393292 0.831987 0.813556 0.552551 0.477401 0.812084 -0.918092 -0.784869 0.837346 -0.452488 0.509623 0.699677 0.227732 -0.988781 0.555878 -0.181561 0.529816 -0.610215 -0.131842 -0.73625 0.390527 0.623597 0.157507 0.578348 0.44024 -0.310368 0.37484 0.236117 -0.412252 0.110608 -0.240228 0.195034 -0.208297 0.490158 
0.331799 0.554503 -0.547364 -0.427484 -0.469528 0.328266 0.823614 -0.344965 -0.450381 -0.136324 0.375744 1.07844 -0.274929 -0.045962 0.712207 0.383698 -0.0688657 0.0294169 -0.101284 0.0368033 0.94007 -0.959814 -0.0232858 -0.21808 -0.0225922 -0.779932 0.908131 0.74175 0.711627 -0.626861 -0.458826 0.874966 0.548785 0.239218 0.429333 -0.225632 -0.887046 -0.902321 -0.301965 0.989054 
0.124672 0.465632 0.359043 -0.0623308 -0.783688 0.0219553 0.356051 -0.422204 -0.0624047 -0.238431 -1.05991 -0.940644 -0.770589 -0.696536 0.683609 0.1565 -0.116573 -0.185516 0.422121 0.423772 -0.208008 -0.579542 0.877321 -0.179681 -0.107209 -0.37989 0.738989 0.690125 0.580111 0.57828 -0.358852 -0.76874 0.185905 -0.644749 -0.605416 -0.277697 -0.261853 -0.101293 -0.527139 -0.0101846 
0.0212175 0.593428 -0.70944 -0.916531 0.728028 -0.400559 -0.0116907 -0.0262439 -0.301571 1.26378 -0.720293 -0.749317 -0.8648 0.208327 -0.95323 -0.424069 -0.443612 -1.20725 -0.731686 0.89492 0.496595 -0.977854 -0.985625 0.148212 0.120173 -0.324003 0.707205 0.744089 0.507401 -0.290056 -0.25491 -0.836836 -0.135408 1.05717 -0.304545 -0.353193 -1.10324 -0.348023 -0.783837 0.63147 
-0.365883 -0.00445865 -0.561232 0.096996 -0.282562 -0.108404 -0.445257 0.204922 -0.202853 -0.0856995 -0.673589 -0.0293691 0.221403 -0.296948 -0.140321 0.128989 0.948233 -0.221518 -0.38706 -0.0377744 -0.428888 -0.861963 -0.426117 -0.400679 -0.0478143 -0.382636 -0.227698 0.759771 -0.410066 0.214431 -0.467569 -0.483104 -0.447848 0.825866 0.11713 0.156087 -0.445592 0.747461 0.280824 0.209495 
-0.242037 -0.950887 0.152368 -0.0889817 0.374195 0.677046 0.243234 -0.650762 -0.717969 -0.812418 -1.15652 0.253906 -0.110512 -0.852456 -0.620091 0.23763 -0.52268 -0.372901 -0.959332 0.502561 0.0661741 0.672073 -0.634223 -0.00814246 -0.343752 -0.213294 0.518082 0.584891 -0.270747 0.549121 0.804099 -0.622972 -0.660111 -0.519899 0.797519 0.459557 0.858239 1.00175 -0.344393 -0.225794 
-0.0857154 0.150037 -0.660684 0.637813 -0.334793 0.227075 1.08706 0.874048 0.354188 0.78217 0.557957 0.604325 -0.65053 0.958838 -0.227247 0.749958 0.338219 0.275574 -0.544036 -0.0803002 0.240563 -0.902054 0.528972 -1.30874 -1.02077 0.662039 0.557563 0.93086 -0.765463 -0.584579 -0.633037 -0.13724 0.0803347 -0.0139876 -0.500988 0.577043 -0.165742 0.406967 -0.642458 0.450503 
0.736432 0.347018 0.702073 0.380387 0.445164 0.116162 0.228336 -0.143003 -0.0767247 0.0689217 -0.677455 1.03617 -0.85288 0.26952 0.41988 0.192246 0.119409 -0.0130863 -0.0672583 -0.371839 0.546788 -0.699719 0.76577 -0.0843837 0.656978 -0.296962 0.558729 1.17534 -0.835167 0.394208 0.264677 0.21077 0.356437 -0.234923 -0.38536 -0.10897 0.661465 -0.117687 0.585315 0.576719 
-0.423116 -0.591536 -0.0932369 -0.888359 -0.601182 -0.259659 0.0155445 0.602287 -0.885648 -0.00182905 0.711561 -0.371756 0.267826 -0.80614 -0.900399 -0.315833 0.683772 -0.138763 -0.18086 -0.139675 0.373095 0.0207596 -0.679738 0.726012 -0.155813 -0.703735 -0.587694 0.882054 -0.864101 0.471136 0.352074 -0.460944 -1.16952 -0.139352 -0.308804 0.216699 -0.502911 -0.225726 -0.929534 -0.090472 
-0.540846 0.55623 0.159961 -0.0833003 0.529432 0.919693 0.321122 0.151886 -0.493832 -1.13708 -1.14434 -0.223102 -0.00435842 0.0119291 -1.01008 -0.454947 0.450163 -0.139753 -0.528996 -0.555845 0.639453 -0.172619 0.00990829 -0.29666 0.357129 1.00121 0.927751 -0.145751 0.81112 0.695009 0.63748 -0.0801877 -0.496903 0.755523 -0.0842705 -0.363281 0.479441 0.667034 -0.0114498 1.01655 
-0.794081 -0.363485 -0.190357 -0.793455 0.371917 -0.075534 -0.935626 -0.339384 -0.269636 0.745444 -0.0780411 -0.484834 -0.200001 0.569755 0.758527 0.133589 -0.5971 0.818662 0.905019 -0.505027 0.888532 -0.0101096 -0.57018 -0.529736 0.0632905 -0.619114 -0.605798 0.141756 0.605485 1.01497 -0.492249 -0.853661 1.12793 -0.162671 -1.11938 0.330164 0.536953 0.391622 0.679302 0.722589 
-0.567209 -0.479869 -0.421947 0.0364205 0.36496 -0.48455 1.05934 -0.492475 -0.4961 -0.64709 -0.862513 -0.930986 -0.000256187 -0.872602 0.00666475 -0.535777 0.768202 0.0430782 -0.476663 0.422997 0.429995 -0.0865073 0.260872 0.925492 0.761006 0.396527 0.295109 -0.0950506 -0.584262 -0.694909 -0.535839 1.02858 -0.0391538 0.152093 0.364893 0.965782 -0.744913 0.644691 -0.0903553 -0.0400638 
-0.393484 0.787044 0.915221 -0.56077 0.267308 -0.661297 0.282533 -0.879794 0.542269 -0.41515 -0.323083 -0.0969078 0.0663994 -0.0486826 0.544982 1.31182 0.186769 0.481178 -0.997117 0.241978 -0.611922 0.191771 0.29934 0.538316 0.249882 0.620971 -0.285753 0.230446 -0.217541 -0.331757 0.625336 0.537105 0.000165392 0.604242 -0.923474 0.188853 0.63338 0.573959 0.796496 0.513739 
0.735935 -0.670736 -0.677965 0.808385 0.0762197 0.616494 -0.628271 -0.559 -0.849046 -0.536617 0.786444 0.252504 0.546265 -1.12861 -0.665996 0.99419 -0.00764607 0.819063 -0.77877 -0.862594 -0.477167 0.746295 -0.42137 0.862232 -0.78067 -0.655038 0.183046 -0.332443 -0.490237 -0.906457 -0.547342 -0.509892 -0.560144 0.532023 -1.06965 0.201659 0.538532 -0.0825595 0.766594 0.266591 
-0.480435 0.112441 0.592961 0.558758 0.899202 -0.0226989 0.429805 0.499074 0.513712 -1.05848 -0.257662 0.687758 0.140117 -0.820211 -0.520895 -0.608068 -0.285159 -0.983418 -0.814298 0.276579 -0.0726788 0.307074 0.700353 0.905879 -0.588033 -0.254357 0.601158 0.24376 0.760249 -0.548099 -0.104277 0.411678 -0.151053 -0.215301 0.423059 -0.38361 -1.02256 -0.153441 0.46898 -0.464929 
0.276983 -0.228882 -0.126715 0.234109 0.203039 0.337362 -0.987162 0.763551 0.361389 -0.697059 -0.668685 0.799089 -0.623005 0.587038 -0.0358841 0.943714 0.632894 0.872943 -1.18516 -0.848204 -0.257859 -0.0448975 0.119647 0.450881 -0.21859 -0.449162 0.273847 -0.408064 -0.873651 -0.0188132 -0.542267 0.338882 -0.0468914 -0.81286 -0.673824 0.771296 -0.0606247 -0.142071 0.758366 0.833163 
0.616971 0.750694 -0.48273 0.274575 0.667825 0.294588 -0.785525 -0.215209 -0.307471 0.10878 0.758774 -0.747323 0.296607 0.188318 -0.514958 -0.0860457 -0.312941 -0.282012 0.450878 -0.59328 -0.725116 -0.443502 -0.487105 -0.595093 0.843383 -0.268444 0.297204 0.267299 0.176398 0.507472 -0.902158 0.687417 -0.286569 0.140815 -0.764478 -0.236142 -0.151063 -0.331948 -0.144222 0.718226 
0.0790759 -0.0704488 0.743575 -0.658695 0.713564 -0.0299063 0.969452 -0.037421 0.454951 -0.425747 -0.747474 0.582237 0.29636 0.443634 -0.558763 -0.142959 -0.06157 0.0836651 -0.621248 -0.633965 0.0208029 0.563032 0.379899 0.336999 -0.429375 -0.674113 0.226337 0.534318 0.90682 0.854679 0.318845 0.542217 0.144173 -0.335806 -0.571386 0.414371 -0.346641 -0.539406 0.151084 0.301489 
-0.994234 -0.939965 0.680679 -0.492284 -0.783031 -0.422598 0.0652122 -0.909372 -0.00145386 0.400829 -0.452729 -0.713558 -0.591571 -0.846065 -0.507323 1.1822 0.131815 0.662783 -0.812645 0.244758 -0.483937 -0.174133 -0.243832 0.600482 0.24793 0.678041 -0.00216861 0.404772 -0.173605 -0.0481566 0.617029 0.533926 -0.422524 0.109045 0.133821 -0.451279 0.483384 -0.288243 0.070478 0.958962 
0.749878 0.19609 0.553676 0.576947 0.812044 0.139257 0.970037 0.276607 -0.885022 -0.644467 -1.03799 0.356379 -0.521741 1.11217 0.466881 0.305788 0.417008 0.189847 -1.01861 0.863605 -0.0983996 -0.206739 0.602701 -0.945849 0.328049 0.217252 0.0166197 0.919158 -0.915646 -0.519226 -0.566985 -0.266437 0.350629 -0.235033 -0.466329 0.406137 -0.532335 0.509419 -0.774102 1.13043 
0.670175 -0.262581 -0.174917 0.298148 0.554569 -0.0644433 -0.392067 0.416971 -0.777852 0.697963 -0.0884052 -1.00713 0.601885 -0.028119 0.568154 -0.598088 -0.684522 0.514451 -0.652093 0.298906 0.908288 -0.200928 -0.67372 -0.0153293 -0.31354 1.05425 -0.163828 0.385228 -0.372285 -0.0559564 0.679473 0.574961 -0.91416 -0.113263 -0.887207 -0.399546 -0.31534 -0.55724 0.221952 0.852186 
-0.890333 -0.144631 -0.221633 -0.917667 0.994837 0.330402 1.09114 0.448086 -0.51108 0.465391 -0.446736 0.178508 0.0714243 -0.54733 -0.729947 -0.0721141 0.553009 0.161017 0.116213 -0.663948 0.866158 -0.79082 0.407436 -0.0520405 0.0659781 0.278321 0.870576 -0.15092 0.60065 0.784301 0.678931 -0.575289 0.0868264 0.610279 -1.21592 -0.496986 0.645019 -0.923449 0.930223 0.388658 
-0.921122 -1.17303 -0.106457 0.0854403 -0.438983 -0.683329 0.555276 -0.741477 0.4608 0.450472 -0.141818 -0.154213 -0.264187 1.21347 1.04654 -0.385814 -0.0322801 0.562473 0.168584 0.766526 0.829941 0.422905 0.215103 0.0913841 -1.27122 0.971412 0.934308 -0.135891 -0.304851 0.871936 0.631903 -0.357089 -0.901609 -0.682124 0.512934 -0.033052 -0.0915874 0.624202 0.812418 1.36927 
-0.43339 -0.764455 -0.380076 0.538209 -0.384997 -0.0294222 1.06323 -0.658496 -0.684722 0.232507 -0.983371 0.453855 -0.734034 0.78746 -0.35538 -0.346603 0.362971 -1.13206 -0.334306 -0.128862 0.278503 -0.337173 -0.903532 -0.0645416 -0.270006 0.670782 0.3111 1.01333 0.955349 -0.241769 0.208469 -0.197332 -0.113569 0.287194 -1.11073 0.0118952 0.504509 0.241997 -0.277231 -0.354648 
-1.06574 0.989797 -0.18484 0.194962 0.0859824 0.36827 -7.82367e-05 0.925833 0.035821 0.331312 -0.0809507 0.747772 -0.495004 0.388268 -0.828626 -0.585474 -0.378725 -0.375617 -0.931108 -0.207972 1.34364 0.404819 -0.323227 0.40277 0.355663 0.283563 0.217844 0.292062 0.0707383 0.874788 -0.205262 0.988456 -0.678217 0.964941 0.419641 0.834605 0.305776 -0.319434 0.684444 0.423493 
0.694335 -0.694258 -0.809356 -0.469819 0.71154 -0.360454 -0.478603 0.172035 -0.336845 -0.126222 0.246287 0.621882 -0.899551 0.858983 0.593811 0.97915 0.845179 0.305661 0.0410624 -0.0893032 1.29292 -0.609817 -0.0940426 -0.934479 0.118048 -0.664392 1.33464 0.571239 -0.0958054 0.111762 -0.127015 0.647409 0.686058 -0.832729 0.264972 -0.0769561 0.511101 0.355529 0.158315 0.825974 
-0.0637097 -0.633312 -0.467855 -0.856543 1.36043 -0.80618 0.356525 0.868168 0.832084 0.607094 -0.578871 -0.394861 0.640159 -0.486318 0.0274669 -0.740049 0.0407695 -0.518822 0.385688 -0.0711377 0.16928 0.227375 0.341172 -0.517963 0.765677 -0.80142 -0.128887 0.750442 0.210847 0.739357 -0.911002 -0.31039 0.0867859 -0.512466 -0.57383 1.04581 -0.780167 -0.804538 -0.151821 0.782258 
-0.52635 0.60194 0.71254 0.474653 -0.0228887 0.304617 0.453508 0.574202 0.794231 -0.601299 -0.84422 -0.428976 -0.347118 0.196212 0.620551 0.867139 0.94273 -0.854776 0.240757 -0.58077 -0.0892664 -0.40698 0.777984 -0.829391 -0.0696098 0.101323 1.11728 -0.284482 -0.690996 -0.507524 -0.73575 0.229824 0.926517 0.335544 -0.847391 -0.316811 -0.497249 -0.593729 -0.253446 0.184488 
-0.424575 0.229287 0.574328 -0.716021 -0.0278565 -0.577187 -0.662681 0.256409 0.807318 0.511938 0.520753 -0.316408 -0.310187 0.335305 -0.801912 0.442352 -0.0662456 0.754097 0.217351 -0.707926 -0.369291 0.0245683 -0.667328 1.18683 -0.895958 0.143999 -0.0271381 -0.0807349 -0.49602 -0.145562 -0.966693 -0.329226 0.924787 0.126351 -0.519836 0.505928 0.722186 0.356023 0.174637 -0.579652 
0.00413895 -0.355686 0.660188 -0.340874 -0.410012 0.191103 -0.431826 0.574935 -0.392888 -0.437541 -0.790833 0.665533 -0.779817 -1.08993 0.878819 0.037586 0.572463 -0.733799 -0.5815 -0.477233 0.533485 0.278246 0.998437 0.224135 -0.622035 -0.641284 0.0444922 -0.0890006 -0.782814 -0.877286 0.568946 0.792789 0.697749 0.243868 -0.513383 0.646217 0.511444 1.0211 -0.501847 -0.100679 
