196 40
-1.13316 -0.0997227 -1.16664 -0.258654 -0.308948 0.705677 0.405637 0.276912 0.119234 -0.663434 0.5523 -0.979224 0.0488074 -0.226268 0.621917 -0.533223 -0.160025 1.16139 0.115969 0.319959 -0.663115 -0.42373 1.06552 -0.99016 -0.393349 -0.694303 -0.0989473 -0.418237 0.704414 0.598287 0.324771 0.264876 0.096417 -0.204258 0.665925 1.33548 1.13504 -0.614017 -0.1376 0.964257 
-0.222997 1.20428 -0.318579 -0.391153 0.225976 -0.191943 0.13804 0.67645 -0.433735 -0.19479 0.31316 0.806579 0.141699 -0.338902 -1.96047 0.232187 -0.552999 0.905765 0.73789 0.0291217 -0.620097 0.0201068 -0.291232 0.218833 -0.474319 -0.114898 -0.67622 -0.0325155 0.232367 -0.57968 0.137201 -0.0186843 1.29972 -0.758746 -0.467805 -0.167678 -0.0943243 -0.325835 -1.17192 0.904349 
0.411922 0.0912444 -0.951319 1.15077 -0.212507 0.650956 0.107899 0.410401 1.38798 -0.769192 -0.363167 -0.673825 -0.0969056 0.0917506 -0.480825 0.977067 -1.09194 -0.593788 -0.20411 -0.275363 -0.143111 0.0870226 0.189452 -0.0137006 -0.252854 1.66043 0.755119 -0.800367 0.732236 -0.616697 -0.448928 -0.746924 0.23046 -0.266117 -0.484533 0.507479 -0.325752 0.207665 -0.405753 -0.456104 
0.435586 0.760226 0.147888 0.0410065 -0.516611 -0.413418 1.02348 0.611785 -0.467141 -0.906628 0.231312 -0.0471808 -0.234768 0.330887 0.211265 0.745777 -0.394961 -0.337604 0.482003 0.638485 0.455329 -0.728091 0.991629 -0.964006 -0.177511 0.391439 -0.56002 0.363592 -0.685236 0.0540955 -1.16858 -0.374825 0.58148 -0.238722 -0.525237 0.223939 0.0946627 -0.61541 -0.517779 0.154925 
0.219528 -0.354866 0.810478 -0.0644122 0.761996 -0.895685 0.786169 -0.856616 1.1572 -0.774289 -0.400513 -0.374212 -0.154586 -0.432503 -0.684041 -0.847545 -0.212573 0.500504 0.399334 0.0921624 -0.668516 -0.233619 -0.921308 0.515411 -0.856048 1.18519 0.323627 -0.0402384 -0.901745 -0.21393 0.0846082 -0.890708 -0.372936 -0.797127 0.810323 -0.225994 -0.283408 -0.694997 -0.163288 0.198272 
-0.194084 0.530293 0.5122 0.356988 -0.0170824 -0.164132 -0.72178 0.641388 0.521297 -1.27585 -0.709277 0.184859 0.249397 -0.893089 0.103073 -0.0691779 -0.0183476 -0.207103 -0.310166 0.0800186 -0.553945 0.634461 0.0916048 -0.222387 0.123166 0.336578 0.814736 -0.79971 -0.550823 0.852635 -0.781962 -0.305561 0.443647 -0.239617 0.968306 0.24793 -0.172547 0.179539 -0.415044 -0.542884 
-0.364701 -0.794417 0.172618 0.295028 1.15189 -1.18207 0.247173 0.24249 0.963509 -0.328431 -1.25019 0.0712229 -0.928976 -1.20862 -0.606588 -0.306122 -0.490623 0.0904089 -0.458106 0.139466 0.429938 -0.834157 0.836355 -0.244771 1.03729 1.0661 -0.897465 -0.520012 -0.973959 0.78252 0.161832 -0.549024 0.770484 -0.644216 0.461235 -0.0228497 0.343179 -0.850088 0.0153686 -0.288019 
1.48227 -0.0845587 0.601851 0.473666 0.319015 -0.545796 -0.153156 0.117877 -0.198263 -1.03413 -0.23023 1.23777 -0.414166 0.813163 0.842535 -0.102883 -0.558694 -0.444785 0.159181 0.753303 0.874543 0.342962 -0.788609 -0.507364 0.904246 0.125486 0.109207 -0.0389932 0.717428 0.158821 -1.20792 -0.829571 0.346896 0.15729 -0.557844 -0.609095 -0.00733722 0.548398 -0.592763 -0.125813 
-0.0185882 1.08425 0.325118 0.294141 -0.602411 -0.222448 0.565075 -0.0436304 -0.419348 -1.02894 -0.779226 0.284143 -1.21581 1.05859 -0.788847 0.983842 0.511469 0.202687 0.231124 -0.294338 -0.50551 -0.603578 -0.0628426 -0.287083 1.11369 0.162065 0.701834 0.356742 -0.0716509 0.613979 -0.81309 0.666695 0.843135 -0.174583 -0.589573 -0.634234 0.0500485 -0.910157 -0.142334 -0.211364 
0.857646 -0.0476664 -0.438057 0.0847074 -0.766852 -0.270325 -0.138694 -0.139673 0.489701 -0.875781 -0.510069 0.760503 -1.05621 0.48287 -0.10509 -0.271916 -0.275007 -0.781717 -0.938848 -0.554404 -0.00903051 0.962524 1.04135 0.502207 0.174717 0.500598 -0.30575 -0.348967 0.955322 0.742789 0.283825 0.758963 -0.0367224 -1.42944 0.882806 -0.578882 0.414803 -0.682441 0.205507 -0.414449 
0.828281 -0.555446 0.329872 0.480548 -0.0154035 -0.363002 0.674985 -0.567893 0.415939 0.29081 -0.385729 -0.760143 -1.24639 0.508383 0.0714236 1.37559 0.0803325 1.15595 0.149176 -0.529446 -0.282067 0.494843 0.65444 0.726956 -0.00347886 -0.176393 -0.279561 -0.94908 0.714711 -0.0021567 -0.145691 1.14335 0.722092 -0.597001 -0.0220617 0.65099 -0.145811 0.113388 -0.846319 -0.454988 
0.573616 0.645355 -0.298274 0.234181 -0.0271961 -0.709909 -0.566969 0.25421 0.0697354 0.113425 -1.66414 -0.867089 -1.31547 1.2201 -0.476707 0.0898743 0.320612 -0.45621 -0.0596137 -0.492514 0.646409 0.561008 -0.0112066 0.0427642 0.179073 0.296597 -0.183408 -0.753428 0.160186 0.267196 -0.133868 0.482185 -0.428244 -0.615724 1.00087 0.0328938 -0.816817 -0.385398 -0.128983 -0.368609 
1.02298 0.113346 0.541803 0.751642 0.435943 -0.174228 -0.524546 -0.0351525 1.21678 0.50172 -0.159349 -0.561215 -0.850976 0.380686 -0.803478 0.0703337 0.298237 -0.161449 -0.376648 -0.642503 0.119635 -0.682868 -0.802091 -0.620555 0.120674 -0.218757 -0.110075 -0.239535 -0.919491 -0.0198345 0.315193 1.07603 0.931893 0.0968845 -0.0759049 0.820473 -0.21903 -0.73952 -0.765883 0.202962 
0.120678 0.77732 0.293827 1.20062 -0.620753 -0.897293 0.431501 0.0492439 -0.426121 -1.1676 -1.35107 -0.383571 -0.300202 0.0263993 -0.071699 -0.313235 -0.756535 -0.404949 1.14245 -0.158952 -0.96643 -0.559141 0.295465 -0.243715 0.19126 -0.836431 0.00278355 -0.586406 -0.672548 -0.587995 -0.193126 0.671631 -0.284639 -1.20146 0.294703 0.339255 1.14861 -0.0404476 -0.832264 -0.262104 
0.118739 0.479759 0.271701 0.56042 -0.386334 -0.202289 0.689483 -0.798481 -0.114637 -0.159177 0.49979 -0.824528 -0.886394 -0.766049 -0.545161 0.0428848 -0.195392 -0.0341694 -0.396845 0.937872 -0.730987 -0.069794 0.749028 0.328749 -0.0177278 0.190958 0.0672269 -0.0977108 -0.354658 -0.108681 -0.542752 -0.842454 0.26395 -0.188493 -1.13851 0.182958 -0.154728 0.142756 -0.855156 -0.646878 
0.727324 -0.08363 -0.655035 -0.710871 0.569218 0.916806 0.511687 0.944086 1.04831 1.27595 0.0816218 1.29203 1.29113 0.275782 -1.10217 0.58628 -0.798723 -0.266456 0.529021 -0.0132615 0.697008 0.984909 -0.334142 -0.183196 0.165931 0.819398 0.3339 -0.230928 -0.538277 -0.424102 0.418384 -0.626512 0.380286 0.166563 0.864991 -1.22047 -1.10657 -0.549407 0.318644 -0.0741678 
-0.849539 -0.0496805 -0.748043 0.42399 -0.0181592 -1.03069 0.0687344 -0.220737 0.568839 0.282074 -0.551025 0.105497 0.379209 -0.00651945 -1.31048 0.349195 -0.507966 0.404515 0.00745103 -0.1567 0.822045 0.0932002 0.678685 -0.0380385 -0.266741 0.985508 -1.14053 0.507807 -0.68378 -0.390856 -0.480061 0.352457 0.381815 -0.984714 -0.403892 0.352239 0.231902 -0.872471 -0.195472 0.981381 
0.299029 0.701372 0.149746 0.804688 -0.696922 0.39529 -0.566355 0.392055 1.36218 0.223306 -0.208175 -0.630045 -0.967224 -0.950898 -0.836396 1.55629 0.551118 1.25683 -0.21797 0.730342 -0.292989 -0.611255 -0.724664 -0.991653 -0.856579 0.637033 0.504437 0.27953 -0.86153 0.854736 -1.21309 -1.12741 0.167671 -0.321332 0.166326 -0.513151 -0.393977 -1.12826 -0.00583643 -0.588609 
-0.812623 0.783586 0.459799 0.0810466 0.221005 -0.158753 0.792868 0.593289 0.330896 -0.292075 -0.409016 0.654501 -0.46948 0.0345819 -0.391906 0.109951 -0.150365 1.37922 0.0233149 0.939681 0.0410487 0.0610881 0.862059 -0.854234 0.641282 0.538068 0.475557 0.041761 -0.72225 0.973832 -1.41396 0.1696 0.0748902 -0.549808 0.222279 0.314279 -0.987062 0.218506 -0.413244 -0.149959 
0.232737 -0.388456 0.487862 0.33399 -0.431433 0.29354 0.472821 0.537043 -0.0138845 -0.466239 -0.797095 0.385744 -0.756314 0.293272 -1.16376 0.421547 -0.722222 -0.0843031 -0.15084 -0.314553 -0.339164 -0.574329 0.213771 -0.625116 0.737661 1.19506 -0.467938 -1.25501 -0.0943104 0.884118 0.320599 -0.560632 -0.515875 -0.568008 1.16519 -0.870867 0.267049 -0.0257397 -1.1867 0.48677 
-0.60807 -0.120826 -0.483857 -0.424182 0.355308 -0.454875 0.560677 0.750626 0.702408 -0.389832 -0.670451 0.828767 -0.473136 -0.305669 -0.282355 -0.0204338 -0.326505 0.227309 0.245138 -0.0149384 -0.308754 -0.0488931 -0.387423 0.382723 0.0181874 1.0036 0.58319 0.0103346 -0.881706 1.29655 -1.05998 0.0932723 1.06891 0.0417179 -0.184687 -0.770038 -0.249994 -1.13248 -1.17372 -0.0754614 
-0.320888 0.741395 0.785355 -0.93294 -0.168909 -0.669106 -0.530868 0.120299 0.441509 0.566252 -1.81396 -0.197914 0.903108 -0.425096 -0.737102 0.586568 -0.673845 0.406842 -0.743314 0.615006 0.12464 -1.02013 -0.592232 -0.753585 1.62007 1.40839 0.198463 0.26667 0.271998 -0.301058 0.286385 0.530422 -1.02752 -0.00463206 -0.292647 -0.175545 -0.141889 -0.816695 -1.13799 -0.632706 
-0.716806 0.206539 -0.456879 -0.724576 0.381735 -0.412186 -0.170114 -0.0842177 0.684486 0.494115 -1.73121 -0.788832 -0.137491 0.393602 0.184739 0.876086 -0.122013 0.307278 0.136459 0.344295 0.0302396 -0.086459 -0.217351 0.880626 0.906492 0.0690704 0.483877 0.00405047 1.52097 0.527804 0.758211 -0.302718 0.182115 -0.72014 1.12344 0.249906 0.886132 0.443693 -0.950255 -0.157729 
0.00836424 0.230273 -0.309193 0.70989 -0.538477 1.15981 -0.43904 -0.595833 0.617222 0.354399 -1.29184 0.804033 0.560593 0.14892 -0.212712 0.308084 -0.477481 0.0330639 -0.549267 -0.357129 1.13868 -0.733607 -0.448284 -0.813737 0.768563 1.13522 -0.406832 0.187186 -0.209691 0.339039 -0.7497 1.41402 -0.729994 -0.292785 -0.336205 -0.880969 -0.3855 0.203933 0.319087 -0.330578 
-0.866105 0.521451 0.623049 0.730514 -0.191168 -0.450854 0.5365 -0.534406 1.13958 0.590157 -2.08645 -1.14347 0.0862379 1.51096 0.118433 0.271726 -0.501734 0.300873 -0.250811 0.302866 -0.0077735 0.935346 0.538538 -0.0473944 0.866071 -0.490666 -0.131316 -0.962607 -0.653893 -0.310271 0.94833 0.907629 -0.499494 -0.0576266 0.50313 -0.611112 -0.0497389 -1.43691 -1.2213 -0.66883 
-0.306796 0.299073 0.0685584 0.658304 0.376379 0.0306157 -0.474086 -0.394202 0.682662 1.03965 -0.854347 0.0263433 0.752099 1.48664 0.332644 0.83916 -0.356528 0.347069 -0.135313 -0.868569 0.167057 -0.475741 1.05457 0.317609 0.246126 0.65146 0.252014 0.85568 -0.58533 0.174613 0.148287 -0.651282 0.139162 0.585073 1.00236 -0.189683 0.335618 0.00151756 -0.482741 -0.133675 
-0.397462 -0.206801 -0.867088 0.440186 -0.473021 0.744805 0.289819 -0.615043 0.310906 0.611283 -0.291831 -0.746838 0.837295 1.50703 0.318469 -0.596519 -0.514776 0.213622 0.360986 0.484354 -0.207226 0.202539 0.520799 0.228844 -0.716417 -0.473213 0.757472 0.131376 0.374635 -0.508432 -0.0359178 0.284234 0.191531 -0.097789 -0.462109 -1.31262 0.237226 -0.849235 -0.392318 0.819212 
-0.153088 0.404962 0.202452 -0.0128805 -0.0269353 0.0962523 0.194803 -0.504159 0.460088 0.604639 -0.812324 -0.523672 1.03017 0.588397 0.158863 -0.413267 -0.891531 0.630291 -0.17114 -0.913712 0.115265 0.973264 0.493291 0.602812 -0.285448 -0.712232 -0.477042 -0.0566522 -0.761271 -0.210431 0.359829 -0.0737083 0.278583 -0.678902 0.249149 0.249931 0.267639 -0.702628 -0.0915774 0.695135 
-0.882982 0.381309 -0.190099 -0.0834381 0.403984 0.377023 0.0299937 0.730694 0.195153 -0.345048 0.00134497 -0.118513 0.367109 -0.476365 0.268643 -0.112359 0.211388 0.498922 0.531638 0.142625 -0.683931 -0.488079 -0.201134 0.224342 -0.232432 1.36607 -0.755475 0.103048 0.0283151 -0.0629872 0.552672 -0.428863 -0.345076 -0.284669 -0.696594 0.851676 -0.401186 -0.577016 0.681856 0.896502 
0.245487 0.0205584 0.177225 1.08062 -0.261437 0.0105894 -0.26165 0.74821 0.883151 -0.273591 0.737229 0.446317 0.813484 -0.74633 -0.459497 -0.252974 0.712328 0.984051 -0.316121 0.955114 -0.440859 -0.341629 0.488645 -0.403561 -0.0529928 0.491225 0.354572 0.163994 -0.469616 0.128487 0.406712 0.787438 -0.652383 0.082123 0.695282 -1.18269 -0.0616258 -0.0615429 -0.152538 -0.361726 
0.640505 -0.37596 0.60645 0.681305 0.575304 0.145324 0.150286 0.826958 0.726962 -1.08807 -0.0874683 0.558594 -0.263474 -0.749756 -0.0997042 0.115602 -0.0940355 1.03182 -0.544695 0.539762 0.789097 0.725886 -0.28576 0.0797099 -0.531178 -0.217593 -0.775172 -0.356175 -0.13277 -0.850844 -1.37283 0.879094 0.463174 0.510573 0.590905 -0.975886 0.541687 0.501688 -0.645529 -0.00557272 
-0.533388 -0.0917875 0.615043 0.459474 -0.0151586 0.576525 1.15315 1.15413 -0.315968 -0.379369 0.672968 0.26199 0.662106 -0.438775 0.135302 0.240718 -0.559083 0.737181 0.991747 -0.381061 -0.378084 -0.331775 0.111962 0.563206 0.188071 -0.0229949 -0.82694 -0.329703 0.0416657 -0.0902186 -1.19888 -0.85058 0.185644 -0.551494 -0.5864 0.0172714 -0.233133 0.717624 -0.961861 0.265912 
-0.00812854 -0.126497 -0.805257 1.1494 -0.0951566 0.389791 -0.134436 -0.228399 0.717183 1.25081 -0.0495039 0.401941 0.707492 -0.243101 -0.263697 0.353094 -1.08853 1.43654 0.126127 0.593089 0.694221 0.842351 -0.37016 0.145923 -0.373671 0.473779 0.277061 0.417367 0.149564 0.581847 -1.05499 -0.966096 -0.183777 -0.0185611 -0.217629 0.0714111 -0.0676899 -1.01304 0.13187 -0.541398 
-0.171456 0.30904 0.783949 0.108871 0.50323 -0.0944091 0.485888 0.668213 -0.267014 0.197064 0.0459355 -0.458785 -0.325293 -1.04351 0.199365 0.434941 0.490247 0.475012 -0.169538 0.359036 0.119017 -0.243232 -0.426357 -1.44839 -0.696254 0.0452788 -0.576076 -0.181474 -1.20793 0.783329 -0.966047 -0.275633 1.12261 0.115967 0.478161 -0.372735 0.640684 -0.44738 -0.159487 0.890014 
0.160846 0.0970884 -0.420732 -0.139257 -0.100951 0.46235 -0.717293 0.287516 -0.0600659 0.182739 -0.0729723 -0.424925 0.196611 0.226352 0.131524 -0.463471 -0.427154 0.285611 -0.179295 -0.279907 -0.103079 -0.351954 0.331218 -1.15971 0.619019 0.92927 -0.530216 -0.398127 0.572281 1.0414 0.927019 -0.901288 0.035244 -1.05873 -0.827526 0.55153 -0.768399 0.731073 -0.377935 0.909731 
0.265142 0.30191 0.6652 0.757783 1.09398 0.665487 0.228366 0.0982198 0.447389 0.670726 -0.779277 -0.323495 0.985169 -0.302905 0.43723 0.0380954 -0.0343353 0.590401 0.500341 0.557514 -0.365808 -0.263974 -0.527368 -0.925013 1.10326 0.00681029 0.542488 0.760066 -0.0182255 0.00306777 0.882041 -0.116313 0.347635 0.980639 -0.28849 0.267149 0.313237 -0.457009 0.0848458 -0.432243 
0.129673 0.166053 -0.281494 -0.869225 -0.989751 0.777625 0.619015 -0.606503 -0.960085 0.294053 0.0832994 0.692505 0.976066 0.299361 -0.332333 -0.626647 0.126917 -0.319317 -0.323365 0.0569777 0.394103 0.481396 0.54171 0.273798 0.134758 0.42267 -0.725393 -0.425367 1.40623 0.396296 0.923678 0.46527 0.703533 -0.128429 -0.425077 0.325278 -1.0524 -0.58591 -0.714525 0.625443 
0.256251 -0.0460209 -0.771051 -0.446716 0.142713 -0.356257 -0.114503 -0.219757 -0.215581 0.0243558 -0.992101 -0.57565 0.809455 0.0738348 0.253075 -0.740402 -0.296045 0.0466978 0.41184 -0.616524 0.4279 0.935364 0.353452 0.266933 -0.133763 0.246669 0.0985196 0.157685 0.879878 -0.672316 0.0921657 -0.270138 -0.251978 0.111962 -0.379547 -0.237024 -0.420662 -0.415518 0.033824 0.344909 
-0.113674 0.226621 -0.369449 -0.303799 -0.673928 0.74509 0.603146 -0.797956 -0.121123 0.238608 -0.202297 1.21319 1.30523 0.0913392 0.381736 -0.704182 0.456418 0.574536 -0.366706 0.585144 -1.00412 0.0568238 -0.402303 -0.0184347 0.398113 0.144504 0.539241 0.51384 -0.0597292 0.352252 -0.83901 -0.26744 1.44628 0.691161 -1.12006 -0.290789 0.442488 0.812332 -0.110821 -0.327254 
0.700266 0.45399 -0.909806 -0.161467 0.208385 -0.537157 -0.706236 0.498595 0.0511608 0.365546 0.449089 0.169922 -0.209383 0.97632 0.00423547 0.0608904 -0.198355 0.213845 0.048038 -0.654043 -0.710191 -0.331408 0.214408 0.11958 -0.836579 -0.0267091 0.188739 -0.55763 -1.06161 -1.28212 0.126507 -0.240558 -0.0870369 -0.280255 -0.521303 0.480364 0.274698 -0.855195 -0.325469 0.8848 
-0.453422 -0.544557 0.728056 0.939259 -0.228825 -0.665334 -0.219121 -0.0498085 -1.21016 0.033263 0.0705795 0.483138 0.223429 0.662882 -0.4529 -0.338967 1.06249 0.317386 0.74746 -0.668095 -0.279628 -0.370662 -0.247617 -0.382945 0.642963 0.760601 -0.826426 0.884857 -0.844089 0.569224 -0.751831 -0.407232 0.574673 -0.545082 -0.00444769 -0.845774 0.869284 0.0821953 0.367525 0.733061 
-0.00104549 -0.160961 0.355167 -0.108315 0.367249 -0.350274 -0.82401 -1.46772 -0.789234 0.74186 -0.033604 -0.664435 -0.9989 0.39748 1.30956 -0.0804982 -0.24958 0.641015 0.76259 0.170682 0.157618 0.0767176 -0.406809 0.327738 0.454165 -0.127213 0.13157 0.152838 -0.946837 0.287756 0.0412797 -0.406485 1.12366 0.148874 -1.25843 0.34426 0.459966 -0.647396 0.53189 -0.669627 
0.3519 0.00157286 1.19865 0.176869 -0.0874733 -0.700691 0.654934 -0.585236 0.37025 -0.775385 -0.927682 -0.606816 -0.93452 0.0286917 -0.305381 -0.374719 1.21209 -0.332147 0.0828666 -0.17184 -0.778473 -0.125429 0.360177 0.0358838 0.00414308 -0.706936 1.05623 0.151324 0.254496 0.532602 0.535822 0.86736 0.374208 -1.271 -0.0218017 -0.593657 0.0528209 -0.719122 0.573351 -0.281835 
0.0745789 0.770741 0.62035 -0.157767 -0.684102 1.04802 0.592721 -0.324085 0.925039 -1.23494 0.0285002 1.05043 0.520896 0.831054 1.03435 -0.68725 -0.418189 -0.214377 -0.122979 0.768405 -0.0930873 0.212829 -0.405648 0.0217056 -0.720334 0.469692 0.0249555 -0.234934 -0.555777 -0.131243 0.068958 0.991852 -0.658383 0.248628 0.370874 -1.14012 -0.496207 0.493266 -0.241725 -0.171334 
0.160419 -0.620534 -0.162154 -0.182461 0.804793 -0.654405 0.0977032 0.0936106 -0.0214482 -0.537622 0.752779 0.0163665 0.584577 0.177341 -0.247158 0.47175 -0.354968 1.03043 -0.128184 0.125702 0.797602 0.177156 -0.160842 -0.363297 0.0465846 -0.77826 -0.608961 -0.487594 0.327205 -0.0106959 0.111383 1.1071 -0.228746 -0.729755 0.299829 -0.564625 0.493251 -1.32045 1.44411 0.641204 
-0.329207 -0.751532 1.48186 0.613506 -0.242248 0.449101 -0.448221 -0.413587 0.489441 1.56942 0.22408 -0.206299 0.240571 -0.767615 -0.32809 -0.374548 0.768901 0.771854 0.670359 0.0973217 -0.414874 -0.381805 0.629248 -0.749824 -0.70899 0.631421 1.08346 -0.415899 0.445563 0.0883886 -0.943493 0.793988 -0.70432 -0.292072 0.792008 -0.587912 0.545172 0.477974 1.10554 -0.366443 
0.0321746 0.64504 1.20547 1.15137 0.0721625 1.11902 -0.0505139 0.112407 -0.617555 0.430567 0.763246 -1.44941 -0.127305 0.25237 0.401703 -0.98308 -0.372579 0.215512 -0.000398873 0.393464 0.418321 0.0367652 0.475583 -0.77629 -0.123526 -0.085336 -0.28066 0.197051 -0.611749 0.734226 -1.12478 0.48833 -0.98146 0.185197 -0.999089 -1.26963 0.216234 -0.274408 0.483194 -0.340979 
-1.01262 1.20829 0.575754 0.206829 -1.09663 1.46265 -0.283863 0.650743 0.776018 1.18364 1.44489 -0.255893 -0.0333702 -0.0487797 0.373724 -0.556501 0.570019 0.0364422 0.184435 -0.0209344 -0.734953 -0.392983 1.24561 -1.11655 -0.763968 -0.575468 1.13613 -0.474746 -0.852108 -0.359067 0.18454 0.495596 -0.578925 -0.626608 -0.794907 0.344898 -0.442517 0.0658963 0.738002 -0.989899 
-0.030582 0.258232 0.797065 0.167963 -0.376895 1.04014 0.212133 -0.206542 0.765422 1.75946 0.27893 -0.0479832 0.343583 -0.0193279 0.57142 -0.502318 -0.903117 1.45598 0.969727 -0.0312278 -0.822697 -0.0649853 0.49684 -1.3238 1.09916 0.333426 0.364855 -1.20579 0.0535479 1.02152 1.02594 -0.724964 -0.471348 -0.0270206 -1.33431 0.501985 -0.141879 -0.257963 0.986956 -0.321495 
-0.396746 1.17345 -0.36725 0.0251452 0.634559 -0.399683 0.863584 0.785524 0.0580154 0.430976 0.29774 0.356389 0.236438 -0.618756 1.01778 0.210293 0.558388 -0.236946 0.374656 0.462564 -0.163951 -0.675736 0.435513 -0.0287442 1.93028 0.535093 0.231116 0.183334 0.115472 -0.646378 -0.0669369 -0.395527 0.845826 -0.179254 -1.13294 -0.409191 -0.639468 -0.10058 1.23917 0.26358 
0.489386 0.654165 0.255087 -0.978406 -1.30315 0.45121 0.763167 0.63923 -0.234483 0.893734 -0.271701 0.118241 0.0280988 -0.756052 0.885104 0.421079 -0.72944 0.847329 -0.626001 -0.178633 -0.79629 -0.138208 1.01151 1.46171 1.01302 0.199093 0.0959738 -0.589428 1.07161 1.0559 -0.536503 -0.0150159 -0.443354 0.191762 -0.721194 0.995684 -0.661251 -0.301189 1.50707 0.0267314 
-0.663791 1.49321 -0.54561 -0.244204 -0.178598 0.721463 -0.432901 0.563816 -1.08281 -0.745724 0.544204 0.187049 -0.126583 -0.295197 -0.125735 -0.59621 -0.641761 -0.144955 -0.280389 -0.579365 -0.752036 -0.892222 0.505137 0.263451 0.611074 0.0794709 -1.3233 0.0359614 -0.75708 0.516782 -0.416303 0.503729 -0.32451 -0.476926 -0.614518 0.595512 0.455111 -0.188614 0.380802 -0.449579 
-0.522987 -0.152354 0.287072 -1.12512 -0.488527 0.20292 -0.0538501 0.0995042 -1.09909 0.381389 1.08639 0.687794 -0.0110709 0.407455 -0.167657 -0.278737 0.602923 0.141986 -0.152035 -0.212825 0.337978 -0.754569 0.248621 0.836324 0.482716 1.45038 -0.311387 0.25802 0.731644 0.501649 0.140649 0.200568 0.547184 -0.208553 -0.732019 -0.565372 1.36188 0.299997 0.441458 -0.196446 
-0.868164 0.512317 -0.211374 -0.168137 -0.256778 -0.482515 -0.10693 -1.01 0.448949 -0.255288 -0.432731 0.448615 -0.00235193 1.84119 0.0170157 -0.439359 -0.138707 0.312186 0.818166 0.380858 -1.2675 0.261286 -0.283705 0.373608 -0.159611 0.15241 -1.20998 -0.46813 -0.827173 -1.07765 -0.890555 0.473241 -0.435595 0.621335 -0.503536 -0.06694 0.972706 -0.578254 0.61929 0.86693 
-0.786578 0.189688 0.336317 0.230394 0.385469 0.449082 -0.795057 -0.348341 0.245592 0.144041 0.459907 0.696416 -0.364652 1.71277 0.338594 0.51708 -0.161148 0.841448 -0.310662 0.355702 0.118873 -0.86656 -0.0840305 -0.30298 0.629967 0.554431 0.214868 -0.0293371 -0.66251 0.744845 0.2363 -0.581046 0.75051 -0.219289 0.12087 -0.910692 0.842809 -0.759336 0.50485 -0.0726708 
0.0983805 -0.134774 0.395163 -0.57793 -0.00879176 0.416889 -0.69229 -0.885844 0.275233 0.0956342 -0.685423 0.266816 -0.047505 0.94147 -0.270157 0.215955 0.0683394 1.06547 -0.237915 -0.625505 0.365681 0.637973 -0.412556 0.351699 -0.361056 1.0996 -1.43186 -0.340437 -0.95306 0.68868 0.311636 -0.745474 -0.539064 0.0828176 0.567204 1.04364 0.35611 -0.396128 0.117354 0.650822 
-0.215659 0.457543 0.081085 0.371976 -0.771318 0.0952846 0.0861292 -0.0979739 -0.858841 -0.17201 -0.134347 0.673764 0.212557 -1.14072 0.12295 0.586337 -0.611088 0.249537 -0.434612 -0.705773 -1.05324 -0.650345 0.52015 0.259984 -0.645221 0.179228 -0.271201 -0.0563648 0.911039 -0.606469 -0.534598 0.442252 0.0632342 -0.288623 -0.842011 0.328779 -0.198787 0.172052 1.28029 0.397567 
0.968412 -0.660718 0.756816 1.00977 0.0767421 1.13232 -0.884322 0.0848369 0.727151 0.74133 0.293807 0.452954 0.0887565 -0.293767 -0.238416 -0.951787 0.729754 0.0346731 -0.546813 0.348045 -0.20621 -0.717819 0.454202 0.749409 -0.465066 -0.576455 0.371741 -0.204967 -0.0622712 0.389616 0.488151 1.19131 0.164433 0.0372968 1.45075 -1.29453 -0.305673 -0.229609 1.2262 -0.803827 
-0.765875 -0.379324 0.619941 -0.0360215 -0.76265 1.28831 -0.0134142 -0.340437 0.872837 -0.447829 -0.13831 0.408866 0.792792 -0.265444 -0.280755 -0.899843 0.273648 0.676412 -0.938328 -0.589489 -0.345882 0.608056 -0.0780993 0.210611 -0.43438 -1.73444 0.00744864 -0.0605191 -0.764264 -0.0878028 -1.08339 0.457693 -0.497012 -0.123639 0.992384 -0.843056 0.0779131 -0.137458 -0.0934556 -0.19609 
0.430028 0.0700641 1.68469 0.120169 -0.36152 0.378966 -0.0162047 -0.334676 0.478196 0.411779 0.908872 0.227918 0.695957 0.0389738 -1.31977 -0.802655 -0.597991 0.262392 -0.612067 0.950188 -0.591349 0.925864 -0.669721 -0.221545 -1.16669 -1.00044 0.202222 -1.1212 -0.861785 -0.736333 -0.0812874 -0.274092 -0.469804 0.439766 0.207445 0.119996 0.160368 0.238261 0.0873128 -0.085901 
0.574299 -0.263158 1.11721 0.341636 0.998268 -0.32988 0.68997 -0.44098 0.450003 1.30685 0.349174 -0.720126 0.294913 0.2373 0.478832 -0.0964728 -0.757226 0.478967 -0.458777 -0.259396 -0.342416 -0.26554 -0.161027 -1.26615 -0.566825 -0.944218 0.228974 -0.667462 -0.844432 0.23025 -0.169093 -0.559216 0.133723 -0.37456 0.068367 0.570902 0.146212 0.594153 1.86569 0.42903 
0.232717 -0.181825 0.295881 -0.300618 0.719861 0.209852 0.394347 -0.243608 -0.897648 0.907635 1.05019 -0.369096 -0.438941 -1.05521 1.2602 0.748724 -0.747674 0.959046 -0.322266 0.419518 -0.743872 -0.723601 -0.489023 -0.841809 -0.802925 -1.39862 -0.0437476 -0.973077 0.943955 -0.117619 0.454266 -1.0028 0.0670039 0.421072 0.139722 -0.275057 -0.442947 0.123531 1.15021 -0.467355 
0.886354 0.644922 0.500429 0.188281 0.80225 -1.39081 1.86729 1.29584 0.692639 -0.750095 0.386827 0.146253 -1.09093 -0.551983 0.827663 -0.282704 -0.542243 0.727333 -0.0428487 0.515225 0.0290118 0.104626 -1.01204 -0.693913 0.528726 -0.387285 1.02775 -0.604058 -0.00327257 0.632995 -0.475337 0.142165 -0.7746 -0.185972 -1.00553 0.574044 0.280893 -0.395872 1.28786 -1.02865 
-0.141465 -0.0595015 -1.21682 -0.556873 0.0515818 -0.0994815 1.29278 1.85207 -0.233781 0.707488 1.32306 -0.330032 -0.035982 0.116601 0.927481 0.0542766 -0.239535 0.799956 -0.582733 -0.247446 -0.532961 0.356179 0.829244 1.98743 0.685863 0.15311 -1.12347 -0.207532 -0.484334 0.344577 1.42117 -0.0813221 1.16987 -1.02282 -0.252113 0.180997 0.723452 -0.185911 1.06708 -0.613415 
0.515526 -0.811657 -0.613125 -0.100586 -0.712722 -1.54948 0.235292 2.49608 -0.0560873 -0.715368 0.613758 0.30395 0.687314 -0.360953 0.109065 0.788372 -0.597004 0.75074 -0.534492 0.341796 0.212317 0.618202 0.955377 1.40999 1.58678 -0.183914 -1.70419 -0.0920157 0.523734 -0.321256 -0.43198 0.150464 0.625776 0.339433 0.105334 -0.399336 1.00656 -0.150764 0.59055 0.434911 
-0.103736 0.621853 0.258958 0.664896 0.549168 0.565575 -1.13758 0.143421 0.00561604 -1.15231 0.69405 0.448327 0.749783 0.104895 0.482257 -0.118063 -0.0782003 -0.210145 -0.321017 0.670217 -0.0156951 -0.791124 0.83616 0.593512 0.77384 0.807972 -0.489974 -0.506993 -0.964723 0.723218 -0.149405 0.072688 0.365755 -0.58222 0.247992 0.0372532 0.511197 0.966091 0.480898 -0.586691 
0.651665 -0.423599 0.237597 0.396971 0.155201 -0.449001 -1.39727 -1.67692 0.29549 -0.317885 -1.00581 -0.478767 -0.357581 0.157606 0.281922 0.299553 0.329015 0.0374025 0.467058 0.224646 -1.18755 0.161647 0.624858 0.942603 1.55846 0.782017 -1.19924 0.14377 -0.56274 -0.41735 0.30876 -0.0967315 -0.586254 -0.996233 1.068 -0.391305 0.22283 1.1635 -0.531588 -0.720526 
0.259359 -0.725207 -0.38205 0.348205 -0.0449514 -0.0449573 -1.31021 -0.322197 -0.18028 -1.19681 -0.30893 -0.0802035 -0.0153895 0.506303 0.101713 -0.575617 -0.0901922 0.337886 -0.853642 -0.102473 0.105691 -0.329359 0.483459 0.465805 1.01635 0.743278 -1.56663 -0.604446 -0.288696 -0.690989 0.463224 -0.069132 -0.329761 0.354996 0.399326 -0.753714 -0.345264 0.656859 0.698101 -0.333593 
0.681409 0.255124 1.00574 -0.175961 0.24988 0.177837 -1.23512 -0.747006 0.200737 0.419852 -0.51264 0.117956 -0.221242 1.71933 0.327463 -0.82771 0.204465 -0.333089 0.965005 -0.548543 -0.683627 0.823544 0.0431003 0.254192 0.858486 -0.291 -0.892764 0.097075 -0.853655 0.415772 -1.07015 0.257637 -0.0495986 0.451722 -0.298355 -0.565449 -0.06644 0.310807 0.172255 -0.151834 
0.0512662 0.254071 0.968675 -0.350103 0.619277 0.19975 -1.12693 0.643833 -0.455142 0.72611 0.288584 -0.156369 -0.614827 0.527365 0.662527 -0.44683 0.199407 1.00036 0.822083 -0.923556 0.431897 -0.539098 -0.676411 1.66523 0.950016 -0.0234257 -1.6187 -0.232268 -0.810056 -0.516088 -0.725878 0.0803691 -0.373478 -0.677322 -0.337758 0.323222 -0.332184 -0.604208 1.51802 0.408152 
-0.278779 -0.0317839 -0.187599 -0.0510184 0.875737 0.453015 -0.524088 0.826361 0.502908 -0.653273 -0.157284 0.119037 -0.839213 0.416504 -0.65795 0.137769 0.666922 0.467606 0.680469 -0.569922 -1.17764 -0.668843 -0.825781 -0.540169 -0.345828 -0.440328 0.283436 -1.22952 0.827584 0.291984 -0.161959 0.368318 -0.451385 -0.456648 0.616322 0.524131 -0.210322 -0.149741 0.562272 0.657865 
-0.193819 -1.31188 0.86293 1.11848 -0.549338 1.0186 -0.519094 -0.218189 0.46365 -0.542099 0.254909 0.195131 0.809868 0.748029 -0.529368 0.306486 0.0810387 -0.674762 -0.594602 -0.802011 -0.224076 0.153002 -0.153072 -0.714469 -1.03464 0.148038 -0.365841 -1.3882 0.183507 0.314053 0.168689 -1.25753 -0.734173 0.379059 1.08782 -0.798219 0.654895 -0.738117 0.758357 0.118319 
0.950161 0.0515985 0.0865915 0.267115 0.453379 0.0830836 -0.0889028 0.0550182 -0.149704 -0.810518 -0.380816 -0.399668 1.01553 1.25491 0.0640129 0.143613 -0.853689 0.825652 0.734045 -0.255788 -0.571465 -0.0558123 0.138497 -0.433091 -0.519344 0.235585 -0.265444 -1.18681 -0.725173 -1.21505 -1.1582 0.0702641 0.73462 0.16618 1.37047 0.958575 0.0912583 0.652022 0.66556 0.732306 
1.0648 0.375311 0.762926 0.151014 0.681936 -0.0108827 0.606626 -0.621646 -0.0343659 0.137275 -0.290023 0.778327 0.0754361 0.763411 0.179067 0.422282 0.216848 0.742996 -0.275929 -0.804848 0.496291 -0.97687 -0.896829 -0.846555 0.000408067 -0.224458 0.116352 -1.35939 0.31889 -0.50022 -0.914608 -1.10914 0.666973 -0.675324 1.35131 0.596139 -0.00124084 -0.193361 0.953553 -0.294196 
0.810659 0.514235 0.200136 -0.203553 -0.515871 -1.06283 -0.674361 1.04293 -0.657947 -1.03545 0.900896 0.148022 0.106235 0.0684646 0.0918309 0.33316 -0.285522 -0.329593 -0.187808 0.280069 -0.583472 -0.693774 -0.512851 -0.992423 -1.99344 -1.07847 -0.715479 -0.140919 -0.218759 -0.826202 -1.02003 -0.987667 0.415075 -0.384082 -0.497014 -0.525546 -0.149405 -0.603375 0.684127 -0.441944 
-0.00586886 -1.20493 -0.487958 -0.68485 -0.486082 -1.39517 1.49309 1.535 0.355057 -1.19611 0.3103 0.237061 0.492936 -0.365595 1.33732 -0.620781 0.538362 -0.294503 -0.439416 -1.04472 -1.09038 -0.835976 -1.21409 -0.221786 -0.710153 -0.306472 0.118344 0.320249 -0.580381 -0.415144 -0.194544 -0.243477 -0.348149 -1.68862 0.154626 0.296573 1.1562 0.319585 0.430781 -0.473346 
0.733455 -0.748681 -0.41892 0.574783 -0.847268 -0.53711 1.58417 1.36597 0.376028 -0.67734 -0.0110044 0.0744391 -0.695512 0.40224 -0.195415 -0.429635 -0.319152 -0.301612 0.176958 0.438697 -0.0617851 -0.237563 -0.835099 0.62074 -0.675831 0.131688 -0.249365 -0.351396 0.959535 -0.557911 0.546678 0.597429 0.0396824 0.395029 -0.626885 -0.365901 1.085 -1.16279 -0.391107 -0.254501 
-0.695437 0.495697 -0.638969 0.75766 -0.0604727 -1.20353 -1.2407 1.71989 -0.528781 -0.602009 0.663524 -0.0625507 -0.288591 -0.557072 1.03833 -0.280218 0.650704 0.893944 0.88026 0.0505936 -0.328087 -0.73293 -1.85362 1.3618 0.270624 -0.798482 0.103101 0.48735 -0.162245 -0.212123 0.061245 -0.0745217 -0.19577 -1.04186 -0.0149266 0.441061 0.849589 -0.841602 -0.567808 -0.103772 
-0.614728 0.206763 -0.413953 -0.159892 -0.289545 -0.812174 -1.0486 -0.040755 0.476289 0.0116167 -0.848847 0.20009 -0.928738 -0.464087 -0.81375 0.164162 -0.833658 0.342688 -0.158224 0.0515153 1.10818 -0.861167 -0.438124 0.259377 -0.372608 -0.943457 -0.612521 0.290971 0.111293 -0.665176 1.07234 0.925744 0.550731 0.412167 -0.115027 0.245165 1.50006 0.847804 -0.221222 0.269651 
-0.110358 -1.40578 0.225371 0.501882 -0.658372 -0.222111 -0.873824 -0.759364 1.06342 0.61347 0.77866 -0.411191 -0.0235542 0.117719 0.461425 -0.288917 0.169556 -0.612379 -0.123052 0.464541 -0.591408 0.232288 -0.907502 -0.0394212 0.379588 0.0727619 -0.167637 -0.407662 0.186074 0.442587 -0.155357 0.909076 0.390446 -0.785751 -0.0381846 -0.0360795 1.30888 -0.205475 0.393393 0.555666 
0.26364 -0.864593 0.828698 0.178821 0.29012 -0.222779 -0.596448 0.347651 0.285838 0.262762 -0.028916 -1.4343 -0.535093 -0.73262 0.138803 -0.371425 0.153523 1.63154 -0.611429 -0.365683 0.126822 -0.52788 0.368484 0.0801502 -0.478851 0.0589856 -1.16953 0.46261 0.164274 0.250835 -0.432892 -0.540802 0.489705 -0.88413 0.0433484 -0.211549 -0.0482073 -0.145676 0.187945 -0.757864 
0.817308 0.35222 -0.0973127 -0.316694 -0.0791903 -0.851886 -0.619479 -0.577759 0.91791 -0.317391 0.461915 -0.284146 -0.0818579 1.37217 -0.0350332 -0.543847 1.15236 0.706979 -0.470294 0.289122 -0.80023 -0.733147 -0.526135 0.459004 0.295524 -0.22551 -0.377794 -0.348936 -0.947467 -1.04198 0.627912 0.015373 0.4868 -0.0767316 0.565362 -0.0386826 -0.217746 -0.233995 -0.39841 0.581175 
-0.38867 -0.63976 0.437115 -0.503689 -0.274526 0.0376563 -0.70032 -0.105874 0.080368 -0.297583 0.490858 -1.35913 1.27854 0.793195 0.183943 -0.102839 -0.894151 0.908993 -0.708714 0.417469 -0.384395 0.0656373 0.45761 0.237098 0.409322 0.421859 0.698192 -0.555046 -0.651437 0.454217 -0.0790652 0.270763 0.547155 -0.712662 0.514895 0.401196 -1.02389 -0.491349 -0.373252 1.08982 
-0.468988 -0.0723087 0.279979 0.00189846 -1.37477 -0.845493 -2.02919 0.189619 0.424657 0.0374566 -0.251432 -0.0711542 0.455736 0.626669 0.28134 -0.715424 0.912501 1.6499 -0.210843 0.000945264 -0.892665 -0.89017 0.594543 0.898258 0.711953 -0.886888 -1.82069 -1.32218 0.341561 -0.505331 -0.854901 0.143687 -0.000859853 -0.18978 -0.175204 1.0215 -1.23454 0.516937 0.227468 -0.76451 
0.412323 -0.868287 0.290126 0.60937 0.348186 -1.90689 1.17675 -0.488551 0.552469 0.358457 0.498913 -0.153464 0.251539 -0.118156 -0.23691 -0.696708 -0.0429937 0.717298 0.419444 -0.293702 -0.258653 0.106482 1.19458 0.327544 -0.935294 -1.31369 0.132886 -0.396673 0.181563 0.305025 0.59802 -0.665455 0.407034 -0.959852 -0.322771 0.145374 0.627559 0.514003 0.956614 -0.325353 
0.142912 0.658604 0.296945 0.0960936 -1.05765 -1.37528 1.08476 -0.415142 0.556424 0.455032 0.99791 -0.442633 0.359085 0.717345 0.42076 -0.303739 -0.530807 -1.24009 -0.290479 -0.891387 -0.87104 -0.92242 1.05502 -0.869945 0.0795094 0.373662 -0.28007 -0.434217 -0.0787718 -0.104626 -0.784529 -0.847357 -0.416984 -0.098134 0.226959 -0.291583 0.102723 0.832408 0.755217 -0.167005 
-0.263509 0.0911697 0.74043 0.901671 -0.319907 -2.27176 0.184784 0.0824825 -0.562878 -0.376955 0.307843 0.807364 0.708114 -0.512718 -0.731615 0.678883 -0.312224 -1.03926 -0.296456 0.191914 -0.795301 0.217295 -0.496091 -0.726262 0.335151 -0.264013 -0.108389 -0.0716055 -0.76386 -1.1791 0.29357 -0.848154 0.0702372 -0.577133 0.673354 -0.384962 -0.280153 -0.289125 0.0312114 -0.407942 
-0.628623 1.11557 0.0592146 0.0661727 -0.725707 -1.34019 0.255466 1.13502 0.0987323 -0.38568 0.104233 0.500454 0.552456 -0.0966293 0.301602 -0.31271 0.346863 -0.0216914 -0.0565993 -0.300876 -0.735672 0.95419 -0.888795 -0.916665 -1.14743 -0.127686 -0.115402 1.34409 0.177578 0.332787 -0.780112 -0.552326 0.670797 0.0533509 -0.16969 0.281237 0.186506 0.096466 0.858283 -0.211274 
-0.733222 -0.533894 1.02572 0.610843 -0.496927 -1.4434 0.953345 0.518978 -0.482648 -0.376501 0.98313 -0.303096 1.21371 -0.235212 0.0263306 -0.681199 0.207996 0.526032 -0.283891 -0.0385397 0.451837 -0.819712 0.684097 -0.0456852 -0.701468 0.71063 -0.318309 0.50008 0.120245 -0.316896 -0.550071 -1.01114 -0.368463 -0.433772 0.805742 -0.198978 1.10577 -0.276032 -0.185584 0.148662 
0.062221 -0.160889 -1.19284 -0.399524 -0.00291424 -0.94196 0.388198 0.271084 0.518953 0.0571352 1.24157 -0.208817 0.952683 -0.616955 0.344724 0.0442341 -0.226748 1.0566 0.284642 -0.537667 0.96419 -0.472281 -1.12829 0.426537 -0.276444 -1.17434 0.310328 0.761818 0.589459 -0.673279 0.363409 0.507981 -0.944912 -0.92403 -0.708115 -0.275672 0.875223 -0.325772 0.363677 -1.15132 
-0.370003 -0.283708 -1.31453 0.40941 -0.464232 0.568889 0.0298074 1.81785 -0.923664 -0.31727 -0.28361 -0.299682 -0.336527 -0.537489 0.626175 -1.22659 0.0951203 0.380041 0.105516 -0.604214 0.527792 0.0759035 -0.990496 1.3649 0.32394 0.719129 0.333819 -0.0803737 1.00295 0.502697 0.206416 1.06601 -0.591109 0.262389 -0.785424 -0.349449 1.34938 -0.701689 -0.699434 0.276018 
1.1081 -1.36313 -0.783488 1.0657 -0.119311 -0.128015 -0.209988 -0.113393 0.622062 0.046045 0.188821 -0.991861 0.125485 0.0875132 -0.125495 -1.21919 0.318662 0.208142 -0.877882 0.237449 0.516953 -0.0230582 -0.960982 0.908695 -0.567631 -0.130603 -0.932823 -0.115855 -0.692286 -0.691222 -0.392417 -0.621311 0.764332 -1.06552 0.192163 0.778443 0.941895 0.172746 0.129088 -0.838048 
0.504491 -1.08143 -0.0330596 0.821293 -1.7529 -0.122134 -1.48074 0.649659 -0.102829 0.0453994 0.311832 -0.680776 -0.650008 -0.308556 0.897527 -0.328598 0.00804437 0.53757 -0.397853 0.497908 0.107648 -1.01156 0.10253 0.579939 0.114577 0.951039 -0.844189 -0.36308 0.526441 0.75339 0.97871 0.7712 0.0215727 -0.756667 -0.431613 0.374607 -0.585699 -0.879208 -0.124246 0.292334 
0.540717 0.187829 0.146821 0.495411 -0.419781 0.861078 0.221449 0.698422 -0.507417 0.116602 0.029148 0.825703 -0.645344 0.138396 -0.272413 0.145553 -0.367267 -0.723791 0.30487 0.499381 0.672481 -0.0812093 -1.07461 0.634276 0.421078 -0.760767 -0.756341 -0.796471 -0.82124 -0.0176917 0.486645 -0.322346 0.813884 0.484142 -0.285799 -0.565209 0.262933 1.02236 -0.198807 -0.592507 
0.0956193 -0.773956 -0.736566 1.2353 -1.03396 -0.157318 -0.103938 -0.659889 1.0732 -1.5188 -0.191436 0.36652 0.501271 0.421798 -0.882912 -0.369791 0.261428 0.0145516 0.0605036 0.0193243 -0.177801 -0.741809 0.301545 0.117956 -0.26761 -0.284712 -0.869072 -0.171258 -0.190353 0.672029 -0.567541 0.111486 0.110113 -1.49985 0.520467 1.05033 -0.841721 0.00137617 0.475267 0.17858 
-0.611037 -0.149264 0.0175187 -0.22244 -0.573062 0.164617 -1.00625 0.26794 1.2404 0.378223 0.131615 -0.746117 0.728839 0.814076 0.424486 0.122133 -0.442644 -0.377391 -0.786183 -0.61476 -0.509291 -0.813851 -0.964062 0.423115 1.26791 -0.680725 -0.557173 0.877094 0.51896 0.0453016 0.422687 -0.19561 -0.213101 -0.0558063 0.948796 -0.494617 -0.307205 0.549115 0.519939 -0.815339 
0.343054 -0.0337548 -0.466027 -0.662291 -0.675722 0.228162 -0.0447914 -0.749369 -0.342803 0.531747 0.652252 -0.649567 -0.174361 -0.217013 0.0233012 -0.959557 -0.106819 0.469257 0.183642 -0.626821 -0.606162 -0.493281 -0.364529 0.796972 0.746695 0.762936 0.14228 -0.391373 -1.16516 -0.361753 -0.157311 0.153889 0.241666 -0.0188581 -0.339485 -0.0632806 -0.795728 -0.562736 -0.269766 -0.098185 
0.370497 0.952499 0.512147 0.163726 -0.025507 -0.264573 -0.430371 0.568901 0.982836 -0.496861 -0.684577 -1.03235 -0.876177 0.474164 -0.747216 -0.744464 0.485861 -0.46529 0.728784 0.0764316 -0.68203 0.839347 0.30962 -0.00138558 -0.146474 -0.0112801 -1.15733 -0.579242 0.493255 0.19781 0.53063 -0.0802042 -0.607416 0.49243 0.503739 0.647904 -0.696025 0.86376 0.645913 -0.728294 
-0.0697384 0.136559 0.195607 0.223694 -1.04207 -1.22938 0.462083 0.734384 -0.933708 -1.16093 -0.00929856 0.0367747 0.711022 0.302477 0.371685 -1.10227 -0.821983 0.349834 0.467353 -1.53343 -0.859598 -0.756089 1.32921 -1.12255 -1.05298 0.599689 -1.05941 0.218665 0.449762 -0.0132416 0.422582 0.396276 -0.00330765 -0.446938 0.552235 1.3891 -0.514101 -0.830545 -1.12343 -0.239991 
0.806733 -0.444314 0.315668 0.133284 0.0432913 -2.26779 0.333532 -0.45119 0.0111504 0.429765 -0.583669 -0.347515 0.937706 0.51138 0.842597 0.309581 0.767848 -0.585639 0.735647 -0.179984 -0.591311 0.24912 1.26868 0.790771 0.354127 -0.727626 -1.24457 0.668358 0.415308 0.962908 -0.549649 -0.785503 -1.85887 0.0163881 0.151292 0.18871 0.773832 -0.45671 0.455258 0.510974 
0.142234 0.53852 -0.245806 0.00529895 -0.211529 -0.594784 0.205138 1.1912 -0.507498 0.3378 0.168652 -0.25754 -0.132482 -0.0405958 -0.535647 0.817981 -0.454089 -0.50061 -0.758422 -0.539952 0.630629 -0.305389 0.155607 -0.148802 -0.78797 -0.72804 0.378695 -0.3747 0.632082 -1.19215 -0.66607 -0.316638 -0.612884 0.211302 0.149795 -0.465705 1.30185 -1.03839 -0.690927 -0.337891 
0.683619 0.643511 0.69321 -0.315952 -0.342881 -0.936567 0.958684 -0.178115 0.518963 -0.20164 0.368196 -0.142126 0.62632 -0.127505 0.816464 0.0356729 -0.0368022 -1.10918 0.29086 -0.827635 -0.250394 0.13421 -0.366716 0.451865 0.594509 0.545483 -0.278954 -0.213709 -0.477393 -0.143726 -0.963175 -0.285477 -0.47353 -0.484119 0.912674 -0.747618 0.858331 -0.381619 0.0711741 0.162597 
-0.077688 -0.202147 -0.157214 -1.59913 0.160505 0.203111 -0.394145 0.482894 0.899317 -1.05019 0.310936 0.643857 -0.848382 0.0413788 -0.133601 -1.32234 0.0876277 -1.06215 -0.545722 1.14647 0.0346349 0.990231 -0.848419 0.567676 -1.06021 0.313854 -0.291386 1.22268 1.02766 0.108713 -0.705736 -0.17072 0.331903 -0.404196 0.318351 -0.930675 0.849712 -0.192275 0.153448 -0.528656 
0.34828 0.564624 0.48981 -1.40173 0.355647 0.0731919 0.198665 0.693463 0.0280502 -0.797623 0.0273764 0.0161225 -0.469612 0.182071 -0.715031 -1.34799 0.704957 -0.483509 -0.307123 1.0598 0.261709 0.774366 -0.644603 1.34014 -0.528013 -0.324271 -0.294742 -1.09767 -0.195364 -0.539872 0.534557 1.05642 0.880722 -0.0711261 -0.683571 -0.00245708 -0.527027 -0.644242 -0.332944 0.0143182 
-0.0471156 -1.55504 -0.649734 0.0679367 -0.259419 -0.541636 -0.136783 0.715785 -0.794292 0.0701785 0.444158 -0.314738 0.296842 0.271486 0.113206 -0.0235048 0.111852 -0.110942 -1.10702 0.695476 -0.558508 0.256488 -0.188113 0.591721 -0.232806 -0.19931 0.986687 -0.0480384 -0.509023 0.0298362 -0.0191215 0.331793 0.531884 0.14501 -0.589979 -1.41565 -0.198385 0.723499 0.465962 -0.562278 
0.768402 -0.0678047 -0.474286 -0.456488 -0.326222 0.811223 -0.867978 -0.674994 0.124726 -0.630138 0.856386 0.32591 -0.499226 -0.467165 0.530953 0.185561 -0.0825028 -0.563776 -0.207175 0.544566 0.331299 -0.323825 0.0498649 -0.107117 -0.697974 -0.878757 0.823201 -0.571545 -0.183444 0.427656 0.778587 0.948073 -0.0767566 -0.619782 -0.413535 0.452745 -0.368583 0.0653247 -0.543479 -0.267861 
0.142403 -0.837158 -1.36234 0.338853 -0.382923 -0.491972 -0.673085 -0.261893 -0.558626 0.157636 -0.286231 -1.04102 0.565078 -0.345991 -0.757078 -0.772941 0.339508 0.105825 0.774172 0.507649 0.932233 0.648322 -0.525505 1.15061 0.281626 -0.871205 0.550178 0.427698 -0.431232 -0.523507 0.572168 -0.175064 0.651149 -0.373274 -0.905972 -0.0742766 -0.777331 -0.403188 0.236693 -0.547623 
0.8066 -0.313756 0.304967 0.204903 -1.39619 -0.185344 -0.27436 -0.600877 -0.0671757 -0.721153 0.841617 0.706283 -0.164529 0.699847 0.783782 0.175027 -0.189043 -0.107795 0.079008 -0.40107 0.424773 -0.644951 -0.645893 0.130307 0.80193 -0.625117 0.0153847 -0.360972 -0.164203 -0.49964 0.275951 0.0927096 -0.712412 -0.581026 0.115566 0.359152 -0.100814 0.1686 0.274479 0.234861 
0.870712 -0.620784 0.11707 0.919386 -1.0634 0.786085 -0.556156 -0.345083 1.02769 0.339155 -0.142829 -0.0812367 -0.643504 -0.488119 -0.382001 -0.272025 0.576734 0.531573 0.415259 0.752334 -0.681116 -0.80939 -0.788339 0.424335 0.0119349 -0.462053 0.232837 0.0863223 -0.196646 -0.736137 0.0677797 -0.097585 0.110383 -1.02922 0.139571 0.694571 -0.291296 -0.272125 -0.490145 -0.408179 
0.52746 0.1836 -0.816113 -0.118914 -0.933898 -0.278357 -0.836653 0.684856 0.981877 0.81056 -0.220505 -0.81295 0.827556 0.481353 0.041602 0.575397 0.429414 0.24102 0.079904 -0.518913 -0.637333 -0.534083 0.101745 0.637131 -0.0137202 0.908065 0.512864 -1.06216 -0.706349 0.234917 -0.454494 -0.0973212 0.55384 -0.687021 -0.793821 -0.60821 0.136309 0.3982 0.392056 -0.630771 
-0.170473 0.229068 0.0995231 -0.679246 0.0489798 0.144294 -0.073055 -0.197204 0.637315 -0.652182 0.988711 -0.17084 0.180213 0.317068 0.560295 -0.937974 -0.855343 -0.464111 0.860655 0.0276764 -0.658116 0.385298 0.453956 0.158674 -0.301289 0.128291 -0.398067 -0.014277 0.452557 -0.836778 -0.611959 0.794174 0.127764 0.0192603 0.399642 0.569696 0.355499 -0.125725 -0.623691 -0.718278 
-0.0806059 -0.0149833 -0.109469 0.291336 -1.68161 0.25067 -1.07799 0.321308 0.230273 -0.257071 -0.363191 0.389874 -0.0979057 0.381896 -1.41219 -0.839148 -0.759317 -0.773372 0.76393 -1.21856 -0.993386 -0.116645 -0.10338 0.183649 0.921928 -0.828602 -0.25526 0.00369632 -0.0297313 0.19316 0.172577 -0.291477 -0.22317 0.603871 -0.216137 0.058688 -0.703714 -0.0460276 -0.077761 -0.579513 
-0.190121 0.424001 0.5399 0.122435 -1.75121 -0.389352 -0.493281 -0.857475 0.580301 -0.0358873 0.129716 0.228005 -0.491354 0.132291 1.00359 -0.417276 0.56207 -1.02618 -0.12277 0.229586 0.0606874 0.305835 0.950067 -0.218792 -0.21373 0.21094 -0.487956 0.0557774 0.9521 0.245158 0.00492785 0.0749024 0.285122 1.54146 -0.324193 0.42896 -0.435261 -0.596284 -0.279805 -0.283237 
0.855364 -0.453652 -0.351075 -0.504059 -0.663314 -0.900014 1.13481 -0.294045 0.532132 -0.617909 0.359541 0.446846 0.880924 -0.835435 -0.0884511 0.781283 0.213973 -1.02168 -1.08466 0.198558 0.0161018 -0.884768 1.03482 -0.540667 0.371242 0.02768 -0.716723 -0.175212 -0.844244 0.212256 0.341241 0.9986 -0.255778 0.373464 -0.383003 0.510565 0.251679 -0.582949 0.0408409 -0.191804 
-0.264586 -0.0757568 0.0893654 0.408187 -0.499922 -0.406491 0.47115 1.05796 0.402011 0.294684 -0.316314 -0.302861 -0.895026 0.314703 0.620265 0.799508 -1.57156 -0.235288 0.610887 0.847084 0.370393 0.172552 1.71661 0.448114 -0.912994 0.35616 -0.494132 -1.81414 -0.616298 0.922605 -0.448591 0.720371 -1.33558 1.07672 -0.0455946 -0.386954 0.506716 0.876915 -0.253072 0.322603 
0.630895 -0.568298 -0.0296001 -1.21485 -0.222027 0.0904449 -0.20835 -0.138772 -0.229084 -0.906819 0.163488 0.270431 0.196458 0.187623 -0.0272491 0.685853 -0.907679 -0.809689 -0.0502697 0.465637 0.64372 0.890146 1.29986 -0.146411 -0.52355 0.26977 0.808399 -0.713793 0.875239 -0.2465 -0.310926 -0.353617 -1.22674 -0.576302 0.971023 0.339581 0.405675 -0.571096 -0.838551 -0.606692 
-0.521547 -0.100765 -0.0197279 -0.333195 0.576804 0.663012 0.117718 0.994062 -0.834273 0.30022 0.985146 0.522322 -0.700079 0.0232138 0.425861 -1.12377 -0.471297 -0.247766 -0.118862 0.292527 -0.563993 0.33706 -0.181455 0.155182 -0.694669 -0.588245 0.198728 0.668324 -0.400431 0.157634 -1.01052 -0.00234676 -1.49319 0.220678 -0.306682 0.215538 0.512043 -0.944117 0.69022 -0.239894 
1.04626 -0.880657 0.334606 -0.471228 0.390649 -0.556413 -0.322526 0.225884 0.646726 0.635854 0.726351 0.600896 0.276874 -0.651076 0.733122 -0.873212 -0.0988586 0.323987 -0.55994 0.147555 -0.475015 0.0681047 0.902445 0.498311 0.298991 -0.429116 0.756031 0.311943 -0.818861 0.00879188 -0.53684 -0.15785 -0.114208 -0.0405551 -0.468641 -0.019534 0.0412014 -0.0228541 -0.193869 0.467127 
0.407619 -0.207415 -0.983605 0.235043 1.09792 0.31455 -0.0316867 -0.436267 0.59789 -0.14409 0.338323 -0.654248 -0.187763 -0.288788 0.340276 -1.14717 -1.08449 -0.629345 -1.07148 0.135457 0.591951 0.990901 -0.165869 0.135544 0.0806546 0.365134 0.239582 0.369077 0.345417 -0.0576927 -0.793981 0.722778 0.433873 -0.559627 0.0515499 -0.555083 -0.0501159 0.312264 -0.0464738 -0.750809 
0.187113 0.184448 0.0430262 0.710708 -0.481497 -0.0107528 -1.18458 -0.037538 0.45955 -0.177684 -0.00529188 0.287277 -0.160437 0.297138 -0.43924 -0.73576 0.0773847 -0.0144508 0.523176 0.400702 0.83479 -0.354728 -0.687247 0.0194427 -0.476311 -0.609716 0.55259 -0.365959 0.193614 -0.352151 -0.477806 0.303049 0.576193 -0.318497 0.395003 0.461273 -1.19789 0.798778 0.253171 0.201233 
0.973287 0.66974 -0.720649 0.3878 0.106945 -0.22601 -0.0460753 0.477416 -0.373013 -0.23245 0.626494 -0.0137001 0.0501221 0.503038 0.767498 0.568387 -0.831086 -0.037682 -0.56234 -0.583983 0.0262554 0.276135 -0.0249044 0.463748 0.105073 0.157656 0.417516 0.0573528 -0.322003 0.622197 -0.125059 1.27901 0.264624 -0.563546 -0.300432 0.142458 -0.680705 0.817753 -0.502181 -0.8938 
-0.145253 0.805148 -1.04282 -0.723118 -0.455429 0.557884 -0.0647818 0.653819 0.543301 0.0906089 0.848539 -0.245302 0.0659031 0.846932 -0.76619 0.609875 0.543921 -0.352742 0.670499 -0.370271 0.612213 0.969265 -0.541642 0.510312 -0.379001 -0.559801 0.647952 -0.121849 -0.288577 -0.368789 -0.71393 -0.515757 0.242814 0.260093 -0.556836 -0.857764 -0.685779 0.328927 0.225146 -1.10894 
0.373145 0.435735 0.117402 -0.488591 -0.352995 -0.796629 0.703565 -0.083206 -0.836948 -0.268291 0.639336 -0.195509 0.401704 0.903785 0.582098 -0.470159 -0.37193 -0.861935 -0.272217 -0.711144 -0.73747 -0.130899 -0.319845 0.252976 0.163814 -0.161365 0.565107 -1.03425 0.399852 0.657201 -0.991371 -0.0406557 0.444115 0.533035 0.216539 -0.507049 0.0820576 0.599131 -0.105928 0.466498 
0.0142602 -0.4222 0.323516 -0.172925 -1.22101 -0.267133 -0.451944 0.368336 0.800339 -0.45585 0.172079 0.154237 -0.551615 -0.813983 0.440592 -0.356897 0.477004 -0.285506 0.15961 1.03953 -1.13881 -0.0196385 -0.265977 -0.512829 0.373117 -0.0646891 0.193247 -0.578398 -0.113317 0.126836 0.187076 0.14742 -0.344817 1.08689 0.667049 0.978295 0.511981 -0.865116 -0.389057 0.181734 
1.21116 0.239683 0.804622 -0.43376 -0.74448 0.868655 0.225203 -0.833737 -0.0791911 -0.615806 -0.453621 -0.507195 0.127516 0.759532 -0.356043 -0.95097 0.349375 -0.101322 1.0259 -0.125276 0.58984 -0.0178518 -0.57286 0.304612 0.33317 0.291923 -0.0937691 0.163984 0.177605 -0.0105506 0.287125 -0.766541 0.51435 1.19228 0.436084 -0.196507 -0.36544 -0.652579 -0.158193 0.924429 
-0.395511 -0.90167 -1.48932 0.847101 -1.15952 -0.662929 0.812438 0.545852 0.457311 -0.861633 -0.259563 0.146813 -0.776034 0.805461 0.160031 0.883458 -0.30771 -0.489712 0.738381 -0.137596 0.426992 -0.217809 -0.280216 -1.10296 0.314595 -0.540965 -0.0412967 0.410501 -0.68284 0.213444 0.172441 -0.485309 -0.0281793 1.15103 -0.976498 0.248059 0.433661 1.01784 0.312097 0.369279 
0.185552 0.453596 0.301116 -0.00947479 -1.54296 0.0896064 1.09953 0.0877639 -0.0378134 -0.756699 0.287077 0.500979 -0.0816621 -0.359326 0.81401 0.94157 0.672755 0.555313 0.487912 0.343304 -0.137588 -0.956151 -0.268574 -0.22082 0.0626096 -0.710839 -0.919955 -1.00021 0.520832 0.0149614 -0.710784 -0.435971 0.131484 -0.209516 0.46592 0.687993 -0.727562 0.388761 0.10126 0.16117 
0.518673 -0.605276 -0.531643 -1.13218 -0.414372 0.314084 0.343106 -0.460622 0.690576 0.128443 0.167983 -0.67232 -0.843843 -0.977944 0.810042 0.395842 1.46292 -0.358215 0.482084 0.51732 -0.515965 0.841638 -0.0617888 0.543842 0.66589 -0.146647 -0.479625 -1.86301 0.82174 1.71041 -0.74342 0.875592 -0.684537 1.74327 -0.365266 0.526045 0.533157 0.143562 -0.222037 0.490628 
0.357551 1.21066 1.05984 0.66523 -0.250089 1.1927 -0.160171 0.281016 -0.56983 -0.699516 -1.13236 -0.262058 0.0252152 0.927399 0.454809 0.989971 0.998108 -0.312985 0.242559 0.743208 -0.661892 -0.943448 1.24476 0.742307 -0.0106689 -0.356243 -0.651179 -0.970153 0.47676 -0.370148 -1.03713 -0.90537 -1.28129 0.140597 0.916825 1.12176 0.929781 0.115115 0.253997 0.13991 
-0.0828787 0.118519 -0.20629 -0.331452 -0.481792 0.588868 -0.373922 0.951913 0.612294 -1.2951 -1.03617 -0.543617 0.877353 0.0058097 0.6338 -0.0917016 0.0489449 0.209408 -0.322309 0.823873 0.145631 0.234925 0.785526 -0.26914 0.0872462 0.386591 -0.238851 -1.61773 -0.427863 -0.138193 -0.037729 0.0752985 -2.27494 0.716918 -0.811106 1.37979 -0.264573 -1.18639 0.166295 -1.16003 
0.633842 -0.365463 -0.493111 -0.475264 0.218157 -0.681642 -0.072288 -0.313066 0.368777 -0.521605 0.507407 0.439163 0.741617 -0.638515 -0.939402 -0.461153 -1.09883 0.931284 -0.207551 0.821607 0.810185 0.145378 0.838022 0.720307 -0.858118 0.390193 1.26375 -0.621695 -0.67702 -0.750049 0.482707 -0.620601 -0.95975 -0.072294 0.991099 0.993474 -1.07544 -0.508371 0.520575 -0.237478 
0.837061 -0.114921 0.118542 0.607899 0.668898 0.85352 -0.571322 0.241181 0.324448 1.28841 -0.322126 -0.305293 0.360827 0.686177 -0.814259 -1.40538 -0.132451 0.171876 -0.261069 -0.403346 -0.345696 -0.833521 -0.0490385 -0.122091 -1.29096 -0.323018 0.411881 -1.13032 0.562458 -0.345297 -0.110236 -0.238561 -0.460776 -0.357718 -0.129181 1.16777 -1.01141 -0.292242 0.377417 -0.041329 
-0.350955 -0.150128 -0.756884 -0.116089 -0.0674099 -0.634572 -1.14824 0.130949 -0.216116 1.12966 1.44528 -0.478054 0.104522 -0.156496 -0.00320124 -0.904325 -0.556338 -1.11372 0.407317 -0.411106 0.112713 -0.552 -0.188488 1.41519 0.545639 -0.158763 1.94856 -0.0524943 0.737529 1.3104 -0.637132 0.0681647 0.151922 0.736591 0.513456 0.193559 -0.644034 0.964444 0.502172 0.00106203 
-0.526099 0.876584 -0.329668 0.664834 0.922168 0.859952 0.00116904 0.0257751 -0.731964 -0.504024 0.436869 -0.808294 0.744171 -0.388573 0.637304 0.350631 -0.465166 0.00632303 0.41524 -0.917493 0.411391 -0.993045 0.377281 0.913342 0.354791 -1.09228 0.778629 -1.078 -0.102546 -0.352211 -0.717642 -0.446143 -0.0915952 -1.02855 -0.639319 0.152211 -0.008524 -0.304369 0.141548 -0.265408 
-0.686631 1.02265 -0.21935 0.202962 0.539784 0.0496433 -0.539571 -0.720185 -0.861949 0.221981 0.142969 0.18552 0.297976 -0.123111 0.171137 0.133694 -0.203376 -0.271366 1.6492 0.100147 0.186286 -0.884166 -0.993019 -0.14291 0.643956 -0.797587 0.260163 -0.646336 0.500788 1.01252 -0.718492 1.25421 -0.545804 1.2715 -0.15561 0.465998 -0.241505 -0.214379 -0.506473 -0.0257501 
0.0851833 0.615028 -0.656515 -0.610497 -0.607676 0.171475 -0.263126 0.189411 -0.1508 -0.232739 -0.405808 -0.846684 0.002373 0.0977488 0.85561 -0.558026 0.440023 -0.0105471 1.13704 -1.25394 0.332017 0.789775 -0.448318 -0.065477 -0.273692 -0.975564 0.785665 -0.586697 -0.836479 0.249888 0.846052 0.756314 -0.265244 0.275525 0.328497 -0.251481 0.145553 0.217122 -0.468796 -0.650658 
-0.153433 -0.90386 0.222675 0.181915 0.851574 0.107072 -0.0598342 -1.11111 1.17221 -0.243034 0.602715 -0.163945 -0.670515 0.40219 0.736338 -0.49259 -0.068787 -0.728415 1.29103 0.23289 -0.92727 -0.513288 -0.0786306 -0.0738759 -0.0139467 -1.12324 -0.869843 0.74304 0.559006 0.498651 -0.016318 -0.223897 0.113454 0.286948 0.390741 -0.350585 -0.422701 -0.349369 0.458259 -0.430305 
0.321166 0.324998 -0.475351 0.497353 0.799228 0.152051 0.970466 0.205046 0.684483 -0.694025 -0.410798 -0.301502 0.0339808 -0.266685 -0.465488 0.527566 -0.672017 -0.160609 -0.502581 -1.32291 -0.448802 -0.707983 -0.430686 0.146545 -0.204095 0.0380909 0.620856 0.145909 -0.883916 0.0546032 -0.557777 -0.178237 0.00149474 0.764235 0.414255 0.69955 0.107682 0.527356 0.453471 -0.0963788 
-0.245911 -1.30532 -0.474852 -0.229355 -0.689556 -0.306559 -0.45227 0.16881 -0.486984 0.96041 -0.0160625 -0.528054 -0.226534 -0.347456 1.45887 0.144159 0.0225971 0.783579 0.560941 -1.01393 0.87607 0.263684 0.241382 -0.680976 -0.0733835 1.36927 0.257473 0.0296809 0.0361368 -0.673561 -0.180084 0.81504 -0.00428718 0.0886316 -0.0656139 -0.974749 0.759536 -0.373513 0.0640529 0.593075 
-1.18082 0.0456653 -0.800021 -0.455953 -0.588824 -0.284221 0.992986 -0.152422 1.00489 -0.396578 0.370758 -0.216461 0.011231 0.549666 0.114587 0.940276 -0.0145768 0.100932 0.20399 0.235558 0.173436 0.326518 -0.439549 -0.400855 0.273695 0.61862 -0.30522 0.153426 0.189268 0.26401 -0.908862 0.515419 -0.539989 -0.0521992 0.091641 0.992552 1.34427 0.465175 -0.141423 1.27909 
-0.873583 0.404127 -0.501627 0.0081147 -0.495723 1.28701 0.570462 -0.629423 -0.979113 0.432306 -0.499456 -0.666135 -0.6783 0.71763 0.571363 -0.124535 1.84594 0.484316 0.852512 0.461552 0.302322 0.634725 0.0832684 0.172894 -0.288111 -0.0504301 0.163126 -0.660804 -0.12058 0.165906 1.44526 -1.05569 -0.680082 0.306792 -0.183315 0.462255 0.131056 0.0531942 0.11909 -1.00302 
-1.83211 0.63246 0.995742 -0.0239474 0.738069 0.199589 0.608388 -0.842957 0.0132342 0.248485 0.133197 -0.280404 -0.775374 0.401179 -0.096728 0.826108 1.62159 -1.58352 0.960102 0.646888 0.93282 -0.0674479 -0.466466 0.179384 -1.11919 0.103686 -0.380581 -0.0478562 0.201771 -0.117774 0.488388 0.175333 -0.19352 1.32566 0.142241 -0.944277 -0.418691 -0.684866 1.47944 -0.603332 
-1.01161 0.249259 0.0945827 -0.683739 -0.0368214 -0.283412 -1.28206 -0.120353 -0.412063 -0.380446 -0.445746 -0.464753 -1.36134 -0.0501023 -0.502435 1.55511 0.975921 -0.624446 -0.87386 0.996644 0.0622422 0.0177114 -0.576284 0.204737 0.499475 -0.297536 -0.831366 -0.331235 0.172845 -0.367247 0.989404 -0.69069 -0.675655 1.19182 -0.382418 0.711825 -0.290018 -1.12335 -0.234056 -0.459919 
-1.01714 0.337682 -0.905025 -0.772037 -0.103315 -0.229673 -0.413687 0.233467 -0.541213 0.302776 0.365914 -1.04192 -0.441903 0.0492071 -0.695525 0.253755 1.63254 -0.81045 0.126543 0.139286 -0.56283 0.827017 0.957472 0.996229 -0.672596 -0.253751 -0.148508 -0.777741 -0.123943 0.0448258 -0.588821 0.400543 -0.458431 0.0631473 -0.410515 0.993713 0.324514 -0.0372325 -0.594415 -0.776034 
-0.512793 1.525 0.155398 -0.482512 0.37876 0.20023 -0.428255 0.963498 -0.203597 -1.11656 0.495837 -0.454542 -0.956302 -0.187089 -1.11342 0.652375 1.85017 -0.0385714 -0.411352 1.05642 0.237241 0.974448 0.311888 1.08258 -0.887507 0.0200111 -0.012479 -1.43082 0.256093 -0.539917 -1.11952 -0.569225 -0.0356522 1.1361 -0.277592 0.44894 -0.412151 -1.10105 0.809194 -0.918888 
-0.610196 0.0218266 -0.499641 1.04082 0.22543 -0.277702 0.00561297 0.463534 -0.226699 -0.204429 0.434292 0.150577 0.32593 0.189209 -0.500274 0.518819 1.72268 -0.207067 0.581615 -0.419315 -0.984279 0.406947 0.879919 1.16157 0.275562 0.0439682 -0.250302 -1.36275 0.636281 0.809491 0.408313 -0.161903 1.28498 0.795845 -0.565731 0.102132 -0.431347 0.762906 0.41422 -0.757648 
0.23391 0.359746 0.124842 -0.586168 1.60671 -0.542738 -0.615747 0.368499 0.439394 -0.252412 0.470856 0.0110391 0.869619 0.394082 -0.123025 -0.561376 0.710975 0.0875768 0.862908 -0.0683702 0.251901 0.0689797 1.09264 1.12831 -0.899757 -0.907322 0.54239 -0.435622 -0.190359 0.45733 -0.683883 -0.0439509 -0.393793 0.0490004 0.493669 0.829812 -0.425368 1.05692 0.0137975 -0.769208 
-0.401516 0.147696 -0.478197 0.580332 0.705735 -0.270996 0.287549 0.296685 0.0477107 0.368548 0.795805 0.43478 -0.497932 0.180702 -0.956251 -1.02647 -0.403932 -1.02806 0.666559 -0.519234 -1.12013 -0.833116 1.28843 -0.29061 0.428395 0.0846612 0.119816 -0.315176 0.998752 0.825575 0.794605 0.496289 0.723104 0.577172 0.631716 0.322619 0.188736 0.522147 0.758484 -0.411004 
-0.459872 0.752509 0.641388 -0.172682 1.3865 0.57661 -0.30168 0.776647 0.599412 0.0864734 0.387306 -0.0757579 -0.896519 0.217991 0.636949 -0.377116 -0.655057 -0.950429 0.248374 -0.153915 -0.492752 -0.382355 1.30322 0.322306 -0.687083 -0.346173 -0.343111 -0.349682 -0.470977 -0.0309678 0.661439 1.04595 0.418631 1.2854 0.79812 -0.69591 0.155163 1.44549 -0.391403 0.0832938 
-0.258443 1.06497 0.0527138 0.171423 0.546302 -0.803959 0.530735 0.0105028 -0.2643 -0.69633 0.470523 -0.959971 0.203129 0.751258 0.504022 -0.110644 0.397355 0.507203 0.420626 -0.0781445 -0.115657 -0.425305 0.79281 0.129152 -0.106402 0.446594 -0.427978 -0.203058 -0.654304 0.738863 -0.49174 0.929294 -0.709734 0.738707 -1.16753 1.03119 -0.352276 0.344854 0.628519 0.00993095 
-0.581544 -0.872428 -0.568456 0.63161 1.10936 0.150379 -0.691314 0.319126 -0.203326 -0.0187906 0.926296 -0.692328 -0.799881 0.538942 0.736647 -0.289007 0.44602 -0.678805 -0.7152 -0.487802 -0.0811855 0.480269 0.616983 -0.411666 0.223787 0.346213 0.0297728 0.491972 0.508529 -0.2216 -0.373151 0.512388 0.442899 0.937432 -1.08486 -0.400678 -0.226429 0.650617 0.105416 -0.579332 
-0.510851 -0.173631 -0.385369 -0.699156 0.482102 -0.208181 -0.659312 0.395009 -0.167185 0.944623 0.669503 -0.673627 0.375094 0.0949056 0.726421 -0.0227106 0.615341 0.232413 0.609053 -0.103699 0.363723 0.911036 -0.22947 0.734469 0.806905 -0.963864 0.834363 0.911467 -0.965257 -0.593484 -0.0969915 1.16174 0.347413 -0.383882 -0.318387 0.0818494 -0.369572 0.167219 -0.712216 0.42081 
-0.969434 0.297863 0.164139 0.102258 1.26445 -0.273902 -0.0940153 -0.70025 0.627239 0.528476 0.445091 1.83682 -0.164834 0.45359 -0.437495 0.577053 0.171395 -0.562745 -0.503812 -0.127107 1.43491 0.981157 -0.0211308 -0.0398522 -0.629512 -0.162651 -0.958175 -0.0186203 -0.833222 0.849969 -0.555727 0.165545 0.627362 1.0272 -0.0601512 0.628181 0.227479 -0.237297 0.544323 0.866288 
-0.172005 -0.817792 -0.718588 0.897183 -0.707593 0.330341 0.230185 -0.320901 0.928079 -0.3984 -0.488783 1.4816 -0.108775 0.137501 0.965601 0.621309 -0.203181 -0.825768 0.383336 -0.299953 0.674404 -0.930021 -0.484805 0.74522 -0.217383 -0.606299 0.114255 0.189378 -0.151506 0.841277 0.599325 -0.0249159 -0.283381 0.896802 0.0971131 0.396603 -0.0170077 0.348708 0.0106585 0.126225 
-0.643453 -0.189508 0.155381 0.59918 0.0718096 0.254076 -0.140024 -0.346804 0.464547 -0.445821 0.662825 0.779677 0.20057 -0.0195856 0.331842 0.216166 1.29067 -0.0622501 -0.553212 -0.225412 0.170045 0.242818 -0.784446 -1.08479 -0.748847 -0.397361 0.233611 0.307102 0.160977 -0.0852703 0.179349 0.436529 -0.293482 -0.039239 0.119916 -0.39886 0.676637 0.352524 -0.018382 0.210829 
-1.31157 -0.197149 -0.193087 -0.517054 1.12738 0.768746 -0.301127 0.161402 -0.3465 0.938127 0.730437 -0.778404 -0.28875 -0.481235 0.700249 1.16464 1.29782 0.108843 -0.796114 0.251071 0.981677 1.02484 -0.559853 0.18287 -0.469153 -0.108943 0.565098 0.103321 -0.498897 0.28008 0.354076 -0.357077 -1.02675 0.0844498 0.411893 -0.613283 -0.165167 -0.67014 1.47002 1.02603 
-1.66314 0.433214 0.708293 -0.0670569 -0.108283 -0.264679 0.339311 0.592641 0.0459979 0.0198438 0.618441 0.0888181 -1.04846 -0.215307 -0.288038 0.0284496 0.957785 -0.141294 -0.667938 -0.0941066 -0.162157 -0.716332 0.465798 -0.0285023 -0.550831 -0.53446 0.610826 -0.78436 0.638509 -1.34151 0.364743 -0.445636 -0.469358 -0.0367226 0.481276 -0.432182 -0.0922941 -1.16186 -0.607993 -0.124941 
-0.592145 0.33383 -0.711434 -0.144115 -0.241239 -0.034961 -0.367845 -0.321569 -0.843519 -0.988969 -0.98304 0.321489 0.650817 -0.203723 -0.961453 0.60262 1.09719 -0.191502 -1.11365 -0.791287 -0.258065 0.635258 -0.373256 -0.110332 0.780894 -0.560978 0.113179 -0.471845 0.778758 -0.931567 0.395536 0.386956 -0.374847 -0.535447 -0.788038 -1.21004 -0.385832 -0.0141378 0.83532 0.333896 
-1.08482 -0.115574 0.834006 -1.05665 -0.358983 0.127021 -0.566651 -0.193102 -0.614009 -0.47023 -0.206726 0.507966 -0.279471 -0.625203 0.128703 0.805949 0.572984 -0.283378 -0.61935 0.170649 -0.90618 -0.330762 0.389596 -0.554193 -0.701742 -0.386511 -0.786087 0.468753 -0.763296 0.0778229 -0.795347 -1.02274 1.14481 1.02259 1.02835 -0.214795 -0.0633919 -0.677937 -0.769824 0.20399 
-1.09631 1.01053 0.704351 0.382875 0.584481 -0.481748 0.819289 0.597384 -1.11295 -0.45867 -0.760029 -0.410766 -0.272625 0.677693 -0.135136 0.391538 1.09146 -0.783579 0.154113 -0.265163 -1.23899 0.227419 0.142038 -0.51588 -0.590527 0.265096 0.0760679 -0.136742 0.474246 -0.0637508 -0.634709 -1.17043 0.517731 0.218694 -0.279264 0.0154802 -1.05445 -0.0106528 0.0734545 -0.491874 
-0.334212 0.306324 -0.366548 -0.128174 -0.150179 0.222459 -0.219653 0.724007 0.224398 0.202118 -0.657559 -0.158023 -0.156488 -0.426487 0.659232 0.0488366 1.283 -0.663128 -0.443132 -0.536108 -0.974172 -0.770693 -0.212764 -0.559206 -0.0219721 0.154127 0.802505 0.0888801 0.262219 0.416259 -0.645509 -0.332925 0.48476 0.715271 -0.453109 -0.629548 0.30406 0.631729 0.709072 0.24239 
-0.812452 0.0361232 0.48523 -0.540054 0.528037 0.138112 0.596605 -0.614002 -0.0714161 0.141741 0.0411167 -0.36131 -0.292724 0.642155 0.280889 1.22474 0.893317 -0.033697 0.56748 -0.394486 0.317348 -0.679666 0.196449 0.340408 0.353515 -0.697835 0.243275 0.755957 0.746707 0.600129 -0.631291 -0.474523 0.9895 0.937446 -0.200363 0.373344 -0.396464 -0.0271444 0.990352 0.558246 
0.0765031 -0.560459 -1.5995 -0.608964 -0.197715 -0.800758 -0.0705839 -0.115497 1.02061 0.348113 -0.857442 -0.0767288 -0.595177 -0.85816 0.673868 0.26144 0.60902 0.0367401 -0.0570225 -0.414013 0.47731 -0.832885 0.320461 0.115461 -0.599312 -0.386869 0.0554746 0.845563 0.694253 0.580542 -0.073287 -0.319929 0.0996734 0.29694 -0.156752 -0.0562556 0.556166 0.209702 0.163563 -0.45928 
-0.0362188 0.947092 0.277064 0.529448 0.14609 0.91907 0.5781 0.661499 -0.208323 -0.39284 0.521085 -1.21856 -0.61281 -0.185846 -0.993546 0.879911 0.485478 -0.640862 0.395568 -0.692305 0.12016 -0.428314 -0.331381 0.334762 -0.790078 0.865515 1.00592 1.01141 0.572875 -0.184036 0.478461 -0.00200255 -0.360454 0.566466 0.0774759 -0.298653 0.00600027 0.141492 -0.6092 1.54831 
-0.774948 0.714052 -0.596143 -0.271116 -0.0610482 0.985841 -0.304131 -0.403488 1.11632 0.556636 -0.746902 0.586532 -0.594676 0.0166085 0.329019 0.109786 -0.00322154 -0.127668 1.0619 -0.35258 -0.172325 -0.2669 -0.426263 -0.27112 -0.894812 -0.548102 0.204789 0.567536 -0.725594 0.515153 0.492828 0.189259 0.273204 0.101646 0.169068 -0.230241 0.604053 0.243976 0.514651 0.149429 
0.509489 -0.345322 -0.301408 0.506498 1.15174 -0.45519 0.000903584 -0.0721838 0.963331 -0.202574 -0.431707 -0.62842 -0.552535 0.718809 0.273807 -0.77385 -0.0317458 -1.27932 -0.470984 -1.35314 0.455236 -0.257017 0.541518 -0.329991 0.426071 0.160661 -0.159489 0.205428 -0.700051 0.413712 -0.700201 0.381739 0.491809 0.890498 -0.586311 -0.158483 -0.176482 0.237754 0.111118 -0.266444 
-1.27729 -0.731999 -0.351613 0.0154409 1.09293 0.324255 0.280138 1.00035 0.950421 1.05835 0.96861 1.09772 -0.506318 -0.785702 0.972621 -0.825108 0.275215 0.571085 0.507019 -1.2255 0.642437 -0.108506 0.0660768 -0.802986 -0.0604968 -0.548746 -0.405638 0.217932 -0.0441944 0.628775 0.243945 -0.302613 0.546128 0.659228 -0.394323 -0.935566 -0.0875367 0.143673 -0.10211 0.308396 
-0.331795 0.451974 -0.206603 -0.284873 -0.195844 0.134757 0.185947 -0.519412 -0.257144 0.209583 0.638769 1.15128 -0.552294 0.28529 1.09792 0.257016 0.335253 -0.160506 -0.590052 -0.1968 1.14641 -0.971293 -0.00737655 -0.452987 0.0677981 -0.796374 0.858043 0.996333 0.569289 -0.401567 -0.459774 0.909172 0.355252 0.523943 0.280667 -0.48831 -0.211417 -0.155754 -0.066373 1.65019 
-0.547592 0.322903 0.267629 0.126394 -1.19507 0.0772232 0.774006 -0.378398 -0.195947 0.0819224 -1.37879 -0.935457 -0.648023 -0.499331 0.66719 0.153882 0.0286381 0.512471 -0.0508825 0.43798 -0.18623 -0.564566 0.72618 -0.139149 0.0834738 -0.548106 0.400707 0.137967 0.354781 0.657203 -0.148982 -0.885297 0.446602 -1.25881 -0.724945 -0.629781 0.098614 -0.12169 0.0559441 0.407966 
-0.215958 0.541726 -0.615554 -0.865022 0.374262 0.128193 0.220155 -0.168 -0.0887346 1.84758 -1.04498 -0.886084 -0.711129 0.436576 -0.988917 0.0360371 -0.656319 -0.764944 -1.2279 0.793961 0.822483 -0.922521 -1.47329 0.303238 0.234516 -0.094517 0.560898 0.148438 0.29419 -0.505369 -0.204454 -0.835926 -0.30795 1.05501 -0.0423948 -0.774222 -1.23289 -0.646661 -0.647752 1.28594 
-0.535823 0.129722 -0.513089 0.0840444 -0.75289 0.626207 0.200785 0.0117471 -0.202191 -0.2874 -0.87856 -0.371193 0.173438 -0.421231 -0.358256 0.203561 0.134149 0.454982 -0.888818 -0.383684 -0.185331 -0.85845 -0.312292 -0.316046 0.193023 -0.211476 -0.433801 0.80526 -0.445481 -0.437244 -0.531362 -0.196526 0.211502 0.354421 0.214812 0.231103 -0.708024 0.369578 0.384048 0.649012 
-0.42416 -0.892241 0.158827 -0.620619 0.331004 0.786668 0.997528 -0.916159 -0.64277 -0.428978 -0.987382 -0.000619771 0.227523 -0.678597 -0.578858 0.403503 -0.887117 -0.206333 -1.11614 0.193332 -0.0137055 0.644079 -0.459426 -0.0408149 -0.166992 -0.284615 0.447424 1.16121 -0.315446 0.600558 0.847556 -0.252812 -0.312434 -0.309197 0.787038 -0.244017 0.584028 0.624615 -0.0532426 0.255515 
-0.397604 0.171761 -0.417095 0.470274 -0.627397 0.0701398 1.05632 0.446062 0.395714 0.941737 -0.00173281 0.42549 -0.193893 1.15888 -0.462225 0.698954 0.255417 0.327931 -0.279505 -0.0228532 -0.574235 -0.896928 0.238737 -1.15398 -1.07649 0.20872 0.478392 0.874842 -0.796819 -0.262343 -0.674454 -0.0246083 -0.188223 0.316894 -0.357858 -0.0718462 -0.375677 0.436269 -0.523785 1.0751 
0.63399 0.519563 0.542446 0.70602 0.0810755 0.766705 -0.0232257 -0.744773 0.0604902 -0.190389 -1.25967 0.786365 -0.395799 0.280184 0.1624 0.19322 -0.060831 0.225876 0.00200208 -0.121462 0.0980095 -0.708991 0.511834 -0.074021 0.530485 -0.200737 0.345794 1.15143 -0.722279 0.66507 0.11865 0.16403 0.32726 0.286501 -0.264785 -0.176443 0.480346 0.0772237 0.121032 1.25054 
-0.54409 -0.388284 -0.0856858 -0.420696 -0.38845 -0.0585607 -0.110782 0.281753 -0.655653 0.043067 0.20658 -0.674782 0.403995 -0.598291 -0.739853 -0.235371 0.485637 0.170166 -0.619569 -0.0333672 0.288805 0.0220294 -0.769239 0.63871 -0.0764493 -0.751575 -0.55121 1.31941 -0.711124 0.213281 0.155237 -0.336245 -0.940266 0.236017 0.108413 0.508136 -0.600234 0.0742504 -1.02588 0.335454 
-0.388309 0.701869 0.170185 0.153613 0.399131 0.438005 0.055113 0.323784 -0.383159 -1.03853 -1.0378 -0.340959 0.368923 -0.0475084 -0.716631 -0.317488 0.546834 0.447334 -1.0123 -0.511162 0.442157 -0.144188 0.251197 -0.525817 0.566254 0.649129 1.12828 0.432785 0.774434 0.374274 0.440209 0.0301965 -0.219128 0.626859 0.473891 -0.0707753 0.288033 0.775898 0.180734 1.02546 
-0.430049 -0.571307 -0.134815 -0.72183 0.239589 -0.16321 -1.26274 -0.242469 0.0602205 0.934689 -0.14793 -0.351612 0.0276633 0.519807 0.203278 0.465028 -0.235087 1.06585 0.65348 -0.34578 0.904863 0.0513009 -0.34996 -0.739706 0.263985 -0.440773 -0.187172 0.66104 0.505306 0.981185 -0.666795 -0.827094 1.26711 -0.0610465 -0.847795 0.350867 0.0200221 0.247601 0.673758 1.01963 
-0.386964 -0.556424 -0.0966807 0.306107 0.273614 -0.469925 0.784669 -0.385684 -0.104168 -0.178736 -1.00085 -0.637926 0.0364857 -0.812796 -0.663288 -0.173258 0.823107 -0.245967 -0.32293 0.290754 0.729238 0.00882697 0.278209 0.461849 0.668322 0.31304 0.755362 0.19064 -0.549757 -0.77942 -0.608408 0.886611 0.129615 0.217656 0.751304 0.974807 -0.953285 0.701928 -0.086109 0.0393525 
-0.678891 1.30673 0.654664 -0.454638 0.14635 -0.22448 0.506606 -0.845412 0.814818 -0.0141578 -0.376827 0.058564 0.124719 0.00782696 -0.0060155 1.54293 0.162593 0.247156 -0.567876 0.0479534 0.115129 0.299429 0.446 0.521067 -0.0612775 0.648027 -0.00412551 0.136544 -0.0636583 -0.51196 0.597255 0.532251 0.161608 0.570862 -0.619786 0.24487 0.612104 0.96858 0.25713 0.721754 
0.0824168 0.0751594 -0.953676 0.557918 -0.184704 0.778507 -0.340054 -0.537692 -0.63827 0.140984 0.696533 0.140146 0.488559 -0.870218 -0.812193 0.804514 -0.46522 0.721473 -0.522527 -1.17549 -0.0972184 0.81333 -0.571468 1.03895 -0.670431 -0.468295 -0.266029 -0.323763 -0.4599 -1.02361 -0.443309 -0.240278 -0.349767 0.583535 -0.652374 0.0997839 0.57375 0.422197 0.255294 0.0154865 
-0.853473 0.51891 0.512024 0.162558 0.506219 -0.0150204 0.551047 0.0446215 0.745625 -0.716401 -0.148514 0.333418 0.619889 -0.734496 -0.560608 -0.713794 -0.662977 -1.24204 -0.710642 -0.151873 0.117946 0.322395 0.734148 0.0964019 -0.13462 -0.00357531 0.0477925 0.657856 0.687399 -0.392628 0.057616 0.423283 -0.276257 0.443069 0.536396 -0.747912 -0.957331 0.402201 0.17899 -0.155813 
-0.192973 -0.0133174 0.150101 0.0614742 0.0640432 0.580726 -0.97817 0.0526607 0.565044 -0.756864 -0.706116 0.527407 -0.687055 0.584026 0.0943798 0.865427 0.583795 0.797436 -1.27812 -1.28481 -0.395179 -0.0591772 0.347648 0.0841406 0.159492 -0.745437 0.285202 0.11065 -0.921281 0.28427 -0.476983 0.580951 -0.468938 -0.801934 -0.740948 0.854406 0.230413 0.532682 0.743576 1.39409 
0.367347 0.743046 -0.789041 0.347548 0.572357 0.229413 -0.57764 -0.241666 -0.339047 -0.0930356 -0.188362 -1.04349 -0.0293557 -0.15058 -0.21966 0.170576 -0.492277 0.217251 -0.60267 -0.936808 -0.67446 -0.40511 -0.0929478 -0.520443 1.06161 -0.784809 0.115012 0.0552195 -0.0232507 0.327795 -1.10219 0.694384 0.428167 -0.511456 -0.658928 0.544266 0.398024 0.136201 -0.111408 0.803145 
0.693695 0.165171 0.500683 -1.00206 0.87774 0.280993 1.25861 0.278614 0.708178 0.136047 -1.27624 0.0686899 0.0326215 -0.00168267 -0.264069 0.418914 -0.486315 0.430762 -1.77235 -1.23482 0.207358 0.594672 0.893705 0.22402 -0.285502 -0.560409 -0.19789 0.147631 0.563219 0.805302 -0.0198797 0.202743 -0.193149 -0.0154431 -0.268169 0.573933 -0.482538 -0.21001 0.0390515 0.662624 
-0.632088 -0.572697 0.65764 -0.461232 -0.654858 -0.352574 0.767493 -0.554685 0.0598464 0.368772 -0.346467 -1.1944 -0.946475 -1.2899 -0.174842 1.23691 -0.455525 0.779944 -1.32134 -0.285987 -0.0808958 -0.14735 0.444747 0.291432 0.0734256 0.562273 0.181836 0.80541 -0.325896 0.281635 0.35202 0.214195 -0.605503 -0.104501 0.099224 0.14321 0.228202 0.096947 0.226865 1.53918 
1.02753 0.349029 0.470042 0.492911 0.661242 -0.358483 1.08514 0.342185 -0.56377 -0.859077 -0.485099 0.0448151 -0.845348 0.91063 1.19389 0.417269 0.00412085 -0.208658 -0.897034 0.568734 0.164831 -0.147967 0.908592 -1.23832 0.37342 -0.392713 -0.0341758 1.38559 -0.988443 0.0454738 -0.667558 -0.440692 -0.0206213 -0.13442 -0.611541 0.744476 -0.345473 0.57332 -0.379485 1.21262 
0.551602 -0.184028 -0.0604299 0.526872 0.300768 -0.604721 -0.798817 0.174876 -0.57141 0.232632 -0.507261 -1.43465 -0.107799 -0.284357 1.03952 -0.329331 -0.605768 0.0390161 -0.579711 0.296413 0.640364 -0.127548 -0.593009 0.0191541 -0.226178 0.317108 -0.396999 0.523211 -0.445248 0.613243 0.515114 1.01184 -1.43831 0.0365864 -1.18505 -0.118216 -0.180637 -0.292685 0.278389 1.25006 
-0.654612 0.0772488 -0.365216 -0.347199 0.809365 0.303318 0.759241 0.212045 -0.49285 -0.00142135 -0.803944 -0.154353 -0.334682 -0.632385 -0.461652 0.320696 0.613886 -0.0504638 -0.345195 -0.647798 0.77717 -0.70988 0.562895 -0.0968932 0.31553 0.14398 0.598443 0.367237 0.742909 1.14906 0.542934 -0.091322 0.210952 0.550366 -1.49313 -0.217356 0.735708 -0.914689 0.31423 0.987858 
-0.635348 -1.07682 -0.0576929 0.447281 0.0979989 -0.989858 0.465015 -0.426192 0.479256 0.536074 -0.444229 -0.317748 -0.604347 0.850775 1.13272 -0.204735 0.269512 0.303567 -0.738752 0.960883 1.00779 0.527188 0.492003 -0.206615 -0.877523 1.01766 0.873584 0.202927 -0.154262 1.10167 0.664499 -0.231942 -0.629427 -0.975864 0.422307 0.0680835 -0.330191 0.338665 0.273129 2.02639 
-0.0317327 -0.792649 -0.100126 1.03288 0.100973 -0.411354 1.04008 -0.263058 -0.616346 0.100172 -0.82575 0.627248 -0.496609 0.494473 -0.379052 -0.468911 0.761988 -1.01327 -1.03702 0.0141691 0.39671 -0.2223 -0.506489 -0.0528368 -0.38136 0.546051 0.277002 1.17793 1.1171 0.10339 0.170381 -0.537031 0.412954 -0.492384 -0.955778 0.112469 0.645996 -0.100651 -0.501085 0.220987 
-0.597258 0.733084 -0.00173086 0.765853 0.222961 0.449114 0.119259 0.81519 0.385553 -0.119362 -0.225162 1.30206 -0.288542 0.313874 -1.03119 -0.773733 -0.176705 -0.0643373 -1.5152 -0.0832011 1.58279 0.511235 -0.325533 0.485984 0.0342238 0.353904 -0.0165978 0.502673 0.332659 1.19078 -0.192851 0.282937 -0.0976035 0.294143 0.274778 0.76367 0.635933 -0.83713 0.550819 1.01777 
0.507283 -0.766336 -0.387982 0.148055 0.671907 -0.0452444 -0.0833087 -0.121567 0.0280612 -0.143261 -1.04107 1.43258 -0.485755 1.34248 0.464533 0.708113 0.807749 0.314279 -0.364496 0.00616261 1.72554 -0.518519 -0.101867 -0.739365 -0.17798 -0.848654 1.52303 0.690585 0.245313 0.177343 0.0679092 0.223991 1.08541 -1.15967 0.12203 0.0283326 0.843441 -0.0463926 0.0563647 1.33389 
-0.631128 -0.578888 -0.461727 -0.527869 1.60587 -0.389541 0.634615 0.466491 1.12753 0.528182 -1.11916 0.115774 0.799912 0.299211 0.283644 -0.711416 0.25918 -0.386525 0.190585 0.0311661 0.841185 0.26405 0.286667 -0.0861597 0.399714 -1.3114 0.437651 0.792687 0.500524 0.658823 -0.627341 -0.219311 0.195352 -0.644924 -0.588714 1.0282 -0.502143 -0.426447 -0.1751 1.07454 
-1.2004 0.548905 0.61352 0.438575 0.486958 0.403343 0.543064 0.0350127 1.13231 -0.563819 -1.07714 -0.400349 -0.504345 0.988969 0.911753 1.05173 0.925281 -0.516367 -0.117852 -0.837961 0.206139 -0.390821 0.445539 -0.772624 0.109602 -0.223689 1.55641 0.228013 -0.510914 -0.48961 -0.398605 0.471764 0.85793 0.106929 -0.821898 -0.292498 -0.571619 -0.196054 -0.363477 0.375422 
-0.827709 0.329735 0.492989 -1.05839 0.80522 -0.617096 -0.842423 -0.43144 1.08449 0.273875 0.114862 -0.49743 -0.15939 0.768688 -1.07696 0.885017 -0.0621171 0.776921 0.0940379 -1.23273 -0.32812 0.000696802 -0.488083 0.837747 -0.576836 -0.180268 0.700952 0.490418 -0.404012 0.0980346 -0.725718 -0.214656 0.606722 0.245224 -0.747087 0.355832 0.0818828 0.736427 0.12723 -0.0658078 
-0.276841 0.0931173 0.933978 -0.516333 0.253311 -0.122213 -0.958127 -0.0489526 -0.196922 -1.06015 -1.06977 -0.0863942 -0.952151 -1.60275 0.809918 0.159046 0.767653 -0.650117 -0.255662 -1.17216 0.0580977 0.258601 1.62121 0.553892 -0.156505 -1.36559 0.799267 -0.306772 -0.658429 -0.937799 0.617693 0.875685 0.705103 -0.280258 -0.759589 1.20567 0.345694 1.73413 -0.289602 -0.10411 
