196 40
-0.956694 -0.605833 -0.690329 -0.0931323 0.219431 0.69745 0.250971 0.291468 -0.0389782 -0.582503 0.803894 -0.865693 0.24894 -0.173345 1.34314 -0.544086 -0.0521888 1.01659 -0.153365 0.344729 -0.605732 -0.40206 0.832164 -0.898281 -0.707927 -0.511763 0.232201 -0.224975 0.708521 0.771632 0.429682 0.673943 0.0802821 0.508102 0.797571 0.961719 0.597845 -0.712238 -0.166322 0.699321 
-0.312064 0.886905 0.289575 -0.470739 0.770054 -0.353316 -0.301119 0.728757 -0.509599 -0.248239 0.785369 0.631515 -0.36345 -0.0948353 -0.703469 -0.177014 -0.329987 1.22662 0.57286 -0.29433 -0.632923 0.0325571 -0.690203 0.698457 -0.708056 -0.70376 0.152386 0.186914 0.260718 -0.374959 0.408906 0.708003 1.03444 -0.333341 -0.742795 0.283066 -0.0623765 0.0933542 -1.33707 0.31613 
0.609903 -0.294057 -0.936432 0.958336 -0.0811567 0.829561 -0.569824 0.404909 1.13432 -0.857728 0.190014 -0.552519 -0.352022 0.302417 0.8673 0.489205 -0.927309 -0.273062 -0.0606309 -0.556407 -0.108411 0.0985075 -0.14509 0.475162 -0.298585 1.13694 1.29578 -0.491062 0.664212 -0.360177 -0.0110528 -0.351613 0.0382142 -0.00326059 -0.977328 0.715623 -0.323201 0.563723 -0.574217 -0.802997 
0.967324 0.403301 0.134048 -0.477216 -0.449588 -0.244548 0.142843 0.615788 -0.753927 -1.08841 0.507794 0.178681 -0.018448 0.52337 1.29986 0.376991 0.0284746 -0.209007 0.986191 0.235732 0.519397 -0.722736 0.94951 -0.779247 -0.0575557 0.081497 -0.35634 0.689132 -0.787392 -0.127179 -0.627593 -0.133096 0.60287 -0.0245579 -0.915172 0.0358706 -0.172449 -0.443039 -0.558408 0.255377 
0.396656 -0.478551 0.631128 -0.649825 0.668127 -0.51849 0.17414 -0.85754 0.845442 -0.773396 -0.657988 -0.174563 0.420222 -0.0965245 -0.00781926 -1.03102 0.307319 0.607291 0.630849 -0.588486 -0.63641 -0.274293 -0.781652 0.843168 -0.590944 1.03997 0.177051 0.659951 -0.885583 -0.395438 0.671951 -0.170672 -0.464261 -0.549353 0.364545 -0.695925 -0.760485 -0.420888 -0.114205 0.161604 
-0.700784 0.757771 0.0641839 0.165935 -0.414586 0.235686 -0.844626 0.640277 0.179917 -0.845353 -0.839043 0.00337225 0.902851 -0.486759 0.412714 -0.350027 0.281055 -0.156963 0.0923481 -0.674337 -0.391513 0.577185 0.406957 0.33864 0.436703 0.284485 0.477749 -0.31825 -0.436933 0.859611 -0.252099 0.24236 0.264541 -0.225782 0.519472 0.0359093 -0.613847 0.567829 -0.261947 -0.862095 
-0.962129 -0.74565 -0.623061 0.28858 0.822055 -0.834685 0.520667 -0.0605623 0.714047 0.285313 -0.954256 -0.365568 -0.67731 -0.966439 -0.42479 -0.41788 -0.464506 0.29308 -0.0923299 -0.526038 0.943603 -0.880034 0.963158 0.392952 0.829233 1.02493 -0.779082 -0.194175 -0.984629 0.679464 0.530457 -0.549391 0.400086 -0.652628 -0.2345 -0.29737 -0.455387 -0.546192 0.183214 -0.0963368 
0.852942 -0.327892 0.568607 0.463407 0.0860113 -0.615728 -0.0675617 -0.430272 0.0351598 -0.758959 -0.192195 0.405211 -0.322288 0.693023 0.843935 -0.166528 -0.664664 -0.398057 0.77849 0.233056 1.02872 0.299118 -0.561099 -0.220614 0.335649 -0.461228 0.225207 -0.200696 0.436873 0.488282 -0.868161 -0.95621 0.212194 0.717058 -1.05462 -0.461881 -0.796967 0.931559 -0.316552 -0.194068 
-0.472331 0.126603 0.988979 0.0393751 -0.921044 0.141053 0.454736 -0.638819 0.0197426 -0.804912 -0.764273 -0.714586 -0.457085 0.478324 -0.953546 0.606956 0.398513 -0.0254819 0.87948 -0.726425 -0.661805 -0.674594 -0.0184992 -0.559023 -0.16834 -0.213798 0.560935 0.32282 -0.691372 0.795729 -0.67897 0.52979 0.583191 0.917496 -0.650501 -0.503037 0.0668996 -0.835773 -0.0949858 -0.532785 
0.506315 -0.990211 0.32402 -0.343708 -1.0307 0.583884 -0.203267 -0.493238 0.657302 -0.813115 -1.03749 0.536496 -0.146688 -0.623049 -0.0745503 -0.717603 -0.524251 -0.934702 -0.749431 -1.01636 -0.224313 0.880458 0.658406 0.801368 -0.853936 0.641935 -0.29063 -0.169141 0.31491 0.84329 0.326721 0.812181 -0.409583 -0.917282 0.804855 -0.482799 0.362653 -0.760978 0.164544 -0.595802 
0.732438 -1.35917 0.988308 -0.169128 0.0321099 0.896852 0.819381 -0.4141 0.34307 0.66319 -0.421841 -0.856888 -0.374448 -0.710897 0.317145 0.914478 -0.0618953 0.741297 0.130404 -0.948842 -0.023432 0.397872 0.101532 0.951788 -0.31621 0.0812623 -0.0583815 -0.581436 0.217002 0.362837 0.0574453 0.816085 0.623306 -0.695696 -0.619818 0.380258 -0.822087 0.126923 -0.723777 -0.172524 
0.668689 0.0192735 0.112054 -0.273883 0.0717281 -0.537597 -0.223899 0.711574 -0.211185 0.475379 -1.26594 -0.850029 -0.393337 0.312984 -0.225196 -0.67463 0.171758 -0.783219 -0.272493 -0.737172 0.827598 0.456012 -0.275764 -0.227058 0.0912005 0.270924 0.136344 -0.63013 0.0466575 1.25244 -0.0172626 -0.321965 -0.380324 -0.722239 0.453392 -0.614649 -0.995181 -0.271946 0.154533 -0.247639 
0.843372 -0.449275 0.72428 0.3758 0.272137 -0.60387 0.154905 0.590195 0.90979 0.763643 0.133253 -0.501639 -0.13011 -0.202045 -0.7026 -0.39921 0.48845 0.101418 -0.802198 -0.832996 0.217156 -0.755764 -1.04026 -0.795675 -0.000932057 -0.48608 0.256355 0.00804352 -0.585982 0.966232 0.104263 0.41718 0.981334 -0.0991586 -0.834177 0.66311 -0.0996434 -0.171147 -0.280136 0.271346 
-0.144043 0.432409 0.0519325 1.05494 -1.03593 -0.0616962 1.00081 0.116972 -0.531176 -0.602288 -0.841777 -0.278012 0.316088 -0.581922 -0.386514 0.0418006 -0.152154 -0.375784 0.751291 -0.345187 -0.668756 -0.590307 -0.582726 0.320347 0.306363 -0.264506 0.135233 -0.22945 -0.159537 -0.450551 -0.963668 0.255473 0.252263 -0.529015 -0.474838 0.232571 0.523996 0.353665 -0.274061 -0.189663 
0.324444 0.267721 0.830696 0.704104 0.0820602 0.0149891 0.208922 -0.943533 -0.428631 -0.385763 0.844992 -0.958577 -0.619922 -0.916327 -0.285001 -0.435206 -0.47544 0.0973363 -0.687372 0.777192 -0.923325 -0.0456749 0.653847 0.609219 -0.348316 0.057947 0.436345 -0.414801 -0.475715 -0.0510898 -0.402117 -0.567215 0.201714 0.608059 -1.01231 -0.103565 -0.37041 -0.0591195 -1.21303 -1.07761 
0.744249 -0.281585 -0.329819 -0.966887 0.766919 0.840898 -0.402168 0.869776 0.697053 0.729481 0.668936 0.791486 0.83805 0.59241 -0.46101 -0.270616 -0.802625 0.327135 0.701438 -0.471688 0.62459 0.989957 -0.403118 0.536403 -0.0471236 -0.318823 1.31517 -0.442107 -0.582107 -0.2672 0.812637 -0.281261 0.0905867 0.394502 0.462388 -0.19666 -0.614961 -0.33905 -0.110943 -0.730317 
-0.721902 -0.10985 -1.02982 -0.0346485 0.229237 -0.902596 -0.839894 -0.388939 0.0708522 -0.280374 -0.371074 -0.288907 0.246716 0.98078 -0.665627 -0.497603 -0.37126 0.677008 0.5174 -0.417562 1.04153 0.133001 0.80737 0.208012 -0.369553 -0.161818 -0.405261 0.409304 -0.651947 0.025257 0.145849 0.453567 0.112904 -0.901499 -0.889774 0.770929 0.680533 -0.436853 -0.392158 0.832618 
0.53276 0.86154 0.42289 0.33291 -0.269686 0.549787 -1.3535 0.211468 0.974552 -0.00548106 0.00523455 -0.929864 -0.675682 -0.155094 -0.438115 0.934744 0.731422 1.07588 0.363097 0.668475 -0.27274 -0.597739 -0.616518 -0.936011 -0.943953 -0.0778268 0.866499 -0.0597066 -0.705696 0.959636 -0.46747 -0.616629 0.206614 -0.411044 0.203629 -0.684508 -0.0891239 -0.900477 0.0236503 -0.848615 
-0.858771 0.909009 0.493516 -0.318699 0.73341 -0.280954 0.311748 0.163989 0.190698 -0.0346428 0.214806 0.501981 -0.5446 0.686246 0.385337 0.140376 0.553427 1.20526 -0.0456989 0.768007 -0.0341477 0.055299 0.889501 -0.228012 0.525613 -0.149988 1.00034 0.235739 -0.481108 0.983035 -0.782169 0.861723 0.00411361 -0.535054 -0.376582 0.376323 -0.795262 0.7895 0.0582538 -0.745003 
0.0995317 -0.239527 0.127022 -0.122616 -0.407 0.749353 0.260916 -0.0651053 0.186207 0.218789 0.607117 -0.0877733 -0.849257 0.675453 -0.800458 0.388038 0.428698 -0.129007 -0.0648454 -0.394966 -0.535676 -0.563459 0.413646 -0.175968 0.563932 0.519311 -0.202066 -0.872274 0.214642 0.775218 0.872317 -0.166826 -0.677165 -0.384357 0.324406 -0.342849 0.295896 0.559152 -0.675459 -0.101653 
-0.483065 -0.121388 -0.914492 -0.878669 0.0764628 0.0157897 0.411134 0.374887 0.999793 0.392052 0.690106 0.338357 -0.66686 -0.336287 0.00758523 -0.188448 0.472204 0.417619 0.42392 -0.0680957 -0.607094 -0.0267284 -0.0244516 0.854789 -0.474639 0.654854 0.772144 0.351118 -0.920115 1.0673 -0.938656 0.156218 1.01347 -0.00340006 -1.01821 -0.564302 -0.970318 -0.618531 -0.620907 -0.384394 
-0.405181 0.697466 0.496365 -1.09767 -0.607833 -0.996636 -0.281366 -0.182745 0.636781 0.868832 -1.1477 -0.339052 1.01502 -0.502926 -0.582367 0.266213 0.088108 0.746599 -0.717341 0.642453 -0.34258 -1.004 0.0561758 -0.373789 0.614391 0.758916 0.362858 0.493348 -0.105667 -0.206116 0.362181 0.417807 -1.03944 0.207597 -1.08338 0.238389 -0.852039 -0.396081 -0.502685 -0.636869 
-0.87748 0.0227505 -0.549914 -1.00961 -0.119177 -1.02901 0.464661 -0.181794 0.830917 0.114778 -1.2957 -0.807677 0.427869 -0.248301 0.499732 0.604726 0.578293 0.582312 0.0125402 0.438652 -0.496186 -0.0810728 0.321867 1.23221 -0.382974 -0.679162 0.632715 0.0700728 0.831581 0.959194 0.857189 -0.811307 0.106107 -0.473486 0.699161 0.721377 0.767786 0.743262 -0.550024 -0.475585 
-0.362297 0.377055 -0.133507 0.155861 -0.559479 0.862674 0.540692 -0.618298 0.444243 -0.331354 -0.744585 0.97845 0.991971 -0.995621 -0.113233 0.216352 -0.187892 0.545151 -0.829114 -0.335506 0.996506 -0.767864 -0.0903195 -0.277565 -0.472132 0.924659 0.271863 0.467753 -0.79744 0.837124 -0.949857 0.846732 -0.747279 -0.410468 -0.631083 -0.422166 -0.754728 0.760021 0.51946 -0.283605 
-0.922417 0.74237 0.295369 0.409873 -0.340936 -0.304817 1.50036 -0.756887 0.580955 -0.0852806 -1.19626 -0.988701 -0.00388309 0.334049 0.114163 0.297704 -1.07166 0.546848 -0.139669 0.216991 0.101976 0.8706 0.580165 0.405306 0.316938 -0.0542707 0.125409 -0.405088 -0.841121 0.234709 0.649397 0.500159 -0.150315 -0.494629 0.209152 -0.323336 -0.371597 -0.96875 -0.975268 -0.592687 
-0.365307 0.669717 -0.13283 0.573811 -0.00521765 -0.69301 0.322972 -0.0858087 0.290662 0.761727 -0.624069 0.0737172 0.712487 0.553888 -0.0657414 0.621545 -1.05084 0.597738 -0.230339 -0.935616 0.287324 -0.606044 0.59004 0.940282 0.0920745 1.0623 0.296829 0.873512 -0.584222 0.833671 -0.217975 -0.839172 0.383958 0.539514 0.657073 -0.64967 0.452249 -0.0118168 0.210189 -0.348903 
-0.919592 -0.00142872 -0.747883 0.431708 -1.04566 0.19787 1.22732 0.150741 0.396651 0.37685 -0.466323 -0.778327 0.421436 0.614236 -0.234235 -1.00716 -0.663612 0.748236 -0.31575 0.659314 -0.115814 0.040077 0.0217397 0.236939 -0.837993 -0.36507 1.1259 -0.0158511 0.656936 -0.257914 -0.562278 0.0970451 0.357027 -0.426121 -1.00051 -1.07178 0.121847 -0.624869 0.0837339 0.690787 
-0.38613 0.655201 -0.161344 -0.0235381 -1.19447 0.736428 0.427609 -0.417609 0.823599 0.0256316 -0.631255 -0.600458 0.787167 -0.358874 -1.01711 -0.562385 -0.430865 0.392551 -0.753214 -0.583601 0.226605 0.874997 0.323792 0.460534 -0.304293 -0.465488 -0.391327 0.208582 -0.33377 -0.568826 -0.540843 -0.156246 0.60696 0.101523 -0.0143139 0.4183 -0.41299 -0.209816 -0.549864 0.428799 
-0.610336 0.176407 -0.284852 0.00484339 0.502585 0.594216 -0.736501 0.578392 -0.216722 -0.585511 0.813899 -0.521088 0.608879 -0.510958 0.503919 -0.393053 -0.0941848 0.468801 0.548116 -0.0875905 -0.828605 -0.492433 -0.222171 0.352109 -0.669759 0.891354 -0.607487 -0.534048 -0.0802257 0.0102452 0.733111 -0.729191 -0.581161 0.260598 -0.641287 0.734423 -0.287102 -0.841274 0.279087 0.882449 
0.127329 -0.317349 0.308605 0.593013 -0.313713 -0.317896 -0.768531 0.906282 0.5786 -0.575661 0.616828 0.0782589 0.213487 -0.282285 -0.450399 -0.74765 0.871526 0.949188 -0.625063 0.615019 -0.734671 -0.372222 0.557171 -0.309286 -0.0683989 -0.450299 1.0473 -0.624063 -0.568385 0.445845 0.790505 0.426191 -1.24313 0.381539 0.480193 -0.356825 0.0679078 0.129145 -0.0434167 -0.795182 
0.49727 -0.473048 0.603383 0.201076 0.79574 0.205857 -0.0240617 0.911186 0.47349 -1.05607 -0.436809 0.386827 -0.383858 -0.0953331 -0.267464 -0.242918 -0.176494 0.559496 -0.862922 0.421317 0.479722 0.753417 0.0406792 0.288643 -0.132125 -0.799286 -0.490884 -0.405805 -0.0196169 -0.367524 -0.914069 0.375524 0.0896059 0.714875 0.190155 -0.848075 0.498097 0.862854 -0.461665 -0.0734515 
-0.53635 0.377481 0.524544 0.274725 0.475185 0.939541 0.797848 0.94212 -0.436963 -0.624932 1.05613 0.112794 0.83984 -0.0194011 0.212709 0.332193 -0.698877 0.0206589 0.862619 -0.171385 -0.845021 -0.323345 0.417944 0.673821 0.742881 -0.430353 -0.449631 -0.105171 0.450949 -0.311949 -0.745763 -0.880785 0.286794 -0.70014 -0.89656 -0.18026 -0.391493 0.877984 -1.04879 0.0285836 
0.185814 0.449284 -0.965487 0.780814 0.529238 -0.0475115 -0.724316 -0.593619 0.880401 0.826825 0.837767 0.427601 0.718042 0.0729166 -0.122857 0.828026 -0.737504 1.15913 -0.234174 0.791456 0.405887 0.851193 -0.154101 0.738648 -0.340159 0.167384 0.664391 0.543038 0.509711 0.0427005 -0.790908 -0.80762 -0.209203 0.215872 -0.937636 -0.321807 0.00657622 -0.962535 -0.000404361 -0.691474 
0.14719 0.643525 0.783159 -0.321501 0.634152 -0.721439 0.274831 0.559958 -0.119292 0.314066 0.265604 -0.241286 -0.11759 -0.637419 -0.0535037 0.74476 0.845579 0.411045 -0.675292 0.440757 -0.39495 -0.189405 -0.564276 -0.690127 -0.872298 -0.289152 -0.36779 -0.487454 -0.962583 0.554441 -0.885198 0.0399125 1.36212 0.392561 0.269742 -0.67333 0.52081 -0.765236 -0.269087 0.610657 
0.732789 0.325189 -0.323906 -0.408106 -0.384495 0.12499 -0.935858 0.503635 -0.273951 0.394573 0.111507 -0.171284 -0.0780115 0.405539 0.159003 -0.29202 -0.293452 0.28993 -0.559467 -0.42854 -0.902544 -0.268474 0.0268237 -0.15678 0.434751 0.525736 -0.375875 -0.715808 0.585501 1.04326 0.750401 -0.666523 0.626377 -1.02641 -0.416065 0.283599 -0.725729 0.837294 -0.449042 0.452114 
0.765982 0.639526 0.80702 0.615515 0.98334 0.306669 0.207932 -0.00191632 0.15788 0.935588 -0.389805 0.248531 0.633946 -0.18343 0.543751 0.288069 0.2875 1.19274 0.289987 0.414531 -0.933869 -0.183198 -0.616762 -0.383299 0.769941 -0.302905 0.610788 0.968232 -0.536269 0.465595 0.805304 0.150436 0.90928 0.951759 0.365275 -0.329817 0.582428 -0.408833 -0.124232 -0.516655 
0.313605 0.736808 -0.166184 -0.651933 -0.722213 0.501832 0.456253 -1.02398 -0.898981 0.375716 0.468031 0.864893 0.771 0.114291 -0.335997 -0.4159 0.442455 0.462306 -0.117432 0.312619 0.253571 0.530989 0.444338 0.41903 -0.0354646 0.305401 -0.730934 -0.396931 0.622654 0.904778 0.761988 0.203028 0.809198 -0.473145 0.396339 -0.212409 -0.752804 -0.520777 -1.01858 0.467151 
-0.100029 0.542001 -0.717001 0.097429 0.593334 -0.858174 -0.519804 -0.526872 0.130174 -0.0745755 -0.824903 -0.932646 0.605364 -0.303035 -0.222383 -0.298616 -0.125117 0.366545 0.253135 -0.194907 0.684126 0.912997 0.213579 0.091769 -0.0223425 -0.148502 0.0100655 -0.251707 0.457318 -0.63718 -0.140759 -0.50914 -0.709462 -0.406135 0.183536 -0.283486 -0.69667 -0.446885 -0.119391 0.785784 
-0.0146969 0.231123 -0.775649 0.0158531 -0.234469 0.430435 0.504033 -0.942966 0.202091 0.215236 0.26309 0.861272 0.637615 -0.705471 0.200805 -0.12066 0.356005 0.0792567 -0.91327 0.966836 -0.998713 -0.00963548 -0.53047 -0.155133 0.732157 -0.0761442 0.657967 0.633248 0.0988611 0.361447 -0.858441 0.106359 1.13491 0.428222 -0.861713 -0.0260723 0.171875 0.950277 -0.267084 0.15372 
0.647193 0.555088 -0.761137 -0.484633 0.0863185 -0.580693 -0.660509 0.842589 0.481801 0.777369 0.445902 -0.164781 -0.860231 -0.404676 -0.353379 0.594119 -0.166726 -0.16358 -0.352322 -0.636355 -0.895849 -0.454128 0.370336 0.153088 -0.902286 0.00421643 0.077335 -0.597641 -0.829166 -0.920606 0.0259349 -0.0661684 -0.461388 0.199189 -0.543558 0.0855187 -0.150891 -0.89024 -0.317152 1.18724 
-0.570232 -0.321434 0.975664 0.558215 -0.558434 -0.914911 -0.00812754 0.831859 -0.740273 0.171152 0.046956 0.352885 -0.207858 -0.474689 -0.991482 -0.365521 0.812229 0.38335 0.167315 -0.532509 -0.519105 -0.526123 -0.503632 -0.73313 0.246994 0.587453 -0.83903 0.685373 -0.733794 0.468066 -0.876843 -0.684316 0.444131 -0.575355 0.41804 -1.0284 0.567924 -0.152416 0.31009 0.929047 
0.302328 -0.218631 -0.0243691 -0.285121 -0.0461713 -0.597062 -1.32262 -0.947148 -0.0342817 0.824378 0.456592 -0.785123 -1.13062 -0.397448 0.703765 -0.129185 -0.716394 -0.102154 0.26085 0.897553 0.618397 -0.0214761 -0.888734 0.0690208 -0.187584 -0.165643 0.354723 0.0805522 -0.851258 -0.0271362 -0.299107 -0.424971 0.898309 0.615158 -0.76529 -0.523516 -0.0779338 -0.814213 -0.0290167 -0.60136 
0.713624 -0.450586 0.597879 0.0848566 -0.232614 -0.71102 0.148881 -0.737551 0.172066 -0.759601 -0.149618 -0.949075 -0.306865 0.378482 0.156091 -0.450775 0.950304 -0.87375 0.461625 -0.621607 -0.754698 -0.126417 -0.155851 -0.255184 -0.646149 -1.04698 0.797539 0.230166 0.165587 0.553167 0.676791 0.223094 0.223988 -0.473887 -0.156865 -0.712334 0.183237 -0.845251 0.47973 -0.392654 
0.0104606 0.74483 0.467397 -0.712277 -0.753058 1.01412 0.678814 -0.0932487 0.840237 -1.04014 -0.415621 0.610438 0.268094 1.28616 0.544251 -0.925339 -0.951588 -0.706909 0.148063 0.797168 -0.535947 0.183028 -0.566052 -0.374281 -0.756098 0.707455 0.0728795 -1.029 -0.666082 0.228682 0.342274 0.0890906 -1.13226 0.380333 -0.00142627 -0.509348 -0.621393 0.746214 -0.22665 -0.357825 
0.140728 -0.590456 -0.87529 -0.404262 0.871682 -0.641607 0.505045 0.581567 -0.0271377 -0.701585 0.769192 -0.075973 0.479682 0.696115 -0.640372 0.394299 -1.06462 0.221271 0.271918 0.279594 0.60022 0.168142 -0.0847377 -0.471316 -0.0466139 -0.235879 -0.672072 -0.939972 0.497834 0.00454929 0.434792 0.508218 -0.458742 -0.97611 -0.255886 -0.102904 0.436775 -0.9127 1.19298 1.06231 
-0.15176 -0.681891 0.542674 0.315229 -0.446913 0.065786 -0.470327 0.0221286 0.572637 0.640524 0.0171565 0.159821 0.21941 -0.294937 -0.414395 -0.150477 0.570053 0.0607192 0.660472 -0.245514 -0.791512 -0.373563 0.876971 -0.88311 -0.677821 0.969885 0.9342 -0.694038 0.671857 -0.309374 -0.547876 0.654557 -0.711228 -0.272429 0.260534 -0.219631 0.472859 0.723318 0.675774 -0.187617 
0.336895 0.755941 -0.0705253 0.789908 0.186586 0.842736 -0.126166 0.302614 -0.423117 -0.823248 0.586289 -1.00355 -0.0161765 0.579578 0.325854 -0.611964 -0.390598 0.296558 0.0223443 0.111693 0.278595 0.0566027 0.533884 -0.148977 -0.0883219 -0.228113 -0.352435 -0.0529255 -0.518491 0.318477 -0.712558 0.363712 -0.488612 -0.063981 -1.17658 -1.21385 0.338444 -0.302059 -0.17084 -0.0030069 
-1.02359 1.00835 -0.370353 0.20949 -0.644541 0.362516 0.211478 0.646941 0.512183 0.539298 0.809953 -0.27876 0.0502493 0.49723 0.154809 -0.450438 1.05296 -0.261012 0.0558639 -0.132793 -0.34418 -0.32878 0.748303 0.0163955 -1.02328 -0.939943 1.33324 -0.341467 -0.759838 -0.49517 0.36586 0.796647 -0.0208422 -0.834149 -0.124059 0.0300289 -0.46988 -0.155216 -0.115264 -0.613831 
-0.0377942 0.119469 0.738702 0.52171 -0.287942 0.281274 -0.206531 -0.589258 0.101091 1.31348 0.173018 -0.330962 0.169722 0.373898 0.38827 -0.521686 -0.770183 0.833465 0.94978 -0.203367 -0.20281 -0.0027253 0.230584 -0.39733 0.416649 0.150244 0.191329 -0.892897 -0.0751418 1.19474 0.939374 -0.23193 0.124711 -0.0807521 -0.153381 0.0545774 0.624634 -0.425052 -0.330681 0.155303 
-0.358765 0.651281 0.0568124 0.660007 0.862599 -0.788104 -0.724239 -0.391865 -0.0773547 -0.022148 0.462436 0.207252 -0.301372 -0.742525 0.742779 0.646366 0.563541 -0.548527 0.266521 0.403576 0.815357 -0.655343 0.294485 -0.29772 0.686477 0.469383 0.398439 0.7428 -0.395583 -0.179865 -0.284198 -0.00677226 1.01997 0.13496 -0.0936333 -0.901376 0.221901 -0.22801 -0.168106 1.07822 
0.604967 -0.0821476 0.82006 0.0372023 -0.73529 0.32406 -1.50221 -0.944778 0.316832 0.411041 -0.0972036 -0.416575 -0.918207 -1.06484 0.884829 0.880529 -0.7465 0.999827 -0.680133 -0.437813 0.123033 -0.171467 -0.0623848 0.654738 -0.216221 -0.527671 0.552782 -0.0441294 0.33376 0.898927 -0.880738 -0.353722 -0.534651 0.618113 0.234582 0.896211 -0.344406 -0.518436 0.163813 0.602894 
-0.714907 1.05234 -0.215196 1.0888 -0.104281 0.553783 -1.67135 -0.110791 -0.323791 -0.895686 -0.0276776 -0.633742 -0.525446 0.0374962 -0.659548 -0.945763 -0.414624 0.0521415 -0.780547 -0.672637 -0.400147 -0.984724 -0.829437 -0.306987 -0.285745 -1.04325 -1.05407 -0.124271 -0.948233 0.323605 -0.211471 0.344687 -0.485205 -0.454695 -0.0605992 0.857346 0.164693 -0.930012 -0.636597 0.0211774 
-0.545318 -0.677071 0.534732 -0.38389 -0.94736 -0.105731 -0.895867 0.359452 -0.677135 0.561699 0.59863 0.174951 -0.220494 0.27021 -0.0948504 -0.550912 0.773759 0.238038 -0.757762 -0.212374 0.485373 -0.864085 -0.420504 0.940071 0.0220003 0.616902 -0.151772 0.33593 0.982354 0.562327 0.694526 0.731963 0.232617 -0.46244 -0.60727 -0.00249031 0.87755 0.0281538 -0.0380976 0.0396617 
-0.773962 0.656557 -0.0119598 -0.365492 -0.76196 0.0707885 -1.07188 -0.759497 0.614302 -0.68508 -0.35786 0.317041 -0.228845 0.654998 -0.100121 -0.26521 -0.036395 0.487898 0.868486 0.68127 -0.965494 0.176718 -0.110974 0.685352 -0.407668 -0.176735 -0.961611 -0.452135 -0.648372 -0.696646 -0.472539 0.69807 -0.629062 0.411317 -0.609241 -0.225766 0.14498 -0.486654 -0.0313185 0.70332 
-0.536056 0.819484 0.203814 -0.076214 0.09743 0.144432 -1.64196 0.0532799 0.576471 -0.582462 0.760829 0.873502 -0.628162 0.497237 0.236227 0.725011 -0.28293 0.924543 -0.53811 0.768653 0.277615 -0.959553 0.0263455 -0.43295 0.298915 0.0359173 0.41913 -0.376297 -0.737723 0.666373 0.330797 -0.976185 0.721431 -0.451651 0.519907 -1.09363 0.914447 -0.96091 0.283628 -0.666615 
0.292608 -0.216866 -0.452361 -0.65424 -0.162477 0.197979 -1.45987 -0.828002 0.727571 -0.15225 -0.38282 0.542278 0.111868 0.0597749 -0.505515 0.402943 -0.528118 0.380909 -0.43575 0.119795 0.842893 0.558325 -0.274974 -0.0784103 -0.941564 1.04665 -1.09921 -0.0230797 -0.826244 0.514819 0.175064 -0.916326 -0.593976 0.288197 0.57116 0.198327 0.472854 -0.693515 -0.48373 0.53289 
-0.0469712 0.660268 -0.921747 0.232552 -0.7786 0.498821 0.19873 -0.349948 -0.7209 -0.000107616 0.0944565 0.428777 0.604982 -0.9821 0.0760707 0.710985 -0.799548 -0.13461 0.0228136 -0.859651 -0.949309 -0.654955 0.498149 -0.273339 -0.543537 0.657018 -0.588604 0.30004 0.879352 -0.584188 -0.456851 0.0346465 0.382328 0.627491 -1.14007 0.0646817 -0.483855 0.0577103 0.761748 0.740689 
0.844397 0.0222754 0.0590065 0.541043 0.464354 0.642485 -0.286463 0.506749 0.968965 0.690345 -0.0283093 0.104582 -0.324237 -0.214082 -0.61362 -0.884822 0.578911 -0.357302 -0.189975 0.6713 -0.132318 -0.762741 0.208656 0.673367 -0.00929258 0.193274 0.375289 -0.716842 -0.113951 0.515688 0.731954 0.729077 0.451571 0.220775 0.502145 -1.01424 -0.618568 -0.170566 1.08617 -0.550034 
-1.01782 0.103899 -0.169381 -0.324974 -0.539272 0.122272 0.0889756 0.344772 1.1086 -0.840049 -0.70103 0.337559 0.708271 0.154963 -0.558073 -0.949156 0.0375808 -0.156365 -0.687402 -0.36012 -0.214269 0.604986 -0.257564 0.797292 -0.40992 -0.676214 -0.263986 -0.629058 -0.809363 0.137733 -0.694294 0.502482 -0.674466 -0.0464783 -0.204227 -0.87602 -0.207801 -0.424579 -0.237956 0.182868 
0.529463 -0.0520002 0.634064 -0.329229 -0.770672 -0.653402 0.0306212 0.056715 0.726917 -0.256321 0.301328 0.47641 0.284937 0.78913 -1.11535 -0.689901 -0.703535 -0.581631 -0.379597 0.40307 -0.803343 0.973894 -0.536859 -0.045219 -0.893717 -0.193116 -0.253672 -0.980736 -0.884521 -0.863385 0.549853 -0.268227 -0.480131 0.609828 -0.831648 0.222313 -0.0740067 -0.166678 -0.420538 0.0703139 
0.518521 -0.393522 -0.269663 0.202946 0.879731 -0.500198 0.708638 -0.214632 0.714455 0.766732 0.189744 -0.623208 -0.279169 0.996915 0.356707 0.299549 -0.625572 -0.000737876 -0.373685 -0.358777 -0.0506661 -0.252615 -0.502522 -0.325895 0.220319 -0.203606 -0.297966 -0.504494 -0.875962 -0.0650703 0.653942 -0.842469 0.589212 -0.35091 -0.452837 0.0689235 -0.211759 0.190578 1.23408 1.01407 
0.110706 -0.0740059 -0.0650765 0.161502 0.865639 0.414891 0.043125 -0.320444 -0.820629 0.938255 1.11454 -0.820103 -0.178516 -0.64309 0.306312 0.844062 -0.115075 0.070109 -0.36417 0.926431 -0.119301 -0.711123 -0.864872 -0.148131 -0.289151 -0.44178 -0.833601 -0.805031 0.921025 -0.614883 0.740794 -0.94101 0.277489 0.709178 0.620444 -0.493437 -0.715627 0.164934 0.335767 0.461622 
0.568318 0.773167 1.23667 1.2086 0.754951 -0.964018 0.471693 0.270543 0.74714 -0.394006 0.465741 -0.452611 -0.936087 -0.901377 0.0136807 -0.544435 -0.318024 -0.114831 -0.374424 0.821827 0.591216 0.0929194 -1.03005 -0.667919 0.00315209 0.226704 0.00169393 -0.307035 -0.247752 0.021965 -0.896388 0.464864 -0.873174 -0.136786 -0.552472 0.673841 0.716837 -0.171251 0.595763 -0.0820927 
-0.353607 -0.24465 -0.0607474 0.175522 0.179049 0.251423 -0.114615 -0.188841 -0.221952 1.26632 1.18037 -0.458149 -0.101936 -0.633892 0.275089 0.0683179 -0.376499 0.0374597 -0.613222 -0.175947 -0.29443 0.298179 0.827876 0.690598 -0.694431 -0.133356 -1.12039 0.241862 -0.863428 0.156665 0.845833 -0.316844 0.550419 -0.242438 0.00867724 0.183239 0.837907 0.172144 0.880722 0.1316 
0.538253 -1.23528 0.385788 0.416882 -0.728723 -0.911888 -0.608047 0.538675 0.164065 -0.233026 0.562218 0.184372 0.521582 -0.913225 -0.234216 0.586303 -0.957154 0.788359 -0.423552 0.165591 -0.174158 0.534094 0.442717 0.268725 0.241765 -1.12203 -1.34858 0.883339 0.0861211 -0.707841 -0.83534 -0.309829 0.474231 0.973825 0.155239 -0.121368 0.435532 -0.346029 0.565009 0.770662 
-0.27978 0.714944 1.0913 1.19341 -0.242998 0.964632 -1.06102 -0.19522 0.181943 -1.13014 0.173192 0.471678 0.844419 0.446101 -0.0594138 -1.02244 -0.128337 0.227304 -0.266123 0.634927 -0.500673 -0.882264 0.854102 0.0589515 -0.151732 0.0664205 -0.126506 0.110224 -0.932428 0.661994 -0.1769 -0.338947 0.672092 -0.476547 0.09585 0.874875 -0.295216 0.440911 0.192985 -0.686361 
0.805071 -0.596554 0.5399 0.748879 -0.853137 -0.717597 -1.22568 -1.08218 0.0687986 -0.358483 -0.788776 -0.163961 -0.380001 0.234402 0.752462 -0.296224 -0.0661924 0.226136 0.419274 0.0783036 -1.04526 0.0941572 0.552891 0.72952 0.674213 0.372305 -0.714074 0.484067 -0.294672 -0.155931 0.785861 -0.181311 -0.123665 -0.959073 0.782891 0.339355 -0.492559 0.989516 -0.698023 -0.945345 
0.581713 -0.80102 -0.12184 0.239414 -0.804606 0.62943 -1.45488 -0.0996373 -0.579308 -1.36657 -0.395334 0.0771283 -0.479308 -0.418832 -0.261424 -0.787812 -0.850988 -0.00976503 -0.702947 -0.359462 0.654606 -0.369214 0.556959 -0.19668 0.675979 0.324819 -1.08167 -0.0576879 -0.175349 -0.175906 0.930616 0.319391 -0.0562614 0.590504 -0.0998133 -0.85075 -0.988179 0.915872 0.303929 -0.820087 
0.785938 0.403057 0.860352 -0.607404 -0.236807 -0.224321 -1.45804 -0.812684 0.0739826 0.0613561 -0.574057 0.551458 -0.673209 0.613636 0.13481 -1.02477 -0.108269 -0.263131 0.81887 -0.502122 -0.404602 0.747631 0.279504 -0.673159 0.862391 -0.663769 -0.435062 0.65385 -0.894429 0.506226 -1.0087 0.423947 0.0365652 -0.00618707 -0.614659 -0.646646 0.398736 0.727078 0.185775 -1.202 
-0.171491 -0.3608 0.110957 -0.532194 0.596191 -0.354501 -0.846131 0.154614 -0.358983 0.674302 0.364154 0.398086 -0.591368 -0.420146 0.796809 -0.695502 -0.287672 0.594111 0.780118 -0.524652 0.88627 -0.623005 -0.114072 0.55502 0.411581 0.369341 -1.13205 0.493496 -0.58819 -0.327808 -0.711365 0.295957 0.089746 -1.03393 -1.10961 -0.169318 0.208408 -0.430807 1.35233 -0.180958 
-0.49239 0.249245 -0.592609 -0.0982115 0.894181 0.742077 -0.371068 0.618353 0.629769 -0.488015 -0.497559 0.173266 -0.799941 0.62902 -0.273327 0.0534348 0.249164 0.166575 0.60095 -0.35883 -0.967409 -0.700542 -1.22711 -0.627708 0.368522 0.431509 -0.113295 -0.735697 0.841068 0.423825 -0.0313096 0.54423 -0.104722 0.236457 0.586443 0.176209 -0.710861 -0.715324 0.165529 1.03631 
-0.554735 -0.692172 0.423463 0.655675 -0.199227 0.426454 -0.291978 0.155796 1.00321 -0.643035 -0.370902 -0.0780941 0.360413 0.707366 -0.64705 0.12493 0.396835 -0.630258 -0.938269 -0.234667 -0.0692683 0.136001 -0.505241 -0.342994 -0.382962 0.745667 -0.505149 -1.11149 0.102818 0.31884 0.505458 -0.772546 -0.0568752 0.847505 0.51727 -0.709384 0.34901 -0.841053 0.326933 0.562733 
0.510922 0.450643 -0.700962 -0.0992429 0.643423 -0.758825 -0.448164 0.635894 0.54155 -0.794218 -0.831896 -0.705298 0.878361 1.44395 0.205494 -0.373141 -0.658595 0.326286 0.684639 0.0742128 -0.613443 -0.0305413 0.133768 0.297889 -0.552702 0.405265 -0.27455 -0.63464 -0.819975 -0.602148 -0.670611 0.757306 0.589547 0.465336 0.583018 0.537188 -0.0862805 0.313713 0.524612 1.37053 
0.930829 0.369957 -0.448904 -0.114048 0.814969 0.264172 0.525434 -0.419528 0.753746 0.104999 -0.176458 0.596442 -0.604423 1.34004 0.558358 0.201358 0.569444 -0.0530996 -0.378996 -0.732221 0.511855 -0.963171 -1.02806 -0.392189 0.248499 -0.403579 0.135851 -0.573735 0.171605 -0.149065 -0.276154 -0.570447 0.472968 -0.637372 0.58295 -0.103574 -0.206235 -0.50159 0.334174 -0.169962 
0.585773 0.635221 -0.541117 -0.0552055 -0.230375 -0.1973 -0.853104 1.04691 0.143113 -0.6562 0.707889 -0.211052 -0.648688 0.741791 -0.319225 0.423138 -0.113053 -0.905563 -0.3043 0.90248 -0.311533 -0.74208 -1.0093 -0.574826 -1.026 -0.845252 -0.90653 -0.25656 -0.532636 -0.850554 -0.487287 -0.827647 0.0675517 -0.267648 -0.676712 -1.20204 -0.63007 -0.773354 0.355724 -0.36831 
-0.170686 -0.870291 0.116004 -0.38976 -0.358534 -0.194419 0.67278 0.949777 1.0192 0.0249366 -0.231218 -0.151495 0.542348 -0.267726 0.390153 -0.49081 0.476424 -1.00789 -0.758661 -0.801501 -1.08886 -0.878691 -1.04883 -0.284454 0.746137 0.480197 -0.547212 0.207499 -0.864873 -0.433938 -0.116566 0.118953 -0.68989 -0.851572 0.598096 -0.251207 0.55743 0.442994 0.684682 -0.324982 
0.502576 -0.47207 0.636673 0.880335 -0.506737 0.585277 0.578692 -0.275884 0.728676 0.484055 -0.560315 -0.372483 -0.891043 -0.0390759 -0.635354 -0.25062 -0.895607 -0.789093 -0.214551 0.249941 -0.399276 -0.301233 -0.282409 -0.0368099 -0.363105 0.43966 -0.801147 0.19176 0.762422 -0.881694 -0.092365 0.843591 -0.169816 0.836457 -0.370934 -0.411216 0.818013 -0.795055 0.574444 0.0222786 
-0.783828 0.701118 0.55317 0.632268 0.782236 -0.683092 -1.03585 -0.0729729 -0.384327 0.117436 0.59507 0.206931 -0.136922 -1.18678 0.634725 -0.00337621 0.41601 0.606308 0.975339 -0.112816 -1.05074 -0.811284 -1.08943 0.690587 -0.143259 -1.01265 0.318882 0.873987 -0.21251 -0.397885 -0.587054 -0.0558492 -0.720335 -0.29427 0.118536 0.587855 0.310475 -0.404775 0.762206 0.00932634 
-0.979103 0.599138 0.232674 -0.554554 0.362117 -0.269835 -0.255768 -0.922836 0.514077 0.186496 -0.249228 1.02318 -0.670874 -0.784031 -1.0511 0.302546 -0.885996 0.574697 0.262079 0.202426 0.182029 -0.91593 -0.0622887 0.110765 -0.703543 -1.19208 -0.257011 0.784002 0.030875 -0.872136 0.673013 0.751261 0.446782 0.848465 -0.584789 0.676486 0.626754 0.877658 0.665517 0.147624 
-0.393257 -0.860569 0.318858 0.135908 -0.554825 -0.0539289 -0.38795 -0.53343 1.16052 0.451518 0.86304 0.422045 0.0539209 0.425883 0.310748 -0.31476 0.45325 -0.560321 0.225349 0.810648 -0.805537 0.184805 -0.846036 0.0733577 0.348881 0.81579 0.396907 0.171043 0.202164 0.327005 -0.253665 0.180602 0.690718 -0.0769521 -0.891372 0.0678024 0.577126 -0.797105 0.700797 0.43316 
0.434703 -0.887659 0.926836 0.0447863 0.218489 -0.105258 -0.0182634 0.881482 -0.0348642 0.60173 -0.44627 -0.71556 -0.89411 -0.548176 0.500375 -0.243389 -0.0507322 0.983003 -0.707833 -0.401148 0.702396 -0.545032 0.222733 0.318259 -0.76653 0.744997 -0.689225 0.867914 0.159841 0.448879 -0.152355 -1.08102 1.16461 -0.0377461 -0.605827 -0.284662 -0.614163 -0.885113 0.149577 -1.03071 
0.884097 0.537775 0.297642 -0.393714 -0.773117 -0.776872 -0.342636 -0.453944 0.298808 -0.18739 -0.243904 0.252313 -0.81334 0.646073 -0.40942 -0.433293 0.850941 0.11411 -0.384528 -0.393165 -0.49535 -0.77114 -0.527211 -0.0869037 0.452737 0.0290041 -0.352578 -0.424977 -0.972754 -0.788504 0.752219 0.0719346 0.328259 0.511631 -0.282971 -0.624401 -0.34257 -0.0501025 -0.441952 0.115651 
-0.694648 -0.636306 0.356168 -0.629642 -0.830261 -0.694973 -0.677709 -0.527719 -0.197002 -0.59755 0.292335 -0.913658 0.866234 0.192162 0.202277 -0.198334 -0.859936 0.574786 -0.75714 -0.101909 -0.113725 -0.00904637 0.799752 -0.697845 0.31214 0.460351 0.662014 -0.271653 -0.56796 0.0575282 -0.337328 0.460033 0.595676 -0.918546 -0.443547 0.382679 -0.319932 0.295492 0.0604181 0.542653 
-0.950724 -1.207 -0.404914 0.219498 -0.750702 -0.880498 -1.3994 -0.458405 0.257642 0.0644182 -0.343896 0.562794 0.202287 0.146707 1.04268 -0.765213 0.984802 1.35108 -0.458142 -0.0673124 -0.122643 -0.98515 1.18592 -0.222139 -0.201458 -0.148742 -1.24731 -0.637234 0.597525 -0.407565 -0.921528 0.430484 0.935745 -0.249179 -1.4593 0.636404 -0.699338 0.459121 0.339121 -0.88443 
0.279767 -0.834316 0.54618 0.712992 0.620889 -0.988969 1.31479 -0.497746 0.326944 0.650058 0.276886 0.110729 0.406542 0.170594 0.0525882 -0.696986 -0.488191 0.391118 0.0995623 0.33446 -0.0826808 0.0998373 0.375064 0.783267 -0.391779 -0.760256 -0.0264647 -0.301485 0.249211 0.328753 0.684657 0.113693 0.756916 -0.83359 -0.136971 -0.380372 0.111979 -0.030165 0.72639 -0.289558 
0.00021106 0.966529 0.248218 -0.223525 -0.992457 -0.386899 0.776598 -0.312619 0.883707 0.449047 1.05324 -0.513436 0.206069 0.946623 0.221914 -0.655413 -0.69332 -0.936803 -0.716214 0.105853 -1.02337 -0.872039 0.556134 -0.601365 0.208794 0.609193 -0.626707 -0.153558 0.0298954 -0.0788751 -0.486075 -0.211576 0.476528 -0.169557 0.182371 -0.161779 -0.25834 0.891549 0.210503 0.23147 
-0.540346 -0.209074 0.363407 0.672852 -0.0464482 -0.909738 -0.680514 0.335569 0.207974 -0.398741 0.300138 0.862185 0.32674 -0.138458 -0.366657 0.283938 0.244523 -0.92553 -0.896488 0.698947 -0.998518 0.250094 -0.885916 -0.43758 0.185216 -0.885842 -0.257057 0.172735 -0.761207 -0.509597 0.698877 -0.223954 -0.438519 -0.744074 0.0472732 -0.80123 -0.775703 -0.185563 -0.100838 0.679571 
-0.934284 0.470669 -0.46546 0.405498 -0.631314 0.685465 -0.350576 0.939875 1.1445 -0.35546 0.778574 0.258361 -0.351308 0.384291 0.812943 -0.338658 0.919083 -0.0185969 -0.468344 0.102805 -0.845572 0.893114 -0.889162 -0.295504 -0.990863 -0.838706 -0.266137 1.09692 -0.0180192 0.451444 -0.540543 -0.334511 0.118362 -0.168334 -0.539417 0.114013 -0.132156 0.21004 0.977776 0.151108 
-0.911147 -0.79198 0.668507 1.09471 -0.737302 0.414885 0.869036 -0.241448 0.0973739 -0.267194 0.918446 -0.549888 0.759397 0.240112 -0.292175 -0.259549 0.0998589 0.444149 -0.356491 0.430883 0.31551 -0.898439 0.709751 0.420251 -0.167692 0.364339 -0.330986 0.0724588 -0.095949 -0.65307 -0.469213 -1.06851 -0.810129 -0.828964 0.890848 -0.154708 0.669276 -0.11045 -0.131984 0.470981 
0.21388 0.0259058 -0.881985 -0.208524 -0.231686 -0.440211 -0.141004 -0.877676 0.658771 0.594186 0.748856 -0.243984 0.910486 -0.411798 -0.0805914 0.845488 -0.736294 0.583437 0.41899 -0.731768 0.722467 -0.520373 -0.833799 0.222358 0.598359 -1.18265 0.0985977 0.897167 0.389195 -0.804757 0.0862968 0.288117 -1.09412 -0.458884 -0.312833 -0.311022 0.0166514 -0.0425811 0.993849 -0.579097 
-0.555516 0.244836 -0.839734 0.51304 -0.0835573 0.696651 -0.453785 0.681552 -0.536946 -0.0418012 -0.458768 -0.444281 -0.63827 -0.700392 0.423179 -0.575902 -0.532584 0.00961885 0.365831 -0.739581 0.090821 0.0211401 -0.581817 0.828578 0.650064 0.604403 0.187265 0.924832 0.96659 0.372905 -0.416163 0.657858 -0.837921 0.740443 -0.486621 -0.235568 0.690617 -0.467783 0.34475 0.556637 
0.605669 -0.83268 0.138796 0.956389 0.638315 -0.226611 0.276886 -0.469414 0.922309 0.348389 0.0165195 -0.794997 0.310383 0.0119557 -0.637546 -0.882366 0.412896 -0.069613 -0.876398 0.266981 -0.307357 -0.0356292 -0.680062 0.814642 -0.500046 -0.416088 -0.631232 0.629778 -0.530811 -0.708347 -0.993899 -0.89169 -0.21874 -0.937247 0.27517 0.854442 0.560698 0.287572 0.842733 -1.44727 
-0.098409 -0.817136 0.527804 0.555238 -0.898844 -0.435367 -0.995643 0.775342 0.185836 0.75575 0.333734 -0.337314 -0.573182 -0.224043 0.236319 -0.272267 0.180839 0.540325 -0.515318 0.704774 -0.360574 -0.979483 0.00614854 -0.00389847 0.0272056 0.664489 -0.447324 -0.0510676 0.608861 0.532636 0.75387 0.401305 -0.860917 -0.817723 -0.80781 0.667304 -0.702373 -0.884844 0.0360026 -0.568083 
0.619605 0.679673 -0.0190357 0.0191267 0.553529 0.877675 0.57578 0.694426 -0.582764 0.0982931 0.229427 0.925096 -0.950161 0.348363 -0.810936 0.287831 -0.366559 -0.696933 0.452531 0.768617 0.795293 -0.0446976 -0.74633 0.0954252 0.21514 -0.796439 -0.3173 -0.219016 -0.690035 -0.156476 0.578138 -1.06804 0.870192 0.965406 -0.64288 -0.604698 0.292208 0.915934 -0.244622 -1.19673 
0.35798 -0.239561 -0.747075 1.01562 -0.806632 -0.269404 0.153395 -0.707008 0.328994 -1.21847 -0.4831 0.506812 0.325564 0.395483 -1.09154 -0.302126 -0.245504 -0.0447757 0.0874612 0.184088 0.0284435 -0.738334 0.429296 -0.0856511 -0.874605 -0.23161 -0.453552 0.318561 -0.0108144 0.845587 -0.2437 -0.0907585 0.301487 -0.778984 0.531339 0.645801 -0.96613 -0.839444 0.445073 -0.281919 
-0.782451 0.164801 0.0643833 -0.0257414 -0.632844 -0.627353 -0.553934 0.225134 0.586427 0.544135 0.112646 -0.664852 0.699103 0.535689 -0.0414219 0.412416 -0.503617 -0.495488 -0.692561 -0.884596 -0.399538 -0.832976 -1.10927 -0.285689 0.753658 -0.861586 -0.266254 1.15628 0.801017 0.20796 0.378713 -0.162206 -0.148424 0.306113 0.602674 -0.915625 -0.55671 0.89365 0.671796 -0.715869 
-0.300187 0.235993 -0.352192 -0.463044 -0.543982 -0.38324 0.455942 -1.09084 -0.689791 0.409604 0.620536 -0.520019 -0.189153 -0.266207 -0.473238 -0.820182 0.0994101 0.585623 0.00160911 -1.00548 -0.439609 -0.525422 0.435163 -0.101187 0.625264 0.678214 0.148533 -0.371023 -0.867402 -0.506335 -0.509458 0.137835 0.673052 0.376845 -0.913947 -0.382963 -0.711309 0.178991 -0.458996 0.123787 
0.00987397 0.052846 0.68001 0.82616 0.637802 -0.273724 -0.161635 0.390367 0.55688 -0.429522 -0.398104 -0.576351 -0.652749 0.669839 0.340879 -0.55711 1.05612 -0.361721 0.278667 -0.24493 0.00715553 0.778553 0.42124 -0.814725 -0.642168 0.393857 -0.791401 -0.637557 0.805484 0.479347 0.484295 -0.218611 0.447718 0.881214 -0.105167 0.356633 -0.29679 0.138485 0.492195 -0.555683 
-0.0147443 -0.0412507 0.115242 0.323885 -0.278169 0.508702 0.385003 0.805781 -1.0501 -0.904096 0.540855 0.207332 0.791024 0.341253 0.478188 -0.932458 -0.551317 0.274901 0.364952 -0.884241 -0.570897 -0.743958 0.382902 -0.749938 -1.00961 0.891059 -0.841788 0.0551729 0.506163 -0.142529 0.536855 0.574276 0.442998 -0.933536 0.557998 0.938032 -0.992191 -0.88475 -1.0987 0.300005 
0.856284 -0.661672 -0.0397177 0.217974 0.198335 -0.703072 -0.0375683 -0.296055 0.121552 -0.197599 -0.332833 -0.254249 0.7587 0.828875 0.532594 -0.0212108 1.14148 -0.077407 0.609746 0.620236 -0.520068 0.279615 0.4969 0.866988 0.274371 -0.81342 -1.35337 0.519702 0.779417 0.843551 -0.249318 -0.621349 -1.06772 -0.845493 -0.0170687 0.996432 0.525701 -0.296348 0.413615 0.586186 
0.0267118 -0.245796 -0.700194 0.286436 -0.257679 0.538447 -0.389585 1.09975 -0.0995167 -0.0567673 0.0976001 -0.245973 -0.302911 0.208356 -0.623039 0.786841 0.421161 0.242422 -0.786571 -0.224263 0.733204 -0.325015 -0.360022 -0.399612 -0.479924 -0.99575 0.208827 -0.577619 0.825873 -0.850347 -0.263455 -0.459134 -0.629778 -0.298962 -0.449401 0.271789 0.731455 -0.938094 -0.479761 0.0872975 
0.774935 -0.505492 0.546847 0.383838 -0.550666 0.115265 0.335282 -0.691726 1.14445 0.36855 0.777518 -0.277361 0.572183 0.20696 0.734386 0.384467 0.287982 -0.670739 0.670695 -0.406613 -0.2395 0.0347606 -0.678528 0.454376 0.837131 0.347322 -0.304727 -0.825686 -0.53013 0.0043602 -0.451595 -0.830338 -0.67331 -0.723708 0.552772 -0.618669 0.11308 -0.37344 0.466122 0.63351 
0.0219866 -0.86409 -0.334428 -0.709758 -0.64551 0.346308 -0.363507 0.105127 0.909111 -0.711571 0.598677 0.628638 -0.808218 0.292084 -0.137962 -0.86568 -0.402649 -0.996314 -0.208715 1.26808 -0.13624 0.880656 -0.808014 0.64376 -1.06457 -0.181176 -0.217486 0.799732 0.955656 0.172814 -0.312598 -0.889168 0.107524 -0.71119 0.189661 -0.509701 0.426755 -0.16235 0.652227 0.214354 
0.221245 0.64441 0.818162 -0.799925 -0.874426 -0.971169 0.0402617 0.73203 -0.151302 -0.607543 -0.207528 0.201779 -0.593152 0.261266 -0.882332 -0.889764 0.105093 -0.574465 -0.23719 0.743242 0.0759044 0.674844 -0.75471 1.10084 -0.417873 -0.78404 -0.380373 -0.855274 -0.311133 -0.502953 0.493553 0.553476 0.505521 -0.00599676 -0.426427 1.00961 -0.92567 -0.54626 0.106601 0.431751 
-0.967314 -0.884978 -0.392764 0.510569 -0.866417 -0.853672 -0.0934486 0.880493 -0.666862 0.00260501 0.0938011 -0.300412 -0.176125 0.0166311 -0.423594 0.402003 0.0477717 -0.180437 -0.907602 0.584518 -0.920121 0.185696 -0.287161 0.107761 -0.192444 -0.430403 0.870357 0.622659 -0.495527 -0.348934 -0.351276 -0.163289 0.0599164 -0.0257868 -0.358861 -0.641439 -0.509779 0.759659 0.785038 -0.598625 
-0.348372 0.50672 0.042118 -0.349307 -0.640319 0.632447 -0.947052 -0.39051 0.208906 -0.415579 0.435656 0.514592 -0.398328 -0.708761 0.158007 0.322603 0.0278828 -0.747387 0.293386 0.294683 -0.294533 -0.334547 -0.146375 -0.504211 -0.71973 -0.790828 0.566339 -0.274738 -0.165088 -0.124173 0.42987 0.46507 -1.09727 -0.819504 -0.0489771 1.0075 -0.380659 -0.257114 -0.565967 -1.30269 
-0.568458 -0.630535 -0.923187 0.198893 -0.356337 -1.03763 -0.779841 -0.237136 -0.23109 0.946347 -0.658299 -0.981319 0.693234 -0.48915 -1.20748 -0.920926 0.109155 0.224719 1.01434 0.0785804 0.66428 0.656634 -0.352743 0.636126 -0.025733 -0.920526 0.220703 0.928004 -0.625708 -0.971431 0.440392 -1.00124 -0.116965 -0.214457 -0.515924 0.848078 -0.6752 -0.715235 0.169917 -1.31248 
0.686228 0.0266178 0.603868 0.192206 -0.967512 -0.917568 -0.335111 -1.01229 -0.0574527 -0.490067 0.453027 0.955538 -0.594536 0.541725 0.506574 0.265617 -0.390089 0.153162 0.293069 -0.798017 0.311626 -0.630672 -0.253029 0.181268 0.504045 -0.759757 0.0429827 0.249882 -0.294761 -0.533683 0.492062 -0.50703 -0.438246 -0.63475 0.726705 0.653858 0.119146 0.00568509 0.427413 0.00601072 
0.936774 -0.485986 0.418683 1.01989 -0.96044 0.713253 -0.889608 -0.635119 0.533866 0.503216 -0.457118 0.262887 -0.928543 -0.641218 -0.161658 0.114335 0.38195 0.893136 0.50121 0.508866 -0.611685 -0.822751 -0.670759 0.207207 -0.420658 -0.55064 0.136535 0.526802 -0.0914889 -0.656562 0.286581 -0.277585 0.52272 -1.02047 0.422779 0.315429 -0.465182 -0.565221 -0.219341 -0.240596 
0.157388 -0.0731046 -0.721237 0.0499306 -0.401752 -0.555785 -0.789687 0.760023 0.663442 0.563911 -0.598284 -0.377614 0.566974 0.41726 0.451298 1.16186 0.143182 0.379022 -0.292959 -0.63125 -0.273098 -0.5726 -0.0950756 0.541799 -0.419087 0.753668 0.461036 -0.642238 -0.372802 0.248277 -0.56578 -0.175209 1.1028 -0.927417 -0.950741 -0.752631 -0.395025 0.770209 0.718744 -0.225008 
-0.729275 0.350613 0.449765 -0.412672 0.58301 -0.628707 0.303074 -0.211227 0.318452 -0.941793 0.974374 0.101178 0.401156 0.575711 0.331742 -0.748322 -0.675624 -0.122829 0.470226 -0.0624181 -0.595643 0.357055 0.754308 0.0664789 -0.614181 -0.291747 -0.874887 0.0433051 0.86657 -0.804251 -0.909049 0.647251 0.707414 0.334768 0.535727 0.600394 0.143871 0.184514 -0.77582 -0.582673 
-0.489803 -0.508966 0.669601 0.978244 -0.558653 -0.235346 -0.659977 0.258857 -0.361687 0.110666 -0.117901 0.691336 0.746706 0.893731 -0.630434 -0.792969 -0.309105 -0.256089 0.0164146 -1.25284 -0.592739 -0.146509 -0.471042 -0.419163 0.486518 -0.966861 -0.154617 -0.350955 0.244546 0.335929 0.0460291 -0.583356 0.307034 0.633117 0.10843 -0.374119 -0.840345 -0.92922 -0.345998 -0.133331 
-0.354659 0.0929901 0.621162 0.381881 -1.01722 0.48458 -0.567204 -0.657031 0.348369 0.340744 0.622837 0.410111 -0.437563 0.126516 1.22732 -0.402099 0.756124 -1.0743 -0.0289873 0.480552 0.662839 0.331109 0.0397056 0.240042 -0.576178 0.309171 -0.0154717 0.0235094 0.999981 0.0850762 0.0169159 0.280154 0.473997 0.764762 -0.164663 -0.455413 -0.607632 -0.781847 -0.0238331 0.365875 
0.778548 -0.993058 -0.466855 -0.211712 -0.576112 -0.901797 1.20769 -0.134322 0.162028 -1.1643 0.922024 0.505709 0.758363 -0.35536 -0.120854 0.280037 0.877336 0.19714 -1.07414 0.272046 0.369492 -0.866556 0.267126 -0.867418 0.269868 -0.326823 -0.757554 0.30039 -0.70032 -0.393392 0.548842 0.835831 0.574145 -0.804248 -0.256504 0.589215 0.378265 -0.774234 0.510583 -0.0136836 
-0.512664 -0.840931 -0.394122 0.728996 -0.476773 -0.864771 0.330979 0.830216 0.450463 0.263994 -0.0759876 -0.485475 -0.465562 0.81959 0.527287 0.758283 -0.374106 0.731253 0.754044 1.08656 0.718491 0.118369 0.91895 0.223934 -0.497499 0.132076 -0.540337 -1.29412 -0.661918 0.893894 0.0488679 0.51519 -0.996595 0.728745 0.142008 -0.578847 0.355894 0.937521 0.0682728 0.205056 
0.360523 -1.19584 -0.357161 -0.623172 -0.214908 0.360734 -0.47201 -0.592455 0.12821 -0.457371 0.318949 -0.11718 0.693262 0.27672 -0.0335996 1.0023 -0.539554 -0.789528 0.646148 0.719016 0.751004 0.774507 0.861307 -0.515209 0.0676676 -0.115519 0.971385 -1.02952 0.624919 0.190686 0.3483 -0.0765722 -0.290627 -0.637738 1.33504 0.202065 -0.0324205 -0.0580943 -0.541554 -0.640151 
-0.777123 -0.146511 -0.130554 0.484122 -0.0742437 0.747469 -0.023945 0.726317 -0.555386 0.182256 0.903355 0.360377 -0.595234 -0.481965 0.579569 -0.619713 -0.453469 -0.316767 0.641517 -0.320029 -0.855009 0.207794 -0.401649 -0.416885 -0.110157 -0.815963 -0.267564 0.131685 -0.681123 0.533339 -0.722865 0.355727 -0.451547 0.229558 -0.050152 0.461414 0.482951 -0.0607713 0.98194 -0.143559 
0.437447 -0.340118 0.507931 0.134213 -0.156493 -0.863675 -0.531519 0.42824 0.767526 0.350305 0.765593 0.584553 -0.0664449 -1.27318 0.503721 -0.3574 0.133997 0.679834 0.0403879 -0.419348 -0.653008 -0.0392518 0.599459 -0.144713 0.638325 -0.499249 0.317562 -0.297597 -0.902089 -0.0205368 -0.707958 -0.0989653 -0.216887 -0.371802 0.115524 0.883827 0.413011 0.806248 -0.197961 -0.0553112 
-0.886241 0.455377 -1.05854 0.410131 1.07979 0.730058 0.316203 -0.159269 0.44839 -0.0891829 0.0562175 -0.89367 -0.422945 -0.746855 -0.0286694 -0.847273 -0.924801 -0.0372716 -0.662267 0.174831 0.536562 0.928498 -0.176248 -0.671807 0.178708 0.551896 -0.0813937 0.898434 0.425329 -0.487431 -0.909119 0.384045 -0.214634 -0.893683 0.525729 0.0719208 0.403924 0.134399 -0.0296579 -1.28681 
-0.790792 0.215672 0.277478 0.786128 -0.400068 -0.0902924 -0.75123 0.229183 0.34739 0.52689 -0.245943 0.591911 -0.0108365 -0.0716282 -0.653137 -0.554699 -0.0733776 0.319164 0.842856 0.303787 0.934315 -0.385775 -0.544925 -0.751663 -0.889206 -0.206169 0.446257 -0.176 0.043199 -0.364774 -0.576443 -0.527935 -0.414723 0.0367453 0.935508 0.460603 -1.00638 0.190505 0.570192 -0.360324 
0.280514 0.515458 -0.622275 0.761831 0.307415 -0.526327 0.383634 0.496746 -0.269411 0.776388 0.654855 0.0615055 -0.349595 -0.331143 0.461969 0.612723 -0.934555 0.370602 -0.741054 -0.797237 0.254327 0.242781 0.443445 -0.194155 -0.608667 0.294831 0.159723 0.457464 -0.78636 0.198315 -0.116033 0.590685 -0.33813 -0.246395 0.387674 0.700966 -0.388826 0.704483 -0.259135 -0.875951 
-0.453151 0.693298 -0.919727 -0.150151 -0.279433 0.533881 0.167727 0.162538 0.611153 0.60125 0.798674 -0.261205 -0.437689 0.294574 -0.832092 0.950593 0.425855 -0.243154 0.464822 -0.512353 0.634776 0.962223 -0.51637 -0.0146386 -0.746148 -0.0156862 0.364383 0.257302 -0.608822 -0.710475 -0.675726 -1.08669 0.611249 -0.413151 0.486664 -0.72523 -0.145287 0.244789 0.220228 -0.827884 
-0.0343253 0.0091498 0.445784 -0.322399 -0.380946 -0.420002 0.748078 -0.437461 -0.690055 0.0031385 0.0840887 0.0487433 0.137971 1.02334 0.623261 -0.137246 -0.721977 -0.74875 -0.609326 -0.805194 -0.753236 -0.125024 -0.40435 -0.422252 0.0344743 0.323227 0.226974 -1.06257 0.426061 0.579975 -1.0428 -0.383106 0.51441 -0.235192 0.902138 -0.893688 -0.0552236 0.242396 -0.018562 0.582827 
-0.42537 -0.800993 0.193706 -0.261869 -0.852612 0.290292 -0.661527 0.350478 0.910761 -0.710372 -0.671568 0.751879 -0.631172 -0.645314 0.589297 0.163476 0.148365 -0.297191 -0.324574 0.762782 -0.913079 -0.0655324 -0.528586 -0.846052 0.538108 0.107343 -0.417093 -0.00437147 -0.0780726 0.401768 0.0324329 -0.083079 -0.274404 0.6938 0.826822 0.739068 0.0841941 -0.990186 -0.42507 0.345303 
0.729731 0.513566 1.02522 -0.303813 -0.280179 0.861209 0.394564 -0.712866 -0.378489 -0.841665 -0.900976 -0.194407 0.156984 0.6333 -0.595837 -0.778003 0.560698 0.330915 0.54931 -0.301255 0.430534 -0.0929677 -0.678866 0.436131 0.584655 -0.0388042 -0.710205 0.658631 0.331034 0.269696 0.109367 -0.908716 0.770886 0.912473 0.888302 0.0502712 -0.785331 -0.802402 -0.307469 0.648195 
-0.667824 -0.88649 -0.422828 0.976195 0.0650635 -0.925371 1.00324 0.561973 -0.311729 -0.384244 -0.146511 0.146915 -0.421852 0.638317 0.71965 1.02388 0.0123912 0.130686 -0.0359456 -0.0750599 0.210748 -0.287462 -0.992651 -0.810461 0.551683 -0.453109 -0.151791 0.6886 -0.4584 0.259977 0.0590182 -0.880624 0.156818 0.506218 -0.390733 0.0607799 -0.237113 0.514296 0.166818 0.178987 
0.36544 0.320592 0.688376 0.302176 -0.828183 -0.550425 0.821211 0.477716 -0.508612 -0.518124 0.167616 0.676292 0.0501153 -0.234856 1.07601 0.95275 0.309345 0.631476 0.49352 0.196561 0.531143 -0.903104 -0.582603 0.250592 -0.309409 -0.788698 -0.620897 -0.917868 0.395944 -0.197142 -0.967695 -0.155036 -0.0306222 -0.766407 0.748861 -0.20842 -0.649681 -0.28348 0.247537 0.437439 
0.721794 -1.01436 -0.530619 -1.29096 -0.208821 -0.982404 0.623541 -0.173913 -0.0864646 -0.316837 0.264648 -0.748809 -0.999327 -0.576152 0.494171 -0.281256 1.06969 1.11331 0.52487 0.250633 -0.465292 0.862468 0.353914 0.267438 0.910979 -0.956626 -0.445625 -1.32267 0.684574 0.87986 -0.882787 0.783762 -0.502842 0.918832 0.269551 0.554114 0.583833 -0.0665149 0.133652 0.614937 
0.191263 0.534159 0.460542 0.474683 0.205057 0.753355 0.118317 0.0227852 -1.03078 -0.757668 -0.988813 -0.385957 0.195444 1.08027 0.486371 0.931782 0.908926 0.413773 0.396107 0.810691 -0.34412 -0.999372 1.1338 1.10365 0.217074 -0.989902 -0.121632 -0.135156 0.170157 -0.398877 -0.888657 -1.00313 -1.07836 -0.0141671 1.26842 0.512668 0.355641 0.268935 0.871638 0.74462 
-0.475997 -0.5331 -0.526656 -0.0444904 -0.0192232 0.762815 -0.241942 0.497002 0.742132 -1.20972 -1.07632 -0.537985 0.973829 -0.182596 1.4434 0.206227 0.0830554 0.104436 -0.167684 0.542578 0.277718 0.136419 0.0790604 -0.195015 0.703864 0.143861 -0.0109956 -1.64695 -0.732867 -0.0377407 0.324319 0.539477 -0.982197 0.179591 -0.618213 0.815905 -0.654458 -0.521903 0.829613 -0.82265 
0.50902 -0.932918 -0.592792 0.162064 0.350258 -0.958903 -0.221737 -0.952021 0.71845 -0.747406 0.251116 0.471155 0.981858 -0.853399 -0.204971 0.0278136 -0.719331 0.68412 0.0956009 0.0124843 0.668448 0.0596527 -0.127014 0.381217 -0.336212 0.850442 1.05012 -0.701087 -0.843202 -0.839788 0.711501 -0.250707 0.0532911 -0.492841 1.02548 -0.0111805 -0.942427 0.120504 0.794303 -0.392276 
0.560683 -0.0245231 0.0673289 0.760336 1.07773 0.484167 -0.648155 -0.154303 0.418357 0.748687 -0.678214 -0.600781 0.367101 0.507632 -0.785594 -0.869593 0.665651 0.0851823 0.191939 -0.688348 -0.432687 -0.878631 -0.365736 -0.648868 -0.813283 0.206304 0.123951 -1.49093 0.74044 -0.646965 0.0222649 -0.438998 -0.735388 -0.391214 0.0311111 0.789096 -0.477806 0.164911 0.541311 -0.325798 
-0.73732 0.0491557 -1.09939 -0.172295 -0.565025 -0.185316 -0.356145 -0.0235395 0.00619222 0.6102 1.06729 -0.980719 -0.0635071 -0.238962 -0.163977 -0.585794 -0.292283 -0.535278 0.669784 -0.166155 -0.114051 -0.552969 0.0485349 0.692167 0.894089 0.227348 1.06649 0.224283 0.943185 0.794999 -0.49294 -0.373119 -0.085767 0.900224 0.753329 0.0818618 0.20242 0.621063 0.979621 -0.194884 
-0.734196 0.431232 -0.297778 1.10401 0.0333534 0.395453 0.645169 0.177857 -0.435198 -0.859428 0.395617 -0.688313 0.491296 -0.544832 0.535789 0.902058 -0.32759 0.58692 0.203997 -0.765186 0.500917 -0.972641 0.570947 0.54881 0.561043 -0.827984 0.330043 -1.20953 -0.218845 -0.684113 -0.690897 -1.01996 -0.241577 -0.552511 -0.205408 0.070742 0.564743 -0.99596 0.808698 -0.602081 
-0.662101 0.672848 -0.479066 1.01331 0.0745321 0.368172 -0.383175 -0.771352 -0.672974 0.0737838 0.0382438 0.264004 -0.33865 -0.725078 -0.279162 0.724142 0.309973 0.3391 1.01525 0.323379 0.663414 -0.87723 -0.750808 -0.952385 0.79444 -0.513652 -0.191209 -0.672085 0.157905 0.34275 -0.894363 0.692066 -0.462267 0.954951 0.329485 0.828343 -0.12665 -0.510232 -0.08653 0.28139 
0.255904 0.237637 -0.684691 -0.0586519 -0.772671 0.745794 -0.0206825 0.20368 -0.463769 -0.136923 -0.434495 -0.997916 -0.29349 -0.173764 0.364689 -0.572005 0.683442 0.538863 0.495322 -0.722199 0.619126 0.789406 -0.878996 -0.956788 -0.515204 -0.633006 0.200647 -0.347296 -0.852691 -0.238738 0.77286 0.230744 0.139501 -0.964311 1.12735 -0.435865 0.174633 -0.14573 -0.423436 -0.305654 
-0.55261 -0.953526 0.567296 0.130307 0.733712 0.501008 0.375556 -1.10264 1.08285 -0.214852 0.188662 -0.0995823 -0.889944 0.344845 0.0180072 -0.672001 -0.0938917 -0.766091 0.695574 0.672332 -0.665669 -0.526926 0.0119784 -0.976304 -0.232812 -0.789713 -0.872065 0.813458 0.710191 0.643445 -0.212134 -0.431943 -0.125414 -0.708886 0.89063 -0.268664 -0.703333 -0.768441 0.508616 -0.163677 
0.148767 0.719823 -0.795354 0.574821 0.736953 -0.159647 1.06829 0.374554 0.71346 -0.946921 -0.810713 -0.142216 0.414231 -0.163889 -0.973404 0.69016 -0.719517 -0.452835 -0.838746 -1.14374 -0.351304 -0.787079 -0.760723 -0.45191 -0.675053 -0.0065378 0.461954 -0.315922 -0.898313 0.520551 -0.791907 -0.597572 -0.651101 0.317457 0.893555 0.432388 0.474094 0.57352 0.568802 -0.21738 
-0.313235 -0.765067 -0.745009 -0.219654 -0.868753 -0.587034 -0.444872 0.43312 -0.829895 0.736295 0.0362917 -0.855576 0.387204 -0.261848 0.984904 0.245419 0.0827459 0.685029 0.480388 -0.844647 0.488725 0.168463 -0.17378 -1.09867 -0.116121 0.984116 0.0633622 0.167795 0.0789869 -0.333457 -0.137688 0.559934 -0.485099 -0.560353 0.652569 -1.03703 0.996922 -0.138252 -0.00393308 0.0156244 
-0.956519 0.482244 -0.160817 -0.785558 0.0687962 -0.03403 0.796556 -0.204622 0.111555 -0.32741 0.448801 -0.892522 0.68538 0.114469 -0.0222105 1.11705 0.243635 0.214438 -0.0827806 0.350019 -0.494114 0.268189 -1.1288 -0.106154 0.756798 0.973251 -0.52826 0.480825 0.244854 0.284199 -0.944628 0.481467 -0.959133 -0.699623 0.625022 0.550209 0.491159 0.377644 -0.117967 0.580112 
-0.090215 0.798322 -0.12991 0.31358 0.243398 0.314565 0.0527873 -0.219136 -1.55288 0.343538 -0.880081 -0.622247 -0.367468 0.858262 0.696998 -0.150945 0.81466 0.659788 0.859752 0.354953 0.824491 0.691591 0.0852803 0.432113 -0.522809 -0.042836 0.355921 -0.689316 -0.34733 -0.205309 0.948787 -1.01948 -0.838226 -0.0242036 0.171959 0.170027 0.494188 -0.608667 -0.273537 -0.963948 
-0.841991 0.809575 0.727664 -0.457214 0.658109 -0.366097 0.693094 -0.481321 -1.2649 -0.199488 -0.256758 -0.283096 -0.541871 0.553984 -0.380925 0.139623 -0.0989553 -0.0539298 0.789508 0.111913 0.565507 -0.0732661 0.753782 -0.0024523 -0.860833 -0.468731 -0.326642 0.230061 -0.0690968 -0.831899 0.139421 0.197309 -0.0388027 0.483232 0.886167 -0.299359 -0.275197 -0.697584 1.54873 -0.607646 
-0.444036 -0.163202 -0.641926 -0.978433 -0.141082 -0.252848 -0.924111 -0.241842 -1.31165 -0.19475 -0.491737 -0.346951 -0.941038 -0.614226 -0.169613 0.984105 -0.802558 0.189374 -0.993035 0.386649 0.125191 -0.0378319 -0.0498528 0.744605 0.863255 -0.258778 -0.745694 -0.0651937 -0.249886 -0.126541 0.895845 -0.819664 -0.337651 1.02779 -0.22128 0.756009 -0.851772 -0.906872 0.432281 0.253683 
-0.840735 -0.380185 -1.00524 -0.607164 -0.294159 -0.198692 0.143439 -0.118567 -0.905015 0.321586 0.489408 -1.00876 -0.361229 -0.426168 0.0257947 -0.0784382 -0.0446328 -0.523207 0.167413 -0.908772 -0.945657 0.780679 1.20762 1.14292 -0.0163192 -0.145228 -0.41253 -0.603194 -0.375997 0.15375 -0.568658 0.627854 0.486868 -0.37324 -0.329991 1.1557 0.443497 0.456213 0.021927 -0.501296 
0.00318645 0.233633 -0.229762 -0.237253 0.78306 0.221458 0.206615 0.427012 -0.296724 -1.12906 0.93427 -0.602862 -0.817088 0.0697956 -0.306677 0.570628 0.487002 -0.501579 -0.459613 0.198835 0.178599 0.971305 -0.269358 0.954221 -0.960148 0.243982 0.51532 -1.25086 0.373792 -0.542598 -0.912499 -0.0683204 0.155952 0.856289 -0.218571 -0.115651 0.0844681 -0.869832 0.930012 -0.167289 
-0.279077 -0.437792 -0.860441 0.933449 0.790371 -0.147394 0.387935 0.12761 -0.307505 -0.318763 0.326526 -0.18246 0.090272 0.633674 0.106285 0.650235 0.765684 -0.474379 0.197651 -0.716913 -0.90222 0.415032 0.419789 0.951054 0.556234 0.436009 0.352076 -1.45851 0.826591 0.498561 0.574455 0.354626 0.976382 0.468499 -0.539134 -0.137484 0.118812 0.905377 0.943038 0.199886 
0.389708 -0.158295 -0.366532 -0.534253 0.527136 -0.363352 -0.156327 0.220907 0.545646 -0.805066 0.00959143 -0.393776 0.49689 0.667227 0.422968 -0.184201 0.00145543 0.454164 0.168393 -0.277481 0.153733 0.0797668 0.783743 0.727248 -0.439776 -0.70027 0.403068 -0.0574626 -0.298124 -0.430783 -0.689957 0.254074 0.11433 -0.340132 0.731091 0.967409 0.0193272 0.790788 0.392827 -0.495177 
-0.258094 -0.652236 -0.634405 1.05727 -0.625338 -0.643103 0.363946 0.450967 0.0544952 -0.215022 0.58706 0.816312 -0.446262 0.229182 -0.686216 -0.46899 -0.876418 -0.780185 0.119391 -0.306917 -0.957777 -0.829599 0.546391 -0.843681 0.816832 0.590968 0.0271695 -0.350149 0.766987 0.120994 0.782327 0.449282 1.3522 0.468267 1.1393 0.493688 0.285521 -0.183877 0.845804 -0.569867 
0.0312934 0.497623 0.880346 0.318384 0.698996 0.599102 -0.788641 0.796863 0.0994361 -0.270714 0.17801 0.53455 -0.564544 0.125564 0.677855 -0.273517 -0.891071 -0.890741 -0.266716 0.26231 -0.274962 -0.403174 0.528075 -0.455231 -0.522335 0.161529 -0.464702 -0.680023 -0.584517 -0.538906 0.524616 0.712621 1.04013 0.653619 1.38752 -0.395275 0.043187 0.711717 -0.138453 0.291506 
0.258157 0.778888 0.475361 0.266091 0.673525 -0.760133 0.54632 0.0867311 -1.04535 -0.894001 0.649578 -0.70687 0.619085 0.850382 0.100717 -0.703456 0.376996 0.682302 -0.107514 0.494104 -0.0816179 -0.448545 0.231784 -0.530345 -0.64908 0.525905 -0.418846 -0.660106 -0.449917 0.474433 -0.641807 0.755214 -0.406916 -0.0282344 -0.713763 1.16057 -0.451315 -0.356787 0.90344 0.234058 
-0.639731 -0.80544 -0.322005 0.50984 0.660631 0.3573 -0.407995 0.141344 -0.639198 -0.289509 0.794004 -0.440114 -0.969205 0.590408 0.392301 -0.763356 0.157141 -0.581083 -0.998254 0.0977078 -0.181615 0.423284 0.842524 -0.984326 -0.0478519 0.657579 -0.0256339 0.498908 0.564141 0.0958505 -0.665223 0.407037 0.577897 0.734989 -0.669791 0.15412 -0.266875 0.361138 0.386889 -0.249082 
-0.352561 -0.0473979 -0.857649 -0.436147 -0.229327 -0.593522 -0.31633 0.512211 -0.401013 0.602072 0.357104 -0.862828 0.958819 0.283143 0.153734 -0.0254586 0.426458 0.36719 0.417392 0.499868 0.401092 0.805788 0.136527 0.167364 0.213349 -0.816533 0.782723 0.587033 -0.903594 -0.509536 -0.204016 0.557606 -0.0145765 -0.744634 0.50042 0.0103783 0.293526 0.671956 -0.320608 0.864785 
-0.794316 0.703515 -0.124665 -0.0842175 0.810509 -0.3808 0.201607 -0.708096 0.255577 0.0841077 0.106702 0.960865 0.578859 0.724248 -1.03225 0.804367 0.501803 -0.628692 -0.455845 0.265174 1.00941 0.869488 0.496503 -0.519397 -0.826909 -0.271385 -0.414632 0.343597 -0.731283 0.809148 -0.388774 -0.0738151 -0.192237 0.644293 0.686104 0.913412 0.447412 0.496424 0.728014 0.979776 
0.507183 -0.520623 -0.34296 0.0890434 -0.815014 0.666057 0.446068 -0.182194 0.0906891 -0.450378 -0.912112 0.652608 0.939452 -0.518703 0.442802 0.40253 -0.499958 -0.768606 0.829865 -0.0943447 -0.294389 -0.966314 -0.790312 0.473511 0.0895153 -0.494798 0.20634 0.790395 -0.116702 0.918102 0.724502 0.151041 -0.993486 0.627479 0.832581 0.192324 -0.826075 0.143395 0.283343 -0.726406 
0.475975 0.288812 0.274327 0.578009 0.735965 0.0463688 -0.915811 -0.313758 0.103783 -0.552171 0.490641 0.680801 0.350841 -0.194198 0.488879 0.406121 0.658335 -0.497741 -0.363947 -0.387812 0.506322 0.272547 -0.825044 -0.990168 -0.876986 -0.400438 0.521486 0.197767 0.0712512 -0.355115 -0.408763 0.510496 -0.43231 0.200766 0.366572 -0.110966 0.638752 0.00324108 -0.477333 0.0699426 
-0.146471 0.320113 -0.469002 -1.21379 0.940083 0.766615 -0.122927 0.703524 -1.25295 0.571938 0.533455 -0.798865 -0.142898 -0.661321 0.809802 0.25761 0.449229 0.793914 -0.741775 -0.226767 0.338174 0.979212 0.960242 -0.314417 -0.604729 -0.437397 0.727975 0.242727 -0.527293 0.0776688 0.00864603 -0.264237 -0.853427 -0.0889087 0.826702 0.299379 -0.0390904 -0.492853 1.42812 0.84925 
-0.83892 0.448107 0.46051 -0.154282 -0.416894 -0.627883 0.642462 0.956307 -0.578705 0.428352 0.617524 0.352496 -0.450147 -0.424914 0.252286 -0.916944 0.109651 -0.0770796 -0.305779 -0.334416 -0.472635 -0.750315 1.13324 0.104551 -0.943072 -0.427136 0.724626 -0.938068 0.52983 -0.514552 0.319294 -0.541827 -0.811808 -0.0720326 0.507469 -0.203197 -0.0174872 -0.647566 -0.376136 0.0184898 
-0.058515 0.327671 -0.624276 0.156751 -0.489392 -0.190568 -0.455021 -0.44074 -1.07003 -0.955013 -0.798745 0.323582 0.648047 -0.405133 -0.471732 0.0827745 -0.114882 -0.12958 -0.596879 -0.984309 -0.39414 0.661713 -0.0700039 0.643719 0.644075 -0.41817 0.117262 -0.916532 0.829425 -0.412524 0.273853 0.202299 -0.814464 -0.925677 -0.929473 -0.637218 -0.0551376 0.382054 0.524946 0.594799 
-0.519538 -0.565429 0.677849 -1.19805 -0.00961287 0.471452 -0.625155 -0.47337 -0.752471 -0.447736 0.174866 0.253446 -0.730538 -0.484093 0.786702 0.628992 -0.913635 -0.597738 -0.873286 -0.0558646 -0.259297 -0.307051 0.589548 -0.00590229 -0.631303 -0.0783726 -0.51634 0.232439 -0.599897 0.420813 -0.900812 -0.499798 0.603608 0.368889 0.823669 0.166118 0.211308 -0.594198 -0.985971 0.863374 
-0.950564 1.09943 0.955748 -0.0245497 0.735953 -0.535022 0.746336 0.531389 -1.25766 -0.239849 -0.537895 -0.781746 -0.694465 0.925905 0.606644 0.286139 -0.362455 -0.866742 -0.374077 -0.551927 -1.04634 0.244259 0.707483 -0.184388 0.243236 0.277505 0.224051 -0.450028 0.452409 -0.140082 -0.749666 -0.316575 0.359972 -0.987255 -0.118471 0.286676 -0.794818 0.00194566 0.418144 -0.0677077 
-0.276635 0.208607 -0.260499 -0.426123 -0.585664 0.266096 -0.457021 0.867982 0.155635 0.238929 -0.460007 -0.458986 -0.25173 -0.623167 1.1322 0.15511 0.67512 -0.711612 -0.846469 -0.555999 -1.00676 -0.768288 0.477502 -0.829716 0.619926 0.142184 1.06503 -0.327607 0.119445 0.0247876 -0.665203 0.0930828 0.807668 -0.345984 -0.389543 -0.362807 0.133838 0.523981 0.388417 0.274145 
-0.776183 -0.454611 0.791333 -0.416568 0.913908 0.296376 0.449518 -0.510057 -0.339952 0.526087 0.444842 -0.138241 0.187879 0.699043 0.358553 1.17176 0.681241 -0.66732 0.769787 -0.112288 0.401357 -0.693064 0.114347 -0.415556 0.271386 -0.296009 0.805959 0.109232 0.869978 0.489628 -0.348862 -0.758884 1.06306 0.615623 -0.0097645 0.314597 -0.622746 -0.500884 0.363337 0.688908 
0.331023 -0.774952 -0.894812 -0.574438 0.519498 -1.00452 0.00489813 0.286607 0.239663 0.649327 -0.354373 0.445743 0.146899 -0.860484 1.12594 -0.308826 -0.0368759 -0.508977 -0.10253 -0.115345 0.414075 -0.871479 -0.042541 -0.78275 -0.997301 -0.449843 0.62742 0.0120082 0.934703 0.467652 0.11142 -0.753819 -0.00205372 0.0588635 0.462573 -0.307322 0.883928 -0.703936 0.127858 -0.833394 
0.165097 0.797617 0.327336 0.281683 0.635862 0.846646 1.0636 0.88717 -0.895034 -0.672776 0.657828 -0.942973 -0.00199466 -0.298132 -0.50216 0.195893 -0.0989811 -0.694693 0.229462 -0.304677 -0.223413 -0.488434 -0.232567 0.0375008 -0.963426 0.883574 1.1217 0.31786 0.738829 -0.19624 0.429751 -0.268703 -0.106664 0.402033 0.52275 -0.350114 0.161867 -0.51244 -0.800843 0.979152 
-0.558134 0.402811 -0.669118 -0.491883 -0.316908 0.753178 -0.194576 -0.381555 0.409982 0.293295 -0.986575 0.725988 -0.302306 0.0616336 0.703788 -0.275689 -0.616917 0.15928 0.730279 0.166803 -0.738806 -0.359805 0.0771303 -0.710856 -0.739021 -0.476697 0.304796 0.557707 -0.796796 0.825429 0.510718 -0.280555 0.669714 0.15947 0.620632 -0.137456 0.773869 -0.192912 0.599971 -0.0340661 
0.959256 -0.912841 -0.767324 0.624549 0.903918 -0.289702 0.0433567 -0.232002 0.427141 -0.864139 -0.934353 -0.894675 -0.433137 0.794236 0.254199 -0.412575 0.0291646 -0.780348 -1.0231 -0.861951 0.420108 -0.348438 1.27094 -1.01713 0.377488 0.141019 0.283272 0.817737 -0.683213 0.535538 -0.546204 -0.269038 0.475121 0.649581 -0.328221 0.28205 -0.0635595 0.415045 0.474349 0.39834 
-0.915631 -1.02309 -0.675277 -0.12277 0.949278 0.885934 0.552198 0.937275 0.360346 0.406641 0.442417 0.603356 -0.733306 -0.781689 0.680808 -0.573001 0.65667 0.717547 0.482392 -0.946583 0.270827 -0.183075 0.814566 -0.946197 -0.154404 -0.794148 0.385841 0.791863 0.171818 0.49846 0.483493 -0.535029 0.0825486 0.00688283 0.149322 0.200302 -0.205334 0.240714 0.253094 0.444983 
0.431806 0.509499 -0.364411 -0.878575 -0.431096 0.402586 0.798082 -0.353179 -1.0626 -0.0911968 0.462288 0.922632 0.0608618 -0.377907 0.642307 0.200473 -0.0446434 -0.0407205 0.254044 0.112685 0.56931 -0.964982 -0.00502202 -0.535709 -0.0909774 -0.800827 0.974319 1.19631 0.740161 -0.338401 -0.403 0.676548 0.378707 0.0096839 0.878637 -0.575713 -0.936337 -0.983668 0.19042 0.76707 
0.185315 0.582958 0.448411 0.245957 -0.808889 -0.205144 0.372491 -0.454344 -0.367068 -0.256238 -0.877591 -0.974948 -0.724323 -0.65012 0.972496 0.147298 -0.00463667 -0.322563 0.515984 0.476568 -0.096346 -0.579603 0.881945 -0.128532 -0.0332315 -0.456692 0.777806 0.0723305 0.557003 0.506856 -0.420537 -0.828465 0.332755 -0.552928 -0.537169 -0.335667 -0.161023 -0.294715 -0.267127 0.0337469 
0.112549 0.757648 -0.847125 -1.27263 0.624615 -0.640167 -0.0562823 0.115281 -0.290624 1.16767 -0.559243 -0.74795 -0.833905 0.182123 -0.902341 -0.628901 -0.378048 -0.890043 -0.683702 0.910343 0.412256 -0.979841 -0.429711 0.0544693 0.269989 -0.645613 1.0926 0.0720064 0.490113 -0.364204 -0.341407 -0.936874 -0.266768 0.971474 0.0345295 -0.224204 -0.888611 -0.492016 -0.472958 0.740725 
-0.233229 0.0440285 -0.653202 0.140072 -0.11364 -0.296034 -0.54934 0.270422 -0.0507201 -0.108038 -0.345151 0.00123346 0.295144 -0.297802 0.153013 -0.155321 1.06623 -0.0393218 -0.405986 0.00493553 -0.445303 -0.861449 -0.188433 0.0432516 -0.149187 -0.706979 -0.0756351 0.364189 -0.423934 0.394816 -0.513682 -0.701408 -0.632704 0.672014 0.249318 0.224667 -0.395584 0.677023 0.154071 0.340689 
-0.183175 -0.69865 0.183089 -0.0854455 0.684643 0.584496 0.230732 -0.519788 -0.582718 -0.734877 -0.835841 0.246342 -0.150539 -0.763117 -0.396838 -0.00578049 -0.438006 -0.274622 -1.00813 0.728606 0.20104 0.668799 -0.567765 0.609806 -0.521885 -0.413521 0.653049 0.380853 -0.28033 1.00178 0.806964 -0.796131 -0.841286 -0.811373 0.719087 0.544926 0.800995 0.891674 -0.62664 0.0896432 
-0.147144 0.428089 -0.567008 0.388893 -0.218161 0.206694 1.00305 0.986569 0.256987 0.761701 0.687727 0.534579 -0.752854 1.03308 -0.151675 0.564151 0.358994 0.1693 -0.532794 0.154524 0.314779 -0.910939 0.556546 -0.790146 -1.01131 0.589307 0.681565 0.759012 -0.771579 -0.128939 -0.613544 -0.21365 -0.0394486 -0.352727 -0.517769 0.73379 -0.249471 0.175366 -0.639639 0.813334 
0.655788 0.681799 0.791799 0.245913 0.342026 0.141165 0.0278603 -0.0788165 -0.186829 -0.0359395 -0.405622 0.872274 -0.9331 0.385403 0.457976 0.0818499 0.103016 -0.108859 0.0646788 -0.322105 0.438362 -0.704947 0.807858 0.177643 0.861579 -0.388463 0.582734 1.04973 -0.842659 0.621248 0.270897 0.14278 0.430487 -0.516987 -0.191651 0.238234 0.602103 -0.354332 0.322351 0.896132 
-0.406772 -0.351071 -0.109807 -0.793707 -0.663336 -0.214329 -0.196385 0.708068 -1.03488 -0.0981548 1.17515 -0.553114 0.324085 -0.760499 -0.594365 -0.45207 0.678734 -0.204624 0.0318751 -0.161029 0.151746 0.0179893 -0.549432 0.618254 -0.0192994 -0.908041 -0.527408 0.714701 -0.865379 0.339072 0.351533 -0.602762 -1.02341 -0.281855 0.018142 0.610786 -0.472099 -0.40617 -1.19314 0.0495067 
-0.477248 0.577012 0.158931 0.178289 0.551109 0.942196 0.114072 0.329675 -0.728568 -1.17655 -0.720317 -0.322276 0.176426 -0.0852694 -0.461793 -0.70185 0.349156 -0.219629 -0.30291 -0.464155 0.476399 -0.173324 -0.00783468 -0.488448 0.329456 0.752828 1.04294 -0.204687 0.813034 0.492696 0.62942 -0.251514 -0.511794 0.754161 0.191963 -0.161369 0.617878 0.479881 -0.177921 0.939117 
-0.72056 -0.347845 -0.231379 -0.744609 0.400675 -0.211555 -0.936641 -0.00295723 -0.545939 0.74562 0.249765 -0.533014 0.0366774 0.445471 1.20274 -0.205504 -0.856448 0.712298 0.984427 -0.288993 0.812566 -0.00963195 -0.428127 -0.960617 0.00176415 -0.945087 -0.24867 0.262422 0.596758 0.876716 -0.517771 -1.05168 1.00147 -0.156226 -0.86718 0.382683 0.787861 0.197321 0.65637 0.504946 
-0.495892 -0.561724 -0.575042 0.0756246 0.394544 -0.707992 1.14741 -0.131529 -0.80933 -0.690612 -0.600337 -0.960503 0.194871 -0.936365 0.361411 -0.834566 0.535473 -0.157785 -0.516025 0.567734 0.420653 -0.08559 0.494048 0.642889 0.777903 0.206524 0.625847 0.0673724 -0.596993 -0.677161 -0.550841 0.793148 -0.0451171 0.107886 0.581765 0.943056 -0.550874 0.498631 -0.220825 -0.264071 
-0.279655 0.65776 0.67254 -0.660291 0.293634 -0.909407 0.363352 -0.457228 -0.163429 -0.52625 -0.0411433 -0.1311 0.256841 0.105595 0.811217 1.08265 -0.0346478 0.421756 -1.00959 0.301918 -0.664403 0.19704 0.650742 0.306204 0.288746 0.602695 0.314907 0.35767 -0.213304 -0.242232 0.630159 0.245166 0.0375396 0.445509 -0.646889 0.165189 0.786384 0.443234 0.475245 0.330441 
0.872804 -0.846157 -0.935849 0.578371 0.0261828 0.450455 -0.549733 -0.323983 -1.62719 -0.647298 0.938814 0.209784 0.762484 -0.89989 -0.499419 0.790288 -0.128587 0.863921 -0.653055 -0.85578 -0.681574 0.750159 0.0243355 0.613247 -0.794295 -0.619926 0.528422 -0.31222 -0.47074 -0.627225 -0.50263 -0.804882 -0.627076 0.259134 -0.753802 0.13158 0.631112 -0.250542 0.695004 0.135229 
-0.367463 -0.0416405 0.504353 0.277108 0.793681 -0.132368 0.522501 0.514359 -0.207666 -1.11955 -0.192164 0.651272 0.38617 -0.637405 -0.387081 -0.830482 -0.37929 -1.10382 -0.528828 0.303507 -0.323954 0.3033 1.15303 0.58397 -0.670935 -0.183776 0.751779 0.285805 0.785096 -0.264398 -0.0447664 0.142995 -0.225306 -0.516522 0.781464 -0.62094 -1.00963 -0.370551 0.627903 -0.591681 
0.392207 -0.608499 -0.0661619 0.122073 0.0793841 0.125087 -0.858415 0.666305 -0.447237 -0.639455 -0.60918 0.869144 -0.366597 0.503994 0.221056 0.753363 0.353214 0.589358 -0.87898 -0.80378 -0.357959 -0.0528111 0.199929 0.0707104 -0.341168 -0.235517 0.535031 -0.196677 -0.854534 0.417688 -0.479245 0.122358 0.0731636 -0.992411 -0.408379 0.277995 -0.127406 -0.441479 0.998893 0.653607 
0.656562 0.500133 -0.356506 0.777848 0.813732 0.108988 -0.79418 -0.280042 -0.354691 0.0708579 1.00625 -0.737801 0.417076 0.144516 -0.172627 -0.0347393 -0.359218 -0.542114 0.560154 -0.608201 -0.625687 -0.44176 -0.513581 -0.327493 0.835113 -0.297651 0.253145 -0.198865 0.152164 0.580692 -0.935241 0.58419 -0.0621548 0.249757 -0.748245 -0.415264 -0.232375 -0.536127 -0.239734 0.432127 
0.0847477 -0.190397 0.751033 -0.768026 0.858736 -0.342893 0.909575 0.110816 0.620794 -0.531028 -0.440998 0.649738 0.342594 0.321751 -0.382737 -0.254321 -0.100483 0.0441915 -0.518532 -0.704854 0.0439887 0.565651 0.855732 0.367508 -0.336871 -0.92636 0.526348 -0.131834 0.877294 0.976032 0.247819 0.441091 0.00511825 -0.366365 -0.378805 0.552024 -0.307677 -0.755599 0.0298444 0.200631 
-0.946267 -1.06139 0.774337 -0.504774 -0.474496 -0.697007 -0.129041 -0.7204 0.156179 0.377928 -0.0922749 -0.636759 -0.498813 -1.17498 -0.18147 0.967534 0.268859 0.473325 -0.75971 0.228753 -0.425417 -0.171582 -0.0321886 0.921222 0.245365 0.441177 0.378614 0.104028 -0.202444 0.296985 0.527825 0.33447 -0.583005 0.0678377 0.290315 -0.394101 0.447476 -0.421737 0.00627556 0.805855 
0.782765 0.267263 0.712186 0.413385 1.02223 0.057807 0.74691 0.432854 -0.57401 -0.478048 -0.801548 0.37068 -0.441945 0.681443 0.536016 0.0627505 0.58309 0.0781894 -0.970711 1.02991 -0.0896628 -0.211137 0.623313 -0.615996 0.386099 0.0525802 0.29906 1.07661 -0.933491 -0.073377 -0.657719 -0.462187 0.34863 -0.380706 -0.305814 0.346136 -0.650431 0.47264 -0.627075 0.999372 
0.676976 -0.0142107 -0.148766 -0.0270416 0.446951 0.10332 -0.591857 0.519544 -0.544745 0.839364 0.0261948 -1.07163 0.665012 -0.39371 0.431621 -0.863444 -0.544043 0.500281 -0.47171 0.54316 0.759614 -0.211312 -0.627224 0.227102 -0.0899365 0.876016 0.0379818 0.729624 -0.383344 0.182476 0.605399 0.385055 -0.700325 -0.325055 -0.546664 -0.31482 -0.419359 -0.529814 0.306475 0.968387 
-0.814756 0.190618 -0.355146 -0.921616 0.695933 0.684247 0.856053 0.552511 -0.403292 0.542214 -0.199623 0.0365986 0.187267 -0.871251 -0.847117 -0.374087 0.688246 0.193164 0.447636 -0.429217 0.547508 -0.801666 0.346262 0.159891 0.321142 0.00788695 0.884532 0.286396 0.59273 0.618965 0.627485 -0.839694 0.354874 0.439733 -0.763723 -0.187235 0.564156 -0.7747 0.795993 0.65139 
-0.78988 -0.850401 -0.31767 -0.0757216 -0.813338 -0.281172 0.394398 -0.501553 0.458845 0.466452 0.177669 -0.365831 -0.0594025 0.792031 1.02189 -0.740305 0.0870651 0.71537 0.540661 1.04729 0.408457 0.411444 0.289262 0.126437 -1.07736 0.586014 1.04203 0.134528 -0.304559 0.566861 0.61207 -0.634594 -0.884912 -0.779935 0.863934 0.329738 -0.0561211 0.830603 0.905286 1.55671 
-0.318828 -0.574271 -0.537766 0.299734 -0.812039 0.400266 1.03298 -0.367628 -0.694028 0.235506 -0.694236 0.242832 -0.524461 0.308743 -0.339073 -0.634721 0.441498 -0.942065 -0.0296443 0.119572 -0.137003 -0.348027 -0.872072 0.00108432 -0.124754 0.356534 0.43586 1.32079 0.963522 -0.438742 0.184625 -0.411046 -0.239699 0.298315 -0.984541 0.183895 0.57775 0.441353 -0.15573 -0.233571 
-0.986405 1.09757 -0.330144 -0.131923 -0.457298 0.668812 0.108444 1.25911 -0.0426534 0.366952 0.232714 0.542224 -0.263985 0.0349313 -0.735021 -0.792779 -0.37745 -0.30761 -0.782434 -0.0749446 0.923401 0.397372 -0.269376 0.338769 0.562372 0.0511652 0.378884 0.671905 0.0752074 0.796711 -0.229073 0.794588 -0.861792 0.941504 0.474729 0.844044 0.341004 -0.149627 0.92123 0.426405 
0.769281 -0.78306 -0.966092 -0.671375 0.154445 -0.245728 -0.316298 0.487602 -0.63856 -0.136493 0.531124 0.469698 -0.651061 0.773136 0.717254 0.822762 0.784328 0.218128 0.130835 -0.0725186 0.898422 -0.61381 -0.109026 -0.984256 0.328799 -0.729873 1.39551 0.81677 -0.0842229 0.102709 -0.124529 0.402954 0.536347 -0.956879 0.305966 -0.201658 0.464842 0.420843 0.554063 0.755884 
0.0531807 -0.773746 -0.5777 -1.07481 0.902171 -0.829981 0.427786 1.1884 0.059322 0.564213 -0.318102 -0.478958 0.930525 -0.319748 0.170181 -0.898423 -0.100635 -0.60541 0.510186 -0.0640072 -0.179531 0.228103 0.444156 -0.686665 0.887443 -0.705374 0.175918 0.829666 0.231248 0.755918 -0.869265 -0.639441 -0.00262931 -0.722379 -0.427469 0.797067 -0.843717 -0.8587 0.249969 0.606352 
-0.387016 0.325537 0.622535 0.247389 -0.437726 0.178765 0.59193 0.718415 -0.139125 -0.673739 -0.670859 -0.407135 -0.0794567 0.321377 0.793331 0.727058 0.706007 -1.01389 0.427959 -0.570662 -0.382469 -0.407872 1.05154 -1.1321 -0.0635139 0.329039 1.35574 -0.199014 -0.670615 -0.14695 -0.685647 -0.109535 0.820966 0.139204 -0.65563 -0.701183 -0.579687 -0.791565 -0.00355447 0.0377892 
-0.300629 -0.177378 0.531412 -0.653419 -0.388038 -0.804756 -0.458621 0.240728 -0.227217 0.460211 0.550523 -0.168028 -0.10243 0.428076 -0.483062 0.318925 -0.443458 0.285807 0.415422 -0.658197 -0.45797 0.0185823 -0.334841 0.76832 -0.965357 0.522166 0.250272 -0.0112828 -0.485568 0.131967 -0.919442 -0.639702 1.03555 -0.0090615 -0.293508 0.0254007 0.595465 0.0355407 0.432988 -0.777148 
0.128724 -1.00444 0.614967 0.223668 -0.618677 -0.109447 -0.263214 0.381419 -1.49182 -0.399024 -0.896096 0.902099 -0.640098 -1.14917 1.53789 -0.0780346 0.160386 -1.36204 -0.420277 -0.412092 0.707086 0.268928 1.08593 -0.216495 -0.768618 -0.148113 0.293326 -0.218759 -0.778362 -0.651789 0.621453 0.554264 1.26842 0.22338 -0.369959 0.110041 0.3283 0.630358 -0.11016 -0.394282 
