40 40
-1.08203 -0.0589116 -0.960306 0.0738019 -0.0033118 0.0546118 -0.628503 0.927805 0.462526 0.254386 -1.51528 0.544312 1.26525 -0.375329 0.0944033 0.599782 1.17495 0.763258 -0.97374 0.217405 -0.660575 -0.999631 -0.369659 1.50941 1.27697 1.20443 -0.40583 -0.691966 -0.0893859 0.382922 -2.10041 0.245196 0.295758 -0.698104 0.202997 -1.97907 -0.593829 1.0914 -0.77569 1.3107 
-0.030678 -0.941568 0.388991 -0.171811 0.750378 -1.1305 2.13804 1.12379 0.763365 0.587236 -1.49443 -1.39665 0.626248 -0.305676 -1.2722 -0.0676028 -0.890216 0.245673 0.62662 -1.10384 -1.48917 0.332627 1.36084 -0.294135 -0.999841 1.11726 0.259932 -0.269058 0.725342 -0.672577 -0.304482 -1.98636 0.903254 0.135616 -0.129685 0.402837 0.74652 0.153653 0.727621 -0.924242 
-0.368314 0.260101 0.874164 1.90052 -0.771276 0.337116 -0.402238 -0.118573 0.972757 0.077362 -1.67339 -0.123359 -1.63199 -0.944407 -0.0650372 0.112603 1.65905 -0.440743 -1.37291 0.388696 0.571149 -0.821244 1.12906 1.95604 -0.489649 -0.40891 0.422427 0.549226 -0.854995 -0.656756 1.68086 -0.56336 1.00578 0.950659 -0.52708 -0.464162 -1.43503 -0.779482 -0.743963 -0.81832 
-0.797747 0.190183 -0.705159 -0.353398 1.52259 -1.1838 -0.549856 0.813914 1.49003 1.04858 1.92632 -1.15768 0.810048 0.0459128 0.762711 -0.911442 -0.522426 0.0336728 1.34222 1.85126 -0.800474 -0.0250833 -0.350195 0.130208 -0.722541 -0.780416 1.24347 -0.908301 -0.117577 -0.221138 0.874559 -0.427497 0.847123 0.155999 0.0793214 0.240301 0.479141 -0.417858 0.453817 -0.433876 
-0.793621 0.754801 1.06432 -0.0174703 -2.74875 0.520163 -0.656871 -0.309474 -1.61028 -0.480353 -0.516027 -0.050039 -0.981683 -0.516282 0.523282 -0.532363 0.611206 0.913951 0.658416 -0.537655 0.661076 0.482926 -0.149692 -1.47559 -0.699469 1.04811 -0.386643 1.20529 0.713295 0.678417 -0.81329 0.667088 0.860122 -1.14609 0.131776 0.777745 1.07404 0.0757329 -0.699325 -0.359034 
0.632896 -0.855158 0.301421 0.512757 0.103173 -0.489601 2.00688 0.292059 1.39278 -0.917586 0.191634 -0.0617763 0.888304 1.03695 -0.877638 0.725723 -2.09363 1.75299 0.823745 -0.223577 1.02854 -0.643057 -0.415408 -1.22636 1.5398 0.820116 0.705323 0.258549 0.79346 0.022197 -3.43383 0.638894 0.648855 -0.665703 3.88025 0.224501 1.16418 -1.29757 0.144692 0.933962 
-0.366137 -1.32379 -0.456711 1.70538 -1.65604 -0.931897 -0.163013 -0.233376 1.63388 -0.430493 -0.47165 1.82334 -1.38097 -0.748176 -0.232535 -0.479021 -2.59979 -1.8142 -1.43038 0.90344 -0.503933 0.201159 -1.16914 -0.384584 1.28137 0.905525 -0.286029 0.0674617 1.90932 0.883217 0.620023 0.909383 -0.982722 0.813823 1.99319 0.0792556 1.65277 -0.730824 -0.0259951 0.961795 
-2.27446 0.682484 1.14323 -0.833011 -0.867362 -1.25087 -0.57436 0.65463 -0.0599697 -0.137611 -1.49511 0.916918 -1.07616 0.0134294 -0.195651 -0.828329 -0.177318 -1.84697 -1.67841 1.09739 0.18259 1.03531 -1.07398 0.497244 0.682476 -0.242944 0.398007 0.177062 0.36521 -0.404211 1.54713 0.866881 -0.247015 0.621437 -0.00928032 -0.4829 -0.195241 1.2883 -1.63716 1.12196 
1.40959 0.0208233 -0.804454 0.425566 -0.901823 -0.236686 0.359509 0.435911 -0.419427 0.473892 -0.767493 -1.61406 1.36764 0.0532452 -0.546556 -0.536538 0.974781 1.68038 1.29138 -1.4313 0.961462 0.214161 1.49215 0.556673 0.0922528 0.228401 1.0997 0.942378 -1.95033 0.110508 -2.5972 -0.445202 -0.506941 -0.02955 -0.72833 0.427526 -1.57713 0.115418 -0.849547 -0.986305 
-2.5686 -0.195222 1.743 1.38012 0.249658 0.539265 0.385269 0.432508 -0.617592 1.70069 -0.907991 0.624127 -0.446376 0.366129 -0.73929 0.241049 -0.322198 -1.2621 -0.934843 -0.0568569 1.80746 0.671454 -0.617781 0.94829 0.0491482 0.138024 -0.110912 -0.438722 -0.688643 -0.180838 0.25441 1.45932 -0.0147646 -0.37291 1.18742 -1.91355 -1.27135 -0.533501 -0.721852 0.513839 
-0.319421 -0.461283 -1.3564 -0.651231 -1.9942 -0.260245 -0.56759 -0.101205 -0.34374 -2.20996 -1.12732 1.35985 2.4748 -0.555939 -0.514238 0.133195 0.487958 1.55597 0.38147 -1.35931 -0.841679 0.473669 0.0200258 1.09175 0.425322 1.17394 0.247271 -0.104523 -0.00333064 -0.497514 -2.30894 -0.918532 1.12431 -0.0529552 0.950876 -0.845687 1.17057 -0.270497 -0.1282 1.34091 
0.361511 1.6082 -0.844313 -0.033467 -0.184853 0.604738 0.141443 -0.266636 -1.52959 1.57068 -0.219104 -1.46797 -1.11875 -0.882262 0.830469 0.0832926 0.601558 -0.949125 0.154148 0.24448 1.27006 -0.836514 -0.742982 1.26179 0.205108 -0.277779 0.101277 0.346525 0.711981 0.393807 0.408953 -0.474547 -0.27876 0.518326 -0.0175462 -1.40763 -0.300611 -0.163466 0.457855 0.74647 
-1.09198 -0.259702 0.833194 0.99925 0.247626 -0.354285 -0.886993 0.911476 0.0168271 0.0398414 -1.30356 1.08804 1.20607 -0.693797 -0.837761 -0.490031 -0.305773 -0.789768 -0.341296 -1.35503 1.64016 0.643665 1.34263 0.604457 1.87438 -0.265087 -0.712661 0.899341 -0.964276 0.694188 -0.227968 -0.191298 0.941921 0.583838 -0.128097 -2.18487 0.624085 0.781319 -1.90271 -0.152202 
-2.01407 -0.64085 -0.548822 -0.560738 -1.6904 0.125816 -1.90018 -0.628734 -0.639797 0.471483 0.652787 2.08107 1.03843 1.11392 0.00336413 0.45212 0.537511 -2.00676 -1.57083 1.32779 -0.0523241 1.30872 -0.815062 -0.760983 1.69955 0.0234104 -0.429025 -0.367575 -0.678402 -0.120537 0.10858 -0.524575 -1.21511 1.88519 0.607814 -0.988763 1.4764 1.52489 0.469366 1.03829 
0.23037 1.54389 -1.22703 -1.20561 -0.295455 0.19271 -1.09549 0.690925 -0.0559194 0.344632 1.78064 0.528103 -1.20467 1.23681 0.640927 -0.499898 1.68439 -0.138653 0.87234 1.97597 -0.258208 -1.15106 -0.693686 -0.402148 1.14782 1.10253 -0.420963 -0.0353009 -0.25539 -0.156579 0.23739 -1.77416 0.0119743 -1.12167 -1.18144 -0.761037 -0.428986 -0.645793 2.37489 -0.298913 
-0.509045 -0.46759 -1.26759 -0.717978 -1.00096 -0.675086 0.0796172 -0.530491 -1.30799 -0.703764 -0.944619 0.0158908 -0.995595 -0.804098 0.446045 -0.667447 -0.00336946 1.00203 0.860384 0.222946 0.906751 0.452739 0.468043 0.496701 -0.646035 1.51389 0.0721918 0.932811 0.116146 0.292601 -1.97576 0.508363 -0.464792 -1.51598 1.13441 0.376128 -0.666285 -0.404007 -1.24216 -0.219189 
1.79863 -0.360291 -1.19018 0.132138 -1.96124 0.39002 1.08876 -1.90532 -1.95896 -1.44356 -0.670913 0.0329977 -0.798113 0.399899 0.791547 -0.53983 -0.353286 0.304369 -0.245976 -0.522018 -0.125086 0.5126 2.33121 -1.89991 -0.396467 -0.790119 1.09731 -0.48619 -0.165077 -0.725148 0.869487 1.51689 -0.174202 1.6368 -1.58872 2.14652 -0.649663 -0.343218 -1.0586 -0.103737 
0.295228 -0.486407 1.46807 0.646877 2.19295 -0.197337 2.16204 0.704692 0.916865 0.506649 0.571251 -0.656389 -0.0680223 0.254605 0.967677 -0.864115 -0.988508 0.280609 0.428192 -0.715505 -1.00268 0.532028 -0.172597 0.770999 1.13092 -0.384803 0.558056 -0.293411 1.93364 -0.534759 0.366499 -2.08789 -0.626817 -0.774416 0.677776 -1.01859 0.149418 -1.55317 0.510125 -0.677146 
-0.399966 -0.356988 0.381108 0.0853552 2.02775 -0.530891 -0.146624 1.1669 1.70878 -0.910288 -0.884762 1.04477 2.15156 -0.711455 0.66038 0.778799 -0.0112898 0.11437 -0.562577 0.178451 -0.485377 1.67272 2.19642 0.380602 -1.83767 0.512389 0.388209 -0.0532642 -0.897035 -0.0969444 -1.38205 -0.127362 0.162145 -0.281144 -0.544194 -0.812514 0.502594 1.14259 -1.19423 -0.130499 
-0.233691 -1.4636 1.25866 -0.812498 -0.517716 -0.547678 0.281796 1.72819 0.146706 -0.58756 -0.877467 -0.0145958 0.63348 0.0617747 -0.282963 -0.615881 0.323338 0.25976 1.29524 -0.480442 0.56995 0.551722 1.08183 -2.11942 -1.68949 -1.28725 -0.135749 0.761045 -0.614788 -0.581653 -1.21781 0.355295 1.88484 -0.439831 -0.0904289 0.662588 1.93412 -0.823169 -1.37525 -1.0639 
0.836565 -1.03617 -0.214432 -0.839745 -0.756843 -0.528736 -0.268427 -0.224002 -1.17877 1.06104 1.51882 0.566245 -0.181963 0.624296 -0.25225 0.0503301 -0.41265 -0.859729 1.21205 0.0418229 1.48702 0.396838 -0.413149 -0.940738 0.132259 0.729605 1.09004 -0.491273 0.250827 0.187721 -0.235013 0.0161753 -0.456413 -0.150158 0.0762718 0.277681 -0.115689 0.607831 0.83416 -0.625342 
-0.175858 -0.0895626 0.00249122 -0.469948 -0.267212 0.115181 -0.393874 -0.859822 0.0408062 -0.93559 -0.439021 -0.164307 0.387464 0.748158 -0.672777 -0.376093 -1.00412 -0.159317 -0.176749 -0.172184 -0.642737 0.118518 -0.428105 -0.5514 0.0322614 -0.383615 0.926667 0.0240618 0.879838 -0.304194 -0.455381 -0.34738 -0.716961 0.654419 0.0735074 0.241823 -0.636299 0.233163 -0.752769 -0.255051 
1.96272 -1.05336 0.551754 -0.226403 0.55336 0.783668 1.68652 -1.37043 0.338576 -2.03183 -1.13347 -0.600448 1.00502 1.10104 -1.04776 0.37114 -1.32484 -0.457508 0.34617 -1.84034 -0.437332 0.821175 1.8335 -0.206749 -1.28317 -0.717288 -0.219554 0.13049 0.93039 -0.60364 0.335844 0.215958 0.464581 0.759808 0.10016 2.15058 -0.581139 -0.52327 -0.83112 0.394163 
-1.36266 1.98605 0.548612 -1.56973 0.590224 0.101444 0.193041 0.434656 -1.82287 0.543822 -0.157047 -2.07794 -1.27339 0.925929 -0.802471 -0.0725581 1.7083 0.50559 2.55334 0.499121 0.431885 -0.565114 0.876249 -1.7762 -0.889676 0.761648 0.40692 -0.894891 -0.757901 -0.668812 1.04859 -0.6695 1.53572 -0.75816 -1.64778 -1.22767 -0.782686 -1.38873 -0.40027 -1.17703 
1.76271 -0.680733 0.715873 1.10109 1.51502 -0.986025 1.72015 -0.514925 0.729158 0.0146896 -1.00719 -1.24162 0.425339 0.695334 -0.157001 -0.988386 -0.563782 0.848603 0.297807 -0.827992 -0.198419 -0.670739 -0.0481526 0.191234 0.17587 0.267278 0.625732 -1.36826 0.150421 0.419901 -0.138035 -0.986119 -0.813772 -1.35101 1.26677 0.169101 -1.34706 -1.21307 -0.0268746 0.345682 
0.536019 -1.09867 -0.0998604 0.802716 1.33396 -0.509917 1.76311 0.419829 0.384676 1.71071 -0.808418 -1.59056 -0.28847 0.736937 -0.0484211 -0.687997 -1.07882 0.402699 0.517913 -0.908496 2.43239 -0.511191 -0.235574 0.861514 0.801746 0.660064 -0.272941 -1.10843 -0.0400259 -0.803257 -0.596901 0.180254 -0.766322 -0.242231 0.673565 -1.53145 0.390504 -0.84113 -0.468314 0.594192 
0.513986 0.559215 1.16008 0.26688 -1.1819 0.136109 -1.22685 0.378496 -0.685364 0.327095 0.0277695 0.28926 -1.76561 -0.391045 -0.853399 0.635386 0.000400935 0.620082 1.3372 0.451114 0.507085 0.271174 -0.917576 -2.3497 -1.88072 0.0402439 0.689155 0.910675 -0.150754 -0.333425 1.07261 2.77221 -0.301689 -1.19822 0.408683 0.786034 2.03327 -0.157865 -0.961755 -0.433356 
0.720962 0.158172 -0.183085 0.526304 1.01899 -0.849235 -0.472933 -0.349355 1.58294 -0.230117 0.829142 2.11275 -1.83449 -0.334868 -0.818386 0.926178 0.0457243 1.56828 -1.67659 0.789806 0.306797 -0.816675 -0.455137 0.152145 0.600465 -0.839256 -0.172541 -1.12749 0.429458 0.358987 -0.859017 1.09548 -1.03584 -0.219652 3.10545 0.190628 -1.62686 -0.468866 2.11965 1.8707 
-0.720672 -1.44621 -0.999738 -0.413389 -0.596777 0.854578 -0.831142 0.856092 0.98624 -0.725518 -0.619924 0.183233 0.631151 -0.394624 0.128424 0.20478 -0.135024 0.759481 -0.87842 0.0909349 -0.759524 1.03191 1.03967 0.46768 -0.631131 -0.600777 -0.271613 0.930905 -0.80754 1.08122 -0.688037 0.331359 0.75105 1.12008 -0.218334 0.0209063 0.652159 0.659544 1.10681 -1.17321 
-0.215751 -0.653907 0.333511 -0.00639199 -1.05018 -1.30286 0.592248 -0.857193 -0.620861 0.47563 -0.659738 -1.54154 -1.51555 -0.227704 -0.0273995 0.121986 -0.926712 -0.624886 0.389545 -1.11646 2.22237 -1.12509 -0.71711 -0.105614 0.547188 0.584933 -0.233042 -0.979202 0.435728 -0.640415 0.618949 0.761628 0.17594 -1.12926 0.0616591 -1.36953 -0.406064 -0.615649 -1.05428 1.43891 
-1.05551 -0.372626 1.15986 0.306051 -1.27499 0.436247 -0.354487 0.077085 0.569336 -0.0149444 0.111764 1.50757 -0.699707 0.360616 -0.565983 0.795383 0.205887 -1.72329 -0.814222 0.818322 1.27643 0.291199 -1.27527 1.15919 -0.313185 0.548551 -0.641254 -0.862126 -0.495399 -0.263227 0.987656 -0.385419 0.210764 0.37753 0.493377 -1.02125 0.806959 0.756346 0.534066 0.517751 
-0.73733 1.77875 1.61955 1.41468 0.600424 0.718505 -0.431349 0.664032 1.15753 0.186421 1.27399 0.518037 -2.03168 1.07233 0.267653 0.33676 -0.00571787 0.473559 -1.44667 1.04502 1.61945 -0.102674 -0.585266 -0.31854 -1.33345 0.368112 0.539939 0.274116 -0.619187 0.27529 0.652975 0.987149 0.5636 -0.99744 -0.843982 -0.443893 -0.66973 -1.02977 0.671724 0.257109 
0.155472 0.613897 -0.496241 0.292408 1.74407 -0.477991 -0.0149248 1.08586 1.83777 -0.815053 0.885566 -0.414865 2.13943 0.867527 -0.766029 -0.0946989 -1.88555 1.7459 0.19032 0.59176 -0.881495 -1.203 -1.07756 0.821715 0.503347 -0.218457 0.0451676 -0.450002 -0.0717377 0.793505 -1.49348 -0.884893 0.905483 -1.67006 1.85314 -0.106058 1.72874 -0.520476 0.45016 -0.394295 
1.39553 0.663384 -1.82313 1.67164 -0.010488 -0.165495 -0.443792 -1.23358 -0.429749 -1.23277 -0.994846 0.894984 0.398606 -0.1764 -0.615631 -0.0110088 0.426774 0.291099 -2.50667 -1.48146 0.911173 0.0874877 1.53973 1.11201 -0.0293313 -0.805361 0.207727 -0.481436 -1.32015 0.934764 -0.727624 1.04715 -0.766206 0.14547 -0.0479909 0.317038 -1.52974 1.0815 -1.02802 2.10449 
-1.05611 -0.925056 0.442549 0.229012 0.293474 0.511473 -2.06203 0.860901 0.701039 -0.138887 -1.3934 1.69121 0.67715 -0.374742 -0.374064 -0.428232 1.23335 0.210365 -1.92388 0.340442 0.0244189 -0.668719 -0.228509 0.532015 0.00232022 0.0488999 -0.0751931 0.147592 -1.05353 -0.738266 0.694434 -0.723759 -0.167633 0.977331 -0.0854146 -0.491958 1.62065 0.870716 -1.90422 0.541569 
1.74585 -0.422588 -1.03817 -1.18659 0.645908 -0.713744 -1.41822 -0.972639 1.01591 -1.21601 1.27735 -0.112352 -0.228876 -0.118472 -1.03534 -0.329433 -1.59472 -0.331669 -0.540983 0.58633 -1.22591 -0.753325 0.0635944 -0.0424396 -1.25094 -0.726694 -0.162396 0.244488 0.393608 -0.0952747 0.824673 0.146903 0.597755 0.463418 -0.712392 1.70628 2.10917 0.329497 1.73038 -0.542428 
-0.244915 -0.171274 0.139868 0.102383 0.939794 0.702658 -0.854067 -0.206342 1.89021 -1.24732 -0.145693 1.82504 0.448166 0.517913 1.05328 0.205093 0.511987 0.476392 -0.878939 -0.012183 -2.58185 0.822245 -0.201854 0.570444 0.635191 0.477793 -0.0501946 0.264151 0.704413 -0.62164 -0.34355 -2.27167 -0.0518433 0.679424 -1.06578 0.345165 -0.375421 1.48604 0.797127 0.464703 
0.950946 1.18695 0.671373 -0.559914 0.045009 -0.0146379 0.333871 0.346965 -0.534158 -1.97958 0.933729 -0.241877 0.241747 0.0190643 0.879775 0.312007 -0.217129 1.3282 0.00222861 -0.421818 -0.471103 1.00742 1.05759 -0.637387 -1.37624 -0.550145 0.515359 -0.749622 0.622491 0.433664 -0.568153 0.707522 0.396249 -0.392388 -0.76768 2.47058 2.19183 0.086333 0.541856 -1.4038 
-0.140746 1.73726 -0.455312 -1.03116 -0.122353 -0.967608 -0.747563 0.564723 -1.06101 0.531935 0.291004 -0.97755 -1.47145 0.984942 -0.354113 -1.03588 1.32674 -0.393359 -0.378993 0.275643 -0.783694 0.237909 -0.194546 0.897125 -1.55952 -0.630737 1.35516 -0.80423 -1.0192 0.954755 1.27109 -1.08009 0.140974 0.965953 -2.99227 -0.019194 0.47212 0.447929 -0.555474 -1.39093 
0.561756 -0.863912 0.602459 -1.14453 -2.19737 -0.924592 0.965806 -0.676268 -1.68844 -0.649286 0.581632 -0.3516 -0.49574 -0.382522 -0.325324 -1.0004 -1.74532 -1.05254 -0.0499029 -0.0371971 0.680051 0.30002 -1.27213 -1.57664 1.27942 0.646914 0.966932 -0.276046 1.32923 -0.892169 -0.731152 1.71975 -0.509968 0.740243 0.870544 -0.375119 1.53302 0.833021 0.300433 -0.198061 
