40 40
-0.763127 -0.218119 -0.586839 -0.588149 -0.331993 0.0730444 -0.411392 0.50532 -0.360615 0.199385 -0.970925 -0.184639 0.72764 -0.383496 0.197972 0.594328 0.740186 -0.189961 -0.720673 0.453902 -0.72671 -0.587539 -0.488412 0.525264 1.03598 1.02464 -0.464647 -0.547087 0.516082 0.328062 -0.839522 0.601214 0.178741 -0.747461 -0.750584 -1.20542 -0.22161 0.873497 -0.777517 0.479066 
0.299247 -0.915665 0.55537 -0.195145 0.468344 -1.11163 1.25555 0.667651 0.173278 0.135504 -1.14689 -1.17133 0.387618 -0.18848 -0.980811 -0.0298094 -1.29969 0.0329047 -0.219836 -1.32793 -1.18484 0.421115 1.04401 -0.0414303 -1.11772 1.08331 0.217446 -0.674412 0.363222 -0.882594 -0.22909 -1.38766 0.942444 0.133097 -0.195597 0.454984 0.882696 0.490992 0.771564 -0.587164 
0.0687493 -0.128407 0.47272 1.07323 -0.719179 0.396849 -0.261568 -0.561605 0.786098 0.527152 -1.15217 -0.758402 -0.801902 -0.786784 -0.209823 0.171771 0.322567 -0.603589 -0.6269 0.0136493 0.29736 -0.840657 1.20232 1.32356 -0.604532 -0.822845 0.284028 -0.305173 -0.122914 -0.701709 1.11173 0.135564 0.758882 0.756172 0.145895 -0.3147 -0.782234 -0.697771 -0.536155 -0.783773 
-0.979075 -0.0701481 -0.750428 -0.491203 0.985698 -1.15894 -0.421487 0.60524 0.397851 0.818986 1.25836 -0.737869 0.982092 0.162309 0.681431 -0.930697 -0.170761 -0.386284 0.572999 1.38048 -0.420682 0.53342 0.337389 -0.0383853 -0.835719 -0.610818 1.19236 -0.958194 -0.466224 -0.292629 0.302771 0.172195 0.951307 0.66056 0.0466637 0.0665712 0.706927 -0.142668 0.229513 -0.497762 
-0.495763 0.6759 1.24153 -0.33978 -2.0354 0.569287 -0.316331 -0.713554 -1.05512 -0.242751 -0.191831 -0.105527 -0.661324 -0.423337 0.499762 -0.473865 0.24044 0.254674 0.3069 -0.267697 0.627262 0.321684 -0.0575266 -0.809988 -0.204585 0.463585 -0.380193 0.63404 0.575654 0.562977 -0.468371 0.854193 0.940879 -1.13808 -0.266357 0.70537 1.12639 -0.325743 -0.143973 -0.375984 
0.772868 -0.22664 0.304066 0.663919 -0.0921925 -0.513995 1.27867 0.487077 1.17999 -0.773097 -0.342043 0.0410749 0.823977 0.949888 -0.791324 0.73608 -1.33217 1.33025 0.44942 -0.396578 0.450118 -0.0339602 0.299754 -0.299726 1.18794 0.7244 0.711615 0.419439 0.520126 -0.026582 -1.91506 0.574424 0.396632 -0.0843476 1.88918 0.625026 0.94025 -1.05991 -0.881635 0.425815 
-0.441049 -0.926542 -0.132634 1.36279 -1.83299 -0.92554 -0.601457 -0.508396 0.962213 -0.121632 0.0850695 1.47412 -1.20399 -0.454751 -0.334536 -0.495027 -1.24476 -1.50609 -1.38191 1.47892 -0.1652 0.508143 -0.984765 -0.442601 0.965142 0.932884 -0.322337 -0.307127 1.3573 0.757379 0.338135 0.385523 -0.601097 0.413618 0.739018 0.132348 1.56856 -0.784628 -0.121043 0.659095 
-0.971055 0.0270063 0.477048 -0.831065 -0.094717 -1.25605 -0.357267 0.682399 0.0163483 -0.556471 -1.14829 0.346714 -0.751637 0.196884 -0.394579 -0.818957 0.0459096 -1.27778 -0.967779 0.66849 0.207572 1.11984 -0.686387 0.670165 0.728803 -0.074744 0.380962 -0.0609803 -0.341499 -0.556315 0.984813 0.0259082 -0.222434 0.360455 0.213014 0.031638 -0.264256 1.14643 -0.814997 0.690579 
0.66956 -0.134699 0.153271 0.620861 0.011196 -0.207438 0.142416 0.662074 0.114925 0.551207 -0.704032 -0.74548 0.892692 0.195059 -0.713335 -0.493013 0.854769 0.973052 0.556685 -0.834257 0.572892 0.307403 1.21542 0.339055 -0.0401098 0.471951 1.04875 0.961807 -1.04292 -0.110055 -1.41332 -0.327612 0.0181095 0.119225 -0.554899 0.289228 -1.04987 -0.16543 -0.686123 -0.567471 
-1.80527 -0.0256017 1.01819 0.522428 0.266052 0.552183 0.756686 0.194395 -0.470896 1.68928 -0.793684 0.605795 -0.293174 0.202124 -0.688971 0.259043 -0.581998 -0.688796 -0.534277 0.0426616 1.44486 0.316954 -0.939268 0.713765 -0.101159 -0.0368738 -0.128405 -0.311808 0.107501 -0.199583 -0.530187 1.10935 -0.257906 -0.279854 0.913323 -1.68707 -0.911639 -0.372346 -0.344213 0.409874 
-0.449795 -1.12232 -1.33944 -0.384386 -1.29232 -0.263612 -1.16772 0.0769022 -0.251122 -1.89441 -1.05782 1.33934 1.4637 -0.565614 -0.404576 0.148571 1.04598 1.21698 0.794973 -1.26768 -0.666136 0.898513 0.036673 0.629944 0.0347139 0.983535 0.159739 -0.166211 -0.442313 -0.519206 -2.02426 -1.13818 0.889603 -0.190642 0.903175 -0.562599 1.38687 -0.105211 0.575061 1.20476 
0.0130745 1.05771 -0.522825 -0.666329 -0.132909 0.5858 0.0630987 -0.254684 -1.14993 1.18992 -0.531398 -0.683253 -0.324662 -0.622905 0.67946 0.0977529 0.551915 -0.67328 0.677717 -0.014485 0.707486 -0.859232 -0.369703 0.946675 -0.0434902 -0.11061 0.0955606 0.554469 0.68367 0.430948 -0.0163295 0.147346 -0.0194671 0.648285 0.124908 -0.906176 -0.174819 0.165698 0.719509 0.777899 
-0.405548 -0.391051 0.574625 0.599956 0.333145 -0.365318 -1.10196 0.668773 -0.312763 0.18459 -1.235 1.04449 0.270032 -0.554959 -1.07059 -0.478432 -0.509533 -0.860539 -0.331774 -0.918868 1.33811 0.0339887 0.800927 0.833437 1.43453 -0.313734 -0.788764 0.613764 -0.805811 0.778043 0.432975 -0.225038 0.660914 0.476117 -0.218302 -1.46849 0.490204 1.11517 -0.990639 -0.0658943 
-1.32863 0.0388104 -0.584842 0.0192344 -0.355916 0.14081 -0.828137 -0.426417 -0.640317 0.584812 0.868091 0.371389 0.5673 0.904259 -0.276105 0.48721 0.549232 -0.913987 -0.86667 0.707042 -0.441772 0.600968 -0.724859 -0.624239 0.732489 0.354969 -0.549081 -0.628683 -0.262294 -0.212194 0.122639 -1.2693 -1.01764 0.955186 0.239069 -0.430874 0.584166 0.699057 0.599194 0.0845536 
0.261238 1.52198 -1.41708 -0.385729 -0.748425 0.238605 -0.748568 0.224143 -0.0362552 0.572455 0.896364 0.693096 -0.917515 1.20183 0.346306 -0.446045 1.25697 -0.389691 0.512993 1.3662 -0.134534 -0.979105 0.0740878 0.380581 1.01295 0.967662 -0.531312 0.26994 0.013976 -0.325038 0.259437 -1.05701 -0.0668474 -0.956931 -0.894845 -0.29829 -0.685009 -0.765728 1.37108 0.0971311 
-0.301553 -0.166932 -0.950304 -0.412904 -0.979869 -0.646245 0.154819 -0.398063 -0.764333 -0.473169 -0.275635 -0.956574 -0.720008 -0.72181 0.436513 -0.643282 -0.515111 0.48897 0.697691 0.183131 0.249078 0.17227 0.461862 0.167569 -0.830753 1.32527 0.0432939 0.890008 0.60778 0.0665391 -1.09821 0.42676 -0.906178 -1.10861 0.474273 0.650245 -0.860344 -0.622071 -0.716058 -0.304204 
1.01612 -0.104115 -1.09008 0.132757 -1.6607 0.416499 0.843862 -0.767374 -1.50655 -1.03021 -0.186347 0.336997 -0.838133 0.522542 0.887748 -0.514841 -0.347744 0.800647 0.0433151 -0.320725 0.326987 0.155047 1.56693 -0.931936 -0.322167 -0.823023 1.05888 -0.723524 -0.539456 -0.847465 0.157578 0.897892 0.218251 1.25362 -1.26727 1.17905 -0.920618 -0.0148178 -0.418191 -0.0132454 
0.157818 -0.308703 1.07885 0.514929 1.60143 -0.200576 1.90608 0.442862 0.736374 0.364296 0.505146 -0.0538257 -0.0505615 0.579219 0.750019 -0.843269 -0.102621 0.800745 0.536588 -0.756649 -0.658614 0.486491 -0.0257851 0.960801 1.38735 0.186174 0.558874 -0.300287 1.4582 -0.599357 0.0826491 -1.78797 -0.518925 -0.726568 0.43739 -0.735999 -0.0308258 -1.10128 0.540012 -0.709714 
-0.227319 -0.721926 0.348039 0.330003 1.66469 -0.519699 -0.173875 0.858047 1.6683 -0.857969 -0.420652 0.610807 1.14204 -0.816909 0.583432 0.766716 -0.242002 -0.335926 -0.223056 0.153859 -0.0775675 1.32995 1.46001 -0.0982822 -1.3858 0.574006 0.322977 0.0766649 -0.439568 -0.12439 -1.30385 0.172021 -0.112835 -0.209223 -0.476758 -0.918388 0.192629 1.17842 -0.735233 -0.0327459 
-0.233827 -1.34633 0.812899 -0.405835 -0.30363 -0.562034 0.49345 1.32441 0.164445 -0.0765027 -0.668335 -0.119285 0.0116588 0.387567 -0.408055 -0.632694 0.183746 -0.139587 0.733032 -0.274475 0.708009 0.381988 0.64518 -1.55247 -0.413765 -0.788993 -0.0954959 0.660522 -0.686156 -0.694887 -0.68362 -0.317092 1.43638 -0.518229 0.119178 0.0512678 1.04889 -1.03058 -0.995826 -0.0573371 
0.855412 -1.00816 -0.0496774 -0.724861 -1.21247 -0.529713 -0.257052 -0.159154 -0.815387 0.499119 1.0792 0.562945 0.16111 0.747108 -0.470599 0.0467503 -0.357403 -0.560948 1.1112 0.139178 1.6071 0.229647 -0.518944 -0.924401 -0.101107 0.78559 1.09898 -0.270426 0.50015 0.027182 -0.418968 0.0418073 -0.14077 -0.267015 0.397356 0.374224 -0.819948 0.603655 0.622699 -0.654247 
-0.341828 0.0432675 -0.0286429 -0.637591 -0.335651 0.109659 -0.547144 -0.810064 -0.146107 -0.735286 -0.307958 -0.327679 0.233495 0.780869 -0.679411 -0.384193 -0.864704 -0.243897 0.085689 0.141124 -0.402353 0.0614246 -0.714736 -0.58603 -0.070589 -0.363176 0.923768 0.0321308 0.81875 -0.296645 -0.236244 -0.4514 -0.650607 0.596991 0.00289609 0.121698 -0.533639 0.194513 -0.738066 -0.362159 
0.832427 -0.503528 0.901339 -0.131206 0.592765 0.825102 0.859231 -1.01155 0.205512 -1.45852 -0.658069 0.101134 0.765314 1.11298 -0.69832 0.374091 -0.641313 -0.0655519 0.341144 -1.21718 -0.888353 0.737089 1.44439 -0.00558901 -0.262815 -0.808159 -0.271673 -0.0262609 0.767015 -0.644754 0.346008 0.54496 0.531054 0.541718 -0.175896 1.31024 -0.316879 -0.0935047 -0.777104 0.845097 
-1.15524 1.40977 -0.295274 -1.09771 0.24847 0.124245 0.280439 0.397571 -0.996857 -0.216171 -0.275477 -1.20395 -0.609993 0.906203 -0.732816 -0.0992354 1.17916 0.34747 1.65733 0.256888 -0.0985296 -0.175312 0.792919 -1.45009 -0.834646 0.43125 0.416216 -0.26207 -0.754952 -0.852068 0.793787 -1.18292 1.36753 -0.628645 -1.08694 -0.897795 -0.226536 -1.06044 -0.413769 -1.48775 
0.991058 -0.487811 0.00202819 0.519289 0.551979 -0.982702 0.835415 -0.157883 0.754986 0.358767 -0.858689 -1.02856 0.899529 0.57418 -0.0380991 -0.999299 -0.259987 0.118307 0.790063 -0.497963 -0.104298 -0.373344 -0.0670485 -0.41216 -0.200796 0.61857 0.607815 -0.948811 0.146985 0.237087 0.0235583 -1.23581 -0.925275 -0.599525 0.623828 -0.60447 -0.843253 -0.369782 -0.512811 0.136581 
0.638578 -0.789669 -0.357062 0.717454 0.956604 -0.504537 1.2244 -0.16745 0.147822 1.10986 -0.890802 -1.22149 -0.288592 0.8257 -0.223948 -0.671255 -0.229209 0.604738 0.497771 -0.885708 1.75999 -0.546084 -0.333586 0.638835 0.882495 1.05011 -0.253864 -1.01308 -0.360986 -0.845121 -0.606049 0.248654 -0.596344 -0.267121 0.858441 -0.698693 0.403574 -0.983371 -0.063678 0.66917 
0.205443 -0.319229 1.57999 0.0898012 -1.26749 0.15528 -1.03196 0.0103793 -0.579997 0.345946 0.170667 0.320281 -1.30856 -0.245703 -0.700896 0.640842 0.0836539 0.543666 1.14641 0.140037 0.33836 0.52706 -1.25416 -1.95498 -1.45329 -0.158101 0.703524 0.834423 -0.0176276 -0.495246 1.04365 1.78555 -0.253749 -0.710009 0.974008 0.297386 1.95409 -0.123913 -0.737152 0.269486 
0.370125 -0.127111 -0.458675 0.0200614 -0.0111092 -0.843606 0.148553 -0.402112 1.56101 0.309821 0.794578 1.53522 -1.40459 -0.563435 -0.690763 0.965658 0.19564 1.32009 -0.320828 0.31484 -0.0285989 -0.989212 -0.792382 -0.232349 0.747105 -0.85179 -0.243852 -0.927134 0.190411 0.265821 -1.0073 1.34546 -1.09094 -0.484729 2.43688 0.101254 -1.32035 -0.604715 1.57936 1.64734 
-0.979714 -1.01964 -0.563218 -0.282623 -0.881307 0.856954 -0.078833 0.687118 0.328408 -0.0797537 -0.476959 -0.528832 -0.337109 -0.345065 0.262639 0.217392 -0.597397 0.803528 -0.748063 0.145089 -0.296257 0.742093 0.440251 0.416514 -0.221138 -0.686415 -0.294606 0.668263 -0.93813 0.868423 -0.279346 0.714896 0.816489 0.801492 0.208512 -0.325747 0.366501 0.0291592 0.812828 -0.910516 
0.019266 -0.319365 0.071959 -0.157071 -0.48671 -1.25993 0.244765 -0.560879 0.167245 0.045614 -0.821056 -1.46004 -1.04096 -0.286989 -0.0973942 0.155151 -0.623968 -0.390723 0.0834506 -1.06617 1.35542 -1.00439 -0.638719 0.140369 0.132769 0.514053 -0.31838 -0.945436 0.478954 -0.756256 0.478887 0.204769 0.48109 -0.896053 -0.598394 -0.994081 -0.498013 -0.379453 -0.804921 0.953122 
0.00781861 -0.381623 0.710675 0.184939 -1.01399 0.43895 0.197551 0.175498 0.480664 -0.502144 0.579448 0.965969 -0.46031 0.359106 -0.429657 0.803481 0.160959 -1.02279 -0.0488568 0.85477 1.01714 0.630219 -0.506088 0.723494 -0.38985 0.674588 -0.617634 -0.944355 -0.243954 -0.302874 0.337054 -0.229307 -0.103021 0.40702 0.773278 -0.385154 0.237783 0.80336 0.682522 0.530203 
-0.400705 1.12815 1.05739 1.00186 0.0347298 0.711974 0.0380191 0.461581 0.999861 0.0470709 1.00804 0.518231 -1.23626 1.05479 -0.038578 0.296126 -0.396826 0.626217 -1.159 1.14417 1.44253 -0.233071 -0.576622 -0.657723 -1.07084 0.69704 0.532965 0.574711 -0.684845 0.124272 0.325351 0.733004 0.587698 -0.722126 -0.747832 -0.573113 -0.223479 -0.669117 0.313827 0.339802 
0.406444 0.765701 -0.77499 0.290888 1.13607 -0.49127 -0.507192 1.25406 1.54664 -0.48495 0.443733 -0.457373 1.42341 0.764385 -0.758767 -0.0961271 -1.34125 1.14186 -0.250962 0.206953 -0.507186 -0.942005 -0.715607 0.247474 0.472474 -0.0852985 0.00923363 -0.21237 -0.370274 0.71073 -1.17808 -0.933725 1.17369 -1.05919 1.45271 -0.32749 0.851978 -0.584161 -0.18083 -0.372822 
0.788003 0.699942 -1.02885 1.16809 -0.368111 -0.142924 -0.307695 -0.467932 -0.733482 -0.897225 -0.510795 0.56359 0.34757 -0.293665 -0.42492 0.0192821 0.571023 -0.157492 -1.37354 -1.23102 1.22635 0.235374 1.3842 0.941435 -0.138014 -0.644778 0.152746 -0.528597 -0.999695 0.828361 -0.0695886 0.634829 -1.03619 -0.156854 -0.748518 0.536099 -1.07399 1.05224 -0.729081 1.71196 
-1.19445 -0.448519 0.625379 -0.311736 0.515754 0.521821 -1.62813 0.654313 0.0513746 -0.361102 -1.13793 1.12556 0.345682 -0.230751 -0.653258 -0.419649 1.386 0.0499544 -1.3592 0.382109 0.224038 -0.741296 -0.306652 0.548343 -0.497474 0.0273935 -0.181841 -0.402123 -0.702577 -0.718151 0.494648 -0.651927 -0.0611406 0.776138 -0.12671 -0.22936 1.19895 0.811179 -1.43132 0.437578 
1.28391 -0.463539 -1.41981 -0.678185 0.959885 -0.677404 -1.2003 -0.555612 0.38673 -1.29974 1.07458 -0.245543 -0.197522 -0.0670881 -0.698122 -0.322556 -1.73676 0.143336 -0.662047 0.520564 -0.725143 -0.7142 -0.258826 -0.162629 -1.12531 -0.790623 -0.162433 0.446094 0.0271952 -0.233695 0.168541 0.144527 0.387705 0.184356 -0.652034 1.70891 1.35329 0.631389 1.14256 -0.70016 
-0.250684 0.0406108 0.20313 0.249495 0.451038 0.734534 -0.8706 -0.573002 0.909805 -0.896794 0.238986 1.42443 0.00540946 0.752298 0.819851 0.2378 0.539283 0.187095 -0.556068 0.672174 -1.62284 0.85724 -0.16738 0.166996 0.263452 0.542868 -0.125677 0.201863 0.256012 -0.729868 0.195092 -1.0044 0.273598 0.703058 -0.749329 -0.121861 -0.300262 1.2521 0.786721 0.375072 
0.985629 1.31653 0.468134 0.030932 0.140158 0.0241009 0.0169333 0.268249 0.14778 -1.4339 0.435524 0.273148 0.682136 -0.119843 0.620206 0.34466 0.468029 1.01203 -0.27569 -0.465181 0.0348729 0.543274 0.844461 0.176797 -0.202176 -0.474426 0.516975 -0.748563 0.975827 0.364265 -0.873445 1.23746 -0.0454486 0.307329 -0.316523 1.42881 1.45521 0.28947 0.26312 -0.651607 
-0.0471783 0.824904 0.0169977 -0.846314 -0.617675 -0.94223 0.171696 0.783807 -0.942312 0.558086 0.291998 -0.512549 -1.38093 1.11611 -0.347404 -0.967627 0.370346 -0.151478 -0.170754 -0.178142 -0.542847 0.291636 -0.235018 0.236506 -0.763095 -0.737111 1.27962 -0.610846 -0.520567 0.741098 0.651093 -0.234971 -0.0608867 0.497615 -1.88129 -0.253363 0.495382 -0.410685 -0.356907 -0.784323 
0.903785 -0.750077 0.262087 -0.447436 -1.42426 -0.896018 1.11389 -1.18743 -0.973532 -0.519674 0.558362 -0.252768 -0.487419 -0.378922 -0.346569 -0.911136 -1.46093 -0.65512 -0.602306 0.205775 0.662361 -0.245256 -0.584728 -1.13833 1.16674 0.527086 0.921814 -0.176995 0.988308 -0.939224 -0.653107 1.49847 -0.701967 1.06259 0.968251 -0.423632 0.97467 0.425016 0.687101 0.132456 
