40 40
-0.413248 -0.159707 -0.765388 -0.773921 -0.504644 0.0876687 -0.353091 0.232989 -0.749286 0.138439 -0.427522 -0.478448 0.593788 -0.394279 0.216745 0.618876 0.790578 -0.361332 -0.320665 0.532112 -0.666589 -0.458279 -0.546533 0.0360174 0.908767 0.955948 -0.543578 -0.584792 0.596266 0.301917 -0.714073 0.96734 0.0426306 -0.828386 -0.930008 -0.816072 -0.416832 0.769677 -0.566756 -0.00925188 
0.795386 -0.679021 0.866119 -0.210825 -0.271276 -0.941817 0.86903 0.158744 -0.482815 0.489723 -1.14331 -0.713044 0.0486637 -0.673291 -0.854512 -0.0821262 -0.939457 0.0324492 -0.512127 -1.12164 -0.525658 0.723493 0.299981 -0.10091 -0.997236 1.04562 0.239058 -0.793184 0.243268 -1.21631 -0.332251 -0.323436 0.82099 0.526994 0.320807 0.158435 0.231077 0.75421 0.00222909 0.136824 
0.592449 0.17012 0.762041 0.208681 -1.09208 0.518158 -0.174635 -0.663406 0.162078 0.781801 -0.887755 -0.930593 -0.398711 -1.13944 -0.166595 0.200009 0.106262 -0.873315 0.148589 -0.603461 0.242468 -0.428723 0.752035 0.621021 -0.433376 -0.837977 0.0742074 -0.496088 -0.308996 -0.364127 0.84359 0.563644 0.617026 1.17938 0.249744 -0.380447 -0.86596 -0.723807 -0.23757 -0.612656 
-0.38021 0.820726 -0.947321 -0.697849 0.772558 -0.892081 -0.165741 0.603895 0.343399 0.522087 0.783998 -0.978723 0.829916 0.24218 0.624997 -0.886085 -0.208181 0.37502 0.162665 0.301111 -0.86944 0.669906 0.737362 0.117179 -1.2029 -0.0322649 1.06373 -1.03648 -0.632598 0.312137 0.363109 1.05938 1.35979 -0.159381 -0.131144 0.347185 0.388681 -0.338341 0.457922 -0.499601 
0.184241 1.1603 0.928206 -0.386821 -0.697896 0.621594 0.115634 -0.726596 -0.570381 -0.652313 -0.204127 -0.434523 -0.218334 -0.256224 0.415825 -0.459218 0.184211 1.17964 0.166392 -0.0195813 0.0115019 -0.0381531 -0.14931 -0.184889 0.0254698 0.262315 -0.359472 0.361019 0.329622 0.452327 -0.487025 0.0564476 1.04218 -1.29076 -0.412617 1.06858 0.668532 -0.297219 0.0298303 -0.0580906 
0.688 0.213104 0.0187921 0.398598 -0.210365 -0.491884 0.918995 0.546069 0.743089 -0.652668 -0.0961778 0.0065839 0.479578 0.920772 -0.831975 0.713472 -0.100953 0.741308 0.495901 0.195458 0.611201 0.422682 0.888127 0.258587 0.946944 0.541004 0.765093 0.40782 0.0743542 0.00629696 -0.904184 -0.104778 0.340387 0.67485 0.803506 0.721407 0.586372 -0.556372 -0.76159 -0.300361 
-0.0418179 -0.432821 -0.819366 0.742144 -1.40197 -0.965646 -0.498995 0.118587 -0.0197418 0.0541326 -0.790488 0.733081 -1.0935 -0.880253 -0.450976 -0.606673 -0.96467 -1.27456 -1.58402 1.29934 0.779927 0.0556651 -0.896171 -0.0471175 0.207383 1.78885 -0.270895 -0.680214 -0.0104188 0.840157 -0.507747 -0.300998 -0.0741225 0.930588 0.70165 0.56979 1.49278 -0.377219 -0.460367 0.892778 
-0.0187825 -0.113239 -0.101128 -0.873879 -0.560539 -0.948267 -0.404904 0.429618 -0.373263 -0.0428376 -1.15384 -0.245232 -0.802739 -0.18286 -0.39047 -0.745062 0.199781 -0.586221 0.101383 0.601187 -0.260009 1.1704 -0.807727 1.35459 0.225215 -0.0591836 0.324222 -0.243366 -0.617271 -0.0405295 0.119113 0.522035 -0.415665 -0.157424 0.342197 0.329324 0.144718 0.616811 -0.0796551 -0.0868667 
-0.169558 -0.159043 0.928198 0.247707 0.416106 0.0651157 -0.536835 1.15806 0.772907 1.59019 -1.10468 -0.0591915 1.36579 -0.297959 -0.673362 -0.480949 0.503782 -0.126701 -0.735767 -1.56013 -0.37591 0.532637 0.623759 0.126644 -0.344831 0.0566777 0.899105 0.975537 -1.02521 0.371437 -1.19791 0.445347 -0.338183 0.493953 0.372412 0.255651 -0.34771 -0.502961 -0.672837 -0.494799 
-0.0888167 0.0460595 0.744233 0.346483 -0.0420685 0.702364 0.904494 0.530868 -0.416362 0.764993 -0.572911 0.84306 0.0568805 -0.266906 -0.552657 0.234312 -0.967995 -1.00522 -0.451023 -0.438293 0.384222 0.56383 -0.741224 0.253156 -0.180204 0.0578814 -0.164658 -0.203925 0.385946 -0.0796192 -0.519701 0.835742 -0.155619 0.993918 0.353491 -1.0399 -0.417391 -0.162871 -0.502717 -0.0744401 
-0.498097 -0.298709 -0.981498 -0.00537223 -0.224517 -0.219082 -1.0232 0.113986 -0.257276 -0.17534 -0.771816 0.455019 0.682252 -0.964143 -0.332235 0.242943 1.14464 1.00049 0.247651 -0.957135 -0.311202 0.324271 0.0884663 0.786139 -0.450194 0.67504 -0.15955 -0.302619 -0.656522 -0.561273 -0.6685 -0.803411 0.757084 -0.685938 1.17595 -0.0783432 1.18232 -0.642989 0.148698 0.37767 
-0.0634756 0.827941 -0.155909 -0.711306 0.355633 0.697883 -0.270864 -0.248575 -0.678529 0.607985 -0.856696 -0.49467 -0.0603923 -0.575241 0.644374 0.156914 0.215158 -0.668172 0.301261 -0.145921 0.00810031 -0.524112 -0.067028 0.926823 -0.248543 -0.143062 0.0867322 0.635445 0.753634 0.553649 -0.246613 0.641749 0.289727 0.570739 0.365951 -0.554976 0.10856 0.118569 0.960109 0.818637 
0.210682 -0.169085 0.219789 0.447988 0.300884 -0.269814 -0.967211 0.491983 -0.770062 -0.143687 -0.64963 0.933976 -0.538839 -0.906143 -0.95337 -0.393068 -0.981922 -0.434504 -0.256546 -1.00862 0.585163 -0.21135 0.857262 0.283931 0.923301 -0.0829176 -0.977139 0.61428 -0.510407 0.764885 1.07216 0.441909 0.775859 0.354734 -0.0166248 -0.581871 0.481931 0.769898 -0.602966 -0.182053 
-0.8594 -0.0916815 -0.637336 0.043669 0.740357 0.400576 -0.739001 -0.474981 -0.434629 0.0277092 0.0822738 -0.10094 0.881917 0.311336 -0.140988 0.603994 -0.276982 -0.446644 -1.22046 0.251654 -0.761812 0.519392 0.306943 -0.505199 0.12836 0.656419 -0.745402 -0.816979 -0.156155 -0.191162 0.229654 -0.516748 -1.08156 1.06213 1.05598 0.391611 0.596775 0.149176 -0.845801 0.200805 
0.162124 1.55991 -1.23649 -0.256336 -0.258115 0.477806 -0.491636 -0.391097 0.312735 0.354581 -0.0247252 0.554185 -0.0286307 0.694391 0.378286 -0.407577 0.252889 0.153626 -0.0877291 0.209405 0.193712 -0.391193 1.09624 0.674319 0.774931 0.157753 -0.636179 0.15074 0.185488 -0.0491758 -0.071632 -0.30127 0.424325 -0.966747 -0.79146 0.164459 -0.52194 -0.912811 0.76691 0.413325 
-0.712126 -0.339258 -0.627951 -0.326321 -0.789478 -0.610834 -0.23526 -0.639965 -0.843274 -0.230848 -0.0792765 -0.983959 -0.151163 -0.949371 0.403771 -0.621932 -0.590817 0.199103 0.107069 0.330106 0.272919 0.464361 0.387285 0.185462 -0.972311 1.10337 0.0501311 0.85861 0.333473 0.0555421 -0.767045 -0.0145062 -0.759279 -0.212756 0.169786 0.617613 -0.644017 -0.462695 -0.440863 -0.118387 
0.515343 -0.902715 -0.525582 0.0156807 -0.819552 0.544909 0.628449 -0.127673 -0.821654 -0.676724 -0.404911 0.426995 -0.190772 0.737716 0.877056 -0.430869 -0.279167 0.756602 -0.429908 0.164334 0.476854 -0.153066 0.800063 -0.698609 0.176296 -0.747423 0.871289 -0.699167 -0.962043 -0.762141 -0.0147627 0.577895 0.356598 0.802949 -1.02431 0.78956 -0.746528 0.0611322 -0.989649 0.0891912 
0.37673 -0.715841 0.796681 -0.00710335 0.826667 0.00146527 1.11476 0.396261 0.438767 0.17801 0.0202874 0.540488 0.535995 0.476205 0.683397 -0.963817 0.0483592 0.273767 0.251537 -0.922119 -0.483614 0.711434 0.508034 0.590286 0.750064 0.0953276 0.517968 -0.481423 0.682047 -0.785712 0.00224568 -0.489973 -0.853832 -0.327166 -0.0889205 -0.714125 -0.261204 -0.576622 -0.29957 -0.339197 
-0.307705 -0.60069 0.00891125 -0.134355 0.683322 -0.42856 0.272486 0.291533 0.837339 -0.403474 -0.131957 0.391641 0.431856 -0.875255 0.722934 0.7667 -0.187138 -0.736792 0.184259 0.150717 0.701059 0.995299 0.937954 -0.225179 -0.912962 0.670458 0.192654 0.0256037 -0.18055 -0.152291 -0.711956 0.934286 -0.563757 -0.298649 -0.494704 -0.791564 -0.477682 0.985613 -0.695195 0.0847563 
-0.0916041 -0.867099 1.10166 -0.11867 -0.668721 -0.498489 0.382314 0.659898 -0.384984 0.118279 -0.889687 0.00663265 -0.525321 0.166819 -0.499216 -0.604924 0.526446 -0.596113 0.153297 0.162164 0.674075 0.497897 0.333316 -0.911898 -0.0314313 -0.710251 -0.197357 0.660171 -0.76245 -0.613623 -0.391574 -0.24641 0.847582 0.158496 0.0298245 0.175155 0.739152 -0.959049 -1.0162 0.0812925 
0.719424 -1.02123 0.365656 -0.551771 -0.644042 -0.377671 -0.330293 -0.0151866 -0.0662709 0.0100071 0.215991 0.210547 0.564531 0.321553 -0.599238 0.107357 -0.68775 -0.109905 0.511762 0.219768 0.861422 0.0744517 -0.562874 -0.0424046 -0.439049 0.726288 0.994834 -0.253245 0.510423 0.0352825 -0.359916 -0.29624 -0.0420653 -0.656732 0.654564 0.646395 -0.838549 0.513325 0.299344 -0.706526 
-0.361037 0.100709 -0.0343342 -0.700036 -0.393771 0.103072 -0.531573 -0.852145 -0.32158 -0.669953 -0.291299 -0.404045 0.174324 0.756324 -0.680989 -0.390983 -0.797431 -0.29497 0.173972 0.156069 -0.236213 0.0280138 -0.73198 -0.556593 -0.128801 -0.328705 0.93699 -0.025146 0.748156 -0.295512 -0.165845 -0.407062 -0.66846 0.589875 -0.0826084 0.100418 -0.609568 0.206038 -0.762332 -0.397321 
0.253452 -0.333302 1.24905 -0.451851 -0.206475 0.838787 0.0593066 -0.596404 -0.217313 -1.16303 -0.400816 0.26817 0.778876 1.13892 -0.632995 0.361959 0.362968 0.339286 -0.0038304 -0.264001 -0.756369 0.776096 0.723276 -0.024986 -0.0504772 -0.361115 -0.183234 -0.0154306 0.332957 -0.774427 0.187933 0.587839 0.709513 0.291822 -0.0299345 0.532372 -0.374012 0.12207 -1.16204 1.42705 
-0.391262 0.612923 -0.670446 -0.625772 0.777514 0.363987 0.397771 0.375743 -0.0406842 -0.67593 0.137179 -0.708675 0.230275 0.729716 -0.828736 -0.0107769 -0.00103484 0.373723 0.713002 0.58692 -1.0051 0.252117 0.801383 -0.946057 -0.503072 0.514065 0.201697 -0.162248 -0.643263 -0.416581 1.16296 -0.714883 0.885871 -0.496083 0.080776 -0.278234 0.467978 -0.932598 -0.0176859 -0.64313 
0.734379 -0.164088 0.276307 0.681973 -0.478599 -0.913762 0.131418 -0.14633 0.809046 -0.44934 -0.800703 -0.628529 0.974685 0.512743 0.156852 -0.993356 -0.00640195 -0.155405 0.44786 -0.246928 -0.423332 0.0607431 -0.0930619 -0.687172 -0.927507 0.619303 0.540352 -0.732659 0.259667 0.282542 0.413434 -0.917622 -0.66519 -0.0535619 0.539342 -0.112187 -0.727181 -0.263568 -0.959083 -0.138974 
0.640681 -0.556727 -0.210873 0.518824 0.493077 -0.399618 0.5835 -0.556841 -0.178833 -0.0437437 -0.692603 -0.795357 -0.338532 0.793011 -0.130461 -0.640823 -0.159495 0.423235 0.38763 -0.476971 0.950444 0.0415606 -0.240868 0.267504 0.330141 0.733452 -0.1473 -0.966669 -0.505561 -0.761357 -0.460302 0.39117 -0.33807 0.206848 0.475482 0.0036865 1.15028 -0.920344 0.554659 0.536541 
1.49782 -0.670328 0.917493 0.167155 -1.09034 0.26222 -1.0668 -0.0429073 -0.847694 -0.239396 -0.265437 -0.188981 -0.683705 0.0443487 -0.823403 0.391245 -0.173826 0.385247 0.777284 -0.0185678 -0.578915 0.748355 -1.57803 -0.179348 -1.23487 0.314852 0.84536 0.757366 -0.387119 -0.740908 0.254065 0.92541 0.517211 -0.523404 0.414068 -0.287404 1.35826 0.0145374 -0.2587 0.355953 
-0.143819 -0.792324 0.0857019 -0.222451 -0.807488 -0.822249 0.188879 0.734773 0.843301 0.857439 0.380091 0.563393 -1.05059 -1.1337 -0.624819 0.618049 1.10338 0.900392 -0.215854 -0.205921 -0.532602 -0.0932237 -0.14957 0.144624 -0.655706 -0.624636 -0.356891 -0.934312 -0.434066 0.342728 -0.299914 0.711311 -0.839924 -0.255107 1.56843 0.238514 -0.467017 -0.556225 0.892257 0.6956 
-0.901499 -0.8201 -0.506128 -0.205682 -0.88794 0.85417 0.242089 0.721328 0.2294 0.01993 -0.52105 -0.841338 -0.558673 -0.358579 0.259041 0.22265 -0.547233 0.909728 -0.65263 -0.0165577 -0.212745 0.645295 0.452221 0.577034 -0.0938055 -0.623483 -0.294394 0.590762 -0.867491 0.858961 -0.289423 0.805429 0.804647 0.698385 0.289767 -0.344349 0.151705 -0.125406 0.673077 -0.920752 
1.72668 -0.255511 -0.142555 -0.420712 -0.274301 -1.00893 0.176523 -0.29535 0.731486 -0.324128 -0.223781 -1.11461 -0.608967 -0.181968 -0.184627 -0.186129 -0.602509 0.172577 0.45683 -0.684621 0.0882928 0.228914 0.115314 0.691029 0.0585782 0.0942318 -0.213431 -0.795325 0.608364 -0.299832 -0.418043 0.772106 0.14082 -0.313437 -0.222135 -1.60613 -0.756178 -0.380051 0.154008 0.478831 
0.162352 -0.460233 0.697837 0.26917 -0.940653 0.450624 0.354568 0.142535 0.585901 -0.573958 0.62634 0.911264 -0.364312 0.391842 -0.418798 0.812552 0.132741 -0.9238 0.0176462 0.984024 0.96704 0.766543 -0.379472 0.791015 -0.210203 0.679202 -0.611975 -0.948346 -0.111653 -0.304938 0.28666 -0.253801 -0.207457 0.416304 0.835508 -0.407444 0.241496 0.766265 0.710705 0.644922 
-0.151591 0.368145 0.321431 0.59078 -0.21121 0.946416 0.52646 0.657812 0.865081 -0.477253 0.952943 0.57511 -0.571864 0.949311 0.0182615 0.347396 -0.360326 0.804122 -0.743173 0.77856 0.907389 -0.312429 -0.0593636 -0.670061 -0.880215 0.917241 0.584123 0.549539 -0.94877 0.263103 -0.0368851 0.821859 0.24602 -0.468854 -0.434071 -0.69274 -0.025991 -0.573833 0.651819 0.649424 
0.189177 0.962811 -0.356406 -0.0334259 0.810102 -0.34556 -0.478407 0.42587 1.08696 -0.308599 0.685827 -0.73739 0.439398 1.13144 -0.635521 -0.247456 -0.582127 0.964696 0.709531 -0.445267 -0.126613 -0.3782 0.193903 0.303884 -0.0427844 -0.0822128 -0.024818 -0.247536 -0.804556 0.440527 -0.614184 -0.296415 0.992058 -0.726174 -0.0170928 0.18904 0.977338 -0.686367 -0.337912 -0.822245 
0.544006 0.765816 -0.474421 0.910498 -0.411835 -0.126589 -0.0509809 0.428016 -0.59806 -0.353903 0.373082 0.481685 0.488156 -0.525378 -0.301452 0.0635171 0.628232 -0.165285 -0.637617 -0.666189 0.912219 0.782938 0.857398 0.194366 -0.0633129 -0.512048 0.135576 -0.389937 -0.702634 0.789351 0.239147 0.132099 -0.458202 -0.494019 -0.814774 0.258076 -0.116411 0.743933 -0.409937 0.978224 
-1.04243 -0.128058 0.167839 -0.788384 0.434672 0.628187 -1.20697 -0.246731 -0.289257 -1.40673 -0.707189 0.680544 0.220586 -0.316854 -0.536415 -0.344121 0.786838 0.770165 -0.922655 -0.11299 0.0793364 -0.843339 -0.443514 -0.0494841 -0.818588 -0.109066 -0.345708 -0.470321 -0.532273 -0.459061 0.575681 -0.0149475 -0.472517 0.216424 -0.546468 1.03388 0.632924 0.450612 -1.13589 0.408356 
0.155516 -0.630034 -0.694862 -0.745805 0.739165 -0.641448 -0.449566 -0.55072 -0.166224 -0.381269 0.440078 -0.801599 0.460686 0.281025 -0.647268 -0.386805 -1.02606 -0.175663 -0.986295 0.540493 0.14511 -0.696629 0.0437867 0.0574573 -0.927249 -0.558334 -0.21386 0.294828 -0.368268 -0.428449 -0.172131 0.538049 0.395715 -0.061277 -0.64828 1.02905 0.903755 0.473553 0.410198 0.0492162 
-0.100536 -0.387723 0.803791 -0.16465 0.272412 0.95299 -0.702449 -0.73246 0.330524 -0.238737 -0.291398 0.842014 -0.134518 0.202906 0.842554 0.265042 -0.0290291 0.0438884 -0.170297 0.254509 -0.69153 0.187363 -0.39317 -0.197337 0.190939 1.00066 -0.348254 -0.185875 -0.169401 -0.761563 -0.52038 -0.137062 0.0682909 0.143696 -0.357349 -0.535425 -0.0394599 0.850602 0.0406267 0.456232 
0.921454 0.936822 0.38343 -0.09457 0.0684492 0.132212 0.131556 0.374868 0.359394 -1.00857 0.280108 0.273291 0.873652 -0.186414 0.619803 0.395771 0.919244 0.620114 -0.337747 -0.622316 0.486357 0.0840557 0.722915 0.718322 0.944487 -0.445396 0.478087 -0.586937 0.809008 0.368867 -0.968738 1.00306 -0.589326 0.517447 0.105822 0.772044 0.926823 0.516111 0.201004 -0.156975 
0.172118 0.184424 -0.00921092 -0.949282 -0.594951 -0.728755 0.140652 0.104456 -1.15514 0.418642 -0.272332 -0.731503 -1.023 0.84023 -0.540781 -0.993087 0.0837988 -0.901567 0.181969 0.0659964 -0.46567 0.902437 -0.137836 0.534273 -1.06346 -1.29272 1.21075 -0.812452 -0.7243 1.18367 -0.679168 0.968679 -0.648101 0.857943 -1.76152 0.0412464 -0.175292 -0.924663 0.0943316 -0.918581 
1.04219 -0.49707 -0.436236 -0.448424 -0.710257 -0.906428 0.474918 -0.398184 -1.0097 -0.310108 -0.250798 -0.828763 -0.810735 -0.457321 -0.42515 -0.940047 -0.956027 -0.401692 -0.786462 -0.104963 0.550622 -0.331737 0.548101 -0.601592 0.590312 1.42347 1.0277 -0.217215 0.773585 -1.58057 -0.458674 0.781308 -0.221084 0.645956 0.563219 -0.505085 -0.0878594 0.495449 0.133324 0.875806 
