40 40
-3.33004 -0.714117 0.0417842 -0.765933 -0.702932 0.11921 0.082767 3.7942 -1.00758 1.55907 -2.31949 0.475965 2.20541 -0.217266 0.820391 1.55604 0.0211107 -0.109864 -0.960597 -0.0415545 -1.88541 0.311511 -2.01783 -1.05972 1.05408 1.29977 -0.86925 -0.00410463 1.53135 0.256799 -1.8303 0.233687 1.78509 -0.895385 1.16905 -3.48045 0.809018 0.628578 0.24447 1.86759 
0.328017 -2.22344 0.758832 1.2845 3.93722 -1.07351 0.729176 2.59907 1.69203 -1.64401 -3.22716 0.162922 3.70036 -0.785528 -1.59297 0.5112 -0.0689255 -0.566212 0.0411572 -2.41819 -2.66111 0.638221 3.06217 -1.11883 -2.04685 0.738329 0.0484467 -0.0947782 1.04386 -1.14316 -0.875166 -1.34768 1.89796 -0.307384 0.0759993 2.08304 1.61432 0.357598 -0.479178 -0.74811 
-1.34482 1.39705 1.56664 0.648843 1.22284 0.388756 -2.24567 -2.26754 -0.35639 1.41545 -3.25194 -0.0949141 -1.18532 -1.65471 -1.37168 1.06523 2.39344 -1.63102 -2.88631 -0.573456 -1.24609 -2.26914 1.71533 2.11396 -0.907419 -1.25782 0.920055 0.295397 -1.95772 -0.90382 4.43261 -0.48724 0.314568 2.78457 -2.78612 0.130012 -2.25781 -0.447944 -1.98103 -0.159808 
-1.89234 0.187889 -0.465896 -1.25207 -0.784731 -1.00236 -2.35419 0.00884507 1.29504 1.76065 2.84676 0.335118 -0.259071 0.146105 0.447621 -0.806136 -0.595151 0.133781 2.14088 4.18245 0.861344 0.454306 -1.84307 -2.35566 0.696846 -0.494075 1.23587 -0.323915 -2.93925 0.228033 0.81304 2.10203 -0.350433 0.193723 0.766018 -2.28935 3.14235 -0.468219 1.48971 -1.58839 
-1.01865 1.55264 2.70071 -1.2312 -4.39065 0.662684 2.23777 -0.943387 -3.62478 -0.526946 0.0822103 -0.244456 -3.59328 -0.763127 1.13825 -0.720596 0.00681795 0.59125 -0.026133 -1.00016 2.84724 1.85979 0.713856 -0.545341 -0.340398 0.788512 -0.784943 1.59763 2.16948 1.54509 1.19509 3.38151 1.00053 -2.35455 0.177725 2.03095 2.38736 -1.56917 -0.529165 -2.29426 
1.23835 -2.04254 0.908815 0.974825 -0.932992 -0.520021 4.04222 1.81574 1.34843 -1.90544 -0.669952 -0.356601 0.903936 1.25419 -0.370098 1.02405 -4.13635 3.41305 1.60726 -0.670162 3.90406 -1.82266 -0.654601 -1.78638 1.4561 0.458933 0.479358 0.897859 0.470045 -0.0065525 -3.27203 0.921287 -0.839596 -2.57993 4.77371 1.97661 1.2244 -1.7279 -2.47799 0.425984 
-0.112584 -2.89735 -0.341015 1.71554 -3.57599 -0.708941 -0.337002 -0.998762 1.99707 0.0328417 2.28121 3.27414 -0.735206 -0.520097 -0.0142989 -0.201579 -3.27329 -1.85654 -1.15335 1.60615 1.47638 1.75534 -1.19131 -0.549857 2.12465 1.63031 -0.0401685 0.279533 1.39603 0.793221 0.107638 0.86767 -2.44878 -0.0782242 3.81329 -0.231065 1.57243 -0.718575 1.98251 0.89209 
-2.76365 1.67225 0.678694 -0.655601 -1.37066 -0.973078 -1.87149 1.09757 1.51822 -0.707393 0.470673 0.771889 -2.00802 -0.454934 0.247984 -1.01273 -0.132135 -3.4693 -2.47369 1.72039 -0.269434 1.37579 -1.31096 -0.125762 2.01444 -0.310892 0.0223691 1.61339 -0.296857 -0.480526 3.07314 1.92008 -0.956625 0.991309 -0.188184 -2.09266 0.673941 0.566116 1.7689 1.92658 
1.59672 1.30776 -0.946431 -1.06181 -0.219093 -0.00685765 2.03052 2.26723 -0.863743 0.937716 -1.45577 -2.23213 2.65679 -0.0376642 -0.437317 -0.515251 1.70497 2.63551 3.95803 -3.4906 0.731314 -1.69076 1.8325 -1.03085 -1.01141 0.750556 0.476155 0.02399 -3.05823 -0.287932 -4.55826 -0.738041 1.02161 -0.994863 -0.83249 -0.506945 -1.17729 -0.798389 -1.95302 -1.14149 
-3.71643 -0.207698 2.73501 1.23534 -1.03049 0.353059 -0.620788 1.64255 -0.572787 3.36087 -0.657228 -1.74426 -2.17542 1.33225 -0.871115 -0.202064 0.266833 -1.9862 -0.669059 0.851146 2.65665 -0.118122 -0.810041 1.53264 -0.000148697 -0.474371 -0.134198 -0.456327 -0.641235 -0.11229 2.35414 1.06753 0.756714 0.0129401 1.26163 -2.74397 -1.30514 -1.31428 1.13302 1.29582 
-0.493641 -1.37489 -0.921068 -2.5913 -1.18397 -0.17938 -0.326273 0.944832 0.152671 -2.56222 -2.24624 3.16316 3.96294 -0.259056 -0.283109 -0.155419 -0.239221 1.88476 -0.0820619 -1.92767 -0.215751 0.472519 0.498092 0.884631 0.717832 0.777911 0.333343 -0.693499 0.98071 -1.44438 -2.59304 0.701711 0.44426 0.0119794 1.15389 -2.25624 -0.0460621 1.95432 0.553642 2.25482 
-0.498642 2.63254 -0.513011 -1.1564 -2.61165 1.09057 -0.9212 1.03204 -1.39021 2.49819 0.37616 -1.89452 -2.34072 -1.00099 0.916532 -0.450238 2.85684 0.41033 0.842434 0.625369 1.86027 -1.36287 -1.19575 1.27548 1.25512 0.0870707 0.0998254 0.0114378 -1.16435 0.791895 0.961102 -0.697146 0.182845 -0.214956 -0.299201 -2.20312 -1.32113 -1.14612 1.30589 1.60525 
-0.407516 -1.44179 1.07164 0.255569 -1.04669 -0.271722 -0.642354 -0.066307 -2.07115 0.0986983 -2.62799 0.834292 0.417175 -0.533939 -0.753992 -0.321675 -1.21353 -2.88585 -2.06857 -0.962007 3.06246 0.120236 1.58048 2.26289 2.71488 -1.03914 -0.902641 1.67541 -0.337138 0.376924 0.55253 1.01105 -0.350365 1.31886 -0.0420987 -2.10355 -0.0864208 1.55505 -0.500184 -0.292277 
-1.37297 0.827923 -1.89481 -0.666657 2.58162 0.264745 -3.08109 -2.40334 1.57672 1.33089 2.54542 1.3138 -0.60893 -0.0845099 1.16255 0.0648406 2.22309 -4.04387 -1.75825 2.46537 -1.03305 2.57379 -0.607652 0.42783 0.562411 0.40247 -0.0720777 -0.368755 -1.95803 -0.0461012 2.47179 -3.01602 -2.98281 2.29676 -3.00991 -1.05866 0.667316 2.45771 2.0865 0.81757 
-0.141076 2.67991 -0.743026 -2.08017 1.20332 0.287563 -1.9185 0.211763 0.77311 -0.832976 2.70988 -0.339857 -2.75858 1.04225 0.311898 -0.599008 3.6635 -0.183885 0.36662 2.89107 -2.44329 -0.0991561 -0.643204 1.23479 1.32731 0.0529173 -0.728565 -0.463729 0.0845408 -0.311209 0.307361 -3.33694 -0.371702 0.321219 -2.78846 0.310796 -1.30293 0.200282 3.77922 -0.273758 
2.72076 0.455225 -0.861776 -0.086187 3.29664 -0.645621 -0.185984 1.12263 0.675303 1.42367 0.481204 -3.11607 0.434235 -1.7334 1.15299 -1.12028 -0.568403 2.89318 5.3945 1.57196 -0.691294 -2.3868 0.843171 -1.89132 -3.43379 1.78182 -0.0471193 -0.485045 -2.89449 0.749044 -2.09881 -1.65581 0.725177 -2.19533 -0.944773 2.43462 -3.1318 -0.987346 -1.55566 -2.47194 
3.12216 -0.607411 -2.52306 -1.04831 -1.57376 0.559143 0.237891 -1.97653 -1.0915 -1.39856 -1.76583 0.548343 -1.57061 0.212145 -0.213856 -0.759665 -0.179819 1.61746 -1.26525 -2.46679 -0.659795 -1.42614 3.35768 -0.377172 -1.71379 -0.414741 0.506824 -0.494067 -0.366292 -0.765283 0.407236 0.594552 -1.21015 1.90518 -1.37876 2.2875 -1.63261 0.912455 -0.606198 0.495332 
0.246484 -1.31993 1.32915 2.59481 0.568728 -0.130405 3.98352 1.73145 0.148885 -0.275786 -1.17994 -0.352375 1.18588 -0.675138 -0.358015 -0.88922 -3.72389 1.22111 1.75259 -2.05232 -1.32115 0.326389 -0.484382 1.75101 2.12097 -0.370045 0.249944 -0.179153 3.38474 -0.276765 -1.14605 -1.85267 -0.968842 -1.08977 0.708315 -0.768676 0.089754 -1.31245 -0.136528 -0.904771 
-1.51354 -1.42786 0.549249 0.603954 2.9625 -0.637631 -0.68995 1.61353 1.39485 -1.17218 -1.59618 1.99652 3.48979 -0.859051 0.738273 1.29998 -0.187154 -1.38032 0.767601 0.622762 -1.11551 1.38376 4.24188 -0.492619 -2.66953 0.564884 0.983149 -0.535526 -0.701331 -0.0102051 -2.35046 -1.02117 1.00637 0.246108 -1.96405 -2.0004 1.64154 0.341833 -3.19947 0.476474 
-1.20482 -1.82385 0.928988 0.322558 -0.520614 -0.383496 1.75172 3.27401 0.163088 -0.547117 -2.07902 0.438346 1.46788 -0.200982 1.12868 -0.411891 -0.319044 1.40928 1.33677 -2.72201 -1.22086 1.30568 1.20377 -4.30153 -0.628129 -1.34959 -0.403434 1.44858 0.992864 -0.176995 -2.23497 -0.621616 2.91051 -1.36426 2.07069 -0.336176 2.33405 -1.83768 -1.93573 -1.51351 
1.57348 0.503888 0.398849 -0.887654 -4.22634 -0.363421 1.43067 -1.29759 -4.06725 1.86711 2.01331 -1.74247 -1.41867 1.16637 0.986515 -0.615705 -1.29912 -0.922097 2.09816 -0.073231 3.75608 -0.279516 -0.288422 -1.49109 1.57785 0.719826 1.07199 0.0134419 -0.0975677 -0.071247 -0.238762 1.58388 -0.622712 -1.46342 0.282729 1.2068 -2.25906 -1.054 2.18021 -1.40706 
0.850613 -0.66692 -0.713472 -0.556668 0.713999 0.302202 -0.890374 -0.186553 1.91652 -1.45269 -0.0958949 1.60959 2.28958 0.954598 -2.30398 0.3401 -0.896958 0.766055 -1.20323 0.745809 -1.45331 -1.26988 -0.820726 -1.04914 -0.96974 -0.74238 0.458607 0.122865 0.940471 0.238454 -1.57712 0.285676 -0.735143 0.291426 4.31258 0.14708 -0.23738 0.458981 0.397029 2.23457 
2.72415 -1.11154 1.90046 2.07136 2.70497 0.873728 3.70396 -2.05122 0.480495 -3.38543 -0.470701 0.679858 1.00189 1.42788 -1.53302 1.21579 -3.15764 -0.653171 0.48788 -0.919362 -2.19676 1.18306 1.63904 0.0190045 -2.23716 -0.506398 -0.804868 -0.825912 2.65301 -0.265331 0.212088 -1.9745 -0.533225 2.13648 -0.674642 2.8451 0.0920286 -1.31085 -1.65975 -0.605399 
-0.866271 0.965892 -0.958295 -0.852967 -0.576919 -0.0102108 -0.322755 1.81515 -1.18123 1.43275 0.673373 -4.04993 -1.45168 1.16583 0.23334 0.853346 3.26843 1.54351 3.94475 0.837001 0.913779 -0.476672 0.37552 -1.55913 0.906483 0.320037 0.0119717 -1.16479 -3.66777 -0.123153 -1.40725 -1.35493 2.24112 -0.311394 -1.14105 -2.43438 -0.887108 -0.179978 -0.756867 -1.73236 
4.42976 -1.58027 -0.0415197 3.78213 0.58549 -1.08349 1.652 -1.71918 0.50983 -1.05495 -2.42365 -0.773 -0.228936 1.87785 -0.776547 0.189723 -2.30447 2.03665 0.764115 -0.731694 -0.740423 -3.01662 -0.452274 0.0198343 0.185826 -0.0776623 0.220626 -2.0082 0.394145 1.16031 -0.409095 -0.99479 -1.57009 -0.505531 1.30716 0.919569 -2.09706 -1.16084 -3.22719 1.32768 
0.534558 -2.7079 0.816864 2.21052 0.387561 -0.399338 2.84251 1.64198 1.37938 1.85657 -0.659247 -1.162 0.324299 0.816934 0.730998 -0.0909908 -2.43852 -0.271328 1.13448 -0.886991 4.09747 -1.31653 -1.53645 1.0235 2.34857 1.28591 -0.390006 -0.469279 -0.575142 -0.361561 -0.483944 -1.87623 -0.357897 -0.136444 2.66896 -2.24838 -0.57945 -2.63391 -0.754339 0.633189 
-0.740144 0.231136 2.02749 -1.77431 -2.55711 0.396962 -3.28992 2.09735 -1.13469 -1.44061 -1.63299 1.5031 -3.21606 0.0276156 -0.909426 0.0460985 -0.0426834 0.922188 -1.68513 1.12968 1.26313 0.366022 -0.985401 -4.38886 -2.85028 0.156894 0.45105 1.57455 -1.36045 0.135897 0.706308 4.2049 1.22936 -1.37798 2.39718 0.542952 3.37294 1.33261 -2.40895 1.61833 
0.754479 1.16021 -0.402162 -0.415627 -0.966333 -0.870236 -2.89571 0.10644 2.68551 0.732749 1.11859 1.9832 -2.11888 -0.408893 -2.69091 1.55613 1.36552 3.66457 -1.20626 1.95346 -0.245809 -3.12819 -1.42843 0.638087 -1.42337 -0.708411 -0.206446 0.011875 0.883869 0.758011 -0.867251 -0.403615 -1.41892 0.224505 3.93541 1.13418 -1.44106 -0.530657 1.07057 2.31412 
-3.26568 -0.802591 0.346425 -1.7681 -1.02014 0.89139 -0.566209 0.933935 0.448638 -0.451936 0.641612 1.43318 0.379645 -0.435767 -0.0584529 0.423448 1.10539 -1.32498 -1.98216 -0.432853 -0.609645 2.1502 1.5005 -0.0600479 -1.69978 -0.404223 -0.71263 2.15465 -0.257342 1.50282 0.0191647 0.874125 1.55989 1.58456 0.536978 -1.00396 2.87268 1.20478 1.46017 -1.37152 
-1.07522 -0.457884 -0.531455 0.627594 -1.89466 -1.31366 1.38957 -0.534517 -2.1853 0.467937 -1.4447 -2.55461 -2.44259 0.46664 0.0359695 -0.0222103 -2.64067 -0.241005 -0.238646 -1.68655 3.84668 -1.91239 -0.82561 0.851223 2.03885 0.686464 -0.341229 -1.42886 0.656085 -0.872386 1.43137 1.71311 0.775816 -1.37994 0.426636 -3.64558 -2.09802 -1.39726 -1.05246 2.33625 
0.354547 -1.25283 0.12018 -0.190796 -0.268188 0.396038 -0.861843 2.66932 2.88701 -1.30084 2.84681 3.23546 1.07833 0.485014 -1.19376 1.2813 -0.338902 -0.941782 0.566246 2.98924 -0.862518 3.08933 -2.63142 -1.31302 0.0271368 0.499516 -0.979238 -1.47959 0.276738 0.106297 -1.96503 -1.28311 0.0690345 -0.482893 1.20791 -1.02699 2.32724 1.5097 4.50604 -0.336669 
-2.43539 2.36876 4.41772 0.611936 0.761658 1.01929 -0.796699 0.144156 0.383776 0.596123 0.863775 -0.220023 -2.04146 0.625506 0.447419 0.286244 0.644137 -1.31733 -2.40381 0.812518 -0.079447 0.790625 0.334607 -0.269754 -2.62854 0.28497 0.112848 1.48498 0.866474 0.382482 2.6153 1.63812 1.31844 -1.28797 -3.34696 1.86448 0.0443452 -2.85581 -0.205069 0.860938 
0.638947 0.613884 -3.12546 1.69616 1.51671 -0.477165 -1.00224 1.10483 5.8154 -0.140375 1.72522 0.323095 1.19735 0.78994 -1.33792 0.200301 0.43685 1.62602 -0.413145 2.12906 -0.479157 -2.2489 -2.36781 -0.837216 0.406669 0.853715 0.606822 -0.560936 -0.346481 0.621159 -2.85845 -1.6684 0.492379 -0.988129 4.19341 -1.31996 -0.257352 -1.14747 0.707893 0.994187 
1.65457 -0.393079 -2.47986 -0.0513153 -0.767508 -0.326043 -1.74167 -1.38744 -2.69572 -1.38785 -3.14979 2.7487 0.118735 0.179858 -1.39956 -0.310798 1.55043 1.48261 -4.03329 -2.08366 0.0306847 -0.140223 1.00527 0.960182 -0.929047 -0.0250406 -0.0314779 -1.51936 -1.04768 1.30426 -0.617185 1.25332 0.0504727 0.212042 0.749582 1.12974 -1.80664 2.31648 -1.8716 2.75142 
-2.29749 -2.47962 2.0654 0.554705 2.12656 0.445409 -2.41548 -0.399096 1.09668 0.156687 -3.60605 1.03402 1.25333 0.24938 -2.12006 -0.278246 2.21704 -0.703733 -3.52327 1.04209 -0.67755 -2.74319 0.209833 0.470961 1.32093 -0.087095 0.214199 -1.40536 -2.16671 -0.44571 1.34168 -0.810638 -0.217043 2.28052 0.977389 -2.08979 -1.21682 1.88127 -3.46216 2.44084 
1.34064 -0.469638 -0.946878 0.964374 3.24951 -0.788872 -0.589843 -2.05424 2.03371 -2.25693 2.18744 0.709467 1.51498 1.06899 -1.72102 -0.671358 -2.47608 -1.06373 0.0557211 0.833691 -1.00627 1.06093 -0.297376 -0.211445 -1.95488 -0.577925 -0.51067 -0.718692 1.99042 0.83077 -1.0763 1.57328 -0.241525 1.15802 1.0781 2.39274 2.48484 0.950651 0.536096 -0.846872 
0.684457 0.444442 0.861338 0.74933 1.47905 0.982217 -0.768371 -0.768078 2.2176 -0.828447 -0.385581 1.77309 -0.278441 -0.200619 0.649419 1.12384 0.782532 -1.20709 -1.79393 1.11732 -1.78274 2.07084 0.626051 2.39598 0.437929 0.930408 0.13117 -0.372304 1.49968 -1.08867 -0.458192 -2.90621 0.231968 1.26964 -1.60611 0.649871 -0.891875 2.04246 2.49899 0.319211 
1.95574 1.02765 0.641847 -2.25389 0.199599 0.0901582 2.5606 -0.72223 -2.80904 -1.45699 0.821041 1.39937 2.17811 -0.446797 1.43721 0.374731 -1.67392 0.317083 1.05623 -1.03094 -1.04569 3.04327 2.07862 -0.165949 -1.57868 -0.526603 0.210088 -0.373335 2.63688 0.431276 -2.99104 0.181011 -1.21867 -0.306268 -1.42011 2.67 2.23666 0.881191 -0.222613 -2.69968 
-0.336921 2.60341 -0.20831 -0.919073 -0.0264095 -0.897336 -0.381937 0.899559 -2.75018 1.07781 -0.538308 -0.707581 -2.65533 0.693452 -0.634131 -1.14596 2.09521 -0.993812 -0.946124 -0.721518 -1.63427 0.741344 -0.394441 -0.528859 -1.41381 -0.183751 1.59131 -1.41115 -0.805199 1.05892 2.8232 -0.905127 -0.361094 0.75742 -3.34756 -0.541828 1.27043 0.51727 -0.0149674 -1.13658 
1.70761 -0.0172044 0.533516 -0.23904 -2.77643 -0.688042 0.738132 -0.107484 -1.34633 -1.07356 1.30184 1.20272 -0.339793 0.357895 0.0134671 -1.32853 -2.58702 0.819461 -0.78164 -0.0939082 1.57607 -0.182953 -0.577618 -1.47467 0.94231 1.06284 0.891446 -0.661066 0.783586 -1.41407 -1.81558 1.98702 -0.820902 0.890016 2.44315 0.586153 1.92848 0.714404 2.26029 0.597575 
