40 40
-0.644405 -0.224627 -0.624931 -0.665048 -0.333883 0.0636612 -0.447792 0.38979 -0.526311 0.151228 -0.836662 -0.34105 0.763521 -0.382711 0.170792 0.595265 0.746328 -0.250192 -0.61958 0.454589 -0.701796 -0.490328 -0.426399 0.297093 1.00175 0.979353 -0.495194 -0.562021 0.564298 0.326885 -0.771752 0.726808 0.171099 -0.750094 -0.862409 -1.0619 -0.273734 0.896761 -0.695277 0.287425 
0.457131 -0.812729 0.600495 0.0844347 0.31359 -1.08126 0.993252 0.485563 -0.0748468 0.0530073 -1.13908 -1.02066 0.417469 -0.21713 -0.952793 -0.0324424 -1.17242 0.00438697 -0.388181 -1.32856 -0.898296 0.611998 0.961945 -0.00740083 -1.14904 1.03259 0.170616 -0.766374 0.237949 -0.902818 -0.131389 -1.04838 0.91291 0.173912 -0.09188 0.564604 0.88082 0.57709 0.502155 -0.501167 
0.308001 -0.089649 0.292637 0.724625 -0.874536 0.39895 -0.204283 -0.683969 0.484111 0.765279 -1.09647 -0.941148 -0.542728 -0.819955 -0.263713 0.175255 0.267399 -0.547085 -0.143898 -0.261548 0.392591 -0.813531 1.05886 1.17349 -0.481409 -0.81028 0.222976 -0.487409 -0.162047 -0.708027 1.01552 0.346984 0.704934 0.565643 0.0188734 -0.32916 -0.858938 -0.647789 -0.458592 -0.798464 
-1.19982 -0.0873959 -0.615166 -0.52292 0.812948 -1.14105 -0.567775 0.475635 0.238694 0.754886 1.16732 -0.570382 0.919768 0.124114 0.632939 -0.94074 -0.179673 -0.435444 0.282635 1.34266 -0.52784 0.533567 0.287396 -0.194533 -0.871141 -0.582895 1.09105 -0.934122 -0.493782 -0.295611 0.347804 0.367499 1.12037 0.831279 0.181488 0.0865315 0.822122 -0.153655 0.12492 -0.448913 
-0.239712 0.729864 1.43676 -0.294159 -1.7855 0.608592 -0.00287311 -0.805269 -0.983213 -0.236869 -0.25774 -0.215766 -0.615382 -0.482775 0.511897 -0.451691 -0.00955748 0.422484 0.119801 -0.314771 0.478132 0.21126 -0.115088 -0.645701 0.0492109 0.429478 -0.366136 0.457253 0.635674 0.549642 -0.471456 0.910822 0.917678 -1.12796 -0.258864 0.831077 1.05821 -0.464979 -0.140128 -0.280628 
0.811249 0.0748353 0.441039 0.692261 -0.160014 -0.514147 1.10102 0.572763 0.976809 -0.743924 -0.345474 -0.0496642 0.697116 0.930074 -0.794511 0.736192 -0.877422 1.09023 0.489399 -0.292964 0.408934 0.204367 0.638846 -0.162197 0.954895 0.663022 0.710268 0.43699 0.358062 -0.0201403 -1.40646 0.231026 0.436315 0.197664 1.31079 0.780675 0.955525 -0.885587 -1.07838 0.0704158 
-0.558499 -0.883899 -0.373233 1.04633 -1.73683 -0.92326 -0.847455 -0.687163 0.413559 0.146253 -0.208148 1.3994 -1.01889 -0.463626 -0.392848 -0.536463 -0.812816 -1.48429 -1.37056 1.22511 0.373563 0.390403 -0.874347 -0.44759 0.95954 0.978003 -0.323731 -0.554433 0.924471 0.748397 0.0821028 0.32618 -0.57502 0.360496 0.347645 0.0881623 1.39505 -0.501097 -0.287819 0.794872 
-0.617109 0.0457423 0.36904 -0.665477 0.350376 -1.25074 -0.0875886 0.781765 0.063491 -0.619123 -0.755859 -0.0223304 -0.772045 0.164758 -0.461113 -0.820059 -0.0295738 -1.08581 -0.811927 0.773663 -0.0791688 1.22163 -0.551101 0.7406 0.500084 -0.0502211 0.33321 -0.192055 -0.318285 -0.57869 0.861013 -0.0364263 -0.273075 0.222715 0.345419 0.190248 -0.258657 0.911347 -0.53711 0.242712 
0.332902 -0.221495 0.455173 0.602573 0.203886 -0.187527 -0.0330801 0.467584 0.258763 0.856322 -0.668564 -0.405105 0.755142 0.136853 -0.787898 -0.478023 0.75957 0.665126 0.0424941 -0.800038 0.29388 0.321603 0.9297 0.247474 0.0889643 0.441823 0.942265 0.968635 -0.924917 -0.130824 -1.09041 -0.370701 0.118432 0.262066 -0.407602 0.190661 -0.998054 -0.287488 -0.613984 -0.312169 
-1.33319 0.0117621 0.664418 0.41536 0.132062 0.556829 0.945458 0.175666 -0.426247 1.30017 -0.676366 0.53772 -0.120293 0.173625 -0.669328 0.236023 -0.686046 -0.322988 -0.163176 -0.0176364 1.2532 0.261739 -0.774122 0.565016 -0.00915714 -0.0202078 -0.115062 -0.255521 0.568958 -0.20472 -0.565123 0.793345 -0.338118 -0.145774 0.685319 -1.47155 -0.778338 -0.25855 -0.369336 0.3649 
-0.47042 -1.00473 -1.24519 -0.206947 -0.895248 -0.266287 -1.33282 -0.0611803 -0.176335 -1.63786 -0.911381 1.12199 1.01751 -0.570458 -0.412908 0.155779 1.14932 1.0248 0.776309 -1.12381 -0.511767 0.862843 0.0129864 0.510701 -0.22414 0.86618 0.110064 -0.21205 -0.624267 -0.518992 -1.60193 -1.06273 0.853484 -0.179917 0.869804 -0.4421 1.14117 -0.171223 0.677518 0.833551 
-0.12258 0.845958 -0.387635 -0.78084 0.040455 0.569175 -0.0918164 -0.293268 -1.06055 0.96312 -0.700712 -0.519763 -0.171607 -0.634243 0.584219 0.0993185 0.43724 -0.674333 0.660775 -0.0912303 0.462603 -0.819136 -0.318169 0.887533 -0.208536 -0.0730299 0.0998699 0.611852 0.744811 0.438519 -0.234763 0.384436 0.188272 0.587137 0.4092 -0.728569 -0.0397148 0.267659 0.903871 0.953483 
-0.174373 -0.469785 0.34006 0.462189 0.310098 -0.3616 -1.1209 0.471447 -0.445003 -0.0381248 -1.07958 1.12373 -0.129156 -0.59021 -1.09079 -0.462607 -0.741818 -0.719299 -0.442389 -0.951553 0.93664 -0.0730948 0.697223 0.549191 1.32138 -0.326689 -0.880859 0.610364 -0.525514 0.781627 0.679264 -0.0926767 0.647273 0.432923 -0.301218 -1.14123 0.328649 1.09718 -0.752463 -0.0845474 
-1.13552 0.21286 -0.585045 0.203906 -0.093481 0.159127 -0.703376 -0.401002 -0.490702 0.57628 0.833475 0.0790887 0.503781 0.860736 -0.337802 0.485083 0.43421 -0.650903 -0.756697 0.611586 -0.623611 0.449864 -0.757454 -0.631119 0.413337 0.345869 -0.616808 -0.722437 -0.14293 -0.231695 0.105683 -1.09554 -1.0056 0.76428 0.245691 -0.24819 0.460733 0.483847 0.451642 -0.20701 
0.135338 1.35713 -1.28842 -0.121382 -0.803837 0.263024 -0.781271 0.0230901 0.069152 0.588791 0.628924 0.786873 -0.556696 1.19305 0.29828 -0.445539 1.0782 -0.558304 0.449345 1.12569 -0.0935863 -0.827456 0.347703 0.554462 0.88311 0.915668 -0.599062 0.265375 0.0441671 -0.343274 0.236127 -0.813234 -0.115473 -0.855202 -0.800184 -0.236395 -0.494327 -0.747881 0.96084 0.120624 
-0.313981 -0.234415 -0.94001 -0.324761 -0.919603 -0.631339 -0.0827699 -0.60749 -0.812571 -0.360104 -0.22182 -0.977072 -0.390724 -0.741957 0.4027 -0.634349 -0.692556 0.251549 0.511615 0.222856 0.321782 0.206531 0.450965 0.203585 -0.863561 1.2626 0.0472956 0.80819 0.543972 0.0503914 -1.01013 0.343619 -0.980195 -0.931647 0.340885 0.726347 -0.780654 -0.498226 -0.582885 -0.195293 
0.906275 -0.210748 -0.911884 0.226685 -1.48095 0.438296 0.852565 -0.475532 -1.20491 -0.939898 -0.239888 0.398038 -0.747613 0.485937 0.842678 -0.495318 -0.379353 0.816459 0.0262723 -0.2731 0.312107 0.114334 1.30838 -0.772217 -0.249584 -0.83151 1.01884 -0.722504 -0.731591 -0.866325 0.110375 0.815233 0.318491 1.04614 -1.26534 1.13852 -0.771367 0.0879883 -0.4092 -0.121364 
0.0291461 -0.374981 0.856709 0.334167 1.3626 -0.198236 1.4365 0.367358 0.483288 0.292316 0.392603 0.238307 0.0332038 0.594009 0.65435 -0.888374 0.292074 0.691319 0.530524 -0.598076 -0.408246 0.399 -0.0815479 0.968337 1.25689 0.253625 0.554044 -0.409983 1.11104 -0.58915 0.103713 -1.62139 -0.568868 -0.59279 0.33641 -0.702023 -0.0834645 -0.713556 0.550657 -0.56193 
-0.268052 -0.845014 0.368078 0.121058 1.30168 -0.5104 -0.0383641 0.721274 1.33933 -0.644228 -0.359176 0.444622 1.04491 -0.832627 0.59859 0.743446 -0.26144 -0.506055 0.134537 0.057922 0.354542 1.08461 1.24085 -0.338521 -1.15405 0.604004 0.263737 0.0749912 -0.396129 -0.128623 -1.17911 0.309705 -0.243041 -0.334758 -0.564178 -0.929676 -0.0735774 1.18174 -0.722076 0.0335639 
-0.187161 -1.16462 0.749716 -0.279947 -0.298024 -0.559164 0.464573 1.08698 0.101006 0.181458 -0.750127 -0.0821647 -0.222465 0.380164 -0.473125 -0.632098 0.204533 -0.334384 0.409529 -0.140031 0.737183 0.417856 0.619071 -1.24711 0.0802402 -0.68515 -0.126667 0.629731 -0.69309 -0.698277 -0.59033 -0.48847 1.28142 -0.361413 0.409739 -0.00380447 0.676511 -0.998314 -0.89884 0.267495 
0.80047 -0.879147 0.0780541 -0.714059 -1.02941 -0.52577 -0.206489 -0.0848241 -0.764937 0.399975 0.977668 0.414305 0.190506 0.727382 -0.548575 0.0407028 -0.48908 -0.681933 0.934002 0.250169 1.55899 0.106198 -0.687602 -0.708788 -0.264571 0.890149 1.11483 -0.251433 0.547547 0.0160984 -0.420732 -0.0874293 -0.139327 -0.201787 0.404964 0.418383 -0.867871 0.605918 0.657589 -0.7435 
-0.382162 0.0668915 -0.00952268 -0.681722 -0.37243 0.104913 -0.540881 -0.813667 -0.261801 -0.676085 -0.31468 -0.368646 0.20742 0.780197 -0.681679 -0.389198 -0.812932 -0.280562 0.147766 0.127567 -0.296048 0.0604872 -0.737075 -0.579582 -0.0823462 -0.340808 0.925133 -0.00432185 0.771044 -0.297425 -0.192246 -0.440091 -0.65116 0.587959 -0.0305714 0.0778056 -0.557069 0.204071 -0.770761 -0.370506 
0.778477 -0.317206 0.769804 -0.150257 0.657659 0.835099 0.498392 -0.764405 0.338817 -1.18726 -0.528331 0.320594 0.880709 1.07649 -0.701415 0.373993 -0.308309 0.122609 0.381643 -0.978302 -0.863575 0.592401 1.16775 0.0986545 -0.153409 -0.827966 -0.307175 -0.0503067 0.5064 -0.651533 0.325033 0.571674 0.652768 0.445255 -0.160639 1.09119 -0.495557 0.073826 -0.700576 1.00597 
-0.988489 1.09684 -0.490108 -0.912149 0.158404 0.140137 0.400908 0.446898 -0.742018 -0.518003 -0.201883 -0.978892 -0.386809 0.889045 -0.764846 -0.10159 0.952837 0.338454 1.43305 0.192353 -0.299257 0.0232401 0.760963 -1.25903 -0.620552 0.471382 0.398849 -0.203927 -0.683554 -0.870618 0.614437 -1.23457 1.19316 -0.527826 -0.587103 -0.798052 -0.0410796 -0.970796 -0.293064 -1.31025 
0.958357 -0.329159 0.0481639 0.556932 0.129774 -0.971757 0.587593 -0.0567282 0.90346 -0.0648796 -0.740407 -0.897831 0.988853 0.555817 0.00840581 -1.0064 -0.0855358 0.0518611 0.837078 -0.346073 -0.295144 -0.155011 -0.0398798 -0.658166 -0.644992 0.596207 0.580238 -0.823509 0.230619 0.233398 0.144525 -1.24967 -0.846236 -0.481996 0.428614 -0.437302 -0.663037 -0.263735 -0.616076 0.0702399 
0.69068 -0.757088 -0.255549 0.691326 0.771361 -0.491004 1.12471 -0.319805 0.032141 0.87288 -0.907082 -1.17309 -0.366681 0.78849 -0.230139 -0.661165 -0.173848 0.613742 0.530645 -0.818219 1.38885 -0.558616 -0.280013 0.515758 0.818106 1.09129 -0.278491 -1.02296 -0.29723 -0.845562 -0.672621 0.212547 -0.55643 -0.218074 0.81625 -0.377837 0.539149 -0.991913 0.209086 0.764067 
0.253401 -0.421441 1.62561 0.129965 -0.902001 0.188706 -0.871115 0.0850484 -0.704822 0.485669 0.0858982 0.205871 -1.16723 -0.282667 -0.698938 0.65209 0.10242 0.687136 1.00256 0.00374324 0.176298 0.423665 -1.37682 -1.8322 -1.32549 -0.171867 0.710584 0.738729 -0.143795 -0.512093 0.950939 1.50143 -0.294251 -0.625742 1.15046 0.0603712 1.7698 -0.208981 -0.729009 0.466653 
0.223241 -0.0759344 -0.114708 -0.170307 -0.23541 -0.841113 0.399319 -0.257559 1.21845 0.381919 0.651454 1.14146 -1.24336 -0.587185 -0.648181 0.958707 0.27207 1.157 0.0244236 0.0130108 0.0141002 -0.990819 -0.77241 -0.400077 0.433629 -0.811515 -0.226628 -0.922447 0.0600763 0.24443 -0.833588 1.26398 -1.12164 -0.459481 1.83611 0.200168 -1.13329 -0.626537 1.32693 1.31407 
-0.959489 -0.884813 -0.525822 -0.24088 -0.909231 0.856811 0.0865424 0.677069 0.235263 -0.0170793 -0.500647 -0.692997 -0.50494 -0.346596 0.262025 0.219906 -0.566266 0.86736 -0.716968 0.0537165 -0.228038 0.692819 0.433303 0.498738 -0.141499 -0.64871 -0.293581 0.606058 -0.885934 0.858938 -0.277797 0.789058 0.817559 0.739748 0.279489 -0.325836 0.232694 -0.0699606 0.716836 -0.906897 
0.157442 -0.165727 -0.0275811 -0.136515 -0.394579 -1.23732 0.123732 -0.511781 0.444158 -0.148029 -0.685933 -1.39913 -0.95589 -0.322088 -0.146882 0.148109 -0.596486 -0.382767 0.0561601 -0.937436 1.01726 -0.978504 -0.69573 0.146254 -0.0633349 0.476141 -0.377859 -0.925537 0.599606 -0.768386 0.525624 0.103399 0.54808 -0.812296 -0.830298 -0.82176 -0.45532 -0.334616 -0.639164 0.831406 
0.0916174 -0.403796 0.699987 0.180793 -0.964955 0.43718 0.338808 0.184403 0.513287 -0.47011 0.628995 0.889624 -0.433527 0.365072 -0.426026 0.800121 0.160221 -0.955425 0.0669198 0.882655 1.03938 0.674952 -0.476029 0.714631 -0.276076 0.695953 -0.607975 -0.956005 -0.150276 -0.305756 0.251445 -0.236562 -0.150677 0.421015 0.858454 -0.434257 0.212884 0.768489 0.665965 0.607602 
-0.239668 0.826788 0.808221 0.896336 -0.0584425 0.720904 0.356885 0.577657 1.10155 -0.110967 1.06491 0.440561 -0.977369 1.03244 -0.0785545 0.287477 -0.520401 0.703548 -0.958929 1.08905 1.17764 -0.398742 -0.40891 -0.649604 -1.04267 0.794159 0.494614 0.589643 -0.806165 0.115304 0.314815 0.497263 0.458615 -0.692853 -0.769068 -0.703895 -0.104348 -0.581749 0.467779 0.440531 
0.385321 0.727525 -0.836522 0.396775 1.15041 -0.480953 -0.524016 1.19629 1.66748 -0.466084 0.482923 -0.608432 1.12589 0.727631 -0.758642 -0.112949 -1.18255 0.961929 -0.206795 0.200595 -0.484151 -1.03001 -0.452704 -0.0119272 0.464672 -0.1269 -0.0190153 -0.174863 -0.29012 0.701247 -0.903016 -0.90566 1.07009 -0.903665 1.28747 -0.416564 0.667535 -0.68037 -0.100862 -0.306842 
0.752761 0.703684 -0.97615 1.08533 -0.574992 -0.121598 -0.118531 -0.282371 -0.81353 -0.77303 -0.0767079 0.517319 0.37103 -0.323003 -0.390213 0.0382933 0.608924 -0.225693 -0.997371 -1.04998 1.15711 0.478883 1.24321 0.703335 -0.130367 -0.618542 0.151821 -0.481553 -0.794422 0.800221 -0.0205019 0.408923 -1.03287 -0.246379 -0.880118 0.5753 -0.687905 0.935142 -0.443185 1.47952 
-0.993094 -0.407146 0.41398 -0.476503 0.520262 0.53321 -1.54306 0.467083 -0.0673204 -0.450813 -1.02972 0.980025 0.113484 -0.237084 -0.695709 -0.415277 1.17162 0.0697081 -1.24529 0.364889 0.0922261 -0.903408 -0.458328 0.318919 -0.668289 -0.0391503 -0.274158 -0.420835 -0.583549 -0.71319 0.634237 -0.425903 -0.0322092 0.676201 -0.313543 0.0388349 0.797717 0.76882 -1.26973 0.273567 
1.06896 -0.403687 -1.37391 -0.544933 0.865007 -0.665313 -1.06049 -0.282494 -0.0171096 -1.43121 1.06939 -0.423806 -0.17559 -0.0658819 -0.652655 -0.325337 -1.3802 0.0540158 -0.51547 0.359766 -0.465224 -0.53766 -0.389784 -0.356103 -1.2723 -0.748206 -0.176951 0.419106 -0.194461 -0.249996 -0.0861403 0.220207 0.414683 0.229458 -0.560912 1.5773 1.20997 0.634532 1.00502 -0.887511 
-0.308912 -0.164317 0.169434 0.149342 0.234025 0.779275 -0.906674 -0.821727 0.654635 -0.654806 0.19639 1.36658 -0.0279357 0.728219 0.790754 0.227904 0.385671 0.0941148 -0.239863 0.63256 -1.17914 0.712445 -0.295285 -0.010829 0.367528 0.615171 -0.185805 0.0606369 0.142269 -0.74404 0.00317145 -0.535004 0.046735 0.601098 -0.594339 -0.321512 -0.311596 1.16296 0.763354 0.360627 
0.870718 1.1372 0.474935 -0.0574964 0.0294224 0.0360904 0.0692862 0.287253 0.253781 -1.11017 0.142084 0.319327 0.895155 -0.123392 0.567349 0.34279 0.649183 0.802363 -0.314353 -0.728238 0.434441 0.22834 0.813863 0.471652 0.417697 -0.491956 0.513466 -0.670338 0.867572 0.361964 -0.961755 1.03199 -0.271459 0.409831 -0.107251 1.08465 1.23697 0.450345 0.0926785 -0.242622 
0.0470148 0.667749 -0.0855997 -0.771723 -0.691329 -0.928377 0.214817 0.716927 -0.941936 0.516735 0.321578 -0.40221 -1.33648 1.11864 -0.37772 -0.97657 0.326342 -0.127497 -0.229609 -0.247245 -0.532786 0.476092 -0.378217 0.196609 -0.471527 -0.706136 1.24876 -0.640773 -0.474559 0.720829 0.233 0.114526 -0.173728 0.489103 -1.60626 -0.205161 0.366807 -0.524855 -0.214002 -0.687705 
1.19575 -0.822364 0.0449369 -0.248228 -1.18672 -0.879497 0.870345 -1.17373 -0.60992 -0.41565 0.431026 -0.22999 -0.357148 -0.399778 -0.406743 -0.914806 -1.40929 -0.466835 -0.753296 0.338164 0.686714 -0.432211 -0.163337 -0.934634 1.15568 0.628378 0.961101 -0.162932 1.08976 -0.955405 -0.722317 1.34932 -0.784844 1.13985 0.901074 -0.447437 0.842214 0.503223 0.927905 0.379962 
