40 10
1.59536 1.19636 1.7812 1.5211 -1.50047 -3.63233 1.42415 -0.608836 -3.02862 -0.354117 
-0.149488 0.0555352 1.12132 0.67314 0.395818 -0.728534 -0.950992 -3.12418 -0.207311 3.06175 
-0.992932 0.481871 1.59258 -3.10926 -2.00657 2.08442 -1.40244 0.89844 0.616072 0.231847 
0.853857 1.72336 0.805145 -1.65643 -1.93511 0.681308 -0.977147 0.361946 -2.92926 1.04873 
-1.45012 1.54266 -3.55889 -0.560246 -1.81367 -3.24514 -1.76814 3.34543 -3.37643 3.50035 
0.57391 0.449213 0.303046 -0.274587 -0.0160745 0.702033 0.798133 0.775602 -0.652173 -0.450357 
2.77669 0.438258 1.9808 0.386773 -3.08241 -0.608422 -2.50844 1.48872 1.60258 -1.50878 
-3.32132 1.01794 -1.46716 0.330368 0.521606 -1.17449 -2.83497 0.617315 0.989371 -0.497625 
-1.31488 3.31788 -1.81799 0.291049 -0.0119353 1.24178 -2.06752 1.74207 -3.3578 3.20695 
0.0470568 -3.08146 -1.9435 0.969032 -1.86167 -0.758403 -1.21533 -0.59203 1.04704 1.84067 
-0.469426 2.84609 -2.835 0.427917 -1.90776 -0.231297 0.957274 -2.74626 0.322511 -1.72455 
-0.97007 -0.42617 -0.655563 -3.23858 1.54305 2.54942 1.08212 -1.32733 -2.42794 -2.27628 
-0.961973 -0.91569 -1.89089 -2.23442 1.59935 -2.31714 0.305928 3.62131 -2.16033 -3.36347 
0.00151466 -2.24762 -1.22169 -1.65723 0.373409 -1.28964 -0.641031 -1.39639 -0.741857 -0.22085 
-0.511087 0.402252 0.686084 -1.15791 -0.362011 0.501708 0.680084 0.888675 1.19138 -1.25398 
0.482227 0.627602 0.27745 -0.143787 -0.748034 0.725812 0.183561 0.409439 -0.61483 -0.0187581 
-0.86162 -2.65705 -0.761604 -0.873614 3.26164 -1.9559 -1.77639 -4.20972 0.338903 0.670271 
-2.08336 0.22785 2.59221 1.41047 1.0303 -1.88647 -1.21764 0.257686 -2.92796 -0.527593 
-1.96556 -0.226814 -0.425495 2.26486 -0.82511 -4.17148 -2.2708 0.584384 2.00013 -1.82008 
-1.88814 0.860044 -2.13663 1.26102 -1.12002 -0.373607 1.9679 -2.47824 -0.609706 0.169973 
-1.78383 -4.48431 0.171506 0.487429 -0.954017 -1.38538 1.67865 -0.123331 3.95318 0.534722 
0.395398 0.352744 -0.126007 -2.68615 1.26273 -0.00840782 -0.405168 -0.502592 1.17937 -1.94251 
0.713274 0.392313 -0.139174 -3.90609 0.448216 -3.47666 -0.594958 0.659831 -1.48068 -2.00158 
1.71796 -1.87254 -1.59302 -1.12222 0.243588 -0.916003 -1.85195 -1.58689 -3.02956 3.53517 
1.86567 -2.61429 -1.70158 2.14451 0.508199 1.70837 -2.56011 0.96182 -0.900198 -2.18982 
-1.10128 -2.58239 -0.459971 -0.862686 -0.53369 -0.786205 -2.85342 0.0717788 0.133572 -1.59345 
-1.36742 -1.59756 -0.440886 -0.0311458 -0.975798 -2.35691 0.196884 -2.22387 -0.560663 -1.7674 
-0.492662 2.35557 -1.19496 -0.60766 -0.126107 0.298685 -0.334588 -0.717022 -0.159348 -0.55465 
1.21877 1.4679 0.32613 0.0455401 -2.73285 0.65003 -1.45996 -1.92745 -1.37422 -1.22356 
-0.58167 0.184945 -0.748183 -0.14527 0.969521 -0.112959 0.27738 -0.185377 -0.453544 0.397929 
1.34966 -0.0789242 -2.18481 -3.02573 -3.5749 0.25882 1.38423 -1.86306 1.5156 2.44289 
-1.50531 -2.31608 2.72681 -2.24456 -2.68605 0.610167 2.47888 -3.49827 -2.06756 -1.22757 
-2.08452 0.4836 0.460669 -0.557534 0.619825 0.961276 -1.23083 -0.709909 1.18176 0.575203 
2.38902 0.467203 -2.96729 -1.14867 0.270069 0.54865 0.942379 -1.48551 0.272681 -0.782141 
-1.34211 -1.49679 0.907935 3.32212 -1.02483 3.32291 -2.2349 0.12696 -3.17929 -2.3331 
-0.72739 1.60433 1.67362 -1.81882 -0.779949 -2.88363 2.0743 -1.64813 -3.997 -1.50707 
-3.60072 0.641004 -1.29709 -1.99676 0.761292 2.99203 1.08807 1.72976 1.63812 -3.079 
0.0307363 -1.21396 -2.62868 0.244706 2.08074 -1.07469 0.141516 0.380514 -1.15443 -0.480498 
0.797411 2.30552 -3.37334 1.91506 0.292966 -0.836614 0.611835 -2.50131 -1.00768 -1.33157 
1.10055 -3.28025 0.143099 0.356063 -1.25561 2.1476 -0.108235 -0.212042 -2.45337 -1.03647 
