40 10
1.80467 3.6095 3.20787 3.07684 -2.51926 -5.72754 3.11979 -1.77705 -6.25612 -2.5452 
0.167335 -0.272582 4.88318 1.62182 0.744323 -3.625 -1.50058 -5.44826 0.14188 4.50501 
-0.804997 -1.52116 1.37268 -6.38135 -4.15036 2.71877 -0.245538 1.8202 1.99272 2.27947 
0.269442 3.67824 1.31002 -2.34367 -3.91158 -0.806391 -1.85908 1.22734 -3.50837 3.99077 
-3.41101 1.68809 -6.44534 -3.32659 1.0615 -6.71482 -1.85724 7.48861 -6.47435 4.48459 
0.325784 0.448115 0.205593 -0.184224 -0.172058 0.989403 1.01773 0.727643 -0.78685 -0.592211 
4.46414 2.05388 1.46847 0.822116 -5.45978 -1.84683 -5.91195 1.57861 4.06312 -6.16896 
-6.43715 1.73622 2.06184 -3.06824 3.41683 0.39069 -7.09224 -0.474017 3.32003 -0.862189 
-4.04968 5.40037 -4.74639 1.50436 -0.600036 3.15114 -3.75283 2.29919 -6.2993 4.68098 
-0.907451 -6.61729 -2.57836 0.757602 -3.37153 -0.699481 -2.19042 0.426731 0.85224 2.93656 
-2.31617 3.43367 -6.52284 2.74625 -5.61362 -0.88472 1.64368 -4.34215 2.17715 -2.97765 
-0.134148 -0.178958 -0.251398 -4.70572 4.42176 3.29877 1.59069 -2.17234 -3.99752 -4.58639 
-2.45826 -0.554551 -3.88339 -4.29803 3.96945 -4.13176 -0.546573 6.2744 -2.92052 -7.44817 
0.447891 -4.34024 -2.91557 -3.66521 -1.08921 -0.981137 -0.544306 -3.09689 -1.19962 -0.46026 
-0.961851 -0.15686 1.00904 -3.49862 -2.11763 -2.01308 1.63641 1.56328 2.77811 -2.87122 
-0.999173 2.77412 1.24945 -1.9296 -1.10522 0.0480946 -0.420926 0.771339 0.854134 -1.07676 
-2.41448 -5.15175 -0.435125 -1.65934 7.34651 -2.17574 -1.62741 -7.2346 0.400663 4.25171 
-3.13115 0.924158 4.79198 2.52803 2.62529 -2.13991 -3.28482 -2.16468 -7.72584 -0.294787 
-2.6466 0.477247 -0.979109 5.31309 -1.37504 -9.62831 -3.64525 1.06934 4.90386 -2.28254 
-4.25943 1.26778 -6.32968 3.03865 -2.79372 -0.139888 4.49547 -4.49336 -1.88437 2.34818 
-1.86468 -8.62624 0.439604 1.23852 -2.64672 -1.44511 3.65808 1.91923 6.81375 -2.37755 
-0.398919 1.52514 -3.60357 -5.77405 2.42129 2.23227 -1.08483 -1.14715 3.1129 -2.16199 
1.60556 -1.58186 0.700012 -5.9895 -0.403235 -7.4277 1.25949 1.81739 -2.02329 -1.54191 
4.37919 -2.4519 -2.81075 -3.17167 -0.659841 -2.06385 -6.14172 0.0799508 -4.11449 3.11557 
5.54038 -3.98293 -3.77855 2.5218 0.218025 1.6835 -5.24311 3.51377 -0.603871 -4.84728 
-1.26878 -4.1633 -1.35067 -2.31688 -2.3975 -2.32084 -3.34762 -1.07886 -2.03364 -2.04019 
-1.78854 -3.54763 -0.969179 -1.13421 -2.5143 -3.49656 0.0682852 -3.61076 -1.58887 -2.37949 
-1.78064 4.02938 -1.64644 -1.76049 -1.00151 1.42983 -1.6487 -1.13943 -1.50747 -1.11589 
2.72829 3.34867 1.82146 -2.52926 -4.7393 2.99589 -3.97697 -2.77556 -2.9324 -2.79999 
-1.32408 -0.913137 -2.00515 -0.660835 0.846517 1.23676 -0.184299 -0.762515 -1.60392 0.718528 
1.66843 0.299291 -4.555 -4.68464 -7.48727 2.13715 2.72773 -5.99056 -2.82327 3.52896 
-2.92851 -3.49801 4.44267 -4.39818 -4.02561 2.54714 3.52075 -6.11565 -2.23796 -1.44936 
-3.11687 -2.31177 0.151398 -3.23787 1.59141 1.95179 -3.51674 -3.00215 0.861821 -0.0234493 
2.16552 -0.643155 -4.97845 -2.22175 -0.436676 -0.531917 0.930254 -2.70518 0.359062 1.76922 
-2.60332 -4.09877 -0.0958242 7.06809 -1.33951 5.62231 -4.13068 2.01368 -6.78322 -5.45692 
-3.0341 3.52136 4.00438 -3.30491 -2.79539 -6.32368 3.80743 -2.67108 -5.77236 -1.85911 
-5.45266 -0.220883 -0.927229 -3.19606 1.88001 5.02849 1.89556 1.42425 1.1552 -5.48807 
-0.879341 -2.3672 -4.16959 -0.392583 2.95055 -1.9688 1.41614 -1.12467 -1.4706 -4.63091 
0.267647 5.95419 -3.96198 5.44766 1.93433 -2.41363 0.744626 -2.95348 2.82471 -3.31567 
1.44342 -4.31864 -0.0437314 0.140717 -1.54953 3.46698 -2.8476 0.244904 -5.74836 -1.42121 
