40 10
0.475834 0.722887 0.881406 0.691275 -1.5459 -1.76995 0.456693 0.140871 -1.59782 -0.83847 
0.0606837 0.476237 1.04523 0.262024 -0.0887552 -0.686962 -0.708158 -1.6071 0.396706 1.6471 
-0.905813 -0.610102 0.810145 -1.69269 -2.03522 1.34808 -0.778257 1.02079 1.27813 0.0837558 
0.59826 0.765318 0.377594 -0.856631 -1.14603 -0.223493 -0.291549 0.280268 -1.65892 0.187367 
-1.09224 0.944024 -2.3273 0.0158358 -0.449938 -1.93372 -1.66218 2.25269 -1.89124 1.61083 
0.605641 0.451909 0.272378 -0.306626 -0.0244429 0.741203 0.849301 0.755379 -0.624117 -0.317565 
1.81522 0.504703 0.939083 0.353865 -2.22698 -0.440154 -1.67581 0.700226 1.38601 -0.634511 
-2.18004 0.301672 -0.246043 0.0494628 0.51425 -0.388834 -2.02801 0.601239 0.636955 -0.122349 
-1.17516 1.60863 -0.771224 0.634255 -0.162787 0.551666 -1.05761 0.921417 -2.22584 1.34262 
0.0829268 -1.66868 -1.68245 1.14901 -1.45013 0.736726 -1.11609 -0.313891 1.10438 1.57595 
-0.534839 1.70246 -1.3768 0.526709 -1.24136 -0.28905 0.919212 -1.63001 0.549129 -1.29952 
-0.104467 -0.199324 -0.768583 -0.745577 1.5009 1.44428 1.13502 -0.894941 -1.22917 -0.853735 
-1.00306 -0.235911 -0.916448 -0.838193 0.957869 -0.979859 0.244237 2.30008 -1.57307 -0.823657 
0.236727 -1.10482 -1.17169 -1.21992 0.595675 -0.747142 -0.501033 -1.00542 -0.449302 0.240745 
-0.256948 0.46709 0.66349 -0.697633 -0.408699 0.504765 0.758935 0.72776 0.82924 -0.894572 
0.546231 0.666221 0.281946 -0.190163 -0.751169 0.693145 0.226247 0.358165 -0.552929 0.0199433 
-0.0555765 -1.23788 -0.832023 0.0118239 1.70531 -1.44534 -1.30418 -1.80847 0.917624 0.414886 
-1.05233 0.370054 1.67977 0.807442 0.135642 -0.743647 -0.509319 0.311701 -1.3726 -0.588337 
-1.03043 0.227975 0.282013 1.16809 -0.539217 -1.69479 -1.4619 0.372805 1.51506 -1.38693 
-1.24371 0.878042 -1.58893 0.375894 -1.06867 -0.243901 1.56462 -1.82561 -0.693303 0.0934014 
-0.71119 -2.69806 -0.181621 0.710077 -0.830791 -1.02281 0.885832 -0.0802544 1.28394 0.216517 
0.0395365 0.568345 -0.875042 -2.23839 0.77736 -0.0586283 -0.423661 -0.5478 0.5484 -1.57553 
1.04942 -0.185061 -0.18792 -1.84586 0.659543 -2.13689 -0.684721 0.565854 -1.077 -0.590473 
1.23022 -1.76125 -1.05129 -0.659199 -0.459424 -0.930453 -1.52556 -0.60153 -1.38095 1.49588 
1.3574 -1.3578 -1.14472 0.740192 -0.0906989 1.44188 -1.55158 0.157562 -0.267803 -0.979287 
-0.96218 -1.60301 -0.447763 -0.831897 -0.998168 -0.532903 -1.74313 0.213224 -0.311169 -1.03393 
-1.06179 -0.953423 -0.13015 0.295243 -0.610228 -1.50639 0.479819 -1.74048 -0.229176 -1.41991 
-0.119035 1.05909 -0.968942 -0.984758 -0.247311 0.704092 -0.00793026 -0.91629 0.0189746 -0.576518 
0.33326 0.430014 0.276528 -0.0882494 -1.37633 0.618635 -0.819008 -1.20797 -0.762039 -0.788972 
-0.525871 0.119702 -0.649225 -0.133868 0.590605 -0.0336335 0.282473 -0.21176 -0.452249 0.508208 
0.680327 0.495768 -1.45984 -1.61646 -1.25388 0.111982 0.257487 -1.09789 0.930256 1.64453 
-0.674256 -1.83664 1.90925 -0.868615 -1.706 0.28979 1.58129 -1.9714 -1.37776 -1.42111 
-1.51638 0.288779 0.708188 -0.976064 1.01662 0.72776 -0.774226 -0.383884 0.677595 0.671318 
1.34543 0.0356719 -1.1884 -0.730115 0.946804 0.561645 0.68411 -0.986449 0.0335823 0.0443992 
-1.26283 -0.854213 0.170527 1.72304 -0.823937 1.66056 -1.23422 0.375052 -1.64583 -1.29429 
-0.432176 0.66632 1.80028 -1.16759 -0.68484 -1.50204 1.2377 -1.05116 -1.71678 -1.41015 
-2.14123 0.416128 -0.278897 -1.93922 -0.265378 1.67116 0.482033 0.689715 0.314382 -2.15083 
0.224694 -0.596016 -1.50388 0.111398 1.52079 -0.535369 0.55226 0.377959 -0.594255 0.0991735 
0.263932 1.09524 -1.66996 1.3901 0.0073066 -0.649145 0.496128 -1.60185 -0.426996 -1.41367 
1.03613 -2.27842 -0.334378 0.0797037 -0.198309 1.02944 -0.0357102 0.252651 -1.51008 -0.716553 
