40 10
-0.609861 0.596211 -0.160964 0.275498 -2.9482 -1.05013 0.574163 -0.244412 -0.380056 1.36577 
0.47686 1.8821 0.619704 -1.01449 0.468274 -0.560127 -1.71394 -1.26329 -1.34012 1.12495 
-0.949149 -2.37777 1.30706 -0.341229 -1.26009 0.592489 -1.07185 -0.139582 1.74933 1.15995 
0.379528 0.8541 0.591871 -0.80985 -0.665602 -0.376358 0.141729 -0.0966682 -0.998042 0.343262 
-0.751181 -0.0512816 -1.68077 -0.586555 -0.176118 -1.71524 -1.45393 2.60492 -1.61545 1.41545 
0.670717 0.587967 0.277053 -0.198663 -0.12874 0.883366 0.915627 0.879622 -0.595081 -0.431688 
0.720472 0.447177 -0.677846 0.104811 -1.27634 -0.262688 -1.05364 -0.210744 0.854338 -0.217404 
-2.37475 0.404871 -0.974617 0.345392 0.0128689 0.583773 -1.47285 0.305816 1.11268 -0.762979 
-1.02694 0.279343 -0.987365 1.16595 -0.904765 -0.743718 -0.562375 0.446364 -1.11009 1.47099 
0.0972775 0.678604 -3.03659 1.05428 -0.843454 1.52115 -1.01612 0.519325 1.28379 0.198783 
-0.339337 1.66392 -1.05301 -0.637413 -1.17491 0.0912644 0.371945 -1.10922 0.137322 -0.772007 
0.115054 0.644355 0.0642636 0.0431351 0.543303 0.782458 0.833582 0.0170719 -0.468291 0.31274 
-1.11109 -1.91872 -0.91932 -1.26348 0.900697 -0.749267 0.62374 1.95681 -1.82426 1.47688 
0.755645 -0.393968 0.332802 -2.13337 0.716695 -2.19646 -0.0827137 0.311551 1.11876 -0.128546 
-0.324037 0.401051 0.680943 -0.618489 -0.566659 0.664401 0.86825 0.899165 0.679298 -0.854338 
0.630767 0.669506 0.256023 -0.241685 -0.79843 0.650691 0.29855 0.298331 -0.561347 0.0461529 
-0.517568 -0.770822 -0.552475 0.811282 1.17604 -1.05792 -1.42361 -0.7912 0.770705 -0.388725 
-1.21876 -0.329101 1.66333 1.52832 0.094774 -1.41144 -0.687106 1.09793 -1.6962 -0.912101 
-0.888733 1.37257 1.29961 0.899289 -1.48092 -1.77127 -1.59039 0.243252 1.26419 -1.11477 
-1.54214 0.169122 -1.22902 -0.182958 -0.880173 -1.20025 2.13855 -0.654615 -1.14967 -0.0967434 
-0.244282 -0.82095 -0.216171 0.398418 0.0783313 -1.16037 0.875256 -0.0327061 0.415004 0.63789 
-0.0569508 -0.104272 -1.00246 -1.48628 0.103121 0.116601 -0.920511 -1.50448 -0.592354 -1.25411 
1.3058 -0.463667 -0.985034 -0.51895 1.18888 -0.397758 -1.74182 0.532882 -0.992639 0.152878 
0.65953 -2.07516 -0.780463 -0.55665 -1.10697 -1.29688 -1.05422 -1.25587 -0.738344 -0.262267 
1.98562 -0.517864 -1.02738 -0.302474 0.047247 -0.892784 -1.32538 1.0096 -0.04721 -0.787432 
0.00618943 -0.989371 -0.287446 -1.23389 -0.980728 1.05447 -0.531944 1.7783 -0.99968 -1.79565 
-1.10231 -1.28775 -0.227942 0.0612176 -0.79056 -1.44114 0.240058 -1.98526 -0.73008 -1.57405 
-0.0442908 0.932498 -1.00465 -0.992011 -0.267504 0.774328 0.0150934 -0.900961 -0.0404221 -0.502866 
0.956844 0.275562 0.253241 0.0681932 -0.956791 -0.313814 -0.590521 -1.03118 -1.25612 -0.399332 
-0.860626 0.72268 -1.0806 -0.712431 0.82821 0.255492 -0.453138 -1.71857 -0.538326 1.39697 
0.596958 0.578854 -0.425243 -1.19745 -0.915348 0.420333 -0.0352849 -0.794374 -0.15973 0.380409 
-0.875819 -1.17085 0.342478 -0.402018 -1.37435 -1.01707 0.271124 -1.7795 -0.92982 -1.74738 
-0.825445 1.22484 0.862414 -1.06904 0.235026 1.09098 -1.12934 0.15867 -0.822823 0.262927 
1.07063 -1.71062 -2.16686 -1.4076 1.21817 1.42868 1.27689 -1.32739 0.74174 0.953685 
-0.798761 -0.507804 0.200484 1.02582 -0.175935 1.66266 -1.47202 0.682235 -2.33083 -0.857502 
-1.47729 -0.432928 0.540656 -0.660097 1.64776 -0.979781 1.01609 -0.937167 -1.02248 -2.35328 
-1.52887 0.909842 0.595381 -1.72737 0.64553 1.1928 0.548065 1.12551 0.215441 -1.80652 
0.0839034 -0.192083 -0.865533 0.610058 0.653947 0.0998854 -0.0439438 0.549474 -0.0637978 0.616792 
0.231722 1.30405 -1.70073 0.983556 -0.454334 -0.625255 0.538838 -0.781509 -0.962567 -1.05833 
0.479102 -1.41293 0.490356 0.300386 -0.389891 0.670764 0.13994 -0.9186 -2.17993 -0.506957 
