40 10
0.69389 0.787451 1.09247 0.905224 -1.6351 -2.27885 0.683738 0.01853 -1.9863 -0.677549 
-0.112141 0.256504 0.96381 0.414348 0.0659343 -0.85321 -0.779359 -2.05859 0.353527 2.32153 
-0.877006 -0.270831 1.08052 -2.2711 -2.13543 1.61112 -0.916853 1.03199 1.17742 -0.0389849 
0.670371 1.0325 0.492689 -1.08686 -1.36999 0.159954 -0.392319 0.280981 -2.06588 0.463343 
-1.15104 1.05275 -2.61036 -0.122755 -0.616826 -2.23852 -1.67199 2.60677 -2.49529 2.2605 
0.596857 0.458394 0.276804 -0.295473 0.00270221 0.732838 0.843283 0.753326 -0.631883 -0.377506 
2.16197 0.538805 1.28336 0.269951 -2.56336 -0.370734 -1.91028 1.02781 1.53251 -0.710642 
-2.57564 0.39349 -0.469176 0.224745 0.58469 -0.667931 -2.1883 0.659679 0.679067 -0.180107 
-1.29576 2.16097 -1.03542 0.565923 -0.244118 0.789926 -1.20402 1.05558 -2.79222 1.76335 
0.175619 -2.20667 -1.96903 1.26846 -1.44247 0.210714 -1.15525 -0.273467 1.24961 1.7251 
-0.604277 1.95413 -1.68534 0.506315 -1.42445 -0.481903 0.882628 -1.8304 0.431321 -1.42622 
-0.389548 -0.197558 -0.751085 -1.41002 1.56947 1.82022 1.05815 -1.06201 -1.53803 -1.35759 
-1.02871 -0.301214 -1.09109 -1.1393 1.15334 -1.1447 0.191018 2.82635 -1.70775 -1.60983 
0.194192 -1.24634 -1.19283 -1.25946 0.53279 -0.929255 -0.616857 -1.10858 -0.556385 0.157561 
-0.277869 0.543823 0.670132 -0.758424 -0.395315 0.503317 0.730581 0.711296 0.866672 -0.919786 
0.534204 0.670533 0.25781 -0.193526 -0.729818 0.724485 0.21446 0.365371 -0.582264 0.0127771 
-0.357081 -1.73395 -0.871939 -0.112788 2.06653 -1.62773 -1.45067 -2.51863 0.885598 0.549704 
-1.39899 0.311228 1.83994 1.04048 0.368272 -0.982102 -0.79914 0.338745 -1.77067 -0.648772 
-1.19971 0.0137249 0.279113 1.52416 -0.670504 -2.54263 -1.71235 0.48902 1.5689 -1.64767 
-1.4113 1.00237 -1.70829 0.486916 -1.02534 -0.211605 1.75029 -2.18115 -0.828713 0.288718 
-1.134 -3.5056 -0.180045 0.722101 -0.897491 -1.28006 1.2129 -0.154127 2.09892 0.300863 
0.18651 0.636029 -0.64281 -2.53296 0.897588 -0.0258327 -0.403452 -0.575684 0.668517 -1.70516 
0.951141 0.05362 -0.0833209 -2.30072 0.609292 -2.49072 -0.756736 0.553075 -1.27468 -0.980218 
1.40194 -1.98297 -1.13629 -0.543701 -0.445835 -0.623487 -1.57859 -0.690857 -1.92318 1.86752 
1.53025 -1.4803 -1.1727 1.0348 0.0395958 1.51962 -1.89904 0.347378 -0.297519 -1.28586 
-0.986692 -1.71499 -0.402891 -0.854512 -0.951557 -0.683717 -2.06303 0.124716 -0.368055 -1.14803 
-1.12234 -1.07956 -0.193521 0.239175 -0.723386 -1.74891 0.3931 -1.83075 -0.326456 -1.47487 
-0.193225 1.2983 -0.967916 -0.919011 -0.21391 0.670773 -0.0394961 -0.895591 -0.0113618 -0.657924 
0.600105 1.02099 0.389417 -0.129762 -1.92937 0.715887 -1.0509 -1.55857 -0.925138 -1.13126 
-0.541749 0.125252 -0.667997 -0.135437 0.613196 -0.0441398 0.285955 -0.20112 -0.45777 0.490742 
0.932365 0.232687 -1.67699 -1.95919 -1.66458 0.112262 0.541784 -1.3313 1.17778 1.95701 
-0.777846 -2.17635 2.27702 -1.41103 -1.82879 0.558151 2.06496 -2.41291 -1.86492 -1.40809 
-1.75147 0.302165 0.576824 -0.84425 0.990181 0.802377 -0.745595 -0.422884 0.881659 0.597584 
1.59215 0.310723 -1.48631 -0.901078 0.735603 0.611598 0.828493 -1.0677 0.236131 -0.114475 
-1.12518 -1.03324 0.503061 2.02749 -0.846796 2.07769 -1.51924 0.259935 -2.21705 -1.71104 
-0.543628 0.864026 1.88823 -1.1521 -0.827021 -1.78085 1.48942 -1.19347 -2.5512 -1.44816 
-2.5391 0.509686 -0.563322 -2.08648 0.0315767 2.05704 0.594891 0.913584 0.610009 -2.65151 
0.106731 -0.936312 -1.84666 0.0708419 1.81652 -0.663829 0.637196 0.30929 -0.748892 -0.0435169 
0.337087 1.40378 -2.14459 1.55864 -0.0588071 -0.858213 0.444351 -1.81257 -0.457943 -1.3533 
1.19836 -2.54242 -0.315843 0.0901033 -0.240412 1.32929 -0.0182683 0.156248 -1.78526 -0.901195 
